tree
version=v4
num_class=3
num_tree_per_iteration=3
label_index=0
max_feature_idx=273
objective=multiclass num_class:3
feature_names=rsi_14 rsi_sma_14 rsi_minus_sma rsi_direction rsi_sma_direction rsi_sma_roc rsi_accel rsi_cross_speed rsi_bb_upper rsi_bb_lower rsi_bb_position rsi_range_pct wt1_5min wt2_5min wt_hist_5min wt_cross_5min wt1_direction wt1_accel wt_hist_direction wt_ob_depth wt_os_depth wt_range_pct stoch_k stoch_d stoch_k_direction stoch_kd_spread stoch_kd_spread_change stoch_range_pct squeeze_momentum squeeze_mom_accel squeeze_mom_direction squeeze_mom_abs squeeze_mom_accel2 squeeze_mom_zero_cross squeeze_mom_percentile squeeze_mom_slope_5bar macd_line_5min macd_signal_5min macd_hist_5min macd_hist_direction macd_hist_accel macd_line_direction di_plus di_minus adx di_plus_roc di_minus_roc di_spread di_spread_roc adx_direction adx_accel adx_range_pct di_convergence ema9_dist_pct ema21_dist_pct ema50_dist_pct atr_14 atr_pct atr_ratio atr_percentile atr_roc bb_width bb_width_percentile kc_width squeeze_state bars_since_squeeze_release realized_vol_5 realized_vol_20 vol_ratio_5_20 high_low_range_pct session_range_pct vfi vfi_signal vfi_hist vfi_direction vfi_hist_direction vfi_cross_zero vfi_range_pct volume_ratio volume_trend buy_volume_pct sell_volume_pct buy_sell_ratio_sma5 cum_delta_5 cum_delta_20 obv_slope vwap_daily vwap_dist_pct vwap_session vwap_session_dist_pct vwap_slope vwap_upper_band vwap_lower_band vwap_band_position pivot_S3 pivot_S2 pivot_S1 pivot_P pivot_R1 pivot_R2 pivot_R3 dist_to_nearest_pivot_pct nearest_pivot_type pivot_zone pivot_approach_dir pivot_approach_speed pivot_times_tested_today session_sydney session_tokyo session_london session_new_york overlap_tokyo_london overlap_london_ny overlap_ny_sydney overlap_sydney_tokyo active_session_count minutes_into_session minutes_to_session_close session_range_vs_avg prev_session_range_pct day_of_week is_monday body_pct upper_wick_pct lower_wick_pct is_bullish consecutive_bull consecutive_bear body_vs_prev_body engulfing pin_bar zscore_20 zscore_50 bb_position rsi_zscore return_5bar return_20bar return_60bar mean_reversion_score regime_trending regime_ranging regime_volatile regime_quiet bars_in_current_regime efficiency_ratio choppiness_index prev_day_range_pct prev_day_close_vs_pivot gap_pct dist_to_prev_day_high_pct dist_to_prev_day_low_pct prev_session_direction prev_session_volume_rank daily_open_dist_pct rsi_5bar_ago wt1_slope_5bar adx_slope_5bar atr_slope_5bar volume_slope_5bar vwap_slope_5bar di_spread_change_5bar squeeze_mom_slope rsi_price_divergence macd_price_divergence wt_price_divergence stoch_price_divergence divergence_count hidden_divergence divergence_freshness cmf_20 cmf_direction mfi_14 mfi_direction ad_line ad_slope_10 mfi_rsi_divergence cmf_vfi_agreement williams_r williams_r_direction cci_20 cci_direction cci_extreme cmo_14 cmo_direction roc_10 tsi swing_high_dist_pct swing_low_dist_pct structure_type bars_since_structure_break swing_range_pct higher_highs_count_20 lower_lows_count_20 swing_ratio retrace_depth range_position hurst_exponent price_entropy autocorrelation_1 autocorrelation_5 skewness_20 kurtosis_20 fractal_dimension variance_ratio parkinson_vol kama_dist_pct dema_dist_pct tema_dist_pct psar_direction psar_dist_pct tenkan_dist_pct kijun_dist_pct tk_cross tk_spread cloud_dist_pct stoch_bars_since_green stoch_bars_since_red stoch_green_count_50 stoch_red_count_50 stoch_last_extreme_depth stoch_bars_in_ob stoch_bars_in_os stoch_recovery_speed wt_bars_since_ob_exit wt_bars_since_os_exit wt_bars_since_bull_cross wt_bars_since_bear_cross wt_ob_count_100 wt_os_count_100 wt_last_ob_depth wt_last_os_depth rsi_bars_since_ob rsi_bars_since_os rsi_bars_since_50_cross rsi_ob_count_100 rsi_os_count_100 rsi_time_above_50_pct macd_bars_since_bull_cross macd_bars_since_bear_cross macd_bars_since_zero_cross macd_hist_max_50 macd_hist_min_50 squeeze_bars_since_fire squeeze_duration_last squeeze_count_200 squeeze_momentum_at_fire squeeze_mom_peak_since_fire adx_bars_since_trend adx_bars_since_weak di_bars_since_cross adx_peak_50 bars_since_new_high_20 bars_since_new_low_20 bars_since_pivot_touch pivot_touch_count_today bars_since_volume_spike wt1_1h wt2_1h wt_cross_1h macd_hist_1h macd_hist_1h_direction adx_1h ema9_1h_dist_pct ema21_1h_dist_pct ema50_1h_dist_pct ema100_1h_dist_pct ema200_1h_dist_pct ema_stack_1h vfi_1h vfi_1h_direction ema20_1d_dist_pct ema50_1d_dist_pct ema200_1d_dist_pct ema_stack_1d
feature_infos=[4.4142680168151855:94.850852966308594] [9.5570383071899414:89.604743957519531] [-38.322418212890625:35.397647857666016] [-36.251068115234375:32.085739135742188] [-4.5713624954223633:4.6948838233947754] [-4.2463808059692383:4.577880859375] [-52.802715301513672:46.750751495361328] [0:33.059886932373047] [18.62171745300293:110.67617797851562] [-9.5432195663452148:82.4481201171875] [-0.3688226044178009:1.3654462099075317] [0:1] [-97.068862915039062:97.52618408203125] [-95.453376770019531:95.656265258789062] [-28.760627746582031:28.546083450317383] [-1:1] [-27.541755676269531:25.319503784179688] [-35.977622985839844:30.965242385864258] [-21.343235015869141:21.074085235595703] [0:37.526187896728516] [0:37.068862915039062] [0:1] [0:100] [0.0007426220690831542:99.996803283691406] [-33.332550048828125:33.333332061767578] [-32.724735260009766:33.327583312988281] [-31.34002685546875:29.708396911621094] [0:1] [-3615.0517578125:4823.546875] [-1638.5172119140625:726.77984619140625] [-1:1] [0.0019607143476605415:4823.546875] [-1137.2723388671875:1082.93994140625] [0:1] [2:100] [-674.5672607421875:653.67230224609375] [-2165.719482421875:1084.70703125] [-1581.4278564453125:1002.513671875] [-1020.6376953125:424.62173461914062] [-597.90716552734375:276.57608032226562] [-444.35427856445312:551.36248779296875] [-841.430419921875:251.83695983886719] [0.97588819265365601:82.749343872070312] [2.1984710693359375:81.733505249023438] [6.1781635284423828:75.425430297851562] [-39.511379241943359:52.364688873291016] [-35.876239776611328:55.419906616210938] [-75.692634582519531:76.770729064941406] [-68.669273376464844:75.502243041992188] [-4.3973045349121094:5.0782985687255859] [-4.8107471466064453:5.0438308715820312] [0:1] [-56.751895904541016:74.402046203613281] [-8.437678337097168:1.8202463388442993] [-10.41910457611084:2.1344151496887207] [-11.976192474365234:2.8469002246856689] [9.445429801940918:2205.770263671875] [0.0087995817884802818:1.9502072334289551] [0.23771083354949951:2.1932163238525391] [1:100] [-30.79638671875:355.19775390625] [0.045124556869268417:12.91199779510498] [1:100] [0.019226456061005592:6.9132614135742188] [-1:1] [0:719] [1.8479653363101534e-06:0.040860958397388458] [8.5863313870504498e-05:0.021597558632493019] [0.011476638726890087:1.9582221508026123] [8.1747557487688027e-06:8.3778772354125977] [0.47219109535217285:16.891002655029297] [-51.724800109863281:48.999946594238281] [-48.8099365234375:45.948307037353516] [-10.804154396057129:9.2273740768432617] [-9.1429843902587891:6.7759852409362793] [-5.3723173141479492:3.9745519161224365] [-1:1] [0:1] [0.074250206351280212:15.044970512390137] [0.14954183995723724:3.5609171390533447] [0:1] [0:1] [0:18443.822265625] [-5085.01123046875:4184.88818359375] [-5964.7666015625:8005.259765625] [-1229.2908935546875:554.8837890625] [83712.296875:124810.40625] [-11.987512588500977:3.7156064510345459] [83712.296875:124810.40625] [-11.987512588500977:3.7156064510345459] [-3.0394637584686279:2.8301942348480225] [84024.8203125:125084.6953125] [82752.0234375:124622.703125] [-14.817416191101074:19.578018188476562] [77510.515625:121531.7578125] [80145.9140625:122721.9296875] [81774.0625:123457.21875] [84409.453125:124647.390625] [85429.75:125837.5625] [85930.0703125:126572.8515625] [86739.9140625:132991.5] [2.878227633118513e-06:13.085362434387207] [0:6] [0:5] [-1:1] [0:10.662873268127441] [0:282] [0:1] [0:1] [0:1] [0:1] [0:1] [0:1] [0:1] [0:1] [1:2] [0:475] [65:540] none none [0:6] [0:1] [0:1] [0:1] [0:1] [0:1] [0:15] [0:18] [0:30439] [-1:1] [-1:1] [-4.2688183784484863:4.2656660079956055] [-6.1767134666442871:6.5208344459533691] [-0.56720459461212158:1.5664165019989014] [-4.5761427879333496:4.7928123474121094] [-9.9048051834106445:6.5725154876708984] [-10.709959983825684:9.3529367446899414] [-12.447732925415039:7.7249436378479004] [-3:3] [0:1] [0:1] [0:1] [0:1] [1:130] [0:1] [-30.069259643554688:95.062507629394531] none none none none none none none none [4.4142680168151855:94.850852966308594] [-15.877508163452148:14.543057441711426] [-3.5670995712280273:3.9960505962371826] [-30.79638671875:355.19775390625] [-93.472328186035156:4925.79833984375] [-3.0394637584686279:2.8301942348480225] [-72.661720275878906:74.402046203613281] [-898.4464111328125:656.81414794921875] [-1:1] [-1:1] none [-1:1] [0:4] [-1:1] [0:301] [-0.69965976476669312:0.80571943521499634] [-0.57031279802322388:0.53832954168319702] [0:99.512687683105469] [-44.704910278320312:50.675350189208984] [91338.3359375:141393.359375] [-617.66925048828125:659.72723388671875] [-47.658550262451172:42.665657043457031] [-1:1] [-100:0] [-99.996978759765625:100] [-641.5438232421875:604.05126953125] [-854.8712158203125:510.72430419921875] [0:541.5438232421875] [-100:100] [-82.057197570800781:74.93511962890625] [-11.182290077209473:8.5966606140136719] [-84.931983947753906:82.250892639160156] [-12.73320198059082:3.5621120929718018] [-8.7172079086303711:9.8178396224975586] [-1:1] [0:66] [-1.751104474067688:13.730503082275391] [2:15] [2:16] [6.6835986217483878e-05:45143] [-29671:8117] [0:1] [0.35013970732688904:0.6951829195022583] [0.55421024560928345:2.2864766120910645] [-0.58789724111557007:0.73460584878921509] [-0.58933287858963013:0.72541946172714233] [-4.1754550933837891:4.360069751739502] [-1.758567214012146:19.302778244018555] [0.84417474269866943:1.3920028209686279] [0.014491423964500427:2.7929654121398926] [5.5937041906872764e-05:0.018528565764427185] [-6.828557014465332:2.4522149562835693] [-8.6110029220581055:1.9777772426605225] [-7.4315123558044434:2.6755025386810303] [-1:1] [-11.84172248840332:9.2700929641723633] [-6.2823214530944824:4.8173384666442871] [-6.2823214530944824:5.0252213478088379] [-1:1] [-1.9365748167037964:4.7561001777648926] [-13.865297317504883:4.5020542144775391] [0:218] [0:231] [0:8] [0:9] [0.00052043946925550699:20] [1:45] [1:34] [0:26] [0:970] [0:959] [0:61] [0:55] [0:8] [0:6] [0.0029590311460196972:37.526187896728516] [0.0018559229793027043:37.068862915039062] [0:1084] [0:790] [0:108] [0:11] [0:10] [0:100] [0:102] [0:113] [0:180] [-9.9459466934204102:424.62173461914062] [-1020.6376953125:13.420256614685059] [0:719] [1:39] [0:13] [-868.7244873046875:746.70233154296875] [0.22822143137454987:4823.546875] [0:223] [0:602] [0:136] [13.201913833618164:75.425430297851562] [0:188] [0:166] [0:514] [0:282] [0:259] [-92.948501586914062:87.342460632324219] [-92.071792602539062:85.882904052734375] [-1:1] [-765.71429443359375:596.532958984375] [-249.650634765625:265.89520263671875] [8.3146018981933594:65.013397216796875] [-3.8141989707946777:2.9549460411071777] [-5.3189435005187988:3.8221962451934814] [-7.9429998397827148:4.7825102806091309] [-10.387311935424805:5.9059100151062012] [-13.967369079589844:7.1486849784851074] [-3:3] [-41.162704467773438:43.512901306152344] [-4.138221263885498:4.5437679290771484] [-14.538352966308594:8.9021387100219727] [-22.55946159362793:13.186323165893555] [-25.681266784667969:19.430305480957031] [-3:3]
tree_sizes=6839 6840 6737 6935 6981 6923

Tree=0
num_leaves=63
num_cat=0
split_feature=67 86 63 250 243 257 229 261 241 230 241 243 199 245 229 250 261 259 120 173 272 264 268 244 266 229 223 191 70 92 264 96 264 231 268 270 270 231 262 70 269 245 245 229 100 272 70 268 256 270 246 92 241 272 269 255 250 70 251 272 259 263
split_gain=412.553 140.058 130.767 120.81 106.308 103.048 99.3527 102.388 84.5645 83.7763 82.1834 78.0393 76.4007 74.0796 73.9875 71.5335 77.4134 70.5415 66.8923 94.7399 94.4284 89.6143 87.0148 123.974 96.1229 71.7768 71.6219 66.5757 83.4495 92.0121 76.5401 63.5252 62.7175 62.2383 61.2249 60.4658 138.071 75.6239 74.9327 72.1811 70.4295 67.697 62.7927 59.7125 60.7054 146.191 114.87 71.9243 69.4372 59.5094 72.069 59.1638 58.9034 58.3318 57.8936 57.5471 57.3575 67.6753 63.854 63.2281 68.237 93.971
threshold=0.00060765640228055428 87435.375000000015 0.14070582389831546 43.886817932128913 3.5000000000000004 -70.382453918457017 23.41532135009766 38.245557785034187 -90.442878723144517 1.1098462343215945 -24.34389495849609 14.500000000000002 -0.025767574086785313 -62.440326690673821 8.7325987815856951 34.272663116455085 15.045149326324465 183.06732177734378 2.5000000000000004 124426.83203125001 -16.468389511108395 -0.63781186938285817 3.7882156372070317 2.5000000000000004 0.95297574996948253 19.476163864135746 697.50000000000011 10.500000000000002 2.1450270414352421 94766.015625000015 -0.07191078737378119 87579.988281250015 1.1513094305992129 104.50000000000001 -27.157954216003414 -3.6997312307357784 -4.2495305538177481 177.50000000000003 -0.70239004492759693 5.9437437057495126 0.26527982950210577 387.04577636718756 172.04947662353518 8.2733960151672381 108875.30468750001 -7.1604359149932852 2.4576779603958134 -20.662992477416989 60.534793853759773 -4.3009765148162833 526.85754394531261 110772.03906250001 -106.42516326904295 16.745244979858402 1.0059232711791994 66.500000000000014 21.164763450622562 1.5160563588142397 44.500000000000007 7.8555059432983407 29.675169944763187 0.08473349362611772
decision_type=2 2 2 2 2 2 2 2 2 2 2 2 2 2 2 2 2 2 2 2 8 2 2 2 2 2 2 2 2 10 2 2 2 2 2 2 2 2 2 2 2 2 2 2 2 8 2 2 2 2 2 8 2 8 2 2 2 2 2 10 2 2
left_child=2 8 9 6 17 -5 15 -8 -2 13 -11 -12 55 -1 43 18 -17 34 19 20 -3 -20 26 -24 -25 32 -21 28 54 30 -30 -16 53 -9 -4 36 37 52 -39 41 -41 42 -37 44 45 47 -47 -7 -48 -46 -51 -27 -18 -23 -22 -10 -6 58 -58 -59 61 -61
right_child=1 3 4 5 56 14 7 33 12 10 11 -13 -14 -15 31 16 35 -19 21 22 27 25 23 24 -26 51 -28 -29 29 -31 -32 -33 -34 -35 -36 39 -38 38 -40 40 -42 -43 -44 -45 49 46 48 -49 -50 50 -52 -53 -54 -55 -56 -57 57 59 -60 60 -62 -63
leaf_value=-0.99573434683489537 -0.98897617539065885 -1.0146091067592631 -0.92871432527477293 -0.9483313653521015 -0.99310738325547476 -0.92747126477245434 -0.92966863830704949 -1.0281300131653981 -0.95885714418351187 -0.94073735865735841 -0.97102802515439168 -0.91162196333404821 -0.93524802649497674 -0.91341140028668111 -0.96954271368269684 -0.9524596896519909 -1.0153447486566405 -0.92189835755095062 -0.97852554598537167 -0.9989670942442721 -0.97334579605511273 -0.99871459380961591 -0.90795921121328549 -0.9385025141409119 -0.99283467345204679 -0.99156098412583649 -0.92930274177162975 -0.98706860096878157 -0.9907074588297734 -0.93080160298217596 -0.94861902310928292 -1.001679168222452 -1.020014221174206 -0.91992224443358095 -0.98298618203102939 -0.9819081746471966 -0.91078813454589846 -0.94266457805998305 -1.0210095846693577 -1.0057571512818932 -0.91124543465696972 -0.9057087647359584 -1.0065973877917673 -0.8969434792726112 -0.95338624017976592 -0.99131078939260076 -0.91982413327186385 -1.0047862960036134 -1.011132877145275 -0.98462226271923803 -1.0125202128207407 -0.94264337233100792 -0.95232827784601493 -0.9661486372909831 -1.028517166127584 -1.0108730270088209 -0.98554147805951553 -0.94712187162919814 -0.92305955847994259 -0.9720169756610354 -0.987585314207025 -0.9213561054448165
leaf_weight=32.358969807624817 232.84389144182205 119.93922504782677 53.110917836427689 129.78760716319084 164.2569445669651 33.062425673007965 171.64323115348816 53.110917836427689 216.31267860531807 379.16271144151688 1021.7696444690228 58.3868368268013 290.87900033593178 171.29150322079659 165.31212836503983 278.56852269172668 42.91080778837204 50.297094374895096 978.85883668065071 1149.7986119687557 268.01668471097946 1598.9551820158958 65.069667547941208 103.05628427863121 385.84554216265678 150.89128312468529 37.986616730690002 357.00385168194771 192.7469071149826 289.47208860516548 245.15436908602715 2155.3887715339661 319.72069081664085 17.586396634578705 2208.4996893703938 3165.5513942241669 98.483821153640747 39.745256394147873 129.78760716319084 27.786506682634354 66.828307211399078 27.786506682634354 280.32716235518456 18.641580432653427 80.897424519062042 116.42194572091103 192.04345124959946 320.77587461471558 23.21404355764389 481.51553985476494 446.6944745182991 104.46319600939751 266.96150091290474 150.18782725930214 57.683380961418152 70.345586538314819 405.54230639338493 760.08406254649162 45.372903317213058 278.56852269172668 270.83050817251205 136.47043788433075
leaf_count=92 662 341 151 369 467 94 488 151 615 1078 2905 166 827 487 470 792 122 143 2783 3269 762 4546 185 293 1097 429 108 1015 548 823 697 6128 909 50 6279 9000 280 113 369 79 190 79 797 53 230 331 546 912 66 1369 1270 297 759 427 164 200 1153 2161 129 792 770 388
internal_value=-0.979661 -0.983815 -0.968502 -0.984881 -0.973043 -0.992157 -0.982186 -0.950527 -0.963557 -0.956567 -0.960768 -0.967806 -0.953301 -0.926518 -0.993569 -0.982884 -0.97797 -0.980401 -0.986192 -0.981123 -0.972047 -0.991211 -0.989098 -0.972741 -0.981366 -0.996556 -0.996731 -0.968421 -0.962094 -0.952676 -0.967154 -0.999387 -0.999643 -1.0011 -0.981707 -0.979683 -0.964682 -0.975775 -1.0026 -0.982114 -0.939053 -0.98329 -0.983919 -0.985683 -0.986667 -0.975191 -0.951341 -0.997535 -0.929704 -0.994467 -0.998055 -0.971562 -0.96108 -0.995915 -0.983114 -0.971646 -0.964786 -0.962331 -0.979254 -0.957057 -0.968077 -0.955337
internal_weight=22252.1 16216.1 6036 15405.7 4373.03 4163.76 11241.9 242.341 810.381 1662.97 1459.32 1080.16 577.537 203.65 4033.97 10999.6 4424.74 2311.91 6574.85 3271.77 1530.02 3303.08 1741.76 553.971 488.902 2324.22 1187.79 1410.08 1053.07 727.373 437.901 2320.7 2068.86 70.6973 2261.61 4146.17 577.889 479.405 169.533 3568.28 94.6148 3473.67 3445.88 1713.27 1694.63 685.518 331.679 353.838 215.257 1009.11 928.21 255.354 309.872 1749.14 325.7 286.658 2061.13 1896.87 450.915 1445.95 685.869 415.039
internal_count=63265 46104 17161 43800 12433 11838 31962 689 2304 4728 4149 3071 1642 579 11469 31273 12580 6573 18693 9302 4350 9391 4952 1575 1390 6608 3377 4009 2994 2068 1245 6598 5882 201 6430 11788 1643 1363 482 10145 269 9876 9797 4871 4818 1949 943 1006 612 2869 2639 726 881 4973 926 815 5860 5393 1282 4111 1950 1180
is_linear=0
shrinkage=1


Tree=1
num_leaves=63
num_cat=0
split_feature=67 86 272 248 248 173 246 243 245 272 97 250 245 271 243 173 99 265 245 93 231 71 272 272 245 265 253 245 92 229 245 255 271 246 256 250 266 250 168 86 245 268 168 9 266 94 173 241 100 65 236 252 268 86 271 86 245 245 198 272 110 250
split_gain=333.279 112.105 126.959 94.9691 110.763 92.6329 81.805 122.423 77.9167 79.1876 103.662 77.3491 98.9268 85.4994 83.3411 81.5602 112.965 81.1022 106.192 82.0411 69.3674 69.0817 68.7744 91.6438 74.3796 80.2949 70.1863 65.5882 71.1697 65.0601 64.99 104.877 66.395 66.1425 62.785 76.8029 101.182 62.4668 60.283 81.3424 83.5716 59.5474 59.4464 57.6542 57.3208 56.0011 55.8155 56.6639 62.0236 69.6923 54.9307 54.4714 57.5987 54.1013 53.7635 72.7391 53.2628 104.691 85.7272 65.0788 52.6925 65.4518
threshold=0.00096102163661271345 118012.80859375001 15.87414598464966 295.50000000000006 235.50000000000003 126057.15625000001 364.02699279785162 6.5000000000000009 -196.62388610839841 -20.104661941528317 88686.523437500015 36.980129241943366 105.32214736938478 -6.7250483036041251 10.500000000000002 129043.66406250001 113672.76171875001 1.366516172885895 -82.849872589111314 2.493332147598267 169.50000000000003 20.608050346374515 -16.045030593872067 -9.4690337181091291 -7.3896429538726798 -0.442851573228836 191.50000000000003 189.61006164550784 110684.95703125001 20.687033653259281 83.416187286376967 75.500000000000014 10.524798393249513 2161.252807617188 31.836878776550297 44.550922393798835 0.20980605483055118 34.272663116455085 39.500000000000007 104853.93359375001 43.432363510131843 -24.579857826232907 81.500000000000014 52.263284683227546 1.5293083190917971 85816.277343750015 116581.12109375001 -49.835424423217766 111779.51953125001 57.500000000000007 45.000000000000007 20.500000000000004 1.5193779468536379 89972.675781250015 -4.6874415874481192 119327.82031250001 155.85846710205081 112.9393653869629 0.13832164555788043 12.368706226348879 1.0000000180025095e-35 40.918579101562507
decision_type=2 2 10 2 2 2 2 2 2 8 2 2 2 2 2 2 2 2 2 10 2 2 8 10 2 2 2 2 10 2 2 2 2 2 2 2 2 2 2 2 2 2 2 2 2 2 2 2 2 2 2 2 2 2 2 2 2 2 2 10 2 2
left_child=1 3 6 4 8 -4 7 -3 -1 -10 34 12 14 -14 17 -13 29 19 -19 21 50 22 -12 24 25 -24 38 -15 -29 -17 -2 32 33 51 43 36 37 -36 -25 44 46 -16 -27 -11 -40 -5 -41 -48 49 -49 -8 52 -32 -43 -33 -56 57 59 -59 -53 61 -18
right_child=30 2 5 45 -6 -7 20 -9 9 10 11 15 13 27 41 16 60 18 -20 -21 -22 -23 23 26 -26 42 -28 28 -30 -31 31 54 -34 -35 35 -37 -38 -39 39 40 -42 53 -44 -45 -46 -47 47 48 -50 -51 -52 56 -54 -55 55 -57 -58 58 -60 -61 -62 -63
leaf_value=-0.97531838872327425 -0.95919247330881607 -0.9172160484760945 -0.93044539115803382 -0.95544807668681697 -0.98818854647999033 -0.88363749756907739 -0.915786211317687 -0.97422460176640091 -0.8898592190963448 -0.97444467070633711 -0.9746649491266911 -0.94345138491245517 -0.91085082958971209 -0.96939123812145322 -0.89983795689926316 -0.97842368174618533 -0.90938678549178875 -0.9190084716463025 -0.95911102188242614 -0.91334168206637401 -0.99276864581232738 -0.9747834009316434 -0.91192733581109897 -0.93287744264515227 -0.90304113130902131 -0.96657318164228534 -0.88246682082048256 -0.96957784812626424 -0.89920660664080987 -0.93832823130340137 -0.95513210384351832 -0.90280043100107632 -0.89968807036257992 -0.86588901585399292 -0.8929256322783532 -0.86660987965505731 -0.98367806026407134 -0.95640458123676697 -0.97861292575443937 -0.98759048349010914 -0.91295471415271368 -0.89364615366987088 -0.88365240798403266 -0.91773934405857371 -0.91642284690638987 -0.88388546573453519 -0.9116126466672041 -0.90449734291023798 -0.96479220497257034 -0.96624983607359649 -0.96539314648572816 -0.98198483457099439 -0.97769479262148939 -0.96289848944858591 -0.95816299031912566 -0.86536540137657314 -0.95676640222220621 -0.90528661255235587 -0.98504463843584567 -0.90620058314625274 -0.96762017656832588 -0.94759568308162956
leaf_weight=212.8284432888031 6194.8024814128876 450.56991505622864 216.7433477640152 37.725443124771118 152.68127453327179 207.13403677940369 96.449010252952576 118.87073588371277 65.129774451255798 582.25306558609009 104.9906200170517 2241.8166626691818 90.754603743553162 607.52199447154999 44.843451261520386 639.19713068008423 154.81667697429657 214.60794532299042 713.93621611595154 449.50221383571625 109.97322571277618 110.68502652645111 208.913538813591 1814.3802740573883 391.84634792804718 174.39119935035706 56.588164687156677 66.909276485443115 77.230388283729553 119.93843710422516 868.75289309024811 161.57878470420837 55.87636387348175 20.642223596572876 80.07759153842926 29.895634174346924 127.76824605464935 74.73908543586731 259.4513965845108 80.07759153842926 219.5905510187149 29.53973376750946 24.557128071784973 48.40245532989502 43.063949227333069 97.872611880302429 114.95583140850067 117.80303466320038 300.02404296398163 74.383185029029846 132.03905093669891 131.68315052986145 419.96248006820679 572.99965500831604 135.24215459823608 24.913028478622437 623.18161237239838 249.84208559989929 38.793144345283508 35.945941090583801 187.91541481018066 406.43826460838318
leaf_count=598 17406 1266 609 106 429 582 271 334 183 1636 295 6299 255 1707 126 1796 435 603 2006 1263 309 311 587 5098 1101 490 159 188 217 337 2441 454 157 58 225 84 359 210 729 225 617 83 69 136 121 275 323 331 843 209 371 370 1180 1610 380 70 1751 702 109 101 528 1142
internal_value=-0.948866 -0.943919 -0.930143 -0.945421 -0.945888 -0.90755 -0.940701 -0.929128 -0.945346 -0.944802 -0.945109 -0.94371 -0.940592 -0.956653 -0.938381 -0.949498 -0.958489 -0.936375 -0.949835 -0.933624 -0.960157 -0.935852 -0.934768 -0.933687 -0.918603 -0.933573 -0.937606 -0.962194 -0.931899 -0.972082 -0.956347 -0.949973 -0.953507 -0.95477 -0.960999 -0.942685 -0.950742 -0.923588 -0.938641 -0.947293 -0.9398 -0.95534 -0.956285 -0.97008 -0.969736 -0.903822 -0.948389 -0.943205 -0.950579 -0.92842 -0.94447 -0.95555 -0.96249 -0.959486 -0.923144 -0.943716 -0.947269 -0.934286 -0.916032 -0.965688 -0.94472 -0.937042
internal_weight=22516 13554.8 1331.78 12223 12087.4 423.877 907.902 569.441 11934.8 11721.9 11656.8 10713.7 6963.55 842.416 6121.13 3750.12 1508.31 5473.75 928.544 4545.2 338.461 4095.7 3985.02 3880.03 799.708 407.862 3080.32 751.662 144.14 759.136 8961.22 2766.41 2444.68 2388.8 943.136 312.481 282.585 154.817 3023.73 1209.35 906.834 647.383 198.948 630.656 302.515 135.598 687.244 607.166 492.21 192.186 228.488 2368.16 1288.72 602.539 321.734 160.155 1079.45 456.264 288.635 167.629 749.17 561.255
internal_count=63265 38086 3742 34344 33963 1191 2551 1600 33534 32936 32753 30103 19566 2367 17199 10537 4238 15380 2609 12771 951 11508 11197 10902 2247 1146 8655 2112 405 2133 25179 7773 6869 6712 2650 878 794 435 8496 3398 2548 1819 559 1772 850 381 1931 1706 1383 540 642 6654 3621 1693 904 450 3033 1282 811 471 2105 1577
is_linear=0
shrinkage=1


Tree=2
num_leaves=63
num_cat=0
split_feature=63 70 241 112 67 67 70 229 262 70 248 67 249 70 173 230 70 233 70 56 263 91 173 241 256 241 230 204 70 264 43 247 70 224 262 70 264 271 95 223 44 106 201 262 197 229 272 247 270 259 185 91 224 137 99 159 241 120 273 256 120 56
split_gain=1379.26 581.566 238.483 237.972 268.083 226.031 236.426 149.555 141.045 137.545 101.503 93.8092 93.6894 122.52 91.0583 90.0579 85.3261 82.8531 81.7895 85.5696 74.0386 72.4984 67.607 67.2004 66.9273 66.5426 66.3871 65.5727 151.796 70.8689 76.7168 65.0013 64.1942 63.6675 63.2549 62.6269 62.5829 60.9505 70.9647 60.6409 63.1992 60.031 58.8096 56.0704 55.2926 54.5274 54.4769 54.3986 53.9144 58.4951 71.9159 88.1706 52.1691 51.7608 51.7422 49.5422 48.3095 48.0875 47.9387 47.9233 47.8924 63.3205
threshold=0.32165984809398657 2.5356380939483647 -78.571746826171861 1.0000000180025095e-35 0.0011491614859551193 0.00057970974012278031 1.1511101722717287 9.651125907897951 0.16881637275218966 2.713131427764893 235.50000000000003 0.0012363491114228966 28.500000000000004 2.012237668037415 92726.898437500015 11.330261230468752 2.5870321989059453 49.500000000000007 1.4490299820899966 169.91438293457034 -2.2660958766937251 109529.56250000001 92831.304687500015 -23.861413002014157 -62.548381805419915 -79.574905395507798 0.78555697202682506 0.00029466520936694002 1.086417078971863 -0.17331165820360181 28.445791244506839 70.500000000000014 4.3909065723419198 699.50000000000011 -0.37356698513031 1.5727324485778811 0.021439013071358207 -5.6184470653533927 108275.46484375001 551.50000000000011 17.738676071166996 121.50000000000001 1.4277732372283938 0.91840410232543956 1.7263455390930178 7.2420308589935312 17.507653236389164 24.500000000000004 -3.6997312307357784 -242.53121185302732 9.9463877677917498 95365.960937500015 515.50000000000011 -0.47912089526653284 104999.98828125001 0.029138369485735897 -42.05830001831054 2.5000000000000004 2.0000000000000004 65.857555389404311 3.5000000000000004 77.762798309326186
decision_type=2 2 2 2 2 2 2 2 2 2 2 2 2 2 2 2 2 2 2 2 2 10 2 2 2 2 2 2 2 2 2 2 2 2 2 2 2 2 2 2 2 2 2 2 2 2 8 2 2 2 2 10 2 2 2 2 2 2 10 2 2 2
left_child=5 2 12 4 14 27 23 9 18 36 17 31 13 47 15 -3 25 32 56 55 -19 -5 -9 42 -21 35 -15 -1 29 30 -29 33 34 44 37 -8 45 -11 -39 41 -41 -16 -7 -23 57 -6 -13 -2 49 -24 -51 -52 -50 -28 -12 -20 -4 -10 -49 -55 -30 -62
right_child=1 3 8 21 7 6 16 22 11 10 54 46 -14 26 39 -17 -18 20 19 24 -22 43 48 -25 -26 -27 53 28 60 -31 -32 -33 -34 -35 -36 -37 -38 38 -40 40 -42 -43 -44 -45 -46 -47 -48 58 52 50 51 -53 -54 59 -56 -57 -58 -59 -60 -61 61 -63
leaf_value=-1.4735180021076479 -1.347026806253653 -1.4348157816135472 -1.3620773897669336 -1.4674511586707812 -1.3476703410603086 -1.367660434932702 -1.3140137354223049 -1.3417560200530096 -1.3521358975158932 -1.3601992162482304 -1.4401383617831509 -1.3567079450523407 -1.3426546361491927 -1.3422209033077817 -1.4460190636628674 -1.3557917763937484 -1.4591422426991931 -1.4695216186198237 -1.4377161957460303 -1.3313211744377138 -1.3718779834379693 -1.4439016428042175 -1.3544677238446474 -1.4478888873320421 -1.4129893532166713 -1.4442245951690769 -1.3916463693473127 -1.3936977363522685 -1.4708611275305348 -1.4515007298403697 -1.4494906338597797 -1.3542172917658533 -1.4506292489376309 -1.3293628226080407 -1.4404900501849227 -1.4200671109146721 -1.4320235069397123 -1.4549275556050378 -1.3928113479234419 -1.3153043068506642 -1.4302746054469986 -1.3530398769426819 -1.4253460874699098 -1.3570883825950053 -1.4211319995650729 -1.4529370918456059 -1.4497223116115814 -1.3625068479880451 -1.3996630034947748 -1.4533145081680738 -1.3801943823444067 -1.4653321591535651 -1.4625088172834948 -1.4410724361600031 -1.3736471284437037 -1.386309351339962 -1.427180618177277 -1.4290772052522169 -1.4611861439081031 -1.3570067477426795 -1.4639054364133997 -1.4407677100010032
leaf_weight=945.57559829950333 166.19536650180817 93.688564449548721 79.295828461647034 603.13710620999336 90.158270716667175 141.48331037163734 16.293663382530212 38.833231061697006 58.928749233484268 51.325039654970169 41.005719512701035 155.87604635953903 125.73276910185814 33.945132046937943 2369.6417779326439 58.657188177108765 1149.5179516375065 25.255178242921829 972.46014288067818 27.156105637550354 82.283000081777573 346.51190793514252 26.612983524799347 54.855333387851715 325.05858448147774 1832.2224473655224 130.89242917299271 157.23385164141655 1202.2007965743542 291.3850134909153 101.02071297168732 53.225967049598694 731.85704693198204 22.539567679166794 436.67017865180969 93.960125505924225 46.165379583835602 86.084854871034622 98.305102407932281 17.923029720783234 35.846059441566467 17.379907608032227 64.631531417369843 19.552396059036255 519.76786190271378 14.121174931526182 17.379907608032227 27.156105637550354 835.8649315237999 172.71283185482025 101.83539614081383 43.178207963705063 34.216693103313446 168.6394160091877 100.74915191531181 49.152551203966141 44.807574301958084 31.229521483182907 22.26800662279129 18.737712889909744 1047.1394333839417 412.77280569076538
leaf_count=3482 612 345 292 2221 332 521 60 143 217 189 151 574 463 125 8726 216 4233 93 3581 100 303 1276 98 202 1197 6747 482 579 4427 1073 372 196 2695 83 1608 346 170 317 362 66 132 64 238 72 1914 52 64 100 3078 636 375 159 126 621 371 181 165 115 82 69 3856 1520
internal_value=-1.43807 -1.42559 -1.40752 -1.43391 -1.42998 -1.45415 -1.44449 -1.41995 -1.41511 -1.42918 -1.43335 -1.39896 -1.38175 -1.39043 -1.44181 -1.40432 -1.44834 -1.43714 -1.42438 -1.4279 -1.39486 -1.4568 -1.40668 -1.3988 -1.40665 -1.44195 -1.40864 -1.46194 -1.45852 -1.43461 -1.41554 -1.40728 -1.44038 -1.41177 -1.42923 -1.40425 -1.38342 -1.40836 -1.42183 -1.44415 -1.3917 -1.44534 -1.38571 -1.43923 -1.41484 -1.36197 -1.36607 -1.36074 -1.40877 -1.42555 -1.43154 -1.40558 -1.40214 -1.41576 -1.3929 -1.43523 -1.38552 -1.37869 -1.40702 -1.43265 -1.46346 -1.45737
internal_weight=17180.3 9670.02 3050.45 6619.57 5650.37 7510.29 3352.96 3057.23 2356.88 1803.98 1653.54 858.948 693.567 567.834 2593.14 152.346 3091.99 1511.78 1497.93 1373.83 107.538 969.201 1253.25 260.97 352.215 1942.48 352.215 4157.33 3211.75 549.64 258.255 685.692 1404.24 632.466 672.385 110.254 150.445 235.715 184.39 2440.79 53.7691 2387.02 206.115 366.064 609.926 104.279 173.256 215.619 1214.42 344.339 317.726 145.014 870.082 318.27 141.755 1021.61 124.103 90.1583 49.4241 187.377 2662.11 1459.91
internal_count=63265 35609 11233 24376 20807 27656 12347 11258 8679 6643 6089 3163 2554 2091 9549 561 11386 5567 5516 5059 396 3569 4615 961 1297 7153 1297 15309 11827 2024 951 2525 5171 2329 2476 406 554 868 679 8988 198 8790 759 1348 2246 384 638 794 4472 1268 1170 534 3204 1172 522 3762 457 332 182 690 9803 5376
is_linear=0
shrinkage=1


Tree=3
num_leaves=63
num_cat=0
split_feature=56 204 86 243 250 266 241 270 250 70 259 261 227 261 92 70 70 220 250 245 261 103 168 231 259 272 270 261 272 173 232 70 232 196 223 259 216 95 248 223 249 263 246 95 242 43 255 173 250 271 70 262 240 259 265 240 106 231 223 270 271 266
split_gain=376.451 120.682 160.502 122.835 103.689 102.329 90.5792 88.7502 88.5652 97.8348 103.385 85.6021 84.0748 82.0605 93.8553 83.6521 80.1893 75.3291 75.3059 95.8395 74.745 74.1593 84.0427 73.5264 71.7962 71.758 73.9628 68.6146 72.5886 68.048 67.7523 67.2028 88.1837 69.953 67.032 65.7311 65.4805 70.0856 64.6558 63.7531 62.8904 59.6049 59.1386 57.814 57.0157 56.9019 57.9583 55.7301 55.1305 85.9372 101.783 133.957 98.4417 91.8725 73.4031 67.0005 71.7128 65.1051 75.303 95.6938 72.1386 71.2475
threshold=63.864524841308601 0.00072725722566246997 87435.375000000015 3.5000000000000004 44.329120635986335 -0.60475146770477284 -90.442878723144517 -4.2252397537231436 21.413889884948734 1.9381344914436343 149.27234649658206 29.406317710876468 3.5000000000000004 20.975359916687015 111364.87890625001 4.116570472717286 5.7896103858947763 13.500000000000002 49.006420135498054 13.75979804992676 30.650381088256839 1.0000000180025095e-35 88.500000000000014 147.50000000000003 -4.0328323841094962 13.356430053710939 1.8918879032135012 24.439682006835941 17.447842597961429 134297.15625000003 387.50000000000006 0.58031579852104198 152.50000000000003 0.51636704802513134 323.50000000000006 95.760726928710952 31.500000000000004 117000.00390625001 27.500000000000004 249.50000000000003 41.500000000000007 1.2464138865470888 396.45498657226568 83776.417968750015 87.500000000000014 18.19729042053223 89.500000000000014 110670.10546875001 35.611904144287116 0.51496472954750072 3.5026605129241948 0.20930298417806628 65.067012786865249 -96.54265975952147 -3.2829691171646114 46.488763809204109 32.500000000000007 203.50000000000003 79.500000000000014 -3.35334300994873 5.293168544769288 -0.26716394722461695
decision_type=2 2 2 2 2 2 2 2 2 2 2 2 2 2 8 2 2 2 2 2 2 2 2 2 2 10 2 2 8 2 2 2 2 2 2 2 2 2 2 2 2 2 2 2 2 2 2 2 2 2 2 2 2 2 2 2 2 2 2 2 2 2
left_child=5 3 6 12 48 23 47 18 30 21 13 41 16 14 -11 -15 17 40 -6 -20 -19 -10 36 35 27 26 31 28 -7 38 -5 -26 -33 -34 -17 -1 39 -38 -16 -23 -2 43 -24 -8 -29 -13 -47 -3 49 54 51 55 -52 -54 -4 56 -51 58 61 -60 -61 -50
right_child=1 2 4 8 7 24 11 -9 9 10 -12 45 -14 15 29 34 -18 20 19 -21 -22 22 42 -25 25 -27 -28 44 -30 -31 -32 32 33 -35 -36 -37 37 -39 -40 -41 -42 -43 -44 -45 -46 46 -48 -49 57 50 52 -53 53 -55 -56 -57 -58 -59 59 60 -62 -63
leaf_value=-0.02035911330851263 -0.0091376987935109528 0.012396447659104921 0.01028893603419322 -0.023758655156872175 -0.016373784368975169 0.04619687187313018 0.08131702256497661 -0.017762470332731407 0.06857134570943843 0.053128758623993924 -0.016193413152976191 -0.027263511314804947 0.057225373943692939 0.019929884636194974 0.037233352348213809 -0.031568078929219284 0.042312211002229413 0.0023705741799370651 0.048571159355420702 -0.012914582032540319 0.068594288159980643 -0.022572178663778197 0.044886390159014453 0.025336807322620065 -0.018946080039772627 0.046738851169856294 -0.016236622763086111 0.030490219637694261 -0.030152957088496593 0.057534493193904412 0.053141705525590027 0.036233836455248879 -0.016951974382989378 0.032384374707719675 0.070799446304961336 0.036467242629535233 0.0039132170290052557 0.079178007824644181 -0.022615462644164523 0.014698518116680444 0.019317981443162435 -0.01516749921979892 -0.028271850876995238 0.03481405591986405 -0.017910128227862154 0.048476727569729407 -0.03619311401159369 -0.036906850707682584 -0.02244667826899668 4.5943606996848052e-05 -0.0052260548866166455 -0.024489991493194748 -0.027845560239381402 0.059929150307739036 -0.016167621729249827 -0.0047382537254310473 0.037180062518488995 -0.013131599590017591 0.043498490803215793 -0.0023173924533837391 0.02792179173030776 0.0038006682684789297
leaf_weight=360.68834415078163 3214.1083582043648 130.76026609539986 294.17912098765373 282.62020334601402 215.12717524170876 599.91165211796761 104.34695267677307 2836.4301237165928 39.168736755847931 372.38718983530998 190.08087328076363 89.545122414827347 55.786858439445496 978.25676044821739 70.714911252260208 136.81824454665184 88.938350141048431 125.51763081550598 155.44701185822487 106.72190782427788 64.541554063558578 572.44075617194176 142.07344862818718 187.11480551958084 114.7397235929966 153.5852538049221 212.23030531406403 154.77217867970467 32.687974452972412 66.810512781143188 31.743023782968521 448.0411514043808 192.54787260293961 114.46503621339798 17.987343847751617 59.09812918305397 290.62426233291626 34.542371869087219 124.28453850746155 143.24972319602966 206.45987141132355 37.777240037918091 34.124244332313538 188.31082504987717 100.00485253334045 78.975470066070557 27.001835465431213 101.77689954638481 350.45467326045036 270.45422393083572 170.0144367814064 601.35990571975708 35.515486836433411 181.63719454407692 2389.1838992834091 870.42606475949287 250.75918143987656 621.20104047656059 226.46359848976135 626.80224874615669 287.50289908051491 984.34188336133957
leaf_count=1024 9150 372 836 806 612 1691 294 8107 111 1053 541 254 158 2771 200 390 252 357 439 304 183 1629 403 530 326 433 601 438 93 189 90 1266 546 323 51 167 825 98 354 406 586 107 97 531 284 223 77 290 996 771 483 1718 101 513 6814 2480 712 1770 639 1784 817 2799
internal_value=-6.32804e-06 -0.00243924 -0.00547327 0.00265585 -0.00694617 0.017384 0.0167992 -0.0144055 0.00935546 0.0118342 0.0188232 0.0282888 -0.00363678 0.022593 0.0369986 0.014523 -0.00455741 -0.00571445 0.00553305 0.0235275 0.0249098 0.000939963 -0.00123798 -0.000713529 0.0225597 0.0147583 0.0102104 0.0334141 0.0422396 0.0140251 -0.0159633 0.0166704 0.0220912 0.0014306 -0.0196034 -0.0123403 -0.00664858 0.0119458 -0.000878205 -0.0151042 -0.00741818 0.0438022 0.0306815 0.0514339 0.011473 0.00203647 0.0268429 -0.00916772 -0.00391634 -0.00713041 -0.000211966 -0.00477153 0.0232413 0.0455443 -0.013265 0.00374683 0.0179247 0.00133743 0.0049706 0.0144037 0.00718785 -0.00308807
internal_weight=22245.7 19515.8 12232.5 7283.28 11474 2729.89 758.495 3313.73 3527.93 3213.56 1957.34 525.957 3755.35 1767.26 634.197 1133.06 3699.57 3610.63 477.296 262.169 190.059 1256.22 1217.05 606.901 2122.99 1235.61 1082.02 887.377 632.6 261.81 314.363 869.794 755.054 307.013 154.806 419.786 1040.86 325.167 194.999 715.69 3420.57 330.435 176.198 292.658 254.777 195.522 105.977 232.537 8160.3 5063.53 2380.17 1993 387.167 217.153 2683.36 1391.64 521.213 3096.77 2475.57 1140.77 914.305 1334.8
internal_count=63265 55543 34843 20700 32695 7722 2148 9462 10014 9118 5549 1486 10686 5008 1796 3212 10528 10276 1355 743 540 3569 3458 1721 6001 3495 3062 2506 1784 743 896 2461 2135 869 441 1191 2958 923 554 2035 9736 932 500 825 722 554 300 662 23233 14428 6778 5681 1097 614 7650 3963 1483 8805 7035 3240 2601 3795
is_linear=0
shrinkage=0.05


Tree=4
num_leaves=63
num_cat=0
split_feature=67 70 70 87 86 272 240 248 248 70 254 271 196 259 257 270 230 255 259 270 90 272 230 70 87 86 272 272 229 67 263 120 120 57 230 268 269 224 230 268 241 243 272 241 70 93 270 243 241 230 196 44 259 261 215 218 92 86 86 241 246 256
split_gain=302.311 202.317 122.52 108.082 102.612 115.801 90.2254 86.9891 103.639 86.5978 84.6274 89.5222 92.7628 104.304 86.5409 83.2091 84.9318 88.4641 82.5354 82.042 80.7665 77.9084 81.3644 104.09 105.72 102.134 88.5857 104.819 103.463 98.0081 84.1039 85.121 83.3012 83.1914 77.3231 77.2818 75.4667 85.4636 74.1302 73.3695 84.6573 72.2864 71.4354 70.4155 70.1975 76.1256 69.779 72.8258 70.3743 77.5617 69.1564 68.3345 68.1115 67.6305 67.5665 66.1939 69.4116 66.0751 65.9022 65.5659 64.6623 63.3585
threshold=0.00096102163661271345 2.5356380939483647 7.7749173641204843 -1.7518720626831052 118012.80859375001 15.87414598464966 70.535663604736342 295.50000000000006 235.50000000000003 4.4363276958465585 90.500000000000014 -0.87185090780258168 0.48394496738910681 3.5794641971588139 41.855257034301765 0.65778955817222606 8.6618485450744647 87.500000000000014 111.80481719970705 3.0970356464385991 -0.0025798211572691794 16.166692733764652 12.277659416198732 1.8125253319740298 -0.057196207344532006 117054.43359375001 12.080840587615969 11.29304361343384 19.606244087219242 0.00063601479632779967 -0.93119773268699635 5.5000000000000009 2.5000000000000004 0.082162182778120055 20.039875030517582 -5.7526237964630118 0.61596491932868969 254.50000000000003 1.6689246296882632 -10.617944717407225 -148.35826110839841 4.5000000000000009 12.928910255432131 -65.807754516601548 3.6957325935363774 4.1268327236175546 -1.7692322134971616 4.5000000000000009 -46.836828231811516 10.367084980010988 0.58563950657844555 44.829431533813484 38.78332710266114 46.269260406494148 77.500000000000014 2.5000000000000004 87892.382812500015 86923.464843750015 89455.304687500015 -140.01289367675778 338.61009216308599 35.243864059448249
decision_type=2 2 2 2 2 10 2 2 2 2 2 2 2 2 2 2 2 2 2 2 2 10 2 2 2 2 10 8 2 2 2 2 2 2 2 2 2 2 2 2 2 2 8 2 2 10 2 2 2 2 2 2 2 2 2 2 10 2 2 2 2 2
left_child=4 20 3 -3 7 18 50 8 9 10 11 12 13 61 38 16 -11 58 35 -17 -2 22 23 24 -13 42 27 30 29 -28 -25 32 36 -24 57 -6 37 -32 54 40 -36 60 -26 -34 45 -29 47 48 -14 -50 55 -22 -21 -4 -12 56 -5 -8 -18 -41 -37 -1
right_child=1 2 53 6 5 -7 34 -9 -10 15 14 21 46 -15 -16 19 17 -19 -20 52 51 -23 33 26 25 -27 28 44 -30 -31 31 -33 43 -35 39 41 -38 -39 -40 59 -42 -43 -44 -45 -46 -47 -48 -49 49 -51 -52 -53 -54 -55 -56 -57 -58 -59 -60 -61 -62 -63
leaf_value=-0.018941839508096373 -0.029223285727055973 -0.033422907505802152 0.054126881854896905 -0.023628022400639298 0.056034020935289024 0.039344853557397003 -0.045255437712331995 0.042919544048365121 -0.03825519322531766 0.048829563576077477 -0.022864125583752327 -0.016739565903705084 -0.0096912449124209165 0.017686078088501415 0.046313497195869309 -0.041388428933698547 -0.041460698791388792 0.074230585925490561 0.043665138842268574 0.043165117768223314 -0.013693273561699547 -0.017262466801285337 0.0099820994130215158 -0.041730667095457481 0.0082562311270338359 -0.031557587340309903 0.059689569419816194 -0.023113338539335698 -0.028304573218366599 0.020216284401944274 -0.0029633306577657539 -0.026410115511429185 -0.014498338115368038 -0.012976679728636285 0.058104114624298576 0.025522071977252009 0.037836752007363049 0.058041026258753764 0.017490384354402387 -0.0019553032802225429 -0.031467085999810622 -0.021994216216127866 0.042342400276344179 0.055629147241622545 0.052016468685802779 0.048397569393114348 -0.018188732427286372 -0.016718659104777694 0.042478770185517919 -0.0013651382448382377 0.028934554434223055 0.036297971536337792 -0.023269315114424663 -0.009322464798480706 0.04702440377481789 0.018819880608205625 0.002178261422737398 -0.0085079847155482245 0.014576835730064484 0.057993411786569804 -0.015093038123544117 0.041046833308574442
leaf_weight=412.77790477871895 1130.6769057512283 292.70552358031273 144.18578121066093 315.05073302984238 59.793395429849625 428.19841766357422 127.47947657108307 137.0415917634964 151.16346627473831 281.33096319437027 240.03364571928978 597.96925729513168 304.83452349901199 745.79783242940903 184.17957338690758 97.405992716550827 69.633592545986176 47.763597697019577 136.31596711277962 96.857553243637085 1195.9488726258278 386.741336196661 670.60726231336594 56.503791779279709 737.17622503638268 132.23376619815826 278.29487580060959 382.44897025823593 66.016141980886459 363.01882827281952 454.15336498618126 88.692504197359085 41.095441311597824 957.8691286444664 33.968305468559265 261.24287381768227 257.76401379704475 65.601443260908127 722.3116317987442 73.13106706738472 116.54305240511894 296.11071574687958 194.33791226148605 270.08024257421494 41.336079299449921 41.093864232301712 1407.1488800644875 483.28881055116653 216.83069950342178 188.13043746352196 266.42472743988037 72.358685523271561 63.892130881547928 59.028451234102249 40.269919663667679 466.40398639440536 1503.2553272545338 3020.1313343346119 211.75100350379944 120.37776467204094 156.54759061336517 49.129631876945496
leaf_count=1161 3193 825 404 888 167 1191 360 381 429 785 675 1678 856 2091 515 274 197 133 381 271 3374 1087 1881 159 2067 372 778 1075 186 1017 1275 250 115 2694 95 728 721 184 2028 205 328 835 545 754 115 115 3961 1360 607 528 749 204 179 166 113 1311 4232 8507 594 338 440 138
internal_value=5.53392e-05 -0.00708487 -0.00252726 -0.003754 0.00475754 0.0179031 -0.00231551 0.00331915 0.00286979 0.0033909 0.00219824 0.000683853 -0.00532763 0.00612024 0.0148141 0.0185932 0.0286564 0.0113891 0.00780509 -0.00518668 -0.0195044 0.00444785 0.00592299 0.00970421 7.67453e-05 0.00953516 0.0163508 0.0101547 0.0312212 0.0373599 0.0177793 0.0206428 0.0244827 -0.00351914 -0.00753836 0.00147567 0.0157198 0.00473647 0.0090187 0.0149594 -0.0111938 -0.00309411 0.0153766 0.04635 -0.0100713 -0.0161535 -0.0106467 -0.00174644 0.00844179 0.0221028 0.00483085 -0.0108346 0.0167307 0.0356764 -0.0127925 0.00201674 -0.0022914 -0.00999925 0.000681791 0.0353224 0.0102915 -0.012543
internal_weight=22510.5 8937.67 6538.69 6335.47 13572.8 1338.21 6042.77 12234.6 12097.6 11946.4 11077.8 9890.97 3807.94 1207.71 1186.79 868.635 610.479 329.148 910.011 258.156 2398.98 6083.03 5696.29 4067.82 1661.72 1063.75 2406.1 1698.77 707.33 641.314 1233.89 1177.39 1088.69 1628.48 3491.63 773.695 777.519 519.755 1002.62 344.02 150.511 713.901 931.514 311.176 464.879 423.543 2600.23 1193.08 709.796 404.961 2551.13 1268.31 160.75 203.214 280.304 2284.71 1818.31 3147.61 281.385 193.509 417.79 461.908
internal_count=63265 25179 18408 17838 38086 3742 17013 34344 33963 33534 31101 27770 10702 3390 3331 2433 1709 924 2551 724 6771 17068 15981 11406 4662 2984 6744 4763 1981 1795 3458 3299 3049 4575 9833 2170 2180 1459 2816 966 423 2003 2612 869 1305 1190 7312 3351 1991 1135 7180 3578 450 570 788 6431 5120 8867 791 543 1168 1299
is_linear=0
shrinkage=0.05


Tree=5
num_leaves=63
num_cat=0
split_feature=67 109 116 116 108 250 229 120 224 57 120 56 120 268 192 241 250 261 173 241 246 100 268 88 59 67 261 268 96 95 268 272 265 222 236 240 213 257 120 88 256 260 199 262 109 98 272 120 261 244 173 245 246 245 196 94 250 71 229 272 94 257
split_gain=1247.63 486.53 291.27 132.795 129.714 107.147 135.11 100.502 87.0477 86.8174 129.018 85.6627 83.2267 84.3021 80.1962 78.2962 74.4212 64.6144 63.6658 82.4416 97.5749 76.2227 89.1826 69.4415 70.4011 62.4883 62.081 66.3818 62.0285 74.4974 67.4944 61.9578 63.1129 61.6131 71.0269 69.9466 59.5677 70.7602 59.0621 57.3336 56.5536 62.4534 56.3471 56.217 55.4843 67.9637 54.3286 60.8414 54.2994 54.2354 53.6537 53.3773 66.389 65.5491 65.2923 63.4909 56.5402 77.1792 70.3579 53.507 82.1917 53.1935
threshold=0.00063601479632779967 1.0000000180025095e-35 207.50000000000003 77.500000000000014 1.0000000180025095e-35 43.285135269165046 3.8275352716445927 4.5000000000000009 678.50000000000011 0.04270352981984616 4.5000000000000009 81.154052734375014 5.5000000000000009 -19.927735328674313 10.500000000000002 -56.691459655761712 44.003780364990241 41.022481918334968 101408.80468750001 -73.45098495483397 816.82025146484386 96058.636718750015 23.651489257812504 94440.242187500015 11.500000000000002 0.0010922244982793929 40.359819412231452 -18.689396858215328 102430.19921875001 101212.41406250001 -25.160782814025875 17.935150146484379 -3.2829691171646114 5.5000000000000009 41.000000000000007 33.28517150878907 -0.23090437054634091 27.049368858337406 4.5000000000000009 87510.332031250015 -53.023477554321282 5.2286300659179696 0.040860092267394073 0.3712137639522553 1.0000000180025095e-35 88471.027343750015 -16.913771629333493 4.5000000000000009 38.881631851196296 3.5000000000000004 135796.53906250003 72.774467468261733 987.45056152343761 138.3587341308594 0.54697886109352123 85719.632812500015 54.400293350219734 9.8044757843017596 5.7383065223693857 -6.953716278076171 113105.95703125001 -39.309097290039055
decision_type=2 2 2 2 2 2 2 2 2 2 2 2 2 2 2 2 2 2 2 2 2 2 2 2 2 2 2 2 2 2 2 8 2 2 2 2 2 2 2 2 2 2 2 2 2 2 10 2 2 2 2 2 2 2 2 2 2 2 2 10 2 2
left_child=9 5 3 4 -3 8 16 -4 14 -1 44 39 13 40 18 -9 -7 46 19 20 49 -21 -23 -20 26 -6 -25 -28 29 42 -30 32 61 34 35 -34 37 -5 43 -12 41 -8 -26 -38 45 -11 -15 51 -27 -2 -36 52 55 -53 -54 -48 57 58 -57 -55 -61 -16
right_child=1 2 7 36 25 6 12 15 -10 10 11 -13 -14 17 31 -17 -18 -19 23 21 -22 22 -24 24 28 48 27 -29 30 -31 -32 -33 33 -35 50 -37 38 -39 -40 -41 -42 -43 -44 -45 -46 -47 47 -49 -50 -51 -52 53 54 59 -56 56 -58 -59 -60 60 -62 -63
leaf_value=-0.034765890430143956 -0.00555104011766304 -0.024176742142830526 -0.035198990790986699 0.016639294127503867 -0.0020213385313406587 0.084552191002088592 0.068086444723108014 0.064532074187792873 0.07130153925645355 0.055612327914322413 0.085319424624619736 0.010638034538998687 0.0008359329444547032 0.00067371595758800235 -0.018270459862419541 -0.012992375440082438 -0.0030207374186243295 0.060440589747104118 -0.013386220684930903 0.0038123220144252175 -0.038117929081837074 0.081972299183635619 -0.020381693357318997 -0.011810721548050452 0.0095850973139165255 0.055435680733704619 0.084646153778991026 0.0045368333217598545 0.058075070320248813 0.075026596002652407 0.0068753858636064957 -0.02301318427909016 -0.0097828229397423222 0.062324047284236843 0.0064783846572702966 0.048970775540645967 -0.0031981040354134857 0.073783435035288988 0.025702349034448492 -0.015167096797191131 0.085957138511765868 -0.027506449431015746 0.054915837738666706 0.020034856699159786 -0.03504662840887475 -0.020866576446473644 0.11616174827650241 0.091458726391144024 -0.013282783644412292 0.071901235751656453 0.074671403654175725 -0.010913207569823629 0 0.074321942247064579 0.093801914763572233 0.084663639984086755 0.055593660092816521 0.0484251696707442 -0.0098675992325591381 -0.019552525459164652 0.070766844708666399 0.05920248346959809
leaf_weight=926.22325277328491 26.150945782661438 723.25822788476944 849.73258376121521 205.64613670110703 396.01074162125587 25.569527715444565 43.126377820968628 43.630922913551331 62.140633076429367 29.679524123668671 14.216986536979674 447.75501546263695 188.14894327521324 165.84750750660896 121.7669250369072 127.3381521999836 441.06975317001343 167.59977823495865 415.44759953022003 502.58982810378075 28.486992657184601 70.99039101600647 30.226559489965439 612.1003021299839 294.10977429151535 103.94497671723366 35.21700444817543 97.181726813316345 66.5692418217659 73.915667146444321 1895.5499584674835 67.796213209629059 58.937472403049469 133.70336648821831 396.79066634178162 353.31301373243332 1076.6222784817219 73.671366482973099 337.00735330581665 1513.8979204297066 129.7810383439064 28.091149806976318 89.479369461536407 343.24487835168839 983.19136667251587 1142.2378735542297 20.418981403112411 40.774485737085342 39.527699798345566 160.49116277694702 31.036769241094589 154.35400035977364 23.842133194208145 55.579586625099182 84.614159554243088 21.630044966936111 121.60301792621613 120.38418439030647 208.77856400609016 67.875831335783005 39.880335062742233 26.969690918922424
leaf_count=3495 95 2669 3135 752 1460 93 156 158 222 111 52 1648 682 605 447 470 1615 603 1529 1850 105 259 111 2259 1080 377 127 357 243 262 6947 249 216 482 1448 1285 3960 266 1233 5645 468 103 327 1254 3681 4272 72 146 145 577 112 561 87 200 303 78 437 435 762 247 143 97
internal_value=-6.40365e-05 0.00864036 -0.00482048 0.00240032 -0.010336 0.0160956 0.0256008 -0.0281611 0.0124797 -0.0209248 -0.0178195 -0.00858674 0.0322035 0.0361497 0.0118235 0.00678862 0.0017842 0.0314556 0.00870557 0.0212836 0.0478621 0.0117994 0.0513669 0.00582604 0.00835052 0.00821145 -0.00508962 0.0259308 0.0124881 0.0290698 0.00861787 0.0233392 0.0261449 0.0307787 0.0257453 0.0405586 0.0103013 0.0317502 0.00688675 -0.0142234 0.0662953 0.0303248 0.0201839 0.00241583 -0.0262813 -0.0189209 0.0271303 0.0316963 0.0364724 0.0610252 0.0114534 0.0290296 0.0377922 0.0124227 0.0732303 0.0299697 0.0262098 0.0159966 -0.00093873 0.0344992 0.0138627 -0.00415873
internal_weight=17176.8 12119.6 4319.64 3298.93 1262.74 7799.93 2148.97 1020.7 5650.96 5057.2 4130.98 1975.87 1682.33 1494.18 5588.82 170.969 466.639 1293.18 4398.51 818.936 215.129 603.807 101.217 3579.57 3164.12 539.483 744.499 132.399 2419.62 457.505 1962.12 1190.31 1122.52 973.781 840.078 412.25 2036.19 279.318 1756.87 1528.11 200.999 71.2175 383.589 1419.87 2155.11 1171.92 1125.58 959.735 143.473 186.642 427.827 918.961 601.271 317.69 108.456 492.815 472.396 350.793 230.409 163.336 107.756 148.737
internal_count=63265 44361 15879 12116 4651 28482 7796 3763 20686 18904 15409 7345 6088 5406 20464 628 1708 4679 16128 2997 777 2220 370 13131 11602 1982 2743 484 8859 1669 7190 4336 4087 3543 3061 1501 7465 1018 6447 5697 727 259 1407 5214 8064 4383 4076 3471 522 672 1560 3325 2174 1151 390 1784 1712 1275 840 590 390 544
is_linear=0
shrinkage=0.05


end of trees

feature_importances:
session_range_pct=23
ema200_1d_dist_pct=20
macd_hist_min_50=15
squeeze_momentum_at_fire=15
adx_peak_50=14
vfi_1h=11
vwap_daily=10
day_of_week=10
ad_line=10
wt_last_ob_depth=10
macd_hist_1h=10
adx_1h=10
ema20_1d_dist_pct=10
realized_vol_20=9
wt_last_os_depth=8
squeeze_duration_last=7
squeeze_mom_peak_since_fire=7
ema50_1d_dist_pct=7
adx_bars_since_weak=6
wt1_1h=6
ema9_1h_dist_pct=6
vwap_lower_band=5
wt_bars_since_ob_exit=5
rsi_bars_since_ob=5
ema50_1h_dist_pct=5
ema200_1h_dist_pct=5
atr_14=4
pivot_S2=4
hurst_exponent=4
wt_bars_since_os_exit=4
macd_hist_max_50=4
bars_since_volume_spike=4
wt2_1h=4
ema21_1h_dist_pct=4
ema100_1h_dist_pct=4
pivot_S3=3
pivot_R3=3
divergence_freshness=3
vfi_1h_direction=3
di_minus=2
adx=2
atr_pct=2
kc_width=2
vfi=2
vwap_dist_pct=2
vwap_session=2
vwap_upper_band=2
vwap_band_position=2
pivot_S1=2
pivot_R2=2
pivot_times_tested_today=2
session_london=2
minutes_into_session=2
autocorrelation_5=2
parkinson_vol=2
rsi_bars_since_os=2
rsi_time_above_50_pct=2
squeeze_count_200=2
adx_bars_since_trend=2
di_bars_since_cross=2
rsi_bb_lower=1
atr_percentile=1
bars_since_squeeze_release=1
vwap_slope=1
pivot_P=1
pivot_R1=1
pivot_zone=1
session_tokyo=1
session_new_york=1
overlap_london_ny=1
return_60bar=1
vwap_slope_5bar=1
tsi=1
higher_highs_count_20=1
lower_lows_count_20=1
price_entropy=1
autocorrelation_1=1
kurtosis_20=1
tk_spread=1
stoch_bars_since_green=1
stoch_bars_since_red=1
stoch_red_count_50=1
stoch_bars_in_ob=1
stoch_recovery_speed=1
wt_ob_count_100=1
rsi_bars_since_50_cross=1
squeeze_bars_since_fire=1
bars_since_new_high_20=1
bars_since_new_low_20=1
bars_since_pivot_touch=1
pivot_touch_count_today=1
macd_hist_1h_direction=1
ema_stack_1d=1

parameters:
[boosting: gbdt]
[objective: multiclass]
[metric: multi_logloss]
[tree_learner: serial]
[device_type: cpu]
[data_sample_strategy: bagging]
[data: ]
[valid: ]
[num_iterations: 1000]
[learning_rate: 0.05]
[num_leaves: 63]
[num_threads: -1]
[seed: 42]
[deterministic: 0]
[force_col_wise: 0]
[force_row_wise: 0]
[histogram_pool_size: -1]
[max_depth: -1]
[min_data_in_leaf: 50]
[min_sum_hessian_in_leaf: 0.001]
[bagging_fraction: 0.8]
[pos_bagging_fraction: 1]
[neg_bagging_fraction: 1]
[bagging_freq: 5]
[bagging_seed: 400]
[bagging_by_query: 0]
[feature_fraction: 0.8]
[feature_fraction_bynode: 1]
[feature_fraction_seed: 30056]
[extra_trees: 0]
[extra_seed: 12879]
[early_stopping_round: 0]
[early_stopping_min_delta: 0]
[first_metric_only: 0]
[max_delta_step: 0]
[lambda_l1: 0.1]
[lambda_l2: 0.1]
[linear_lambda: 0]
[min_gain_to_split: 0]
[drop_rate: 0.1]
[max_drop: 50]
[skip_drop: 0.5]
[xgboost_dart_mode: 0]
[uniform_drop: 0]
[drop_seed: 17869]
[top_rate: 0.2]
[other_rate: 0.1]
[min_data_per_group: 100]
[max_cat_threshold: 32]
[cat_l2: 10]
[cat_smooth: 10]
[max_cat_to_onehot: 4]
[top_k: 20]
[monotone_constraints: ]
[monotone_constraints_method: basic]
[monotone_penalty: 0]
[feature_contri: ]
[forcedsplits_filename: ]
[refit_decay_rate: 0.9]
[cegb_tradeoff: 1]
[cegb_penalty_split: 0]
[cegb_penalty_feature_lazy: ]
[cegb_penalty_feature_coupled: ]
[path_smooth: 0]
[interaction_constraints: ]
[verbosity: -1]
[saved_feature_importance_type: 0]
[use_quantized_grad: 0]
[num_grad_quant_bins: 4]
[quant_train_renew_leaf: 0]
[stochastic_rounding: 1]
[linear_tree: 0]
[max_bin: 255]
[max_bin_by_feature: ]
[min_data_in_bin: 3]
[bin_construct_sample_cnt: 200000]
[data_random_seed: 175]
[is_enable_sparse: 1]
[enable_bundle: 1]
[use_missing: 1]
[zero_as_missing: 0]
[feature_pre_filter: 1]
[pre_partition: 0]
[two_round: 0]
[header: 0]
[label_column: ]
[weight_column: ]
[group_column: ]
[ignore_column: ]
[categorical_feature: ]
[forcedbins_filename: ]
[precise_float_parser: 0]
[parser_config_file: ]
[objective_seed: 16083]
[num_class: 3]
[is_unbalance: 0]
[scale_pos_weight: 1]
[sigmoid: 1]
[boost_from_average: 1]
[reg_sqrt: 0]
[alpha: 0.9]
[fair_c: 1]
[poisson_max_delta_step: 0.7]
[tweedie_variance_power: 1.5]
[lambdarank_truncation_level: 30]
[lambdarank_norm: 1]
[label_gain: ]
[lambdarank_position_bias_regularization: 0]
[eval_at: ]
[multi_error_top_k: 1]
[auc_mu_weights: ]
[num_machines: 1]
[local_listen_port: 12400]
[time_out: 120]
[machine_list_filename: ]
[machines: ]
[gpu_platform_id: -1]
[gpu_device_id: -1]
[gpu_use_dp: 0]
[num_gpu: 1]

end of parameters

pandas_categorical:null
