tree
version=v4
num_class=3
num_tree_per_iteration=3
label_index=0
max_feature_idx=267
objective=multiclass num_class:3
feature_names=rsi_14 rsi_sma_14 rsi_minus_sma rsi_direction rsi_sma_direction rsi_sma_roc rsi_accel rsi_cross_speed rsi_bb_upper rsi_bb_lower rsi_bb_position rsi_range_pct wt1_5min wt2_5min wt_hist_5min wt_cross_5min wt1_direction wt1_accel wt_hist_direction wt_ob_depth wt_os_depth wt_range_pct stoch_k stoch_d stoch_k_direction stoch_kd_spread stoch_kd_spread_change stoch_range_pct squeeze_momentum squeeze_mom_accel squeeze_mom_direction squeeze_mom_abs squeeze_mom_accel2 squeeze_mom_zero_cross squeeze_mom_percentile squeeze_mom_slope_5bar macd_line_5min macd_signal_5min macd_hist_5min macd_hist_direction macd_hist_accel macd_line_direction di_plus di_minus adx di_plus_roc di_minus_roc di_spread di_spread_roc adx_direction adx_accel adx_range_pct di_convergence ema9_dist_pct ema21_dist_pct ema50_dist_pct atr_14 atr_pct atr_ratio atr_percentile atr_roc bb_width bb_width_percentile kc_width squeeze_state bars_since_squeeze_release realized_vol_5 realized_vol_20 vol_ratio_5_20 high_low_range_pct session_range_pct vfi vfi_signal vfi_hist vfi_direction vfi_hist_direction vfi_cross_zero vfi_range_pct volume_ratio volume_trend buy_volume_pct sell_volume_pct buy_sell_ratio_sma5 cum_delta_5 cum_delta_20 obv_slope vwap_daily vwap_dist_pct vwap_session vwap_session_dist_pct vwap_slope vwap_upper_band vwap_lower_band vwap_band_position pivot_S3 pivot_S2 pivot_S1 pivot_P pivot_R1 pivot_R2 pivot_R3 dist_to_nearest_pivot_pct nearest_pivot_type pivot_zone pivot_approach_dir pivot_approach_speed pivot_times_tested_today session_sydney session_tokyo session_london session_new_york overlap_tokyo_london overlap_london_ny overlap_ny_sydney overlap_sydney_tokyo active_session_count minutes_into_session minutes_to_session_close session_range_vs_avg prev_session_range_pct day_of_week is_monday body_pct upper_wick_pct lower_wick_pct is_bullish consecutive_bull consecutive_bear body_vs_prev_body engulfing pin_bar zscore_20 zscore_50 bb_position rsi_zscore return_5bar return_20bar return_60bar mean_reversion_score regime_trending regime_ranging regime_volatile regime_quiet bars_in_current_regime efficiency_ratio choppiness_index prev_day_range_pct prev_day_close_vs_pivot gap_pct dist_to_prev_day_high_pct dist_to_prev_day_low_pct prev_session_direction prev_session_volume_rank daily_open_dist_pct rsi_5bar_ago wt1_slope_5bar adx_slope_5bar atr_slope_5bar volume_slope_5bar vwap_slope_5bar di_spread_change_5bar squeeze_mom_slope rsi_price_divergence macd_price_divergence wt_price_divergence stoch_price_divergence divergence_count hidden_divergence divergence_freshness cmf_20 cmf_direction mfi_14 mfi_direction ad_line ad_slope_10 mfi_rsi_divergence cmf_vfi_agreement williams_r williams_r_direction cci_20 cci_direction cci_extreme cmo_14 cmo_direction roc_10 tsi swing_high_dist_pct swing_low_dist_pct structure_type bars_since_structure_break swing_range_pct higher_highs_count_20 lower_lows_count_20 swing_ratio retrace_depth range_position hurst_exponent price_entropy autocorrelation_1 autocorrelation_5 skewness_20 kurtosis_20 fractal_dimension variance_ratio parkinson_vol kama_dist_pct dema_dist_pct tema_dist_pct psar_direction psar_dist_pct tenkan_dist_pct kijun_dist_pct tk_cross tk_spread cloud_dist_pct stoch_bars_since_green stoch_bars_since_red stoch_green_count_50 stoch_red_count_50 stoch_last_extreme_depth stoch_bars_in_ob stoch_bars_in_os stoch_recovery_speed wt_bars_since_ob_exit wt_bars_since_os_exit wt_bars_since_bull_cross wt_bars_since_bear_cross wt_ob_count_100 wt_os_count_100 wt_last_ob_depth wt_last_os_depth rsi_bars_since_ob rsi_bars_since_os rsi_bars_since_50_cross rsi_ob_count_100 rsi_os_count_100 rsi_time_above_50_pct macd_bars_since_bull_cross macd_bars_since_bear_cross macd_bars_since_zero_cross macd_hist_max_50 macd_hist_min_50 squeeze_bars_since_fire squeeze_duration_last squeeze_count_200 squeeze_momentum_at_fire squeeze_mom_peak_since_fire adx_bars_since_trend adx_bars_since_weak di_bars_since_cross adx_peak_50 bars_since_new_high_20 bars_since_new_low_20 bars_since_pivot_touch pivot_touch_count_today bars_since_volume_spike wt1_1h wt2_1h wt_cross_1h macd_hist_1h macd_hist_1h_direction adx_1h ema9_1h_dist_pct ema21_1h_dist_pct ema50_1h_dist_pct ema_stack_1h vfi_1h vfi_1h_direction
feature_infos=[4.4142680168151855:94.850852966308594] [9.5570383071899414:89.604743957519531] [-38.322418212890625:35.397647857666016] [-36.251068115234375:32.085739135742188] [-4.5713624954223633:4.6948838233947754] [-4.2463808059692383:4.577880859375] [-52.802715301513672:46.750751495361328] [0:33.059886932373047] [18.62171745300293:110.67617797851562] [-9.5432195663452148:82.4481201171875] [-0.3688226044178009:1.3654462099075317] [0:1] [-97.068862915039062:97.52618408203125] [-95.453376770019531:95.656265258789062] [-28.760627746582031:28.546083450317383] [-1:1] [-27.541755676269531:25.319503784179688] [-35.977622985839844:30.965242385864258] [-21.343235015869141:21.074085235595703] [0:37.526187896728516] [0:37.068862915039062] [0:1] [0:100] [0.0007426220690831542:99.996803283691406] [-33.332550048828125:33.333332061767578] [-32.724735260009766:33.327583312988281] [-31.34002685546875:29.708396911621094] [0:1] [-3615.0517578125:4823.546875] [-1638.5172119140625:726.77984619140625] [-1:1] [0.0019607143476605415:4823.546875] [-1137.2723388671875:1082.93994140625] [0:1] [2:100] [-674.5672607421875:653.67230224609375] [-2165.719482421875:1084.70703125] [-1581.4278564453125:1002.513671875] [-1020.6376953125:424.62173461914062] [-597.90716552734375:276.57608032226562] [-444.35427856445312:551.36248779296875] [-841.430419921875:251.83695983886719] [0.97588819265365601:82.749343872070312] [2.1984710693359375:81.733505249023438] [6.1781635284423828:75.425430297851562] [-39.511379241943359:52.364688873291016] [-35.876239776611328:55.419906616210938] [-75.692634582519531:76.770729064941406] [-68.669273376464844:75.502243041992188] [-4.3973045349121094:5.0782985687255859] [-4.8107471466064453:5.0438308715820312] [0:1] [-56.751895904541016:74.402046203613281] [-8.437678337097168:1.8202463388442993] [-10.41910457611084:2.1344151496887207] [-11.976192474365234:2.8469002246856689] [9.445429801940918:2205.770263671875] [0.0087995817884802818:1.9502072334289551] [0.23771083354949951:2.1932163238525391] [1:100] [-30.79638671875:355.19775390625] [0.045124556869268417:12.91199779510498] [1:100] [0.019226456061005592:6.9132614135742188] [-1:1] [0:719] [1.8479653363101534e-06:0.040860958397388458] [8.5863313870504498e-05:0.021597558632493019] [0.011476638726890087:1.9582221508026123] [8.1747557487688027e-06:8.3778772354125977] [0.47219109535217285:16.891002655029297] [-51.724800109863281:48.999946594238281] [-48.8099365234375:45.948307037353516] [-10.804154396057129:9.2273740768432617] [-9.1429843902587891:6.7759852409362793] [-5.3723173141479492:3.9745519161224365] [-1:1] [0:1] [0.074250206351280212:15.044970512390137] [0.14954183995723724:3.5609171390533447] [0:1] [0:1] [0:18443.822265625] [-5085.01123046875:4184.88818359375] [-5964.7666015625:8005.259765625] [-1229.2908935546875:554.8837890625] [83712.296875:124810.40625] [-11.987512588500977:3.7156064510345459] [83712.296875:124810.40625] [-11.987512588500977:3.7156064510345459] [-3.0394637584686279:2.8301942348480225] [84024.8203125:125084.6953125] [82752.0234375:124622.703125] [-14.817416191101074:19.578018188476562] [77510.515625:121531.7578125] [80145.9140625:122721.9296875] [81774.0625:123457.21875] [84409.453125:124647.390625] [85429.75:125837.5625] [85930.0703125:126572.8515625] [86739.9140625:132991.5] [2.878227633118513e-06:13.085362434387207] [0:6] [0:5] [-1:1] [0:10.662873268127441] [0:282] [0:1] [0:1] [0:1] [0:1] [0:1] [0:1] [0:1] [0:1] [1:2] [0:475] [65:540] none none [0:6] [0:1] [0:1] [0:1] [0:1] [0:1] [0:15] [0:18] [0:30439] [-1:1] [-1:1] [-4.2688183784484863:4.2656660079956055] [-6.1767134666442871:6.5208344459533691] [-0.56720459461212158:1.5664165019989014] [-4.5761427879333496:4.7928123474121094] [-9.9048051834106445:6.5725154876708984] [-10.709959983825684:9.3529367446899414] [-12.447732925415039:7.7249436378479004] [-3:3] [0:1] [0:1] [0:1] [0:1] [1:130] [0:1] [-30.069259643554688:95.062507629394531] none none none none none none none none [4.4142680168151855:94.850852966308594] [-15.877508163452148:14.543057441711426] [-3.5670995712280273:3.9960505962371826] [-30.79638671875:355.19775390625] [-93.472328186035156:4925.79833984375] [-3.0394637584686279:2.8301942348480225] [-72.661720275878906:74.402046203613281] [-898.4464111328125:656.81414794921875] [-1:1] [-1:1] none [-1:1] [0:4] [-1:1] [0:301] [-0.69965976476669312:0.80571943521499634] [-0.57031279802322388:0.53832954168319702] [0:99.512687683105469] [-44.704910278320312:50.675350189208984] [91338.3359375:141393.359375] [-617.66925048828125:659.72723388671875] [-47.658550262451172:42.665657043457031] [-1:1] [-100:0] [-99.996978759765625:100] [-641.5438232421875:604.05126953125] [-854.8712158203125:510.72430419921875] [0:541.5438232421875] [-100:100] [-82.057197570800781:74.93511962890625] [-11.182290077209473:8.5966606140136719] [-84.931983947753906:82.250892639160156] [-12.73320198059082:3.5621120929718018] [-8.7172079086303711:9.8178396224975586] [-1:1] [0:66] [-1.751104474067688:13.730503082275391] [2:15] [2:16] [6.6835986217483878e-05:45143] [-29671:8117] [0:1] [0.35013970732688904:0.6951829195022583] [0.55421024560928345:2.2864766120910645] [-0.58789724111557007:0.73460584878921509] [-0.58933287858963013:0.72541946172714233] [-4.1754550933837891:4.360069751739502] [-1.758567214012146:19.302778244018555] [0.84417474269866943:1.3920028209686279] [0.014491423964500427:2.7929654121398926] [5.5937041906872764e-05:0.018528565764427185] [-6.828557014465332:2.4522149562835693] [-8.6110029220581055:1.9777772426605225] [-7.4315123558044434:2.6755025386810303] [-1:1] [-11.84172248840332:9.2700929641723633] [-6.2823214530944824:4.8173384666442871] [-6.2823214530944824:5.0252213478088379] [-1:1] [-1.9365748167037964:4.7561001777648926] [-13.865297317504883:4.5020542144775391] [0:218] [0:231] [0:8] [0:9] [0.00052043946925550699:20] [1:45] [1:34] [0:26] [0:970] [0:959] [0:61] [0:55] [0:8] [0:6] [0.0029590311460196972:37.526187896728516] [0.0018559229793027043:37.068862915039062] [0:1084] [0:790] [0:108] [0:11] [0:10] [0:100] [0:102] [0:113] [0:180] [-9.9459466934204102:424.62173461914062] [-1020.6376953125:13.420256614685059] [0:719] [1:39] [0:13] [-868.7244873046875:746.70233154296875] [0.22822143137454987:4823.546875] [0:223] [0:602] [0:136] [13.201913833618164:75.425430297851562] [0:188] [0:166] [0:514] [0:282] [0:259] [-92.948501586914062:87.342460632324219] [-92.071792602539062:85.882904052734375] [-1:1] [-765.71429443359375:596.532958984375] [-249.650634765625:265.89520263671875] [8.3146018981933594:65.013397216796875] [-3.8141989707946777:2.9549460411071777] [-5.3189435005187988:3.8221962451934814] [-7.9429998397827148:4.7825102806091309] [-3:3] [-41.162704467773438:43.512901306152344] [-4.138221263885498:4.5437679290771484]
tree_sizes=3483 3561 3486 3624 3634 3591 3629 3644 3579

Tree=0
num_leaves=32
num_cat=0
split_feature=190 86 120 261 248 261 261 86 223 260 70 86 117 70 223 224 86 70 263 94 71 220 197 59 243 224 94 87 70 263 94
split_gain=128.96 73.6071 66.2379 76.9302 86.554 64.8242 82.4437 97.188 56.7334 52.7497 52.2901 166.946 64.3938 46.9993 58.4339 88.0573 70.1137 56.4812 55.0789 64.1303 57.5408 52.9975 68.0412 51.4984 50.1891 71.0505 77.579 54.7482 129.76 51.214 47.2839
threshold=0.10120457038283349 89083.937500000015 5.5000000000000009 12.25684690475464 125.50000000000001 48.380695343017585 26.882926940917972 86752.132812500015 404.50000000000006 72.862854003906264 5.9437437057495126 102264.67968750001 327.50000000000006 4.4363276958465585 133.50000000000003 340.50000000000006 91166.437500000015 4.3909065723419198 0.83633029460906994 117328.27343750001 27.593204498291019 14.500000000000002 2.070529699325562 8.5000000000000018 15.500000000000002 174.50000000000003 109689.54687500001 0.25129732489585882 2.6645452976226811 0.034091670066118247 88246.007812500015
decision_type=2 2 2 2 2 2 2 2 2 2 2 2 2 2 2 2 2 2 2 2 2 2 2 2 2 2 2 2 2 2 2
left_child=-1 5 9 -4 8 6 7 -2 -5 10 13 12 -12 17 15 -15 -16 18 20 23 21 24 -23 -20 27 26 30 -3 -29 -28 -26
right_child=1 2 3 4 -6 -7 -8 -9 -10 -11 11 -13 -14 14 16 -17 -18 -19 19 -21 -22 22 -24 -25 25 -27 29 28 -30 -31 -32
leaf_value=-1.0570884746625764 -1.0315002539492706 -1.0653610845401551 -1.0343421137536828 -1.0659248455281887 -1.0472619004603392 -1.0317033656572918 -1.0693044526090938 -1.0591312879871106 -1.0433020953179148 -1.0768423052291143 -1.0294878216294954 -1.0796648167030689 -1.0560726098886322 -1.0790216543401299 -1.0447168888315619 -1.034276944168284 -1.0692220348627854 -1.0390849972087661 -1.0604237294925687 -1.0312559828232455 -1.0421353087747003 -1.0616991517215923 -1.0317894754372881 -1.0751230828407869 -1.0519740242651603 -1.0448955936638777 -1.0326649553768985 -1.0771136124866967 -1.061961929658868 -1.0727854291108603 -1.0812738797703374
leaf_weight=1607.7872657775879 106.75653219223022 6465.0400257110596 77.949213981628418 1473.2401442527771 251.47094249725342 59.648094177246094 572.07944869995117 971.65389776229858 88.79432201385498 368.39476346969604 124.71874237060547 156.23733758926392 153.86497020721436 682.56398677825928 102.35070705413818 34.907691478729248 638.50573539733887 58.631365299224854 219.27452802658081 29.146227836608887 79.643762111663818 239.9480152130127 75.576846599578857 1006.9004988670349 54.225540161132812 200.29558897018433 71.171021461486816 1029.9463534355164 729.67242479324341 36.263329982757568 178.6053729057312
leaf_count=4744 315 19076 230 4347 742 176 1688 2867 262 1087 368 461 454 2014 302 103 1884 173 647 86 235 708 223 2971 160 591 210 3039 2153 107 527
internal_value=-1.06452 -1.06525 -1.06588 -1.06108 -1.06223 -1.05985 -1.06087 -1.05639 -1.06464 -1.06659 -1.06629 -1.05692 -1.04417 -1.06663 -1.07125 -1.07684 -1.06584 -1.06598 -1.06614 -1.07154 -1.0654 -1.0656 -1.05453 -1.07249 -1.066 -1.05788 -1.06553 -1.06653 -1.07083 -1.04621 -1.07445
internal_weight=17945.3 16337.5 14627.3 1891.45 1813.51 1710.14 1650.49 1078.41 1562.03 12735.9 12367.5 434.821 278.584 11932.7 1458.33 717.472 740.856 10474.3 10415.7 1255.32 9160.39 9080.74 315.525 1226.18 8765.22 540.561 340.265 8224.66 1759.62 107.434 232.831
internal_count=52950 48206 43160 5581 5351 5046 4870 3182 4609 37579 36492 1283 822 35209 4303 2117 2186 30906 30733 3704 27029 26794 931 3618 25863 1595 1004 24268 5192 317 687
is_linear=0
shrinkage=1


Tree=1
num_leaves=32
num_cat=0
split_feature=57 70 70 93 262 70 87 91 232 87 70 230 98 243 247 91 70 259 260 95 173 106 138 221 243 241 93 230 106 231 243
split_gain=306.466 148.697 93.2757 146.528 87.6269 83.1295 82.4883 72.1108 96.2473 80.3274 119.314 69.666 69.0643 87.7075 82.6121 81.5042 132.63 75.8122 67.2837 70.1759 62.1094 59.8009 58.3496 55.1172 64.5083 53.313 53.0622 56.6337 52.9252 50.8397 87.1458
threshold=0.16432128846645358 7.7749173641204843 1.8076130151748659 1.6673602461814883 -0.23209884762763974 2.5447257757186894 -1.7518720626831052 91322.562500000015 226.50000000000003 -0.1372503116726875 4.4363276958465585 14.011497497558596 114814.44921875001 14.500000000000002 98.500000000000014 110259.89843750001 4.109206199645997 30.508738517761234 1.0000000180025095e-35 111140.00390625001 130776.28906250001 149.50000000000003 0.62188404798507702 8.5000000000000018 6.5000000000000009 -79.574905395507798 3.0713397264480595 25.327847480773929 27.500000000000004 203.50000000000003 4.5000000000000009
decision_type=2 2 2 10 2 2 2 10 2 2 2 2 2 2 2 10 2 2 2 2 2 2 2 2 2 2 10 2 2 2 2
left_child=2 5 3 4 -1 22 -7 8 26 10 28 23 14 18 15 29 20 -15 -14 -20 -17 -6 -2 24 -11 -22 27 -8 -9 -4 -31
right_child=1 -3 12 -5 21 6 7 9 -10 11 -12 -13 13 17 -16 16 -18 -19 19 -21 25 -23 -24 -25 -26 -27 -28 -29 -30 30 -32
leaf_value=-0.73142215755186601 -0.73308482058042357 -0.69647736070259048 -0.71379896565979328 -0.70726610743547524 -0.71851805386533063 -0.73538815606771324 -0.73077931940295471 -0.72584263412242189 -0.69797048479865242 -0.71652406464536245 -0.7013646280081115 -0.70903026009124648 -0.70208261971110653 -0.73333748756506645 -0.69790195604967808 -0.74033514073508933 -0.70239885700100846 -0.6977984378689851 -0.68053989399491599 -0.71245934717934656 -0.7400524872631834 -0.69904214223491778 -0.71922758693753019 -0.73856474809922146 -0.72970368490094339 -0.71908135139480212 -0.70794456072650214 -0.70306502239305246 -0.71184108579195826 -0.70080834027731354 -0.71661736093770256
leaf_weight=399.18046876788139 723.39746922254562 181.41159331798553 4378.9910015165806 978.27326148748398 2982.0467694997787 251.87725353240967 932.54554581642151 380.81441903114319 92.205066025257111 735.39162415266037 505.62859377264977 302.85241198539734 1229.7756976783276 175.78933319449425 252.62688821554184 162.67072623968124 250.00316682457924 61.095226675271988 54.348514527082443 1220.0304467976093 104.94885563850403 124.0645400583744 336.58597272634506 163.7951782643795 453.90380063652992 720.39893049001694 98.202143490314484 59.221139967441559 439.28592431545258 654.05626103281975 441.160011023283
leaf_count=1065 1930 484 11683 2610 7956 672 2488 1016 246 1962 1349 808 3281 469 674 434 667 163 145 3255 280 331 898 437 1211 1922 262 158 1172 1745 1177
internal_value=-0.71555 -0.720961 -0.713394 -0.716673 -0.719298 -0.721772 -0.720112 -0.719188 -0.724933 -0.71691 -0.711867 -0.720947 -0.711879 -0.708182 -0.713334 -0.713915 -0.720284 -0.724168 -0.70667 -0.711097 -0.72481 -0.71774 -0.728685 -0.723615 -0.721555 -0.721749 -0.727215 -0.729124 -0.718342 -0.712474 -0.707177
internal_weight=19846.6 5657.12 14189.5 4483.57 3505.29 5475.71 4415.72 4163.85 1182.17 2981.67 1325.73 1655.94 9705.9 2741.04 6964.86 6712.23 1238.02 236.885 2504.15 1274.38 988.019 3106.11 1059.98 1353.09 1189.3 825.348 1089.97 991.767 820.1 5474.21 1095.22
internal_count=52950 15093 37857 11962 9352 14609 11781 11109 3154 7955 3537 4418 25895 7313 18582 17908 3303 632 6681 3400 2636 8287 2828 3610 3173 2202 2908 2646 2188 14605 2922
is_linear=0
shrinkage=1


Tree=2
num_leaves=32
num_cat=0
split_feature=56 56 109 109 173 259 100 245 191 264 248 220 44 224 92 91 44 220 98 248 241 59 191 71 264 99 59 220 264 87 173
split_gain=966.028 233.578 168.203 127.152 119.189 136.222 95.1941 88.6492 75.6141 171.581 76.6562 69.1169 71.1484 66.7806 74.0117 65.2027 64.2277 57.6548 54.6812 54.1287 53.2331 60.746 57.9897 51.3616 50.9423 49.8471 47.5748 47.1825 50.7602 44.5864 50.2603
threshold=151.81531524658206 81.154052734375014 1.0000000180025095e-35 1.0000000180025095e-35 101408.80468750001 -268.34353637695307 107227.31250000001 195.00485992431643 9.5000000000000018 2.1274089813232426 197.50000000000003 5.5000000000000009 50.892066955566413 699.50000000000011 117945.38671875001 90982.226562500015 28.160042762756351 3.5000000000000004 110170.61328125001 295.50000000000006 -98.662975311279283 11.500000000000002 5.5000000000000009 -16.602901458740231 -3.1263939142227168 118606.14062500001 31.500000000000004 6.5000000000000009 -1.7594977021217344 0.19244088232517245 125614.94531250001
decision_type=2 2 2 2 2 2 2 2 2 2 2 2 2 2 8 8 2 2 2 2 2 2 2 2 2 2 2 2 2 2 2
left_child=1 -1 13 4 5 -2 19 -7 9 11 -10 12 -8 14 20 -9 -5 -11 -12 -6 -3 22 -22 24 -13 -23 -18 28 -26 -25 -31
right_child=3 2 -4 16 6 7 8 15 10 17 18 23 -14 -15 -16 -17 26 -19 -20 -21 21 25 -24 29 27 -27 -28 -29 -30 30 -32
leaf_value=-1.8078699859668517 -1.7034211172550036 -1.7718734428015113 -1.803933239314172 -1.7964739833259924 -1.7932626290424409 -1.7771981029361883 -1.7738752705931526 -1.7211869424653168 -1.7910927856606162 -1.7744498674398677 -1.7364545406757119 -1.8117660001794156 -1.7202540685768541 -1.7502648231955023 -1.8022551705953231 -1.7713153554182359 -1.7571422006860857 -1.7148263624760827 -1.7880303015333812 -1.7456030229105441 -1.7669363771652984 -1.7898076983910709 -1.8007249952927173 -1.804573788255635 -1.7444858804602759 -1.761477529030121 -1.7865315025254906 -1.7496000159276506 -1.8051778166324235 -1.7447748647125596 -1.7916422271499428
leaf_weight=2412.7351650595665 23.483124345541 102.66073828935623 1764.5593700706959 734.00349724292755 651.50083914399147 357.02661615610123 565.46532163023949 41.355236679315567 511.22553884983063 16.833036035299301 35.53640940785408 21.820602267980576 19.326819151639938 27.223799020051956 578.34986773133278 37.406746745109558 45.095911353826523 45.511541873216629 27.639429539442062 18.495558112859726 40.731790900230408 1333.7583367228508 658.15092745423317 143.39252918958664 15.170513957738875 48.628770768642426 539.48841416835785 60.474240571260452 33.042626291513443 22.859678566455841 70.865003556013107
leaf_count=11610 113 494 8491 3532 3135 1718 2721 199 2460 81 171 105 93 131 2783 180 217 219 133 89 196 6418 3167 690 73 234 2596 291 159 110 341
internal_value=-1.79475 -1.80095 -1.79729 -1.78405 -1.78066 -1.76789 -1.78325 -1.77137 -1.77959 -1.77508 -1.78756 -1.77797 -1.7721 -1.79309 -1.79351 -1.74497 -1.79106 -1.7309 -1.759 -1.79194 -1.7912 -1.79215 -1.79875 -1.78731 -1.77347 -1.78881 -1.78426 -1.76577 -1.78607 -1.79493 -1.7802
internal_weight=11003.8 6966.8 4554.06 4037.02 2718.43 459.272 2259.16 435.789 1589.16 1014.76 574.401 952.417 584.792 2789.5 2762.28 78.762 1318.59 62.3446 63.1758 669.996 2183.93 2081.27 698.883 367.625 130.508 1382.39 584.584 108.687 48.2131 237.117 93.7247
internal_count=52950 33524 21914 19426 13081 2210 10871 2097 7647 4883 2764 4583 2814 13423 13292 379 6345 300 304 3224 10509 10015 3363 1769 628 6652 2813 523 232 1141 451
is_linear=0
shrinkage=1


Tree=3
num_leaves=32
num_cat=0
split_feature=56 88 261 204 250 229 257 173 261 59 229 229 44 99 224 262 257 261 261 71 97 229 264 88 240 229 101 250 220 227 222
split_gain=267.808 77.3902 117.708 83.5825 78.8564 85.9265 84.268 86.0774 67.6233 64.3529 82.812 58.9334 63.0612 55.3104 59.951 55.1446 53.7593 53.6751 53.3206 60.2006 57.127 52.3018 60.3485 59.0279 51.6945 51.362 58.5514 51.2028 50.8095 55.8387 52.62
threshold=63.864524841308601 86752.132812500015 29.073880195617679 0.00072725722566246997 44.329120635986335 23.41532135009766 -70.382453918457017 125315.37500000001 11.675031185150148 54.500000000000007 9.651125907897951 12.433006286621096 40.968540191650398 93728.621093750015 65.500000000000014 0.97526654601097118 -55.168315887451165 36.096113204956062 26.039451599121097 -31.163331031799313 114857.84765625001 10.225880146026613 -0.58963304758071888 118077.09375000001 153.458854675293 7.2912688255310067 0.58018004894256603 20.37862586975098 12.500000000000002 2.5000000000000004 11.500000000000002
decision_type=2 2 2 2 2 2 2 2 2 2 2 2 2 2 2 2 2 2 2 2 2 2 2 2 2 2 2 2 2 2 2
left_child=8 2 -2 11 5 9 7 -6 -1 15 13 12 21 -11 25 -5 -13 -7 -8 20 -20 23 -23 27 -16 -15 -27 -3 29 30 -29
right_child=1 3 -4 4 6 17 18 -9 -10 10 -12 16 -14 14 24 -17 -18 -19 19 -21 -22 22 -24 -25 -26 26 -28 28 -30 -31 -32
leaf_value=0.032054018063487941 0.032162873185922328 -0.010523911772123463 -0.00078992663224236159 -0.0051314023528687353 0.043763784689451281 0.032696935721315074 -0.0037460207863823543 -0.010010091644175918 0.0080087572696527533 0.015152311826603555 -0.0051168942555207533 -0.018518658434773967 0.017763806499600899 0.004928640938326 -0.0026870123300206921 0.020672915157070013 0.0066185658881011567 -0.012740922018095333 0.030831549952143635 -0.012896383110963926 -0.016184760688864722 0.0075341656198838732 -0.013599004824302504 -0.0093875440114723017 0.029430716854518264 0.032217800963250526 -0.014553243338709268 -0.00013455984908525834 0.017089251261618699 0.016736497351500283 0.027235028756720205
leaf_weight=92.260169297456741 130.98188358545303 250.90441182255745 218.5130763053894 3243.5795292258263 48.954694479703903 86.484379529953003 1250.9890201985836 41.563259989023209 2101.7239435017109 287.78902861475945 1177.733250528574 67.07152783870697 136.33799803256989 594.79332882165909 1137.2133279442787 63.782266765832901 1533.5173140466213 25.384898215532303 47.582267701625824 1349.5977731049061 33.075419664382935 131.70228514075279 453.85029029846191 440.08611753582954 39.147032827138901 110.78806185722351 24.710535228252411 2432.1326920390129 168.09803307056427 170.21771788597107 54.240810573101044
leaf_count=271 383 741 645 9580 144 255 3693 123 6189 848 3476 198 402 1755 3356 188 4522 75 140 3991 98 389 1340 1300 115 326 73 7177 495 502 160
internal_value=2.24921e-05 -0.00123085 0.01156 -0.00152116 -0.00310346 -0.00150863 -0.0070109 0.019071 0.00902049 -0.0019089 0.000763164 0.00107064 -0.000626702 0.00391918 0.00222321 -0.00463346 0.00556461 0.0223813 -0.00789178 -0.0115174 0.0115462 -0.00123829 -0.00884475 2.85098e-05 -0.00161714 0.00840981 0.0236834 0.00137608 0.00243337 0.00150566 0.000462588
internal_weight=17944.8 15750.8 349.495 15401.3 9563.17 6791.41 2771.76 90.518 2193.98 6679.54 3372.17 5838.16 4237.57 2194.44 1906.65 3307.36 1600.59 111.869 2681.24 1430.26 80.6577 4101.23 585.553 3515.68 1176.36 730.292 135.499 3075.59 2824.69 2656.59 2486.37
internal_count=52950 46490 1028 45462 28236 20047 8189 267 6460 19717 9949 17226 12506 6473 5625 9768 4720 330 7922 4229 238 12104 1729 10375 3471 2154 399 9075 8334 7839 7337
is_linear=0
shrinkage=0.0274897


Tree=4
num_leaves=32
num_cat=0
split_feature=67 70 88 109 191 255 70 93 91 232 100 243 103 70 91 87 263 204 224 255 70 260 232 247 56 88 236 94 192 94 88
split_gain=290.145 122.577 90.6237 81.6747 74.7884 67.3759 67.2233 114.395 73.4019 87.1781 66.2866 65.5526 63.1529 61.8244 73.5344 61.4364 59.8872 74.24 58.745 57.2758 54.7824 106.722 57.0846 54.086 53.1169 52.6351 49.563 49.0517 65.7564 46.5449 45.3593
threshold=0.0011791947181336584 7.7749173641204843 118077.09375000001 1.0000000180025095e-35 7.5000000000000009 105.50000000000001 2.7184690237045293 1.073434114456177 91322.562500000015 230.50000000000003 120426.42187500001 14.500000000000002 4.5000000000000009 1.953250050544739 87140.816406250015 -1.7518720626831052 0.17022305727005008 0.00073464284650981437 275.50000000000006 128.50000000000003 3.7821646928787236 16.584750175476078 80.500000000000014 34.500000000000007 52.664833068847663 111154.64453125001 89.000000000000014 107980.32031250001 9.5000000000000018 114560.71093750001 92186.378906250015
decision_type=2 2 2 2 2 2 2 10 10 2 2 2 2 2 10 2 2 2 2 2 2 2 2 2 2 2 2 2 2 2 2
left_child=2 6 3 4 -1 10 7 19 9 -8 29 -4 15 18 -15 -10 23 -18 26 -2 22 -22 -17 -16 -25 -9 -5 28 -23 -6 -14
right_child=1 -3 11 13 5 -7 8 25 12 -11 -12 -13 30 14 16 20 17 -19 -20 -21 21 27 -24 24 -26 -27 -28 -29 -30 -31 -32
leaf_value=-0.0048974290875121555 -0.017024593516433841 0.017329401183201382 0.010139678895674445 -0.0034835881857580276 0.00010777095333129723 0.010987109417744934 -0.012774250525532846 0.0083370612240469405 -0.016710136890814319 0.02303257464446945 -0.019843838495118834 -0.011353279135456367 0.021360327245771984 -0.01799474424927772 0.0077152489915966538 -0.0077681698681057489 -0.0032677076212561619 0.0097685411768394428 0.010035499425586588 0.021258436475213395 0.012597595833472768 0.0030856238525562999 0.0080859899944488133 -0.012811266664918733 0.022338109025277209 -0.013534970644966159 0.01664110734638306 0.011463214801725387 -0.020844047419498128 0.012642501753144948 -0.013126754091996311
leaf_weight=2167.8377527594566 1048.7313603162766 170.22889214754105 1340.1336817741394 1483.1905441880226 5028.4389695823193 476.41223895549774 927.88486310839653 265.33662903308868 153.94775408506393 54.361922413110733 121.81225490570068 116.51924294233322 30.733995497226715 91.43628317117691 1326.2375887930393 671.52385383844376 728.65773963928223 603.47891908884048 362.82557293772697 30.355317264795303 646.97327688336372 161.53905606269836 230.48828938603401 35.61215740442276 366.64358142018318 121.05199190974236 98.595793396234512 107.59219270944595 187.37906259298325 234.2727045416832 455.28115245699883
leaf_count=5784 2799 454 3575 3957 13416 1271 2477 708 411 145 325 311 82 244 3538 1792 1944 1610 968 81 1726 431 615 95 978 323 263 287 500 625 1215
internal_value=-8.22109e-05 -0.00561474 0.00191473 0.00119273 -0.000534944 0.00107858 -0.00638178 -0.0113509 -0.00437422 -0.0107915 0.000201745 0.00841991 -0.00199125 0.00391442 0.00629248 2.35411e-05 0.00701837 0.00263761 5.94735e-05 -0.0159467 0.00130852 0.00541639 -0.00371633 0.0103942 0.0192244 0.001483 -0.0022286 -0.00475994 -0.00976444 0.000665918 -0.0109438
internal_weight=19845.5 5263.41 14582.1 13125.5 8028.77 5860.94 5093.18 1465.48 3627.71 982.247 5384.52 1456.65 2645.46 5096.68 3152.07 2159.44 3060.63 1332.14 1944.61 1079.09 2005.5 1103.48 902.012 1728.49 402.256 386.389 1581.79 456.51 348.918 5262.71 486.015
internal_count=52950 14046 38904 35018 21421 15637 13592 3911 9681 2622 14366 3886 7059 13597 8409 5762 8165 3554 5188 2880 5351 2944 2407 4611 1073 1031 4220 1218 931 14041 1297
is_linear=0
shrinkage=0.0274897


Tree=5
num_leaves=32
num_cat=0
split_feature=63 70 67 63 112 229 67 70 109 245 241 70 241 37 234 255 241 93 224 256 94 93 233 91 65 100 267 109 59 224 88
split_gain=1023.65 275.398 258.52 192.578 146.523 167 103.42 164.664 82.5056 78.8679 74.5554 71.3126 73.1682 68.5086 64.9226 73.5729 62.9109 62.1747 60.0939 89.9847 73.5088 58.0148 57.1608 56.7399 56.124 58.5177 69.8486 56.0432 54.4234 57.4329 52.7694
threshold=0.31809931993484503 2.453093528747559 0.0011491614859551193 0.461900144815445 1.0000000180025095e-35 9.651125907897951 0.0005722438800148667 1.2892208099365237 1.0000000180025095e-35 -146.01939392089841 -40.079273223876946 1.086417078971863 -79.574905395507798 -259.49163818359369 1.5000000000000002 27.500000000000004 -18.615274429321286 0.82184594869613659 59.500000000000007 63.917509078979499 87865.011718750015 3.5806379318237309 31.500000000000004 109617.85546875001 99.500000000000014 114178.07031250001 0.14360253512859347 1.0000000180025095e-35 32.500000000000007 112.50000000000001 91223.480468750015
decision_type=2 2 2 2 2 2 2 2 2 2 2 2 2 2 2 2 2 10 2 2 2 8 2 10 2 2 2 2 2 2 2
left_child=6 3 8 11 5 23 -1 10 21 -7 -8 -2 28 -5 -15 17 -14 -16 20 -20 30 -3 -21 -4 25 26 -25 -9 29 -13 -11
right_child=1 2 4 13 -6 9 7 27 -10 18 -12 12 16 14 15 -17 -18 -19 19 22 -22 -23 -24 24 -26 -27 -28 -29 -30 -31 -32
leaf_value=-0.013363747994120823 0.062280954717778288 0.0039820843552565831 0.0025337129787828829 0.079053648210508712 -0.0041110583396191365 0.038388537316972483 0.039253192481298889 -0.0038066010063281543 -0.010815798038376836 0.038105748510469356 0.0060465571824792159 0.094163545846127003 0.0047109812925197874 0.021360990572236758 0.045509499671517656 0.063915302489815112 0.038705481894481385 0.003781849406864349 0.0063475864667874365 0.081269937458451541 0.01915203228551781 -0.0098716011366463702 0.012218155696620043 0.075605065741202723 0.066375406035100531 0.0087384291123333291 0.0035830773578813444 -0.013393103780985825 0.014956872888699919 0.030407178686253932 0.09322041762209414
leaf_weight=2554.2439991980791 19.217193588614464 960.46756254136562 878.8436556905508 19.809360101819038 479.61752727627754 177.34499526023865 74.045166537165642 1085.1812763214111 752.55684794485569 56.599865451455116 164.90701250731945 15.585942313075064 936.07748222351074 431.3436079621315 61.827093750238419 66.775249615311623 43.01059827208519 47.925038576126099 348.72139327228069 20.973646104335785 216.24932511150837 299.67208331823349 15.984917253255842 23.062895178794861 15.826542109251021 273.3827787488699 18.226783916354179 801.24856509268284 95.150117725133896 34.043097600340843 17.130041748285294
leaf_count=12399 92 4600 4198 93 2301 842 356 5230 3635 267 797 74 4501 2054 294 315 207 229 1663 98 1031 1441 75 110 75 1304 87 3885 455 162 80
internal_value=0.00011153 0.00732283 0.00374615 0.0165221 0.00957382 0.0127566 -0.00963583 -0.00515534 -0.00361377 0.0220709 0.0163417 0.00980331 0.00890412 0.0287561 0.0271129 0.0411596 0.00620584 0.0272983 0.0177859 0.0106739 0.0272415 0.000687021 0.0514476 0.00618607 0.0158957 0.0133499 0.0438463 -0.0078788 0.0271438 0.0504786 0.0509459
internal_weight=11005.1 6325.43 4554.66 1770.76 2541.96 2062.35 4679.63 2125.38 2012.7 853.004 238.952 1143.08 1123.87 627.68 607.871 176.527 979.088 109.752 675.659 385.68 289.979 1260.14 36.9586 1209.34 330.499 314.672 41.2897 1886.43 144.779 49.629 73.7299
internal_count=52950 30283 21807 8476 12131 9830 22667 10268 9676 4056 1153 5491 5399 2985 2892 838 4708 523 3214 1836 1378 6041 173 5774 1576 1501 197 9115 691 236 347
is_linear=0
shrinkage=0.0274897


Tree=6
num_leaves=32
num_cat=0
split_feature=67 86 204 204 250 229 257 100 59 229 70 259 229 250 232 70 77 231 259 253 70 231 106 224 232 70 248 241 259 77 239
split_gain=241.062 74.9873 69.4524 64.9108 75.8606 82.0622 81.071 77.5426 61.9231 79.6297 74.8191 91.8969 82.1425 58.7923 88.4391 60.8218 66.0673 56.785 74.9314 59.2683 54.4592 54.2378 51.6858 59.4074 54.1085 66.989 51.3477 47.6171 47.1582 52.7889 45.192
threshold=0.00049775844672694813 86752.132812500015 0.00022634607012150812 0.00072725722566246997 44.329120635986335 23.41532135009766 -70.382453918457017 110907.96875000001 54.500000000000007 9.651125907897951 2.94160008430481 -16.713290214538571 1.9959272146224978 21.413889884948734 387.50000000000006 2.0187047719955449 0.50637379288673412 257.50000000000006 228.7298278808594 54.500000000000007 1.086417078971863 56.500000000000007 8.5000000000000018 305.50000000000006 174.50000000000003 0.58031579852104198 233.50000000000003 -55.172433853149407 -12.122617721557615 0.61931884288787853 47.500000000000007
decision_type=2 2 2 2 2 2 2 2 2 2 2 2 2 2 2 2 2 2 2 2 2 2 2 2 2 2 2 2 2 2 2
left_child=2 17 22 13 5 8 7 -6 -5 10 11 -10 27 14 -3 -15 -17 18 -2 -19 21 -4 -1 24 25 -24 -11 -12 29 -23 -27
right_child=1 3 20 4 6 -7 -8 -9 9 26 12 -13 -14 15 -16 16 -18 19 -20 -21 -22 28 23 -25 -26 30 -28 -29 -30 -31 -32
leaf_value=0.034425582775597215 0.029414121997299585 -0.012398568858040087 -0.012707781122597151 -0.0045397046223577941 0.043420678231712938 0.021794891354225313 -0.0077402769425559959 -0.0073300632859978837 0.0071500133117761286 -0.0063376019170181376 -0.0068861177255478559 -0.0082811649321186398 0.01523696251753525 -0.0017614742489316035 0.030388255613846199 -6.0808055435909435e-05 0.0087878476359258603 -0.0098863426943027362 -0.012483507652926315 0.033595060357163177 0.0079097675620954846 0.033445342106279863 -0.0083295860812339396 -0.020167973059118948 -0.019497493605053665 0.031859238143502853 0.019967913435144233 0.014749010826299345 -0.0013075615671790119 -0.0018634302902798962 -0.0073730515111641009
leaf_weight=102.7054015994072 157.88364085555077 414.04558593034744 212.16654312610626 3297.9612984955311 46.562979161739349 112.65617126226425 2673.0363157391548 44.423249095678329 558.39785873889923 1116.4937802553177 275.31903421878815 610.39884197711945 645.67239612340927 2071.3609606325626 40.005398213863373 1216.5742268562317 1339.6301749050617 122.48806434869766 40.503326773643494 29.341106563806534 1849.3193816542625 73.613117516040802 49.83386293053627 38.136501222848892 28.642711848020554 183.84645485877991 59.007018059492111 106.62228244543076 345.36197286844254 56.534359782934189 25.199688792228699
leaf_count=301 458 1226 623 9760 135 330 7922 132 1644 3302 813 1802 1898 6105 118 3591 3947 363 119 86 5437 216 146 112 84 538 174 314 1014 166 74
internal_value=2.18956e-05 -0.00139578 0.00718285 -0.00169677 -0.0030328 -0.00146835 -0.00687149 0.0186415 -0.00186144 0.00075796 0.00384855 -0.000908422 0.00925945 0.000813043 -0.00862609 0.00173935 0.00457635 0.0111742 0.0208571 -0.0014759 0.00545374 -0.0011504 0.0174214 0.0120548 0.016332 0.0202997 -0.00501629 -0.000844564 0.00400571 0.0181065 0.0271272
internal_weight=17943.7 14978.4 2965.36 14628.2 9546.55 6782.53 2764.02 90.9862 6669.87 3371.91 2196.41 1168.8 1027.61 5081.62 454.051 4627.57 2556.2 350.216 198.387 151.829 2537 687.676 428.365 325.659 287.523 258.88 1175.5 381.941 475.509 130.147 209.046
internal_count=52950 44239 8711 43213 28226 20037 8189 267 19707 9947 6471 3446 3025 14987 1344 13643 7538 1026 577 449 7456 2019 1255 954 842 758 3476 1127 1396 382 612
is_linear=0
shrinkage=0.0274897


Tree=7
num_leaves=32
num_cat=0
split_feature=57 99 96 256 173 96 247 173 91 257 196 223 196 244 262 256 67 244 231 256 245 106 173 173 99 91 173 257 223 223 260
split_gain=277.25 78.656 85.3515 82.0144 106.359 69.6215 67.0998 66.286 72.8757 68.5039 84.4364 65.4853 60.3725 59.8075 56.5178 50.1609 48.9504 45.405 46.9989 45.3577 45.3559 44.7992 56.0049 51.0063 44.1545 54.4385 81.2202 43.0373 70.2215 68.4852 62.503
threshold=0.16432128846645358 115300.83203125001 109931.57421875001 2.4719977378845219 124224.10937500001 111837.92578125001 99.500000000000014 101408.80468750001 87350.285156250015 26.036137580871586 0.4471926093101502 125.50000000000001 0.53729116916656505 6.5000000000000009 -0.65809178352355946 -43.322109222412102 0.00039075854874681687 2.5000000000000004 30.500000000000004 40.397151947021491 -49.535333633422844 6.5000000000000009 123230.26562500001 109432.21093750001 115144.64453125001 111584.58203125001 130656.57421875001 -43.237129211425774 193.50000000000003 571.50000000000011 23.236344337463382
decision_type=2 2 2 2 2 2 2 2 10 2 2 2 2 2 2 2 2 2 2 2 2 2 2 2 2 10 2 2 2 2 2
left_child=1 2 6 5 -5 -3 27 8 -2 11 -11 -9 13 24 -10 -7 -8 18 -6 -20 -17 -13 23 -23 25 -4 -27 29 -29 -1 -30
right_child=7 3 12 4 17 15 16 9 14 10 -12 21 -14 -15 -16 20 -18 -19 19 -21 -22 22 -24 -25 -26 26 -28 28 30 -31 -32
leaf_value=0.0093045293217807294 -0.02556520769689441 0.028595824416428023 -0.010517328286520678 -0.013733450727349909 0.014757945338553706 0.0095556468355576588 -0.0070099719211836158 0.0030783546758044109 -0.019429514402760726 0.012866683719391217 -0.011617503126112877 -0.012025955867217721 -0.014501395720249135 0.02015747955812415 -0.0037676261983787007 -0.010371162414603423 0.01665950265172907 0.01310124319969772 0.0064021494057897414 -0.015291934975005698 0.00070282941830914674 0.018531655508771699 0.001768415841341336 -0.011614689379422009 -0.020050284853447363 -0.017960356412711414 0.013455118645588513 0.001917602192629355 -0.0059123054107079942 -0.017634402191026438 0.010935898785067488
leaf_weight=791.71072599291801 215.55849730968475 67.495520085096359 272.11008304357529 144.2825183570385 169.43304508924484 350.86256834864616 81.319686114788055 1316.0204392373562 234.32989567518234 117.6558652818203 1112.7473754882812 491.83922818303108 423.47215673327446 84.715802520513535 677.93074333667755 368.44029518961906 350.15881952643394 1466.9523210525513 160.80716115236282 133.05405163764954 1157.1238477230072 46.086948901414871 914.24475109577179 527.31767311692238 112.81705725193024 81.652542322874069 260.52117112278938 5781.6348732411861 1668.2264481186867 78.338221669197083 184.78513196110725
leaf_count=2112 576 180 726 385 452 936 217 3512 626 314 2971 1313 1130 226 1810 983 934 3913 429 355 3087 123 2440 1408 301 218 695 15425 4451 209 493
internal_value=-7.89607e-05 0.00197205 0.000685562 0.00522824 0.00902983 0.0011709 0.00162186 -0.00522672 -0.0111896 -0.00374064 -0.0092756 -0.00167392 -0.00608719 -0.0016971 -0.00779165 0.000183763 0.0121972 0.0107318 0.00322777 -0.00341922 -0.00197146 -0.00483362 -0.00245521 -0.00919009 -0.00424474 -0.00134041 0.00595621 0.00108523 0.000425006 0.00687794 -0.00423177
internal_weight=19843.6 14189.9 10171.5 4018.45 2074.53 1943.92 8936.17 5653.73 1127.82 4525.91 1230.4 3295.51 1235.29 811.817 912.261 1876.43 431.479 1930.25 463.294 293.861 1525.56 1979.49 1487.65 573.405 727.101 614.284 342.174 8504.7 7634.65 870.049 1853.01
internal_count=52950 37857 27137 10720 5534 5186 23841 15093 3012 12081 3285 8796 3296 2166 2436 5006 1151 5149 1236 784 4070 5284 3971 1531 1940 1639 913 22690 20369 2321 4944
is_linear=0
shrinkage=0.0274897


Tree=8
num_leaves=32
num_cat=0
split_feature=63 70 63 63 112 229 204 70 262 262 230 70 173 246 254 246 254 248 191 248 224 248 70 231 262 99 196 200 65 110 65
split_gain=979.923 258.812 225.156 175.035 150.884 158.94 94.7693 187.207 86.577 78.6335 66.1494 65.082 62.5501 64.7674 60.5194 60.4903 95.5587 59.4487 58.7796 52.0872 55.7844 50.0988 66.3147 61.6045 56.7232 51.0026 46.8601 46.4539 45.953 45.8849 49.5401
threshold=0.31809931993484503 2.453093528747559 0.47688540816307073 0.461900144815445 1.0000000180025095e-35 9.651125907897951 0.00046268092410173273 1.2892208099365237 -0.63317501544952381 0.27877098321914678 14.756889343261721 1.086417078971863 101408.80468750001 311.34725952148443 84.500000000000014 987.45056152343761 49.500000000000007 203.50000000000003 4.5000000000000009 52.500000000000007 308.50000000000006 235.50000000000003 4.3909065723419198 251.50000000000003 -1.1106211543083189 104999.98828125001 0.44307699799537664 -0.90185803174972523 69.500000000000014 1.0000000180025095e-35 50.500000000000007
decision_type=2 2 2 2 2 2 2 2 2 2 2 2 2 2 2 2 2 2 2 2 2 2 2 2 2 2 2 2 2 2 2
left_child=6 3 18 11 5 21 -1 19 -5 10 26 -2 13 -7 -15 28 29 -11 -3 -8 -21 22 23 24 -4 -23 -10 -28 -14 30 -17
right_child=1 2 4 8 -6 12 7 -9 9 17 -12 -13 15 14 -16 16 -18 -19 -20 20 -22 25 -24 -25 -26 -27 27 -29 -30 -31 -32
leaf_value=-0.014224990464962759 0.05864343598661851 0.032068278387874016 0.04082977778707679 0.055077841663197222 -0.0047992362418142632 0.0061193402151769015 0.0064640252452492341 -0.0088367538305784039 -0.0075712818867339528 0.030884832935501087 -0.0047097756363532126 0.0086751519981169648 0.0099344038934671974 0.044427065910046512 -0.0049875928724772379 0.075032407417971056 0.070557520816393701 0.070455213118668342 -0.0046675287522310741 0.021303309201925559 0.078349302600696197 -0.00042784455390477695 -0.0027031897783547387 0.026976115312248673 0.0034287996014132328 0.039489463716741752 -0.0047443455646743928 0.030634088351290008 0.041855326627769134 0 0.0096609301533241293
leaf_weight=1895.3659043163061 20.025811091065407 33.515870824456215 32.697591185569763 75.682388141751289 521.61362512409687 57.422629997134209 227.09805884957314 2427.8763401210308 34.069695442914963 136.24081063270569 83.618673756718636 1130.9348638653755 513.9501316845417 178.93341527879238 20.892853781580925 16.944753393530846 36.678802758455276 36.398475348949432 1752.5710950642824 76.783000111579895 15.580986991524695 39.417773425579071 586.23635245859623 130.01661698520184 483.22545471787453 62.477011695504189 31.642477437853813 244.70995628833771 36.492664769291878 48.521105870604515 18.1676966547966
leaf_count=9309 92 160 152 347 2509 270 1093 11823 160 634 391 5399 2420 824 98 79 167 164 8451 368 74 187 2799 616 2294 295 148 1141 171 229 86
internal_value=0.000106623 0.00711325 0.00364002 0.0159633 0.00852775 0.0116011 -0.00949624 -0.00623363 0.0274594 0.0237677 0.0169854 0.0095463 0.0203379 0.0318642 0.039258 0.0159154 0.0335739 0.0392399 -0.00397744 0.0135474 0.0309512 0.00552296 0.00399028 0.0100657 0.00580207 0.0240464 0.022831 0.0265813 0.0120535 0.0173313 0.0412547
internal_weight=11005.8 6363.1 4569.78 1793.32 2783.69 2262.07 4642.7 2747.34 642.362 566.68 394.041 1150.96 928.004 257.249 199.826 670.755 120.312 172.639 1786.09 319.462 92.364 1334.07 1232.18 645.94 515.923 101.895 310.422 276.352 550.443 83.6336 35.1125
internal_count=52950 30283 21807 8476 13196 10687 22667 13358 2985 2638 1840 5491 4344 1192 922 3152 561 798 8611 1535 442 6343 5861 3062 2446 482 1449 1289 2591 394 165
is_linear=0
shrinkage=0.0274897


end of trees

feature_importances:
session_range_pct=24
ad_line=10
wt_last_ob_depth=10
wt_bars_since_os_exit=9
vwap_upper_band=8
adx_bars_since_weak=7
adx_1h=7
atr_percentile=6
vwap_session=6
pivot_S3=6
macd_hist_min_50=6
ema9_1h_dist_pct=6
kc_width=5
realized_vol_20=5
vwap_daily=5
vwap_dist_pct=5
vwap_band_position=5
pivot_R2=5
session_london=5
parkinson_vol=5
stoch_bars_in_ob=5
wt_bars_since_ob_exit=5
rsi_bars_since_ob=5
rsi_bars_since_os=5
squeeze_duration_last=5
wt2_1h=5
macd_hist_1h=5
atr_14=4
pivot_R3=4
pivot_times_tested_today=4
higher_highs_count_20=4
adx_peak_50=4
wt1_1h=4
macd_hist_1h_direction=4
ema50_1h_dist_pct=4
adx=3
bars_since_squeeze_release=3
vfi=3
hurst_exponent=3
wt_last_os_depth=3
squeeze_momentum_at_fire=3
adx_bars_since_trend=3
bars_since_volume_spike=3
ema21_1h_dist_pct=3
atr_pct=2
vfi_range_pct=2
pivot_S1=2
pivot_R1=2
overlap_london_ny=2
squeeze_count_200=2
squeeze_mom_peak_since_fire=2
pivot_touch_count_today=2
macd_signal_5min=1
vwap_lower_band=1
pivot_S2=1
pivot_P=1
dist_to_nearest_pivot_pct=1
pivot_zone=1
session_new_york=1
minutes_to_session_close=1
day_of_week=1
mean_reversion_score=1
swing_range_pct=1
lower_lows_count_20=1
price_entropy=1
skewness_20=1
stoch_bars_in_os=1
stoch_recovery_speed=1
wt_ob_count_100=1
rsi_bars_since_50_cross=1
rsi_ob_count_100=1
rsi_time_above_50_pct=1
macd_bars_since_zero_cross=1
macd_hist_max_50=1
bars_since_pivot_touch=1
vfi_1h_direction=1

parameters:
[boosting: gbdt]
[objective: multiclass]
[metric: multi_logloss]
[tree_learner: serial]
[device_type: cpu]
[data_sample_strategy: bagging]
[data: ]
[valid: ]
[num_iterations: 1000]
[learning_rate: 0.0274897]
[num_leaves: 32]
[num_threads: -1]
[seed: 42]
[deterministic: 0]
[force_col_wise: 0]
[force_row_wise: 0]
[histogram_pool_size: -1]
[max_depth: -1]
[min_data_in_leaf: 73]
[min_sum_hessian_in_leaf: 0.001]
[bagging_fraction: 0.668424]
[pos_bagging_fraction: 1]
[neg_bagging_fraction: 1]
[bagging_freq: 5]
[bagging_seed: 400]
[bagging_by_query: 0]
[feature_fraction: 0.502556]
[feature_fraction_bynode: 1]
[feature_fraction_seed: 30056]
[extra_trees: 0]
[extra_seed: 12879]
[early_stopping_round: 0]
[early_stopping_min_delta: 0]
[first_metric_only: 0]
[max_delta_step: 0]
[lambda_l1: 0.0184309]
[lambda_l2: 0.0258861]
[linear_lambda: 0]
[min_gain_to_split: 0]
[drop_rate: 0.1]
[max_drop: 50]
[skip_drop: 0.5]
[xgboost_dart_mode: 0]
[uniform_drop: 0]
[drop_seed: 17869]
[top_rate: 0.2]
[other_rate: 0.1]
[min_data_per_group: 100]
[max_cat_threshold: 32]
[cat_l2: 10]
[cat_smooth: 10]
[max_cat_to_onehot: 4]
[top_k: 20]
[monotone_constraints: ]
[monotone_constraints_method: basic]
[monotone_penalty: 0]
[feature_contri: ]
[forcedsplits_filename: ]
[refit_decay_rate: 0.9]
[cegb_tradeoff: 1]
[cegb_penalty_split: 0]
[cegb_penalty_feature_lazy: ]
[cegb_penalty_feature_coupled: ]
[path_smooth: 0]
[interaction_constraints: ]
[verbosity: -1]
[saved_feature_importance_type: 0]
[use_quantized_grad: 0]
[num_grad_quant_bins: 4]
[quant_train_renew_leaf: 0]
[stochastic_rounding: 1]
[linear_tree: 0]
[max_bin: 255]
[max_bin_by_feature: ]
[min_data_in_bin: 3]
[bin_construct_sample_cnt: 200000]
[data_random_seed: 175]
[is_enable_sparse: 1]
[enable_bundle: 1]
[use_missing: 1]
[zero_as_missing: 0]
[feature_pre_filter: 1]
[pre_partition: 0]
[two_round: 0]
[header: 0]
[label_column: ]
[weight_column: ]
[group_column: ]
[ignore_column: ]
[categorical_feature: ]
[forcedbins_filename: ]
[precise_float_parser: 0]
[parser_config_file: ]
[objective_seed: 16083]
[num_class: 3]
[is_unbalance: 0]
[scale_pos_weight: 1]
[sigmoid: 1]
[boost_from_average: 1]
[reg_sqrt: 0]
[alpha: 0.9]
[fair_c: 1]
[poisson_max_delta_step: 0.7]
[tweedie_variance_power: 1.5]
[lambdarank_truncation_level: 30]
[lambdarank_norm: 1]
[label_gain: ]
[lambdarank_position_bias_regularization: 0]
[eval_at: ]
[multi_error_top_k: 1]
[auc_mu_weights: ]
[num_machines: 1]
[local_listen_port: 12400]
[time_out: 120]
[machine_list_filename: ]
[machines: ]
[gpu_platform_id: -1]
[gpu_device_id: -1]
[gpu_use_dp: 0]
[num_gpu: 1]

end of parameters

pandas_categorical:null
