tree
version=v4
num_class=3
num_tree_per_iteration=3
label_index=0
max_feature_idx=96
objective=multiclass num_class:3
feature_names=session_range_pct session_london ad_line realized_vol_20 atr_pct atr_14 parkinson_vol kc_width macd_hist_min_50 day_of_week wt_last_os_depth minutes_into_session adx_peak_50 vwap_upper_band wt_last_ob_depth vwap_daily macd_hist_max_50 squeeze_mom_peak_since_fire adx_1h vfi_1h squeeze_momentum_at_fire wt_bars_since_ob_exit pivot_S3 macd_hist_1h wt2_1h pivot_times_tested_today wt_bars_since_os_exit vwap_lower_band wt1_1h vwap_band_position rsi_bars_since_os vfi_signal vfi_1h_direction adx_bars_since_weak rsi_bars_since_ob ema50_1h_dist_pct atr_percentile pivot_R3 squeeze_duration_last session_tokyo vwap_dist_pct ema21_1h_dist_pct ema9_1h_dist_pct pivot_P squeeze_count_200 pivot_S2 bars_since_volume_spike pivot_R2 pivot_touch_count_today vfi divergence_freshness session_sydney kama_dist_pct rsi_ob_count_100 hurst_exponent vwap_session swing_low_dist_pct minutes_to_session_close rsi_os_count_100 overlap_sydney_tokyo pivot_R1 autocorrelation_1 swing_high_dist_pct autocorrelation_5 session_new_york nearest_pivot_type pivot_S1 adx_bars_since_trend macd_hist_1h_direction adx higher_highs_count_20 cloud_dist_pct stoch_bars_in_ob bars_since_pivot_touch lower_lows_count_20 bars_since_squeeze_release price_entropy stoch_bars_since_green mean_reversion_score rsi_time_above_50_pct wt_ob_count_100 stoch_bars_in_os pivot_zone overlap_london_ny bb_width dist_to_nearest_pivot_pct ema21_dist_pct vwap_slope vwap_session_dist_pct stoch_red_count_50 zscore_50 return_60bar swing_range_pct stoch_bars_since_red vfi_range_pct active_session_count stoch_last_extreme_depth
feature_infos=[0.47219109535217285:16.891002655029297] [0:1] [91338.3359375:141393.359375] [8.5863313870504498e-05:0.021597558632493019] [0.0087995817884802818:1.9502072334289551] [9.445429801940918:2205.770263671875] [5.5937041906872764e-05:0.018528565764427185] [0.019226456061005592:6.9132614135742188] [-1020.6376953125:13.420256614685059] [0:6] [0.0018559229793027043:37.068862915039062] [0:475] [13.201913833618164:75.425430297851562] [84024.8203125:125084.6953125] [0.0029590311460196972:37.526187896728516] [83712.296875:124810.40625] [-9.9459466934204102:424.62173461914062] [0.22822143137454987:4823.546875] [8.3146018981933594:65.013397216796875] [-41.162704467773438:43.512901306152344] [-868.7244873046875:746.70233154296875] [0:970] [77510.515625:121531.7578125] [-765.71429443359375:596.532958984375] [-92.071792602539062:85.882904052734375] [0:282] [0:959] [82752.0234375:124622.703125] [-92.948501586914062:87.342460632324219] [-14.817416191101074:19.578018188476562] [0:790] [-48.8099365234375:45.948307037353516] [-4.138221263885498:4.5437679290771484] [0:602] [0:1084] [-7.9429998397827148:4.7825102806091309] [1:100] [86739.9140625:132991.5] [1:39] [0:1] [-11.987512588500977:3.7156064510345459] [-5.3189435005187988:3.8221962451934814] [-3.8141989707946777:2.9549460411071777] [84409.453125:124647.390625] [0:13] [80145.9140625:122721.9296875] [0:259] [85930.0703125:126572.8515625] [0:282] [-51.724800109863281:48.999946594238281] [0:301] [0:1] [-6.828557014465332:2.4522149562835693] [0:11] [0.35013970732688904:0.6951829195022583] [83712.296875:124810.40625] [-8.7172079086303711:9.8178396224975586] [65:540] [0:10] [0:1] [85429.75:125837.5625] [-0.58789724111557007:0.73460584878921509] [-12.73320198059082:3.5621120929718018] [-0.58933287858963013:0.72541946172714233] [0:1] [0:6] [81774.0625:123457.21875] [0:223] [-249.650634765625:265.89520263671875] [6.1781635284423828:75.425430297851562] [2:15] [-13.865297317504883:4.5020542144775391] [1:45] [0:514] [2:16] [0:719] [0.55421024560928345:2.2864766120910645] [0:218] [-3:3] [0:100] [0:8] [1:34] [0:5] [0:1] [0.045124556869268417:12.91199779510498] [2.878227633118513e-06:13.085362434387207] [-10.41910457611084:2.1344151496887207] [-3.0394637584686279:2.8301942348480225] [-11.987512588500977:3.7156064510345459] [0:9] [-6.1767134666442871:6.5208344459533691] [-12.447732925415039:7.7249436378479004] [-1.751104474067688:13.730503082275391] [0:231] [0:1] [1:2] [0.00052043946925550699:20]
tree_sizes=3730 3762 3679 3786 3798 3773 3789 3808 3793 3786 3812 3801 3804 3814 3803

Tree=0
num_leaves=34
num_cat=0
split_feature=5 55 12 14 28 10 5 24 8 28 18 12 34 20 19 29 72 38 19 24 60 60 12 63 2 2 2 18 2 14 14 10 19
split_gain=429.493 149.795 104.004 120.895 158.013 100.054 97.4087 110.983 96.0322 93.3196 85.8928 82.7982 111.975 73.0656 98.8638 70.0696 79.8486 71.7798 96.3953 81.6767 69.5473 73.463 69.4531 68.0297 70.2592 69.2783 95.4436 68.5128 67.7784 67.6518 82.4532 66.9295 64.3885
threshold=77.094585418701186 87435.375000000015 43.886817932128913 23.41532135009766 43.308334350585945 1.4848248362541201 102.43136215209962 -70.382453918457017 -90.442878723144517 7.9601891040802011 27.2894401550293 34.272663116455085 189.50000000000003 110.108699798584 -16.931899070739743 -1.0040302276611326 13.500000000000002 3.5000000000000004 1.5193779468536379 6.2236526012420663 119739.19531250001 119129.84375000001 31.874035835266117 -0.034970516338944428 127014.96875000001 119682.22656250001 109432.21093750001 15.045149326324465 135635.06250000003 8.7325987815856951 8.2733960151672381 14.490032672882082 -21.335746765136715
decision_type=2 2 2 2 2 2 2 2 2 2 2 2 2 2 2 8 2 2 2 2 2 2 2 2 2 2 2 2 2 2 2 2 2
left_child=5 8 3 11 -5 9 31 -8 -2 -1 -10 15 23 14 -7 22 17 20 19 -19 21 -17 -3 24 25 26 -13 -25 -14 30 -9 -4 -18
right_child=1 2 6 4 -6 13 7 29 10 -11 -12 12 28 -15 -16 16 32 18 -20 -21 -22 -23 -24 27 -26 -27 -28 -29 -30 -31 -32 -33 -34
leaf_value=-0.88532632059548177 -0.99525916587668306 -0.95854568223603354 -0.98104143012167588 -0.89353011855475761 -1.0210173050836897 -0.99969282291685857 -0.92545956060898249 -0.99386067905115405 -0.9097651781311652 -0.9508446607596146 -0.97167949747315829 -0.97937679780095699 -1.0022842337733295 -0.90774936607858048 -0.95945077434127657 -1.0020709819333529 -1.0344853036499093 -0.98401380359113422 -0.97160854017528453 -1.0187210754198734 -1.0434113191533965 -0.93198383914363347 -1.0065319521806029 -0.92689405574380634 -0.93457850539189746 -0.99111571150434097 -0.91589446221200788 -0.98323552802958891 -0.90013331462079504 -1.0132637400506999 -0.8403830717980777 -0.91506622551414629 -0.92581535621871192
leaf_weight=225.457604855299 241.28536182641983 814.95362004637718 433.32881307601929 210.33330374956131 91.800990432500839 457.24631249904633 122.04959264397621 1671.0594082176685 364.39013826847076 394.28701254725456 248.67164841294289 351.02447682619095 1104.7774365842342 156.51893004775047 3313.6288538873196 2701.2705230712891 43.965991586446762 1042.8733204305172 1600.3620937466621 781.89119437336922 259.92694225907326 102.00110048055649 262.38903778791428 153.00165072083473 582.81318446993828 519.50215658545494 281.0306182205677 1978.1178934574127 44.317719519138336 2230.6585491299629 23.21404355764389 131.89797475934029 191.69172331690788
leaf_count=641 686 2317 1232 598 261 1300 347 4751 1036 1121 707 998 3141 445 9421 7680 125 2965 4550 2223 739 290 746 435 1657 1477 799 5624 126 6342 66 375 545
internal_value=-0.979642 -0.985112 -0.986712 -0.983025 -0.9323 -0.957286 -0.997195 -1.0016 -0.951925 -0.926976 -0.934855 -0.984223 -0.976088 -0.962073 -0.964334 -0.989453 -0.992532 -0.994219 -0.986142 -0.998893 -1.00325 -0.999515 -0.970244 -0.969474 -0.95754 -0.969174 -0.951127 -0.979192 -0.998326 -1.00398 -0.99174 -0.96565 -0.946154
internal_weight=23131.7 18584.6 17730.3 13118 302.134 4547.14 4612.21 4046.98 854.347 619.745 613.062 12815.9 5014.59 3927.39 3770.88 7801.33 6723.98 6488.33 3425.13 1824.76 3063.2 2803.27 1077.34 3865.49 1734.37 1151.56 632.055 2131.12 1149.1 3924.93 1694.27 565.227 235.658
internal_count=65766 52838 50409 37296 859 12928 13113 11506 2429 1762 1743 36437 14257 11166 10721 22180 19117 18447 9738 5188 8709 7970 3063 10990 4931 3274 1797 6059 3267 11159 4817 1607 670
is_linear=0
shrinkage=1


Tree=1
num_leaves=34
num_cat=0
split_feature=4 0 0 0 87 14 27 33 35 14 87 40 25 30 10 20 25 71 24 7 32 24 29 21 73 67 39 68 12 0 87 72 19
split_gain=311.23 223.967 167.677 140.309 160.72 116.604 117.849 114.154 110.995 106.134 103.538 102.564 85.1518 88.9699 81.321 78.4499 87.1137 88.2333 77.3072 87.0603 76.3343 87.4433 86.9893 82.0279 87.2593 78.8089 74.9601 88.0085 84.1712 76.3388 71.8466 71.7849 71.5702
threshold=0.15654242038726809 2.5356380939483647 7.7749173641204843 1.6813147068023684 -0.0025798211572691794 13.493189811706545 117945.38671875001 295.50000000000006 -0.79479023814201344 9.4879908561706561 0.0092235188931226748 -1.7518720626831052 88.500000000000014 68.500000000000014 14.320805072784426 101.29302978515626 1.0000000180025095e-35 -0.43668740987777704 40.931528091430671 0.22517599165439608 -1.3727051019668577 -27.620135307312008 -1.0947595238685606 211.50000000000003 96.500000000000014 103.50000000000001 1.0000000180025095e-35 -11.191042900085447 60.711566925048835 2.8980700969696049 -0.0014853252796456216 22.500000000000004 15.722793579101564
decision_type=2 2 2 2 2 2 8 2 2 2 2 2 2 2 2 2 2 2 2 2 2 2 10 2 2 2 2 2 2 2 2 2 2
left_child=3 30 11 4 -1 6 9 26 -8 10 20 -3 13 -6 -13 16 -11 -18 19 -14 -5 22 -22 25 -25 -23 27 29 -29 -7 -2 -16 -15
right_child=1 2 -4 5 12 7 8 -9 -10 15 -12 14 18 32 31 -17 17 -19 -20 -21 21 23 -24 24 -26 -27 -28 28 -30 -31 -32 -33 -34
leaf_value=-0.97758634378366305 -1.0074722369046347 -1.0040724889727413 -0.88424190684397608 -0.98088476013378412 -0.97419969481411162 -0.94820003135791209 -0.98094416579448473 -0.84936097390729526 -0.90597069133237529 -0.99478125588515454 -0.96307615591965023 -0.9612367175151233 -0.91032915218363097 -0.9481312777641967 -0.94116554727227641 -0.95420623701423546 -0.95533706440629884 -0.90371633466158974 -0.85571830723303699 -0.99159665192847712 -0.94650968846322536 -0.93840693470838554 -0.89505681158578798 -0.98236202143179119 -0.82097041989796171 -0.85885641367444454 -0.97306924223265179 -0.9680307761014636 -0.87742435127956309 -0.88403547413203976 -0.97122021202613007 -0.8256138276301308 -0.90602839632018972
leaf_weight=1373.7755703926086 800.42001497745514 304.29484784603119 208.913538813591 243.79177868366241 760.20326900482178 246.99488234519958 143.07196354866028 67.265176892280579 1403.6712045669556 86.483798861503601 1373.0637695789337 4108.8701969385147 342.73209178447723 1749.2504996061325 1255.6166353225708 423.52148413658142 255.89239251613617 1462.0388712882996 112.10862815380096 116.02353262901306 332.76688039302826 2005.8546929359436 621.0462099313736 414.62397396564484 23.13352644443512 85.416097640991211 1012.5366574525833 749.88215720653534 74.027284622192383 242.0122766494751 656.9921510219574 36.301841497421265 313.54825842380524
leaf_count=3860 2249 855 587 685 2136 694 402 189 3944 243 3858 11545 963 4915 3528 1190 719 4108 315 326 935 5636 1745 1165 65 240 2845 2107 208 680 1846 102 881
internal_value=-0.948843 -0.962645 -0.95562 -0.942498 -0.954167 -0.937559 -0.933272 -0.953456 -0.912914 -0.937571 -0.94403 -0.958237 -0.944689 -0.950467 -0.955652 -0.922794 -0.915416 -0.911411 -0.916106 -0.930911 -0.937009 -0.933934 -0.912994 -0.941837 -0.973769 -0.935147 -0.956477 -0.943688 -0.959866 -0.916414 -0.991141 -0.937897 -0.941724
internal_weight=23406.1 7371.41 5914 16034.7 4767.64 11267.1 8874.38 2392.72 1546.74 7327.63 5099.7 5705.08 3393.87 2823 5400.79 2227.94 1804.42 1717.93 570.864 458.756 3726.63 3482.84 953.813 2529.03 437.758 2091.27 2325.45 1312.92 823.909 489.007 1457.41 1291.92 2062.8
internal_count=65766 20712 16617 45054 13396 31658 24935 6723 4346 20589 14329 16030 9536 7932 15175 6260 5070 4827 1604 1289 10471 9786 2680 7106 1230 5876 6534 3689 2315 1374 4095 3630 5796
is_linear=0
shrinkage=1


Tree=2
num_leaves=34
num_cat=0
split_feature=7 1 6 57 9 25 1 57 64 12 35 40 9 40 5 7 2 2 32 68 53 60 30 9 79 40 25 16 61 86 79 25 77
split_gain=1430.96 404.028 229.195 215.82 206.334 170.575 166.501 143.282 132.485 91.6817 86.5963 85.2163 81.6757 79.3236 76.3308 76.103 76.8447 71.8269 85.7901 70.4753 69.4703 85.7992 66.9336 65.7415 95.667 86.6387 79.6811 76.6137 69.2357 66.2044 74.7565 73.3078 69.1574
threshold=0.32165984809398657 1.0000000180025095e-35 0.00045880772813688969 332.50000000000006 4.5000000000000009 30.500000000000004 1.0000000180025095e-35 452.50000000000006 1.0000000180025095e-35 43.285135269165046 -2.5906810760498042 1.180543899536133 4.5000000000000009 0.69388049840927135 182.26725006103518 0.44215194880962377 133156.10156250003 94615.171875000015 -0.081653773784637437 -14.880344390869139 2.5000000000000004 93930.652343750015 450.50000000000006 3.5000000000000004 35.000000000000007 0.15024701505899432 25.500000000000004 117.61019897460939 -0.053991433233022683 -0.1174560599029064 67.000000000000014 4.5000000000000009 18.500000000000004
decision_type=2 2 2 2 2 2 2 2 2 2 2 2 2 2 2 2 2 2 2 2 2 2 2 2 2 2 2 2 2 2 2 2 2
left_child=2 9 -1 12 6 -6 -4 -5 15 10 13 17 -3 -2 -14 -9 -17 18 -12 -20 21 -19 -11 24 -23 -26 29 -27 -29 -25 31 32 -31
right_child=1 3 4 7 5 -7 -8 8 -10 22 11 -13 14 -15 -16 16 -18 20 19 -21 -22 23 -24 26 25 27 -28 28 -30 30 -32 -33 -34
leaf_value=-1.4813989714661262 -1.4711587256850549 -1.4916499848274816 -1.4483256706675831 -1.4143407620768722 -1.4006433194569221 -1.4553615219601774 -1.4855799140473018 -1.4482614279510453 -1.4737522145525634 -1.3933395996365014 -1.336391433886261 -1.4549482270439604 -1.4478946935141874 -1.3059405334447654 -1.2724402813694291 -1.3603537139545552 -1.5002413479853773 -1.4472931516244028 -1.3178133606508253 -1.4277204741884388 -1.3809979976440947 -1.3889226710566354 -1.271066039945183 -1.4178227744696854 -1.44747080984472 -1.4191152868798027 -1.4188743563589399 -1.4931608911330601 -1.312614323724175 -1.4577573740639787 -1.4107022568748171 -1.276745458802325 -1.3255440613692449
leaf_weight=3086.5629667639732 238.70216855406761 605.8527167737484 1816.4719060957432 1599.4946220517159 747.60758820176125 752.76724827289581 1399.6256845593452 239.51685172319412 705.7871855199337 1946.2780910432339 198.78269326686859 257.16832038760185 83.912366420030594 20.638640284538269 20.095518171787262 175.15688136219978 30.143277257680893 459.48130738735199 46.980062752962112 209.64513552188873 456.49413576722145 552.89831078052521 29.871716201305389 122.7455974817276 752.49568721652031 532.80279260873795 347.59815216064453 16.565224438905716 84.998610645532608 38.290108948945999 89.886709660291672 113.78408262133598 80.382072687149048
leaf_count=11366 879 2231 6689 5890 2753 2772 5154 882 2599 7167 732 947 309 76 74 645 111 1692 173 772 1681 2036 110 452 2771 1962 1280 61 313 141 331 419 296
internal_value=-1.43813 -1.41789 -1.4642 -1.44035 -1.45295 -1.4281 -1.46454 -1.43005 -1.45189 -1.40611 -1.41237 -1.40966 -1.48024 -1.4579 -1.41389 -1.41722 -1.38097 -1.40682 -1.37642 -1.4075 -1.41062 -1.41486 -1.39147 -1.40941 -1.41747 -1.42886 -1.38971 -1.40676 -1.3422 -1.36697 -1.34765 -1.32334 -1.36826
internal_weight=17859.5 10056.4 7803.04 3459.96 4716.47 1500.37 3216.1 2750.1 1150.6 6596.49 4620.34 4361 709.861 259.341 104.008 444.817 205.3 4103.83 455.408 256.625 3648.42 3191.93 1976.15 2732.45 1939.76 1386.86 792.687 634.367 101.564 445.089 322.343 232.456 118.672
internal_count=65766 37032 28734 12741 17368 5525 11843 10127 4237 24291 17014 16059 2614 955 383 1638 756 15112 1677 945 13435 11754 7277 10062 7143 5107 2919 2336 374 1639 1187 856 437
is_linear=0
shrinkage=1


Tree=3
num_leaves=34
num_cat=0
split_feature=5 55 6 38 18 19 12 24 14 18 18 66 45 34 26 80 72 18 24 17 23 19 37 34 25 20 81 55 44 10 35 14 29
split_gain=371.276 126.307 136.415 134.15 132.657 105.294 103.721 108.225 96.6227 101.688 94.3936 85.3722 89.303 89.2773 91.9765 83.6702 87.6141 82.5492 82.4183 81.3209 94.1991 90.2743 75.5153 74.9025 74.892 71.0823 78.3893 81.867 69.9625 68.6646 65.6767 63.9566 60.9515
threshold=63.864524841308601 86752.132812500015 0.00072725722566246997 3.5000000000000004 29.073880195617679 1.792400121688843 44.329120635986335 -70.382453918457017 23.41532135009766 38.245557785034187 11.675031185150148 109931.57421875001 87964.226562500015 103.50000000000001 226.50000000000003 3.5000000000000004 13.500000000000002 30.650381088256839 49.473745346069343 524.56381225585949 48.713249206542976 3.7882156372070317 110907.96875000001 248.50000000000003 76.500000000000014 180.82527923583987 2.5000000000000004 87435.375000000015 1.5000000000000002 0.050655208528041847 -1.5278795361518858 0.25021445006132131 -0.53099939227104176
decision_type=2 2 2 2 2 2 2 2 2 2 2 2 2 2 2 2 2 2 2 2 2 2 2 2 2 2 2 2 2 2 2 2 10
left_child=10 4 3 15 -2 31 8 22 25 -10 -1 12 13 14 -12 16 -3 -18 -15 20 28 -22 -8 -23 -13 26 27 -4 -7 -9 -28 -5 -26
right_child=1 2 6 5 -6 19 7 29 9 -11 11 24 -14 18 -16 -17 17 -19 -20 -21 21 23 -24 -25 32 -27 30 -29 -30 -31 -32 -33 -34
leaf_value=0.096333832708161884 0.093799272948183299 -0.011058624533772378 0.088056761195560315 0.10761867843219319 0.0039569095497716551 0.10770883615678831 0.1194694064335725 0.11904708939176244 0.092945312207421985 -0.075464765337038872 0.067319783080107845 0.060017468347432767 0.0045656252350837695 0.10853218368145434 -0.030983126526481407 0.089838525240750533 0.0067823242434349867 0.11605397916253372 -0.072335535429521133 0.097080694650480109 0.074948644583802196 -0.037992303493245415 -0.010653733590182492 0.11164402930678242 0.075521445890754657 -0.026330985991734564 0.014760552694864525 0.0046565867978175029 0.031055126699298552 -0.025349814413429497 -0.013773493848530296 0.00010303233023972982 -0.016874395046580185
leaf_weight=125.17126423120499 174.95022290945053 3638.6679480969906 79.658347278833389 36.995589584112167 284.16743844747543 84.484360665082932 58.942513048648834 21.656463831663132 118.96206912398338 29.265753537416458 118.37594923377037 628.47864025831223 1421.347316801548 162.67912325263023 132.78560197353363 58.094118505716324 135.84514263272285 68.515669643878937 18.30340912938118 110.59292325377464 69.057904303073883 302.35242068767548 58.109067380428314 23.587845653295517 63.298395812511444 1041.8906000852585 609.54653656482697 2725.015105932951 1097.4380509853363 3405.282573133707 4117.120710760355 1919.4676065146923 181.24586725234985
leaf_count=352 490 10349 223 105 809 238 166 62 333 83 333 1769 4011 457 374 163 384 194 52 314 196 860 164 67 178 2969 1735 7763 3107 9759 11738 5456 513
internal_value=1.75677e-05 -0.00383943 -0.00481526 0.00377017 0.0382332 0.0149674 -0.0100974 -0.0218054 -0.00533837 0.0595853 0.0274351 0.0242632 0.0143976 0.0466999 0.0153224 -0.00668664 -0.00815186 0.0435251 0.0901406 0.0298209 0.0250887 -0.00920014 0.0548586 -0.0270859 0.0451912 -0.00646306 -0.00371274 0.0070335 0.0365559 -0.0244292 -0.0100913 0.00214938 0.00703408
internal_weight=23121.4 20269.7 19810.5 7545.1 459.118 3643.98 12265.4 3543.99 8721.46 148.228 2851.69 2726.51 1853.49 432.144 251.162 3901.12 3843.03 204.361 180.983 1687.51 1576.92 394.998 117.052 325.94 873.023 8573.23 7531.34 2804.67 1181.92 3426.94 4726.67 1956.46 244.544
internal_count=65766 57727 56428 21433 1299 10343 34995 10151 24844 416 8039 7687 5227 1216 707 11090 10927 578 509 4782 4468 1123 330 927 2460 24428 21459 7986 3345 9821 13473 5561 691
is_linear=0
shrinkage=0.081156


Tree=4
num_leaves=34
num_cat=0
split_feature=4 0 0 0 42 14 48 40 40 30 38 23 44 14 33 14 26 38 29 0 31 8 22 18 67 10 12 74 18 18 8 0 66
split_gain=269.272 203.301 140.917 122.557 138.932 103.411 102.013 101.676 101.672 101.534 98.382 109.872 102.153 121.85 98.1432 90.4396 82.8221 86.9225 81.5215 118.436 94.9609 91.0572 120.377 80.6834 78.9287 78.5721 83.5997 76.8917 74.1313 141.807 83.1087 73.1017 66.9925
threshold=0.15654242038726809 2.7184690237045293 7.7749173641204843 1.6813147068023684 -0.23209884762763974 13.493189811706545 89.500000000000014 -1.6469368934631345 0.2924946397542954 68.500000000000014 4.5000000000000009 29.675169944763187 4.5000000000000009 1.9959272146224978 295.50000000000006 12.870860099792482 263.50000000000006 1.5000000000000002 0.85956311225891124 3.7574086189270024 9.333041191101076 -91.168529510498033 109674.71875000001 46.269260406494148 64.500000000000014 0.40719498693943029 50.876905441284187 7.5000000000000009 17.604852676391605 24.190770149230961 -23.181203842163082 1.6717557311058047 117199.84765625001
decision_type=2 2 2 2 2 2 2 2 2 2 2 2 2 2 2 2 2 2 8 2 2 2 2 2 2 2 2 2 2 2 2 2 2
left_child=3 8 7 4 -1 10 9 -3 -2 -6 12 -12 13 -5 -7 32 17 -8 19 -9 -20 -21 -23 -4 -13 -15 -27 -22 -11 31 -31 -30 -14
right_child=1 2 23 5 6 14 16 18 -10 28 11 24 15 25 -16 -17 -18 -19 20 21 27 22 -24 -25 -26 26 -28 -29 29 30 -32 -33 -34
leaf_value=-0.051377520180658387 -0.04586678026033502 -0.047533184769703314 0.092133683642491332 -0.027461803906848156 -0.025766322680321932 -0.0072540395847636831 0.055027020202176126 -0.012969856775602907 -0.0035389343300063578 0.025358358515971433 -0.0074324206588942095 0.014349880684279625 0.025332930449330771 -0.070211566707417392 0.090953982001255693 0.10704311395779145 0.098340753542985715 -0.0088291679133690303 -0.031054988032415402 0.045754776719785298 -0.017366836848323953 -0.0095541582948266406 0.092477412529470115 -0.018219463233949858 0.071944884798198397 0.025951138076704593 -0.030377593760186346 0.02495025008728927 -0.034981687535494979 0.001640590920576202 0.056594403203900745 0.12897726915816446 0.067427832813772903
leaf_weight=389.66207882761955 1468.6763833165169 382.4657963514328 150.65739148855209 456.42370137572289 1180.1957230269909 2321.3615948855877 233.27997854351997 1131.8502768576145 502.05124205350876 707.28151994943619 2145.8229594528675 1333.5231782495975 2146.7655122578144 63.70687136054039 68.849836140871048 105.32927623391151 94.934171587228775 351.69218444824219 1182.4537858068943 611.13436219096184 625.47330737113953 619.98137894272804 86.659029573202133 61.150074511766434 177.6123414337635 2006.6383461356163 189.67767298221588 515.88678473234177 778.88606554269791 769.01547381281853 237.163903683424 18.159860342741013 282.04803568124771
leaf_count=1103 4171 1086 417 1280 3337 6534 652 3189 1419 1987 6017 3735 6010 179 189 293 265 985 3337 1717 1763 1746 244 170 495 5609 532 1453 2188 2162 666 51 785
internal_value=8.16098e-05 -0.0127969 -0.00460964 0.0059677 -0.00495334 0.0105701 -0.000810496 -0.00727723 -0.0350897 -0.0061346 0.0145924 0.00436893 0.0217106 0.010771 -0.00441541 0.0334321 0.0280706 0.016627 -0.0040483 0.00627853 -0.0149381 0.0228182 0.00296209 0.0602379 0.0211324 0.018498 0.0210803 0.00175242 0.00309145 -0.00563833 0.01461 -0.0312097 0.0302292
internal_weight=23396.5 7338.44 5367.71 16058 4760.27 11297.8 4370.61 5155.9 1970.73 3690.7 8907.55 3656.96 5250.59 2716.45 2390.21 2534.14 679.906 584.972 4773.44 2449.63 2323.81 1317.77 706.64 211.807 1511.14 2260.02 2196.32 1141.36 2510.51 1803.23 1006.18 797.046 2428.81
internal_count=65766 20712 15122 45054 13396 31658 12293 14535 5590 10391 24935 10247 14688 7600 6723 7088 1902 1637 13449 6896 6553 3707 1990 587 4230 6320 6141 3216 7054 5067 2828 2239 6795
is_linear=0
shrinkage=0.081156


Tree=5
num_leaves=34
num_cat=0
split_feature=6 0 1 6 0 8 1 68 74 0 32 13 0 23 33 16 13 2 16 67 19 21 2 8 8 23 0 68 9 38 25 16 15
split_gain=1232.71 543.493 287.065 228.782 314.604 225.685 134.904 134.271 126.568 130.5 122.978 96.2889 94.1689 108.511 93.7286 86.601 88.7989 82.8816 80.0773 74.6937 74.384 73.7005 74.8864 86.6297 68.4615 68.3136 72.1819 72.1623 74.2003 68.1424 67.8834 64.5057 108.484
threshold=0.00072725722566246997 2.5356380939483647 1.0000000180025095e-35 0.0004995448689442129 1.5521297454833987 -78.571746826171861 1.0000000180025095e-35 36.806182861328132 9.5000000000000018 5.9437437057495126 -2.0578237771987911 86971.019531250015 1.5160563588142397 172.84748077392581 52.500000000000007 41.702730178833015 91432.984375000015 101587.55859375001 100.87224197387697 24.500000000000004 2.5017111301422124 602.50000000000011 92263.097656250015 -111.80961608886717 -193.46789550781247 -268.34353637695307 3.38190770149231 -19.064027786254879 1.0000000180025095e-35 3.5000000000000004 119.50000000000001 76.15940093994142 108334.26562500001
decision_type=2 2 2 2 2 2 2 2 2 2 2 10 2 2 2 2 8 2 2 2 2 2 2 2 2 2 2 2 2 2 2 2 2
left_child=3 5 8 -1 14 19 -6 12 17 11 29 -10 -7 15 -5 -14 -17 25 24 20 -2 22 -13 -24 -12 -3 27 28 -27 -4 -16 -18 -33
right_child=1 2 10 4 6 7 -8 -9 9 -11 18 21 13 -15 30 16 31 -19 -20 -21 -22 -23 23 -25 -26 26 -28 -29 -30 -31 -32 32 -34
leaf_value=-0.038849870541994493 0.07036040031000558 0.21819540338828469 0.0088365359546663091 0.019537416287844535 -0.0076839917439634406 0.077924486645874536 -0.040101062752420556 0.087458976860272611 -0.018142405361739701 -0.026908219595673136 0.084576253701086943 0.13426754181235281 -0.0093656169852193716 0.10550879094067378 0.099803035019265476 0.097798126159390819 0.012336022119680023 -0.00237100983305306 0.010191368698975805 0.025416092833154776 0.12722902142459108 0.17418504723408507 0.074109668263089512 0.02930750931858634 -0.030210144091149277 0.012832506507975634 0.0029646758101582868 0.029729402614021665 0.16826808755516642 0.1731298266271957 -0.065194995909300404 0.0014405400359598277 0.10768393292979241
leaf_weight=3691.0915642082691 317.3015770316124 12.453083783388136 33.329643905162811 507.87778863310814 2033.8222281932831 222.17989891767502 1448.2207836508751 282.40680336952209 163.30776679515839 208.32695144414902 34.707192361354828 59.231820404529572 547.09032794833183 97.402796417474747 183.07410883903503 113.25549203157425 904.94490006566048 1915.1980488598347 451.42019510269165 111.82518100738525 293.44454452395439 29.500287979841232 387.29164332151413 1074.6618448197842 1775.4986927211285 30.40643572807312 359.24743917584419 197.50163823366165 61.286312073469162 33.324628472328186 17.861634075641632 117.98557376861572 136.89870381355286
leaf_count=13949 1141 45 122 1857 7515 800 5466 1019 594 758 126 211 1999 351 670 407 3298 6945 1651 403 1047 105 1388 3888 6565 108 1300 712 218 120 66 429 493
internal_value=-0.000130246 0.0188287 0.00596713 -0.0241163 -0.0111364 0.0467442 -0.0211706 0.0348589 0.0179407 0.0336997 -0.0171622 0.0410737 0.0279064 0.0221001 0.0381369 0.0176228 0.0292281 0.00617603 -0.0203701 0.0865559 0.0977251 0.0473174 0.0448333 0.0411894 -0.0279969 0.0309539 0.0272921 0.0574611 0.116938 0.0913326 0.0850488 0.0225119 0.0585728
internal_weight=17853.4 9971.43 6826.69 7881.95 4190.86 3144.74 3482.04 2422.16 4498.41 1922.32 2328.28 1713.99 2139.76 1917.58 708.814 1820.17 1273.08 2576.09 2261.63 722.571 610.746 1550.69 1521.19 1461.95 1810.21 660.895 648.442 289.194 91.6927 66.6543 200.936 1159.83 254.884
internal_count=65766 36243 24856 29523 15574 11387 12981 8796 16272 6944 8584 6186 7777 6977 2593 6626 4627 9328 8342 2591 2188 5592 5487 5276 6691 2383 2338 1038 326 242 736 4220 922
is_linear=0
shrinkage=0.081156


Tree=6
num_leaves=34
num_cat=0
split_feature=5 15 6 18 12 14 18 8 12 30 18 72 2 50 12 47 13 14 3 21 17 32 18 40 14 48 11 54 58 18 40 41 17
split_gain=313.481 109.726 122.301 113.383 92.8416 83.9371 89.2947 81.902 74.8365 113.725 73.9188 71.025 70.2939 69.2313 61.2162 68.827 96.9704 64.8764 66.4347 57.7212 59.6083 56.9257 56.0895 55.2285 54.8765 54.3909 53.3555 52.3943 53.0294 50.9862 69.2474 48.2587 74.8372
threshold=61.408176422119148 86752.132812500015 0.00072725722566246997 29.073880195617679 44.329120635986335 23.41532135009766 38.245557785034187 -24.542406082153317 21.413889884948734 387.50000000000006 11.675031185150148 14.500000000000002 92303.625000000015 149.50000000000003 39.426036834716804 104527.07031250001 98623.937500000015 10.225880146026613 0.0022797802230343227 323.50000000000006 237.20017242431643 1.7247506380081179 24.093059539794925 -2.4198321104049678 8.129312992095949 44.500000000000007 192.50000000000003 0.49666598439216619 2.5000000000000004 46.690189361572273 0.53557848930358898 -0.12171796336770056 551.37088012695324
decision_type=2 2 2 2 2 2 2 2 2 2 2 2 2 2 2 2 8 2 2 2 2 2 2 2 2 2 2 2 2 2 2 2 2
left_child=7 3 8 21 5 14 -7 13 9 -3 -9 12 -10 19 31 16 27 18 24 -1 -21 -2 -12 -6 25 -17 -26 -16 -29 -5 -31 32 -4
right_child=1 2 4 29 23 6 -8 10 11 -11 22 -13 -14 -15 15 17 -18 -19 -20 20 -22 -23 -24 -25 26 -27 -28 28 -30 30 -32 -33 -34
leaf_value=0.058800233622314929 0.10234944863920047 -0.032102188786854641 0.0062623189321847376 -0.016725580589005421 0.054982622905453062 0.085836127221240469 -0.072902020310195853 0.092141744416973842 0.081017773487210468 0.073904475027262065 0.021915799665373506 0.045507074029706836 0.0036431516810469704 -0.087482506399530077 0.067265695344313883 -0.022919867969528166 0.10339723431388732 -0.03205624641178529 0.099478930767949642 -0.048464135279309296 0.10710875094950596 -0.04477522020066841 -0.011630951045773677 -0.021814772015612008 0.084749372230471937 0.04370621030492363 -0.0096173898749658746 -0.019006071586795542 0.042989606692111063 0.10547001945072054 -0.075012693302906469 -0.015395164674705881 -0.021970202511505429
leaf_weight=733.4167927801609 159.22195488214493 648.34107065200806 2194.5419575273991 209.07426410913467 62.584288597106934 121.25419643521309 28.704279631376266 81.175780028104782 78.091443300247192 74.098688364028931 1218.0345918238163 290.41594350337982 6743.3169710040092 24.17337504029274 102.46550291776657 412.32337266206741 98.813284158706665 366.28026470541954 50.508246630430222 66.726786464452744 21.247487157583237 19.248137950897217 448.81706288456917 3452.8992121815681 92.144487380981445 100.11485630273819 68.588972300291061 264.25879880785942 138.2778303027153 56.776379704475403 18.380934208631516 3796.403164178133 860.74405673146248
leaf_count=2046 437 1848 6263 595 179 333 83 223 220 209 3406 816 19126 68 291 1178 279 1046 144 187 59 53 1264 9972 262 285 197 754 392 161 53 10875 2462
internal_value=2.93231e-05 -0.00333231 -0.00423477 0.0357312 -0.00931252 -0.00481138 0.0553427 0.0266126 0.00367848 -0.0212024 0.0165712 0.00620773 0.00453217 0.0473528 -0.0058691 0.00794245 0.0299206 -0.00422653 0.00984941 0.0513485 -0.0106582 0.0864024 0.0128769 -0.0204425 0.0030888 -0.0098749 0.0444493 0.0154971 0.00227448 0.00385076 0.0611374 -0.00928492 -0.00168894
internal_weight=23101.5 20507.9 20045.2 462.702 12210.9 8695.42 149.958 2593.59 7834.26 722.44 1748.03 7111.82 6821.41 845.564 8545.46 1693.78 603.815 1089.96 723.68 821.391 87.9743 178.47 1666.85 3515.48 673.172 512.438 160.733 505.002 402.537 284.232 75.1573 6851.69 3055.29
internal_count=65766 58513 57214 1299 34995 24844 416 7253 22219 2057 4893 20162 19346 2360 24428 4828 1716 3112 2066 2292 246 490 4670 10151 1922 1463 459 1437 1146 809 214 19600 8725
is_linear=0
shrinkage=0.081156


Tree=7
num_leaves=34
num_cat=0
split_feature=3 0 0 55 19 23 16 0 80 50 24 0 12 48 8 10 38 35 35 54 19 10 21 38 50 10 68 29 46 19 2 59 20
split_gain=282.666 177.23 102.894 100.293 104.419 151.566 97.2023 84.5339 84.2762 83.2776 84.4246 110.017 95.3402 91.6863 88.572 77.9107 81.3005 83.2695 77.7405 76.2284 75.1652 95.7596 73.108 92.0252 71.7525 70.4492 88.4014 69.9412 86.7719 68.6529 67.9114 73.6885 67.6558
threshold=0.00096102163661271345 2.5356380939483647 7.7749173641204843 118012.80859375001 0.74527806043624889 111.80481719970705 70.535663604736342 4.109206199645997 1.5000000000000002 220.50000000000003 -43.237129211425774 2.5943958759307866 36.980129241943366 91.500000000000014 -43.922325134277337 22.266706466674808 10.500000000000002 0.17214093357324603 -1.690604507923126 0.47687490284442907 -1.4539160728454588 19.231902122497562 205.50000000000003 4.5000000000000009 122.50000000000001 20.039875030517582 59.621795654296882 0.17421950399875644 109.50000000000001 8.5926208496093768 125701.87500000001 1.0000000180025095e-35 -249.76373291015622
decision_type=2 2 2 2 2 2 2 2 2 2 2 2 2 2 2 2 2 2 2 2 2 2 2 2 2 2 2 8 2 2 2 2 2
left_child=3 27 6 7 30 22 -3 9 -9 10 11 -1 13 14 -12 16 17 19 -13 -16 24 -22 23 -6 -14 32 29 -2 -29 -27 31 -5 -8
right_child=1 2 -4 4 5 -7 25 8 -10 -11 12 18 20 -15 15 -17 -18 -19 -20 -21 21 -23 -24 -25 -26 26 -28 28 -30 -31 -32 -33 -34
leaf_value=0.0051085896832022875 -0.045894005218629859 0.0055452814433251734 0.050891319850599817 0.048851438265223944 0.035246894582116585 0.087513017843896285 -0.057517567495866742 0.032783792342281091 -0.030562916587811764 0.13759771687935138 -0.012897723685979186 0.0025089792310775058 -0.027270374548264493 0.033352273790148206 0.043751571607431886 0.085443708169898741 -0.025708842104747543 -0.002703161206457754 0.084794883575632349 0.011241141883573804 0.0074453690555834106 -0.041406316168070417 -0.059380306723216807 -0.028974079935523991 0.089367391171055965 -0.021600006313514612 0.092659792668837435 -0.022444665553068517 0.072934988030422282 0.071359865576494347 0.088764805961987964 -0.059464252252119737 -0.014852467809280658
leaf_weight=673.08263638615608 1017.8562509715557 2778.5382926166058 216.18171241879463 237.28584924340248 343.33318701386452 141.63783466815948 265.60263419151306 1112.5907541513443 157.67898494005203 29.974926233291626 1743.1949369609356 107.59888792037964 1453.1484685242176 712.51641502976418 682.71479952335358 85.260055392980576 444.79194051027298 1693.4002896249294 256.34811735153198 1565.4077040851116 1660.3685187995434 314.14509338140488 129.75601217150688 256.58999642729759 35.404667556285858 244.93139109015465 82.508388936519623 1376.5846637785435 65.634830564260483 66.368591636419296 236.92321217060089 49.885425746440887 3139.4728169739246
leaf_count=1884 2922 7824 593 665 954 391 756 3104 442 84 4899 302 4092 1983 1911 238 1252 4752 714 4392 4663 891 365 721 98 691 231 3916 186 185 655 141 8869
internal_value=8.84244e-05 -0.0109359 -0.00417537 0.0073125 0.0279674 0.0107321 -0.00598789 0.00504689 0.0249101 0.00284351 0.00248734 0.0245658 0.000282489 0.00577996 0.0026165 0.00866697 0.00716944 0.010883 0.0605057 0.0211206 -0.0107112 -0.000324608 -0.00417376 0.00776262 -0.0244807 -0.0144258 0.0180541 -0.0296 -0.0180899 -0.00172434 0.0565912 0.0299798 -0.0181857
internal_weight=23376.7 9253.68 6793.6 14123 1395.41 871.317 6577.42 12727.6 1270.27 11457.4 11427.4 1037.03 10390.4 6927.29 6214.77 4471.57 4386.31 3941.52 363.947 2248.12 3463.07 1974.51 729.679 599.923 1488.55 3798.88 393.808 2460.08 1442.22 311.3 524.094 287.171 3405.08
internal_count=65766 26173 19149 39593 3892 2431 18556 35701 3546 32155 32071 2900 29171 19427 17444 12545 12307 11055 1016 6303 9744 5554 2040 1675 4190 10732 1107 7024 4102 876 1461 806 9625
is_linear=0
shrinkage=0.081156


Tree=8
num_leaves=34
num_cat=0
split_feature=3 0 1 8 7 3 0 11 64 7 1 11 10 71 41 13 7 0 9 13 2 20 13 13 70 37 28 45 0 19 11 20 20
split_gain=1113.86 422.108 309.935 290.314 172.228 158.241 146.223 107.67 122.477 153.962 97.91 92.4344 84.328 83.2045 81.8685 81.4869 81.4049 167.084 81.0089 80.134 131.866 88.3335 79.4755 67.2976 104.78 66.633 66.2063 69.0105 78.687 62.8466 82.9221 62.6275 68.7805
threshold=0.00063601479632779967 2.5356380939483647 1.0000000180025095e-35 -79.574905395507798 0.461900144815445 0.0011416702764108779 1.1511101722717287 207.50000000000003 1.0000000180025095e-35 0.43701484799385076 1.0000000180025095e-35 202.50000000000003 5.4160001277923593 0.32483050227165228 0.41265490651130682 109529.56250000001 0.11982421204447748 1.1087514162063601 5.5000000000000009 109617.85546875001 101408.80468750001 180.82527923583987 96176.523437500015 98623.937500000015 6.5000000000000009 96011.605468750015 -67.906703948974595 106265.43750000001 5.73726511001587 -24.85866546630859 217.50000000000003 6.3165698051452646 -64.843357086181626
decision_type=2 2 2 2 2 2 2 2 2 2 2 2 2 2 2 10 2 2 2 10 2 2 10 8 2 2 2 2 2 2 2 2 2
left_child=16 3 5 -2 6 12 -5 8 9 -4 18 14 -3 -6 22 -10 -1 -18 -8 20 21 -7 -12 24 -14 -26 -11 28 -28 30 -25 32 -22
right_child=1 2 7 4 13 19 10 -9 15 26 11 -13 23 -15 -16 -17 17 -19 -20 -21 31 -23 -24 29 25 -27 27 -29 -30 -31 -32 -33 -34
leaf_value=-0.054923543181380631 0.075120469397825337 -0.023584157474174507 -0.019968661623311752 0.072910591501710503 0.036600842265236147 0.03327380929395083 0.026335290360172438 -0.048761567924247601 -0.04881617183738713 0.1717520564410239 0.052634693248486387 -0.051531099586230381 0.12142261756538733 0.090926792061034573 0.046996985215660855 -0.0021859179636886119 0.0091623125734591453 -0.034586439666867558 -0.020790893696447529 0.048827248434518113 0.0077260550936832078 0.1093093112222436 -0.028855538737573769 -0.023350581548372544 -0.005958647355036966 0.079324345127889051 0.076939151352412097 -0.0142199196546263 -0.023436566063780442 -0.0070674896708403517 0.13553973204293815 -0.014423325404067466 0.070399759346724766
leaf_weight=860.59985460340977 834.02398863434792 821.58152613043785 575.75018586218357 255.07016187906265 528.05215489864349 523.62117931246758 1657.4387197643518 680.86282987892628 652.20657379925251 24.699880242347717 96.73956860601902 277.73837070167065 78.624134868383408 287.45431518554688 204.55001874268055 397.80688175559044 684.99262338876724 3566.7834447622299 280.611058562994 743.09295871853828 591.34569120407104 124.75143271684647 421.52181765437126 38.853312790393829 228.20209574699402 81.784891158342361 247.59638726711273 129.7742258310318 64.665862113237381 1021.4113458693027 48.291412889957428 662.87905377149582 143.28395086526871
leaf_count=3368 2872 2998 2178 895 1857 1847 5998 2614 2432 86 363 1057 273 994 751 1477 2603 13674 1021 2639 2118 432 1571 140 822 291 891 475 236 3714 172 2397 510
internal_value=-0.000154414 0.0127001 0.00111122 0.0315554 0.0224877 0.0129714 0.0139823 -0.0207278 -0.0115985 0.00809874 0.00886046 -0.0117493 -0.00269092 0.0557755 0.00353092 -0.0311621 -0.0321496 -0.0275358 0.0195057 0.025996 0.0176955 0.0479411 -0.0136145 0.00876913 0.0378235 0.0165385 0.0427378 0.0354495 0.05612 -0.00141109 0.0646706 0.00365238 0.0199755
internal_weight=17836.7 12724.3 7881.09 4843.2 4009.18 5107.72 3193.67 2773.36 2092.5 1042.49 2938.6 1000.55 2318.75 815.506 722.811 1050.01 5112.38 4251.78 1938.05 2788.97 2045.88 648.373 518.261 1497.17 388.611 309.987 466.736 442.036 312.262 1108.56 87.1447 1397.51 734.63
internal_count=65766 46121 28742 17379 14507 18353 11656 10389 7775 3866 10761 3742 8410 2851 2685 3909 19645 16277 7019 9943 7304 2279 1934 5412 1386 1113 1688 1602 1127 4026 312 5025 2628
is_linear=0
shrinkage=0.081156


Tree=9
num_leaves=34
num_cat=0
split_feature=4 55 6 38 0 19 89 12 10 12 8 14 18 88 21 42 14 38 19 2 18 0 75 55 0 8 9 10 27 68 18 0 4
split_gain=274.175 107.575 119.163 122.261 88.3333 111.799 96.1595 89.2153 82.6549 81.1408 77.963 75.6749 78.8741 75.2365 73.4166 72.0143 72.2856 71.1185 68.1731 65.245 64.6684 72.3535 63.107 59.8955 66.3758 86.592 58.6969 57.4348 57.0492 56.6484 64.3893 69.4235 55.9762
threshold=0.057249110192060478 87435.375000000015 0.00072725722566246997 3.5000000000000004 1.8648642897605898 1.3818905353546145 1.5000000000000002 20.641516685485843 1.1098462343215945 44.329120635986335 -24.34389495849609 23.41532135009766 38.245557785034187 1.0214338302612307 119.50000000000001 0.28295558691024786 1.5510703921318056 14.500000000000002 3.7882156372070317 125315.37500000001 27.2894401550293 4.9735512733459482 61.500000000000007 114358.47656250001 3.1978831291198735 -48.231773376464837 2.5000000000000004 0.00189636746654287 90857.179687500015 -12.913951396942137 24.259517669677738 1.1087514162063601 0.026244546286761764
decision_type=2 2 2 2 2 2 2 2 2 2 2 2 2 2 2 2 2 2 2 2 2 2 2 2 2 2 2 2 10 2 2 2 2
left_child=8 13 3 15 6 7 19 -6 -1 11 -10 -4 -13 20 18 26 -17 29 -7 -5 21 -2 -20 24 25 -9 -3 -11 -8 -12 31 -31 -32
right_child=1 2 9 4 5 14 28 23 10 27 17 12 -14 -15 -16 16 -18 -19 22 -21 -22 -23 -24 -25 -26 -27 -28 -29 -30 30 32 -33 -34
leaf_value=0.065265004313409189 0.025454366932296937 0.0035925354406545818 -0.0062394321569272694 0.0040394186131929872 -0.060283823163989475 0.089045507502880691 0.022835739501185406 -0.0036899318243006061 0.041535252803333221 0.10927478460511346 0.073005393193773541 0.079784088062504532 -0.070524198319942846 -0.044680773682713407 0.069008916100101403 0.083931335048557876 0.007073113113177253 0.080266185564412174 -0.0018357510196959856 0.061652407220811653 0.0072908884683264806 0.092182565854858803 0.058919791939014775 -0.019576226522353871 -0.0043700193468786579 0.060787965869689459 -0.019029412401798482 -0.020956710062507815 -0.033046581031500773 -0.0076947639707158778 0.11290121367032192 0.035623980305335985 -0.038628620970621905
leaf_weight=300.89462888240814 258.92924118041992 1148.2610519230366 8283.9809562861919 440.62373319268227 116.30916622281075 95.368107080459595 149.62573823332787 204.59949058294296 734.00860416889191 22.279851913452148 75.470071345567703 122.8620690703392 28.085827678442001 93.403847634792328 422.06323733925819 93.956194847822189 564.42187651991844 87.054544359445572 409.05453589558601 183.43734765052795 374.91531535983086 183.15868917107582 155.06398785114288 273.51235783100128 359.1048558652401 414.36124092340469 2204.1076202392578 3354.547144651413 608.67884406447411 563.3768934905529 16.768263757228851 428.80761936306953 306.33135017752647
leaf_count=828 721 3271 23756 1237 334 265 420 579 2032 62 210 333 83 267 1178 263 1604 241 1156 515 1068 503 432 777 1022 1164 6284 9764 1722 1569 47 1192 867
internal_value=4.67869e-05 -0.00304493 -0.00430872 0.00344548 0.0138129 0.0230696 -0.00258289 0.00764217 0.0253528 -0.00945802 0.0199146 -0.00520032 0.0517093 0.0242237 0.0425685 -0.00645708 0.0180733 0.00916605 0.02562 0.0210009 0.03212 0.0531446 0.0148588 0.013969 0.0233613 0.0394632 -0.0112782 -0.0200896 -0.0220048 0.00470013 0.000765322 0.0110197 -0.0306843
internal_weight=23077.4 20564.7 19654.3 7842.55 3831.8 2449.44 1382.37 1367.89 2512.71 11811.8 2211.82 8434.93 150.948 910.407 1081.55 4010.75 658.378 1477.81 659.487 624.061 817.003 442.088 564.119 1251.58 978.066 618.961 3352.37 3376.83 758.305 1390.75 1315.28 992.185 323.1
internal_count=65766 58780 56221 22223 10801 6907 3894 3876 6986 33998 6158 24172 416 2559 3031 11422 1867 4126 1853 1752 2292 1224 1588 3542 2765 1743 9555 9826 2142 3885 3675 2761 914
is_linear=0
shrinkage=0.081156


Tree=10
num_leaves=34
num_cat=0
split_feature=3 0 0 40 13 23 16 0 48 24 14 68 24 42 69 37 10 24 0 48 34 20 43 8 38 23 63 10 0 3 89 38 49
split_gain=244.988 150.638 91.7354 94.433 87.0501 80.5343 76.4904 76.1622 73.1291 78.6297 72.3052 84.8326 76.293 71.9286 76.4654 71.8703 97.4869 71.606 77.5702 74.2078 70.7187 89.4988 85.3775 82.5283 79.2542 76.745 69.4049 69.3253 67.2564 67.1878 67.1491 67.0048 66.8586
threshold=0.00096102163661271345 2.5356380939483647 7.7749173641204843 -1.7518720626831052 118101.75390625001 142.93228912353518 70.535663604736342 4.109206199645997 90.500000000000014 41.855257034301765 4.7167570590972909 -1.020038306713104 -17.727726936340328 -0.076906722038984285 48.777748107910163 110867.98437500001 17.064311981201175 -43.237129211425774 1.7854166030883791 69.500000000000014 88.500000000000014 -54.338960647583001 110399.71093750001 -187.61585998535153 3.5000000000000004 165.53360748291018 -0.2143004164099693 1.6689246296882632 2.6934973001480107 0.0025770871434360747 2.5000000000000004 10.500000000000002 -10.673215389251707
decision_type=2 2 2 2 10 2 2 2 2 2 2 2 2 2 2 2 2 2 2 2 2 2 2 2 2 2 2 2 2 2 2 2 2
left_child=4 13 3 -3 7 10 30 8 17 27 12 28 -6 -2 -15 16 -9 18 32 -20 21 24 26 -23 29 -25 -22 -10 -12 -8 -5 -19 -1
right_child=1 2 -4 6 5 -7 20 15 9 -11 11 -13 -14 14 -16 -17 -18 31 19 -21 22 23 -24 25 -26 -27 -28 -29 -30 -31 -32 -33 -34
leaf_value=0.050627795685385162 -0.043325524843716885 -0.050353419419879947 0.047817701501122835 0.00029202064381622363 -0.011891891454690308 0.090563693067475678 -0.021493854641055302 0.020169587107152494 -0.021437182614470016 0.068515563911210983 0.00032264750368359875 -0.024907519189521023 0.063170557055429469 -0.018890148616014166 0.084261508976162899 0.049506867866030653 -0.061809930754692016 0.0004992374133748782 0.044025659711439909 -0.041790247899614559 0.050373399764548549 0.057769288176639205 0.026012230499041104 -0.027775419264217963 -0.063807506884236545 0.013917161738163805 -0.023797403622503578 0.025276048869352884 0.068283730142198795 0.12857791888507636 0.032206229338292772 -0.02298473109101086 -0.048928613178958254
leaf_weight=62.029924839735031 1066.7929141223431 297.75160232186317 217.71231335401535 2116.9069879949093 117.8483165204525 117.87398692965508 327.12649190425873 721.43601697683334 288.32461228966713 195.28752106428146 218.02042999863625 346.30597504973412 363.32890501618385 1314.1123954355717 48.919973731040955 452.90948307514191 109.93052616715431 8470.1529899537563 632.10116392374039 73.913294702768326 94.482854396104813 115.46395328640938 604.35753777623177 865.13403490185738 461.54332068562508 437.5013407766819 677.97774076461792 760.33616480231285 171.49095168709755 20.738833576440811 546.33067536354065 883.4676541686058 155.031569480896
leaf_count=174 3109 863 593 5949 329 321 925 2003 809 538 612 975 997 3775 140 1251 309 23793 1752 207 267 324 1703 2453 1317 1234 1932 2114 473 58 1531 2498 438
internal_value=9.76617e-05 -0.0101997 -0.00398673 -0.00570718 0.00680771 0.0265302 -0.00358345 0.00475065 0.0026598 0.0212433 0.0203095 0.00429566 0.0447683 -0.0275384 -0.0151717 0.0234965 0.00930837 0.000409124 0.0219724 0.0350205 -0.0112909 -0.0202283 0.00316207 -0.00792816 -0.0417607 -0.0137651 -0.0147044 0.0124219 0.0302842 -0.0124661 0.00684398 -0.00171817 -0.0204176
internal_weight=23352.6 9212.85 6783.03 6565.32 14139.8 1334.87 6267.56 12804.9 11520.6 1243.95 1216.99 735.817 481.177 2429.83 1363.03 1284.28 831.367 10276.7 923.076 706.014 3604.33 2227.51 1376.82 1418.1 809.409 1302.64 772.461 1048.66 389.511 347.865 2663.24 9353.62 217.061
internal_count=65766 26173 19149 18556 39593 3707 17693 35886 32323 3461 3386 2060 1326 7024 3915 3563 2312 28862 2571 1959 10213 6311 3902 4011 2300 3687 2199 2923 1085 983 7480 26291 612
is_linear=0
shrinkage=0.081156


Tree=11
num_leaves=34
num_cat=0
split_feature=3 1 11 0 0 6 3 83 6 17 6 0 27 2 36 43 42 2 74 24 10 10 43 3 68 28 41 1 37 3 18 54 10
split_gain=976.925 361.505 256.488 216.197 175.207 131.291 128.036 100.863 150.649 93.8596 83.8832 162.851 81.5175 106.437 86.7251 67.681 71.6262 63.5044 61.201 67.2475 71.867 60.7014 60.2527 76.5303 55.948 55.572 60.9033 54.3898 72.8597 66.2817 53.5827 53.3151 61.3977
threshold=0.00063601479632779967 1.0000000180025095e-35 207.50000000000003 2.3188805580139165 2.453093528747559 0.00090986242867074918 0.0011416702764108779 1.0000000180025095e-35 0.00099708524066954873 449.39367675781256 0.00029466520936694002 1.1087514162063601 109176.01171875001 101408.80468750001 69.500000000000014 108562.07031250001 0.84103876352310192 94954.808593750015 9.5000000000000018 32.763235092163093 7.6562101840972909 27.331647872924808 104165.91796875001 0.0012928647920489313 94.617149353027358 63.917509078979499 -1.2890691757202146 1.0000000180025095e-35 89490.785156250015 0.00046192826994229114 46.690189361572273 0.57024163007736217 5.8051164150238046
decision_type=2 2 2 2 2 2 2 2 2 2 2 2 10 2 2 2 2 2 2 2 2 2 2 2 2 2 2 2 2 2 2 2 2
left_child=10 3 4 5 9 -2 31 8 -6 22 -1 -12 13 14 -8 -9 -17 -10 19 -14 -21 -4 -3 -24 -15 26 -7 28 29 -13 -20 32 -5
right_child=1 2 21 6 7 25 12 15 17 -11 11 27 18 24 -16 16 -18 -19 30 20 -22 -23 23 -25 -26 -27 -28 -29 -30 -31 -32 -33 -34
leaf_value=-0.053224208811025006 0.027576838354460363 0.042923278508325023 -0.04565372378446176 -0.02241826126279416 -0.019399142689880453 0.16627573219870331 0.067122407752641902 -0.044559594818565904 0.11653839274744704 0.069649151637509801 0.010646859360766939 -0.067104439779420197 -0.0069762756467840036 0.00024437676328368748 0.0082591002925636869 -0.013218486589452252 0.10488981712113411 0.029596978055700055 0.079576586225185181 0.011992248191087176 0.11378007732505678 0.12009159126880967 -0.011018132762176792 0.071915428530551828 0.063785957935887858 0.1399287099077095 0.055425146418918887 -0.0450068089313461 -0.026566556052930353 0.14750562313655136 -0.022547130128454551 0.025966470029727122 0.0052521855583668245
leaf_weight=890.78510849177837 1813.9668192714453 346.72928108274937 986.41528494656086 867.91961480677128 616.32732446491718 33.975322782993317 398.7535472214222 643.6597381234169 63.813314527273178 276.09997177124023 676.34859870374203 13.706936568021773 212.30463901162148 1449.5230869948864 281.74735915660858 422.5206428617239 36.599667817354202 417.69828905165195 346.58440211415291 97.215911149978638 86.507522761821747 14.596407443284987 524.84882138669491 85.018236517906189 97.268365234136581 61.239771842956543 831.67118772864342 1430.003271818161 1952.9917450398207 29.699473425745964 37.271990478038788 419.40592429041862 1347.7370703220367
leaf_count=3628 6461 1231 3855 3196 2350 110 1359 2451 219 937 2571 55 744 5170 970 1566 132 1478 1180 338 297 52 1934 290 341 197 2783 5663 7615 113 130 1494 4856
internal_value=-0.000189217 0.0116737 -0.00706432 0.0215865 0.00347259 0.0402869 0.0124998 -0.0102454 0.00716086 0.0279682 -0.0306404 -0.0257328 0.0239434 0.016028 0.042773 -0.0275811 -0.00375003 0.0411729 0.0465288 0.0240946 0.060028 -0.0432091 0.0159185 0.00054239 0.00425238 0.0651418 0.0598159 -0.0329169 -0.0242493 0.079514 0.06963 -0.000556809 -0.00558331
internal_weight=17811 12817.4 4434.33 8383.09 3433.32 2740.85 5642.24 2200.62 1097.84 1232.7 4993.54 4102.75 3007.18 2227.29 680.501 1102.78 459.12 481.512 779.884 396.028 183.723 1001.01 956.596 609.867 1546.79 926.886 865.647 3426.4 1996.4 43.4064 383.856 2635.06 2215.66
internal_count=65766 46121 16495 29626 12588 9551 20075 8196 4047 4392 19645 16017 10529 7840 2329 4149 1698 1697 2689 1379 635 3907 3455 2224 5511 3090 2893 13446 7783 168 1310 9546 8052
is_linear=0
shrinkage=0.081156


Tree=12
num_leaves=34
num_cat=0
split_feature=5 15 6 0 12 36 0 0 30 26 10 68 19 13 41 12 30 0 89 94 26 35 23 91 26 12 14 33 34 49 14 10 16
split_gain=232.266 92.7579 90.6001 74.5763 73.4127 88.2093 92.6739 86.0187 70.0921 66.7226 81.512 71.3683 74.0396 65.5758 63.2787 59.8719 98.5699 83.9089 104.261 68.4992 66.9303 66.685 70.9004 69.2129 58.907 61.6386 60.3231 70.0592 66.4939 89.3259 72.2587 58.916 58.8236
threshold=61.408176422119148 86752.132812500015 0.00073887332109734427 0.97357627749443065 44.329120635986335 51.500000000000007 5.5860581398010263 7.601579189300538 82.500000000000014 263.50000000000006 9.5965771675109881 15.295660495758058 5.7985157966613778 90982.226562500015 1.8123557567596438 21.413889884948734 387.50000000000006 2.0187047719955449 1.5000000000000002 0.57663998007774364 236.50000000000003 0.021439013071358207 261.46716308593756 0.75690373778343212 323.50000000000006 34.061239242553718 9.651125907897951 237.50000000000003 199.50000000000003 1.2120566964149477 7.2912688255310067 7.0685801506042489 39.468267440795906
decision_type=2 2 2 2 2 2 2 2 2 2 2 2 2 10 2 2 2 2 2 2 2 2 2 2 2 2 2 2 2 2 2 2 2
left_child=3 -2 15 -1 5 14 8 -8 24 10 11 12 -10 -12 -4 16 -3 18 -17 -19 -20 23 -23 -21 26 -26 28 31 29 30 -7 -28 -11
right_child=1 2 4 -5 -6 6 7 -9 9 32 13 -13 -14 -15 -16 17 -18 19 20 21 -22 22 -24 -25 25 -27 27 -29 -30 -31 -32 -33 -34
leaf_value=0.0056267377398104635 0.032983162398208588 -0.029582348430695501 -0.014467014525051258 0.033716973835716257 -0.018265634746690858 0.03137987126650213 0.067494298807268371 -0.054890542791095766 0.0035259932319541029 0.020435809951628772 0.03837319269860906 -0.018549700512446084 0.066146654534864027 -0.055449936997832454 0.068239043561223803 0.012571851724992774 0.067050552885143333 0.0031719600119441303 -0.0072910378568464239 -4.4618700806565759e-05 -0.041052955417783178 0.042832150944841496 -0.077871765634727697 0.071907417312236016 0.0072428808017970126 0.097221115805533526 -0.042486426529732689 0.087353951628258236 -0.0083083804681162183 -0.0098374999977252457 0.10204234968144124 0.00082521350942362372 -0.054418651794930356
leaf_weight=1019.473488599062 464.54285371303558 651.37653172016144 3819.2791085243225 1602.4346790313721 3410.5432023704052 604.80610224604607 240.5718620121479 44.667636603116989 300.84260848164558 85.622298300266266 60.283257186412811 337.92653042078018 212.27699089050293 258.92929658293724 61.728163510560989 1387.2007909417152 77.632528424263 2176.6041553020477 1413.1587227284908 779.70948967337608 532.87354150414467 957.77376440167427 32.968491792678833 99.069732457399368 103.98778572678566 97.194942384958267 347.83567899465561 44.626740604639053 537.33769485354424 304.91549235582352 113.29786539077759 508.95766225457191 353.93118268251419
leaf_count=2835 1299 1886 11016 4418 9998 1721 674 130 865 246 171 972 602 743 176 3914 216 6175 4013 2214 1515 2686 95 277 299 276 997 127 1543 873 319 1452 1023
internal_value=6.04678e-05 -0.0028585 -0.0036935 0.0227994 -0.00821684 -0.0041543 0.00350023 0.0482757 0.00050722 -0.0128585 -0.00272198 0.0103872 0.0294632 -0.0376909 -0.0131464 0.00291574 -0.0192665 0.00510881 -0.0044235 0.0129639 -0.0165434 0.0243578 0.0387942 0.00806699 0.00859101 0.0508025 0.00513446 -0.0115725 0.0147925 0.0269351 0.0425616 -0.0167513 -0.0398132
internal_weight=23044.4 20422.5 19957.9 2621.91 11849.6 8439.02 4558.01 285.239 4272.77 1609.81 1170.26 851.046 513.12 319.213 3881.01 8108.37 729.009 7379.36 3333.23 4046.13 1946.03 1869.52 990.742 878.779 2662.96 201.183 2461.78 901.42 1560.36 1023.02 718.104 856.793 439.553
internal_count=65766 58513 57214 7253 34223 24225 13033 804 12229 4622 3353 2439 1467 914 11192 22991 2102 20889 9442 11447 5528 5272 2781 2491 7607 575 7032 2576 4456 2913 2040 2449 1269
is_linear=0
shrinkage=0.081156


Tree=13
num_leaves=34
num_cat=0
split_feature=3 10 1 15 30 30 15 16 14 25 30 27 14 74 46 14 6 20 70 12 10 46 77 73 10 14 96 22 42 2 54 20 37
split_gain=212.85 93.1609 88.7732 82.7402 104.517 72.4833 69.4715 68.0919 68.0802 73.923 76.9128 62.0095 95.7765 65.7831 71.0748 74.5453 74.0901 59.9663 84.9058 72.2923 59.9164 57.8261 57.5305 56.2145 54.2835 54.0484 53.8297 55.9861 74.4931 76.3291 73.7158 66.531 64.2373
threshold=0.00096102163661271345 14.881453990936281 1.0000000180025095e-35 89455.304687500015 80.500000000000014 170.50000000000003 91951.730468750015 192.73906707763675 13.493189811706545 90.500000000000014 110.50000000000001 117993.79687500001 6.320336341857911 10.500000000000002 101.50000000000001 13.408505439758303 0.00042334415775258099 -50.042121887207024 10.500000000000002 55.116680145263679 0.34988936781883245 63.500000000000007 37.500000000000007 86.500000000000014 16.147295951843265 1.5061029791831972 15.789073944091799 108069.74609375001 -0.23209884762763974 93560.199218750015 0.49181421101093298 205.99550628662112 91794.132812500015
decision_type=2 2 2 2 2 2 2 2 2 2 2 8 2 2 2 2 2 2 2 2 2 2 2 2 2 2 2 2 2 2 2 2 2
left_child=2 17 8 7 6 25 -5 -3 9 11 -11 13 24 14 15 26 -16 22 -19 21 -4 -20 -2 -15 -13 -6 27 28 -1 -30 -31 -29 -32
right_child=1 3 20 4 5 -7 -8 -9 -10 10 -12 12 -14 23 16 -17 -18 18 19 -21 -22 -23 -24 -25 -26 -27 -28 31 29 30 32 -33 -34
leaf_value=-0.043722238868402014 -0.016198511865504736 0.072374023810107074 -0.036722852447014988 -0.056905982134345619 -0.050973448682392015 -0.013282874524362127 -0.0034527460559745367 -0.056428621880068135 -0.013279670418227016 0.010136153545824214 0.063283723913415829 0.046675573523056006 -0.01017710183149223 -0.03106009886535754 -0.034122102328243101 0.11189119088209856 0.054899487210380508 -0.013887725880239328 -0.0022793858430184585 0.074986325575809656 0.015626527713828369 0.059571149999588902 -0.043024367968321743 0.046418913303153973 -0.011638963190517142 0.06748353973585329 0.013531070545029514 -0.032765690164632114 -0.028856360911352096 0.040607389973848551 0.080868956069143183 0.093869321224375885 -0.0061305745816386866
leaf_weight=240.93905630707741 2117.9250148236752 186.93896266818047 147.63241598010063 192.26647624373436 27.752186089754105 144.71635180711746 957.73671099543571 31.394440501928329 1724.1991178095341 540.95976200699806 268.60914522409439 604.28549244999886 477.33849123120308 701.03328135609627 78.137212991714478 37.469563126564026 286.87269482016563 3489.121918708086 824.73505532741547 108.96791854500771 5486.8660982251167 113.0372368991375 701.88447359204292 67.394559621810913 126.90241745114326 273.70319283008575 958.88080021739006 709.75643110275269 354.36886021494865 440.96726489067078 59.888834893703461 28.236253559589386 809.52240315079689
leaf_count=681 6062 520 417 553 79 411 2722 86 4882 1506 735 1668 1338 1976 220 102 799 9976 2351 307 15284 316 2020 190 356 770 2697 1998 999 1229 164 79 2273
internal_value=0.000107733 -0.00952299 0.00634972 0.00694248 0.000524839 0.0338644 -0.0124044 0.053782 0.0011197 0.00477697 0.0277909 0.00166014 0.0180815 -0.00249575 0.00167535 -0.00174621 0.0358097 -0.0135861 -0.00780487 0.012461 0.0142522 0.00517409 -0.0228812 -0.0242442 0.036541 0.0565255 -0.00293556 -0.00891226 -0.00155668 0.00454356 0.0135858 -0.0278888 -0.0001132
internal_weight=23320.4 9170.18 14150.3 1814.51 1596.17 446.172 1150 218.333 8515.76 6791.56 809.569 5981.99 1208.53 4773.47 4005.04 3640.03 365.01 7355.67 4535.86 1046.74 5634.5 937.772 2819.81 768.428 731.188 301.455 3602.56 2643.68 1905.69 1664.75 1310.38 737.993 869.411
internal_count=65766 26173 39593 5141 4535 1260 3275 606 23892 19010 2241 16769 3362 13407 11241 10222 1019 21032 12950 2974 15701 2667 8082 2166 2024 849 10120 7423 5346 4665 3666 2077 2437
is_linear=0
shrinkage=0.081156


Tree=14
num_leaves=34
num_cat=0
split_feature=3 1 11 11 39 9 9 25 9 36 14 35 39 20 30 14 30 9 3 9 67 14 20 20 93 21 32 35 15 23 35 38 26
split_gain=863.577 325.297 245.576 107.106 117.735 94.4519 80.4014 170.184 141.305 93.0927 95.8323 89.2927 92.5016 80.2218 78.0584 75.384 73.9418 67.7468 88.6778 64.8618 65.1497 59.6556 59.0038 58.0016 55.6927 54.3812 54.3111 52.6357 55.775 52.4985 85.1918 63.7041 51.9405
threshold=0.00062015626463107776 1.0000000180025095e-35 217.50000000000003 67.500000000000014 1.0000000180025095e-35 4.5000000000000009 5.5000000000000009 20.500000000000004 3.5000000000000004 11.500000000000002 9.651125907897951 -0.66767144203186024 1.0000000180025095e-35 -33.14875411987304 347.50000000000006 21.728225708007816 142.50000000000003 3.5000000000000004 0.00034815966500900691 4.5000000000000009 1.5000000000000002 0.6608685851097108 -167.53069305419919 -128.72621154785153 95.500000000000014 602.50000000000011 -2.0578237771987911 1.1953859329223635 115259.90234375001 -180.71428680419919 -2.4865468740463252 4.5000000000000009 699.50000000000011
decision_type=2 2 2 2 2 2 2 2 2 2 2 2 2 2 2 2 2 2 2 2 2 2 2 2 2 2 2 2 2 2 2 2 2
left_child=17 6 3 4 -3 -4 8 16 9 25 14 15 24 22 29 21 -8 -1 -19 20 26 -10 -14 -12 -13 32 -5 -6 -29 30 -11 -32 -2
right_child=1 2 5 19 27 -7 7 -9 11 10 23 12 13 -15 -16 -17 -18 18 -20 -21 -22 -23 -24 -25 -26 -27 -28 28 -30 -31 31 -33 -34
leaf_value=-0.044343891059438603 -0.010076523335502496 -0.041200562279333316 -0.05601206479734621 0.09405954246699795 -0.00046381353341944976 0.010553478820205143 0.087889348634746636 -0.025585497181764248 0.083942844167864406 -0.040989032553651356 0.066639832566306637 0.082495401944545507 -0.037914959942618766 0.00012225728091954757 0.075146661100657292 0.11842597449693236 -0.025679215064885262 -0.046581012326289965 -0.015269531154719679 0.040732824660815591 -0.0093559017894236287 0.0081798671382265035 0.077869800081240559 0.02871417661602849 -0.047813819114038293 0.083404769191575689 0.015338727191102762 0.10194184448466843 -0.064934080583604392 0.0045193214139639531 0.025826775654983425 0.11405986283165637 0.10790906630767372
leaf_weight=1534.3700759708881 1148.4542126953602 637.19677968323231 776.52315784990788 61.253006383776665 421.23430779576302 171.03102743625641 153.23124167323112 621.07392702996731 75.341672986745834 63.50110724568367 322.38605391979218 577.90398208796978 32.990219205617905 270.88127826154232 120.97326543927193 49.322061687707901 49.850692465901375 807.30276198685169 2279.8162226676941 429.69279111921787 953.67669455707073 740.10289731621742 228.11574479937553 1523.9763570576906 22.24912291765213 44.793723896145821 982.76241317391396 68.062784612178802 16.166299313306808 2348.1089693754911 120.10229134559631 98.332999497652054 24.947851985692978
leaf_count=6215 4154 2427 3152 206 1557 649 532 2226 257 228 1096 1966 116 964 417 165 176 3391 9019 1547 3517 2597 790 5265 76 155 3564 240 60 8216 409 330 87
internal_value=-0.000220277 0.0103819 -0.00726239 0.00248375 -0.0179994 -0.0439871 0.0196122 -0.00448568 0.0221556 0.0157565 0.0210422 0.0407843 0.0557874 0.0311041 0.0114367 0.0211248 0.0599652 -0.0303988 -0.0234628 0.0121305 0.00597075 0.0152063 0.0631896 0.0353465 0.0776373 -0.00418347 0.0199798 0.0112326 0.0697373 0.00849836 0.0415827 0.0656436 -0.00754589
internal_weight=17775.7 13154.2 4517.6 3570.05 1142.66 947.554 8636.64 824.156 7812.48 5815.58 4597.38 1996.91 1132.14 531.987 2751.02 864.767 203.082 4621.49 3087.12 2427.38 1997.69 815.445 261.106 1846.36 600.153 1218.2 1044.02 505.463 84.2291 2630.05 281.936 218.435 1173.4
internal_count=65766 47141 16919 13118 4284 3801 30222 2934 27288 20357 15961 6931 3912 1870 9600 3019 708 18625 12410 8834 7287 2854 906 6361 2042 4396 3770 1857 300 9183 967 739 4241
is_linear=0
shrinkage=0.081156


end of trees

feature_importances:
session_range_pct=38
wt_last_ob_depth=25
wt_last_os_depth=21
adx_1h=18
adx_peak_50=17
ad_line=15
vfi_1h=14
realized_vol_20=13
squeeze_momentum_at_fire=13
macd_hist_min_50=12
squeeze_duration_last=12
parkinson_vol=11
day_of_week=11
wt2_1h=11
rsi_bars_since_os=11
session_london=10
vwap_upper_band=9
macd_hist_1h=9
pivot_times_tested_today=9
ema50_1h_dist_pct=9
vwap_dist_pct=9
macd_hist_1h_direction=9
macd_hist_max_50=8
minutes_into_session=7
atr_14=6
kc_width=6
vwap_daily=6
wt_bars_since_ob_exit=6
wt_bars_since_os_exit=6
vwap_session=6
vwap_band_position=5
vfi_1h_direction=5
rsi_bars_since_ob=5
pivot_R3=5
ema9_1h_dist_pct=5
pivot_touch_count_today=5
atr_pct=4
squeeze_mom_peak_since_fire=4
vwap_lower_band=4
wt1_1h=4
adx_bars_since_weak=4
ema21_1h_dist_pct=4
hurst_exponent=4
adx_bars_since_trend=4
stoch_bars_in_ob=4
lower_lows_count_20=4
atr_percentile=3
session_tokyo=3
pivot_P=3
bars_since_volume_spike=3
divergence_freshness=3
pivot_R1=3
vwap_slope=3
stoch_red_count_50=3
pivot_S3=2
squeeze_count_200=2
pivot_S2=2
vfi=2
minutes_to_session_close=2
autocorrelation_5=2
session_new_york=2
pivot_S1=2
higher_highs_count_20=2
cloud_dist_pct=2
bars_since_pivot_touch=2
stoch_bars_since_green=2
rsi_time_above_50_pct=2
wt_ob_count_100=2
vfi_signal=1
pivot_R2=1
rsi_ob_count_100=1
rsi_os_count_100=1
overlap_sydney_tokyo=1
autocorrelation_1=1
adx=1
bars_since_squeeze_release=1
stoch_bars_in_os=1
overlap_london_ny=1
ema21_dist_pct=1
vwap_session_dist_pct=1
return_60bar=1
stoch_bars_since_red=1
vfi_range_pct=1
stoch_last_extreme_depth=1

parameters:
[boosting: gbdt]
[objective: multiclass]
[metric: multi_logloss]
[tree_learner: serial]
[device_type: cpu]
[data_sample_strategy: bagging]
[data: ]
[valid: ]
[num_iterations: 1000]
[learning_rate: 0.081156]
[num_leaves: 34]
[num_threads: -1]
[seed: 42]
[deterministic: 0]
[force_col_wise: 0]
[force_row_wise: 0]
[histogram_pool_size: -1]
[max_depth: -1]
[min_data_in_leaf: 45]
[min_sum_hessian_in_leaf: 0.001]
[bagging_fraction: 0.831261]
[pos_bagging_fraction: 1]
[neg_bagging_fraction: 1]
[bagging_freq: 5]
[bagging_seed: 400]
[bagging_by_query: 0]
[feature_fraction: 0.62939]
[feature_fraction_bynode: 1]
[feature_fraction_seed: 30056]
[extra_trees: 0]
[extra_seed: 12879]
[early_stopping_round: 0]
[early_stopping_min_delta: 0]
[first_metric_only: 0]
[max_delta_step: 0]
[lambda_l1: 0.120302]
[lambda_l2: 0.153759]
[linear_lambda: 0]
[min_gain_to_split: 0]
[drop_rate: 0.1]
[max_drop: 50]
[skip_drop: 0.5]
[xgboost_dart_mode: 0]
[uniform_drop: 0]
[drop_seed: 17869]
[top_rate: 0.2]
[other_rate: 0.1]
[min_data_per_group: 100]
[max_cat_threshold: 32]
[cat_l2: 10]
[cat_smooth: 10]
[max_cat_to_onehot: 4]
[top_k: 20]
[monotone_constraints: ]
[monotone_constraints_method: basic]
[monotone_penalty: 0]
[feature_contri: ]
[forcedsplits_filename: ]
[refit_decay_rate: 0.9]
[cegb_tradeoff: 1]
[cegb_penalty_split: 0]
[cegb_penalty_feature_lazy: ]
[cegb_penalty_feature_coupled: ]
[path_smooth: 0]
[interaction_constraints: ]
[verbosity: -1]
[saved_feature_importance_type: 0]
[use_quantized_grad: 0]
[num_grad_quant_bins: 4]
[quant_train_renew_leaf: 0]
[stochastic_rounding: 1]
[linear_tree: 0]
[max_bin: 255]
[max_bin_by_feature: ]
[min_data_in_bin: 3]
[bin_construct_sample_cnt: 200000]
[data_random_seed: 175]
[is_enable_sparse: 1]
[enable_bundle: 1]
[use_missing: 1]
[zero_as_missing: 0]
[feature_pre_filter: 1]
[pre_partition: 0]
[two_round: 0]
[header: 0]
[label_column: ]
[weight_column: ]
[group_column: ]
[ignore_column: ]
[categorical_feature: ]
[forcedbins_filename: ]
[precise_float_parser: 0]
[parser_config_file: ]
[objective_seed: 16083]
[num_class: 3]
[is_unbalance: 0]
[scale_pos_weight: 1]
[sigmoid: 1]
[boost_from_average: 1]
[reg_sqrt: 0]
[alpha: 0.9]
[fair_c: 1]
[poisson_max_delta_step: 0.7]
[tweedie_variance_power: 1.5]
[lambdarank_truncation_level: 30]
[lambdarank_norm: 1]
[label_gain: ]
[lambdarank_position_bias_regularization: 0]
[eval_at: ]
[multi_error_top_k: 1]
[auc_mu_weights: ]
[num_machines: 1]
[local_listen_port: 12400]
[time_out: 120]
[machine_list_filename: ]
[machines: ]
[gpu_platform_id: -1]
[gpu_device_id: -1]
[gpu_use_dp: 0]
[num_gpu: 1]

end of parameters

pandas_categorical:null
