tree
version=v4
num_class=3
num_tree_per_iteration=3
label_index=0
max_feature_idx=302
objective=multiclass num_class:3
feature_names=rsi_14 rsi_sma_14 rsi_minus_sma rsi_direction rsi_sma_direction rsi_sma_roc rsi_accel rsi_cross_speed rsi_bb_upper rsi_bb_lower rsi_bb_position rsi_range_pct wt1_5min wt2_5min wt_hist_5min wt_cross_5min wt1_direction wt1_accel wt_hist_direction wt_ob_depth wt_os_depth wt_range_pct stoch_k stoch_d stoch_k_direction stoch_kd_spread stoch_kd_spread_change stoch_range_pct squeeze_momentum squeeze_mom_accel squeeze_mom_direction squeeze_mom_abs squeeze_mom_accel2 squeeze_mom_zero_cross squeeze_mom_percentile squeeze_mom_slope_5bar macd_line_5min macd_signal_5min macd_hist_5min macd_hist_direction macd_hist_accel macd_line_direction di_plus di_minus adx di_plus_roc di_minus_roc di_spread di_spread_roc adx_direction adx_accel adx_range_pct di_convergence ema9_dist_pct ema21_dist_pct ema50_dist_pct atr_14 atr_pct atr_ratio atr_percentile atr_roc bb_width bb_width_percentile kc_width squeeze_state bars_since_squeeze_release realized_vol_5 realized_vol_20 vol_ratio_5_20 high_low_range_pct session_range_pct vfi vfi_signal vfi_hist vfi_direction vfi_hist_direction vfi_cross_zero vfi_range_pct volume_ratio volume_trend buy_volume_pct sell_volume_pct buy_sell_ratio_sma5 cum_delta_5 cum_delta_20 obv_slope vwap_daily vwap_dist_pct vwap_session vwap_session_dist_pct vwap_slope vwap_upper_band vwap_lower_band vwap_band_position pivot_S3 pivot_S2 pivot_S1 pivot_P pivot_R1 pivot_R2 pivot_R3 dist_to_nearest_pivot_pct nearest_pivot_type pivot_zone pivot_approach_dir pivot_approach_speed pivot_times_tested_today weekly_pivot_S3 weekly_pivot_S2 weekly_pivot_S1 weekly_pivot_P weekly_pivot_R1 weekly_pivot_R2 weekly_pivot_R3 dist_to_nearest_weekly_pivot_pct nearest_weekly_pivot_type weekly_pivot_zone weekly_pivot_approach_dir weekly_pivot_approach_speed weekly_pivot_times_tested_this_week session_sydney session_tokyo session_london session_new_york overlap_tokyo_london overlap_london_ny overlap_ny_sydney overlap_sydney_tokyo active_session_count minutes_into_session minutes_to_session_close session_range_vs_avg prev_session_range_pct day_of_week is_monday body_pct upper_wick_pct lower_wick_pct is_bullish consecutive_bull consecutive_bear body_vs_prev_body engulfing pin_bar bars_since_ema21_touch_5m ema21_bounce_5bar_5m bars_since_ema50_touch_5m ema50_bounce_5bar_5m bars_since_ema50_touch_1h bars_since_ema200_touch_1h mtf_trend_alignment ema21_pivot_confluence ema50_pivot_confluence pin_bar_at_ema pin_bar_at_pivot engulf_at_ema engulf_at_pivot pullback_depth_pct dist_from_range_high_20_pct dist_from_range_low_20_pct zscore_20 zscore_50 bb_position rsi_zscore return_5bar return_20bar return_60bar mean_reversion_score regime_trending regime_ranging regime_volatile regime_quiet bars_in_current_regime efficiency_ratio choppiness_index prev_day_range_pct prev_day_close_vs_pivot gap_pct dist_to_prev_day_high_pct dist_to_prev_day_low_pct prev_session_direction prev_session_volume_rank daily_open_dist_pct rsi_5bar_ago wt1_slope_5bar adx_slope_5bar atr_slope_5bar volume_slope_5bar vwap_slope_5bar di_spread_change_5bar squeeze_mom_slope rsi_price_divergence macd_price_divergence wt_price_divergence stoch_price_divergence divergence_count hidden_divergence divergence_freshness cmf_20 cmf_direction mfi_14 mfi_direction ad_line ad_slope_10 mfi_rsi_divergence cmf_vfi_agreement williams_r williams_r_direction cci_20 cci_direction cci_extreme cmo_14 cmo_direction roc_10 tsi swing_high_dist_pct swing_low_dist_pct structure_type bars_since_structure_break swing_range_pct higher_highs_count_20 lower_lows_count_20 swing_ratio retrace_depth range_position hurst_exponent price_entropy autocorrelation_1 autocorrelation_5 skewness_20 kurtosis_20 fractal_dimension variance_ratio parkinson_vol kama_dist_pct dema_dist_pct tema_dist_pct psar_direction psar_dist_pct tenkan_dist_pct kijun_dist_pct tk_cross tk_spread cloud_dist_pct stoch_bars_since_green stoch_bars_since_red stoch_green_count_50 stoch_red_count_50 stoch_last_extreme_depth stoch_bars_in_ob stoch_bars_in_os stoch_recovery_speed wt_bars_since_ob_exit wt_bars_since_os_exit wt_bars_since_bull_cross wt_bars_since_bear_cross wt_ob_count_100 wt_os_count_100 wt_last_ob_depth wt_last_os_depth rsi_bars_since_ob rsi_bars_since_os rsi_bars_since_50_cross rsi_ob_count_100 rsi_os_count_100 rsi_time_above_50_pct macd_bars_since_bull_cross macd_bars_since_bear_cross macd_bars_since_zero_cross macd_hist_max_50 macd_hist_min_50 squeeze_bars_since_fire squeeze_duration_last squeeze_count_200 squeeze_momentum_at_fire squeeze_mom_peak_since_fire adx_bars_since_trend adx_bars_since_weak di_bars_since_cross adx_peak_50 bars_since_new_high_20 bars_since_new_low_20 bars_since_pivot_touch pivot_touch_count_today bars_since_volume_spike wt1_1h wt2_1h wt_cross_1h macd_hist_1h macd_hist_1h_direction adx_1h ema9_1h_dist_pct ema21_1h_dist_pct ema50_1h_dist_pct ema100_1h_dist_pct ema200_1h_dist_pct ema_stack_1h vfi_1h vfi_1h_direction ema20_1d_dist_pct ema50_1d_dist_pct ema200_1d_dist_pct ema_stack_1d
feature_infos=[8.4751567840576172:94.850852966308594] [17.419643402099609:89.604743957519531] [-38.322418212890625:35.038139343261719] [-39.649982452392578:30.888126373291016] [-4.5713624954223633:4.6948838233947754] [-4.2463808059692383:4.577880859375] [-42.068607330322266:42.831893920898438] [0:27.776023864746094] [21.979825973510742:110.67617797851562] [-5.7649621963500977:82.4481201171875] [-0.3389333188533783:1.3654462099075317] [0:1] [-97.068862915039062:100.3931884765625] [-94.640678405761719:98.198638916015625] [-28.760627746582031:30.470233917236328] [-1:1] [-27.541755676269531:26.821863174438477] [-35.977622985839844:30.965242385864258] [-20.77996826171875:21.032272338867188] [0:40.3931884765625] [0:37.068862915039062] [0:1] [0:100] [0.0007426220690831542:99.996803283691406] [-33.333332061767578:33.333332061767578] [-32.724735260009766:33.327583312988281] [-34.312145233154297:32.311347961425781] [0:1] [-3337.98828125:3925.673095703125] [-604.49212646484375:681.359375] [-1:1] [0.0021964285988360643:3925.673095703125] [-467.82687377929688:356.056396484375] [0:1] [2:100] [-439.37982177734375:550.880126953125] [-1204.3427734375:1713.4404296875] [-956.9478759765625:1543.36962890625] [-495.83294677734375:632.06256103515625] [-171.17068481445312:195.65435791015625] [-162.9356689453125:170.36882019042969] [-232.27421569824219:319.9461669921875] [1.1154001951217651:77.389259338378906] [1.9401545524597168:76.166580200195312] [6.1781635284423828:73.06451416015625] [-31.910087585449219:48.869106292724609] [-31.505897521972656:55.419906616210938] [-70.730873107910156:69.111015319824219] [-68.669273376464844:75.502243041992188] [-4.3973045349121094:5.0782985687255859] [-4.5916662216186523:5.0438308715820312] [0:1] [-55.616474151611328:68.800033569335938] [-2.668088436126709:3.182950496673584] [-3.8080441951751709:4.2100882530212402] [-4.9112067222595215:5.7993402481079102] [9.445429801940918:1476.5750732421875] [0.0087995817884802818:1.4340786933898926] [0.26560011506080627:2.1783516407012939] [1:100] [-30.79638671875:295.76629638671875] [0.045124556869268417:10.448933601379395] [1:100] [0.019226456061005592:4.4757275581359863] [-1:1] [0:719] [1.8479653363101534e-06:0.016737690195441246] [8.5863313870504498e-05:0.01085265725851059] [0.011476638726890087:1.9595807790756226] [8.3718423411482945e-06:3.7014148235321045] [0.54549556970596313:11.750151634216309] [-48.335681915283203:52.423240661621094] [-46.404373168945312:50.382484436035156] [-9.0792150497436523:9.6799535751342773] [-6.9048151969909668:7.1774864196777344] [-3.8297655582427979:3.9745519161224365] [-1:1] [0:1] [0.069346137344837189:15.044970512390137] [0.12778177857398987:3.5609171390533447] [0:1] [0:1] [0:26739.693359375] [-4917.79052734375:4867.6611328125] [-5102.24755859375:8333.962890625] [-797.1434326171875:944.94842529296875] [75668.640625:123911.9375] [-5.9447498321533203:6.1316432952880859] [75668.640625:123911.9375] [-5.9447498321533203:6.1316432952880859] [-4.3043098449707031:5.5539603233337402] [75954.28125:124025.390625] [75017.84375:123641.140625] [-10.908810615539551:19.797540664672852] [71306.40625:117438.3671875] [74142.3515625:119031.484375] [75731.9453125:120151.7421875] [77810.1015625:121965.046875] [79578.03125:123778.3515625] [80670.265625:124898.609375] [82438.1953125:127277.03125] [2.878227633118513e-06:6.9740653038024902] [0:6] [0:5] [-1:1] [0:4.2274255752563477] [0:260] [69864:112604.1953125] [74292.140625:114820.9375] [77027.0390625:116631.0546875] [81361.2734375:119561] [84821.5625:122490.9453125] [86875.640625:124301.0625] [88313.8828125:127393.1640625] [1.122901539929444e-05:15.034049987792969] [0:6] [0:5] [-1:1] [0:4.2274255752563477] [0:407] [0:1] [0:1] [0:1] [0:1] [0:1] [0:1] [0:1] [0:1] [1:2] [0:475] [65:540] none none [0:6] [0:1] [0:1] [0:1] [0:1] [0:1] [0:15] [0:18] [0:46159] [-1:1] [-1:1] [0:104] [-6.9568295478820801:7.0712380409240723] [0:198] [-7.4363870620727539:6.3158340454101562] [0:162] [0:253] [-1:1] [6.7498018324840814e-05:30.369043350219727] [5.518118996405974e-06:30.720584869384766] [-1:1] [-1:1] [-1:1] [-1:1] [0:1] [0:6.3641424179077148] [0:7.1733627319335938] [-4.2688183784484863:4.2656660079956055] [-6.1887545585632324:6.410283088684082] [-0.56720459461212158:1.5664165019989014] [-4.7957124710083008:4.7928123474121094] [-4.7937774658203125:5.2650136947631836] [-5.7141313552856445:7.7767906188964844] [-7.0950827598571777:10.327567100524902] [-3:3] [0:1] [0:1] [0:1] [0:1] [1:106] [0:1] [-24.695171356201172:90.747978210449219] none none none none none none none none [8.4751567840576172:94.850852966308594] [-15.408627510070801:16.040868759155273] [-3.5670995712280273:3.9960505962371826] [-30.79638671875:295.76629638671875] [-92.637580871582031:3410.62890625] [-4.3043098449707031:5.5539603233337402] [-72.661720275878906:68.845138549804688] [-497.207763671875:606.53143310546875] [-1:1] [-1:1] none [-1:1] [0:4] [-1:1] [0:268] [-0.75610369443893433:0.80571943521499634] [-0.59023070335388184:0.55690294504165649] [0:99.512687683105469] [-44.704910278320312:46.177192687988281] [101852.078125:137852.203125] [-429.06283569335938:561.32659912109375] [-47.658550262451172:48.522510528564453] [-1:1] [-100:0] [-99.996978759765625:100] [-641.5438232421875:604.05126953125] [-854.8712158203125:457.8033447265625] [0:541.5438232421875] [-100:100] [-82.057197570800781:76.325546264648438] [-5.5595340728759766:6.1831016540527344] [-70.563079833984375:82.250892639160156] [-7.2437162399291992:5.3780994415283203] [-5.5719184875488281:6.3501935005187988] [-1:1] [0:59] [-1.751104474067688:7.683445930480957] [2:15] [2:16] [6.6835986217483878e-05:45143] [-29671:8117] [0:1] [0.35013970732688904:0.68065643310546875] [0.69400840997695923:2.2854504585266113] [-0.58439028263092041:0.72736251354217529] [-0.58241415023803711:0.53519302606582642] [-4.1754550933837891:4.360069751739502] [-1.7267912626266479:19.302778244018555] [0.84417474269866943:1.3920028209686279] [0.014491423964500427:2.7334549427032471] [5.5937041906872764e-05:0.010343501344323158] [-3.3939468860626221:3.0870776176452637] [-2.6463673114776611:3.2377831935882568] [-2.1460180282592773:2.6270840167999268] [-1:1] [-5.4482083320617676:4.722994327545166] [-3.5505683422088623:2.7178239822387695] [-3.5505683422088623:4.0778169631958008] [-1:1] [-2.3276207447052002:2.9533214569091797] [-6.2957077026367188:8.782374382019043] [0:308] [0:230] [0:8] [0:9] [0.00052043946925550699:20] [1:45] [1:31] [0:22] [0:985] [0:959] [0:51] [0:54] [0:8] [0:7] [0.016868563368916512:40.3931884765625] [0.0019368119537830353:37.068862915039062] [0:1084] [0:793] [0:108] [0:11] [0:9] [0:100] [0:103] [0:115] [0:198] [-14.943637847900391:632.06256103515625] [-495.83294677734375:2.12270188331604] [0:719] [1:42] [0:13] [-868.7244873046875:781.12939453125] [0.22924642264842987:3925.673095703125] [0:302] [0:602] [0:157] [13.451381683349609:73.06451416015625] [0:188] [0:191] [0:514] [0:260] [0:287] [-92.948501586914062:87.342460632324219] [-92.071792602539062:85.882904052734375] [-1:1] [-947.87347412109375:884.88946533203125] [-288.9520263671875:402.79330444335938] [7.1107816696166992:70.190780639648438] [-4.4246482849121094:5.9312829971313477] [-5.9296054840087891:7.4919681549072266] [-8.2414636611938477:8.6802473068237305] [-10.649415016174316:8.4197168350219727] [-14.619240760803223:8.1063356399536133] [-3:3] [-41.162704467773438:37.399154663085938] [-3.9137835502624512:4.6830606460571289] [-12.606088638305664:9.0240192413330078] [-17.834375381469727:13.186323165893555] [2.4000968933105469:19.430305480957031] [-1:3]
tree_sizes=3494 3540 3498 3628 3658 3644 3658 3654 3632 3652 3638 3616 3643 3638 3623 3661 3669 3636 3630 3663 3675 3649 3648 3645 3631 3648 3631 3627 3649 3641 3637 3648 3645 3631 3658 3643 3636 3651 3645 3646 3631 3627 3650 3654 3639 3639 3640 3642 3620 3624 3625 3646 3645 3641 3654 3650 3631 3633 3658 3628 3621 3665 3647 3622 3643 3656 3624 3652 3654 3636 3668 3644 3644 3649 3648 3646 3657 3644 3642 3651 3649 3638 3676 3647 3658 3653 3626 3658 3672 3678 3606 3667 3625 3659 3671 3603 3634 3659 3619 3608 3672 3661 3638 3647 3654 3629 3659 3641 3659 3662 3614 3653 3644 3636 3639 3675 3634 3640 3649 3628 3649 3643 3643 3653 3659 3652 3629 3646 3652

Tree=0
num_leaves=32
num_cat=0
split_feature=67 67 91 202 300 114 290 290 284 92 116 94 56 202 284 226 147 198 234 94 133 272 63 298 91 279 161 284 295 268 269
split_gain=214.244 125.033 71.6769 69.1234 56.3636 53.2748 50.7569 42.7347 41.2497 55.4748 47.3766 43.9039 42.9911 43.4434 40.408 39.6296 39.6086 45.2276 37.9669 37.576 38.0075 54.9922 52.1973 37.765 35.8544 32.9763 32.3902 31.8671 31.688 31.4157 37.5306
threshold=0.0012173461145721378 0.00025994588213507091 104280.07031250001 125058.43750000001 -2.2722394466400142 0.7033764421939851 57.248121261596687 10.859286308288576 34.500000000000007 99855.605468750015 1.5000000000000002 101547.83203125001 309.03984069824224 104171.05078125001 60.500000000000007 1.8163659572601321 2.7900712490081792 0.19712345302104953 -0.066908240318298326 115700.24218750001 3.5000000000000004 13.500000000000002 0.14653643220663073 0.4530139565467835 105886.26171875001 41.924457550048835 1.0000000180025095e-35 121.50000000000001 0.48460908234119421 12.500000000000002 160.47539520263675
decision_type=2 2 10 2 2 2 2 2 2 10 2 2 2 2 2 2 2 2 2 2 2 2 2 2 8 2 2 2 2 2 2
left_child=1 -1 8 6 15 -4 7 -3 9 10 -2 25 13 -10 -8 -5 -12 -18 -6 20 21 22 28 -21 -23 -11 -7 -17 -9 30 -14
right_child=2 3 5 4 18 26 14 19 12 11 16 -13 29 -15 -16 27 17 -19 -20 23 -22 24 -24 -25 -26 -27 -28 -29 -30 -31 -32
leaf_value=-1.169574138825251 -1.176736216932438 -1.2022743460360299 -1.1841755818212374 -1.2004358532126969 -1.1911505511791591 -1.1898532667499673 -1.1850731433003683 -1.1463203902674473 -1.1535657191083617 -1.1698308739314147 -1.1901448693560708 -1.1494706805938151 -1.1593829046372193 -1.1820928766921797 -1.1391775103637038 -1.1820182847935969 -1.1697850959886524 -1.1996407048920703 -1.1969214633226897 -1.1643057799428171 -1.1918357931269414 -1.179085268121755 -1.1891938850108232 -1.1921681463374296 -1.1470786761496357 -1.1890924619312371 -1.2023774297506584 -1.2041250712026543 -1.1849823894298357 -1.1624272715782709 -1.1938029287804695
leaf_weight=203.0017865896225 330.39414405822754 202.0487265586853 706.53516960144043 134.69915103912354 1242.1549069881439 371.05803871154785 31.768667697906494 34.627847790718079 42.252328038215637 158.84333848953247 1232.941993355751 47.970688223838806 37.804714560508728 886.34582877159119 26.685680866241455 558.49317812919617 155.66647171974182 50.829868316650391 2813.4332113265991 88.316896200180054 3323.9557012319565 213.80313360691071 3036.4492585659027 62.901962041854858 30.180234313011169 116.27332377433777 269.39830207824707 54.00673508644104 29.862547636032104 197.91879975795746 65.125768780708313
leaf_count=639 1040 636 2224 424 3910 1168 100 109 133 500 3881 151 119 2790 84 1758 490 160 8856 278 10463 673 9558 198 95 366 848 170 94 623 205
internal_value=-1.18903 -1.19096 -1.18403 -1.19133 -1.19388 -1.18938 -1.1896 -1.18982 -1.18186 -1.18421 -1.18612 -1.17374 -1.17787 -1.18079 -1.1641 -1.18694 -1.18828 -1.17714 -1.19515 -1.18945 -1.18975 -1.18769 -1.18867 -1.1759 -1.17512 -1.17797 -1.19512 -1.18397 -1.16421 -1.16883 -1.18116
internal_weight=16755.7 12086.4 4669.36 11883.4 4802.79 1346.99 7080.6 7022.15 3322.37 2092.92 1769.83 323.087 1229.45 928.598 58.4543 747.199 1439.44 206.496 4055.59 6820.1 6668.88 3344.92 3100.94 151.219 243.983 275.117 640.456 612.5 64.4904 300.849 102.93
internal_count=52743 38045 14698 37406 15118 4240 22288 22104 10458 6588 5571 1017 3870 2923 184 2352 4531 650 12766 21468 20992 10529 9761 476 768 866 2016 1928 203 947 324
is_linear=0
shrinkage=1


Tree=1
num_leaves=32
num_cat=0
split_feature=63 92 60 249 129 92 71 90 36 65 57 279 252 202 94 72 300 274 297 300 65 226 250 283 300 145 252 297 144 111 252
split_gain=117.765 63.6064 62.9377 51.5235 39.733 39.525 34.4957 41.3937 33.7909 30.9659 39.5664 30.6847 44.1735 48.3441 46.6697 40.7812 35.6631 32.8686 31.0568 30.4195 30.3635 29.3351 29.2694 41.0704 29.059 32.0144 32.9328 40.8305 30.5319 28.9429 28.6259
threshold=0.29002285003662115 120958.09375000001 -0.10166209563612937 15.500000000000002 42.500000000000007 118350.96484375001 14.609290599823 0.020526511594653133 24.478837966918949 294.50000000000006 0.025430869311094288 37.674585342407234 252.50000000000003 125009.20312500001 105635.12109375001 -8.7571702003478986 2.1434606313705449 128.11808776855472 -27.096542358398434 12.912445068359377 32.500000000000007 1.9800380468368532 1.5000000000000002 44.500000000000007 5.1191108226776132 -1.4448119997978208 110.50000000000001 5.9248619079589853 12.500000000000002 98202.371093750015 60.500000000000007
decision_type=2 10 2 2 2 8 2 2 2 2 2 2 2 2 2 2 2 2 2 2 2 2 2 2 2 2 2 2 2 2 2
left_child=3 2 6 5 -4 9 7 19 -7 10 -1 12 15 14 21 17 -15 30 -17 -2 -5 -14 23 -9 25 26 27 29 -28 -20 -12
right_child=1 -3 4 20 -6 8 -8 22 -10 -11 11 -13 13 16 -16 18 -18 -19 24 -21 -22 -23 -24 -25 -26 -27 28 -29 -30 -31 -32
leaf_value=-0.72689811699933915 -0.71716079526358978 -0.68914574468999168 -0.70760858029858809 -0.7422377440811545 -0.71424875091513362 -0.70767246423587782 -0.71272856601998846 -0.7356524853102836 -0.6923223848327934 -0.69727297344454742 -0.68776127762050165 -0.71444717856896744 -0.70845213494159365 -0.71479080106190174 -0.73772538314814429 -0.73353176088060068 -0.69697709643641137 -0.7289124432472962 -0.74057364096898737 -0.69244630450072042 -0.7169502668622153 -0.72409455200387762 -0.72039210614312466 -0.70091831008807615 -0.71492360694080503 -0.70609713905462812 -0.71548703810816894 -0.68999416979375672 -0.74172134839464454 -0.71010399040052352 -0.7038763525261007
leaf_weight=122.57344704866409 5591.5232710242271 69.345833957195282 796.53998464345932 58.475405931472778 4692.2764836549759 386.46245843172073 1144.768523812294 212.16076767444611 150.68662297725677 118.8250235915184 94.83511346578598 1513.2385496497154 170.92810964584351 220.7821416258812 102.70680272579193 42.357185065746307 137.94198322296143 35.610022842884064 29.987387657165527 37.859076917171478 92.960901737213135 192.66896569728851 726.81930834054947 29.237702965736389 614.36660462617874 1383.1682556867599 86.58858186006546 62.973514080047607 54.726982474327087 109.45396494865417 687.46086204051971
leaf_count=327 14917 185 2125 156 12518 1031 3054 566 402 317 253 4037 456 589 274 113 368 95 80 101 248 514 1939 78 1639 3690 231 168 146 292 1834
internal_value=-0.713919 -0.715399 -0.715537 -0.710877 -0.713285 -0.710498 -0.717133 -0.717898 -0.703365 -0.71116 -0.711452 -0.71111 -0.709856 -0.715527 -0.721364 -0.708394 -0.707941 -0.703098 -0.710212 -0.716994 -0.726721 -0.71674 -0.723148 -0.731443 -0.70979 -0.707963 -0.71547 -0.708362 -0.725654 -0.716657 -0.701921
internal_weight=19770.3 13300.5 13231.2 6469.78 5488.82 6318.34 7742.37 6597.6 537.149 5781.19 5662.37 5539.8 4026.56 825.028 466.304 3201.53 358.724 817.906 2383.62 5629.38 151.436 363.597 968.218 241.398 2341.27 1726.9 343.73 202.415 141.316 139.441 782.296
internal_count=52743 35483 35298 17260 14643 16856 20655 17601 1433 15423 15106 14779 10742 2201 1244 8541 957 2182 6359 15018 404 970 2583 644 6246 4607 917 540 377 372 2087
is_linear=0
shrinkage=1


Tree=2
num_leaves=32
num_cat=0
split_feature=70 57 70 270 129 125 79 121 129 270 202 289 265 258 297 295 292 133 263 251 297 129 292 65 106 70 294 72 166 57 113
split_gain=187.896 146.283 149.803 99.4899 79.3401 78.5581 43.4478 43.6179 40.1468 55.4829 37.1174 35.8364 39.7529 42.3686 35.5145 35.2463 32.941 32.6098 31.8576 31.4378 42.409 35.2246 33.0963 32.1507 30.7404 30.0668 33.1529 28.2583 39.1788 27.8128 27.4711
threshold=5.1417078971862802 0.049815999343991287 1.7724601030349734 -27.914450645446774 72.500000000000014 1.0000000180025095e-35 0.80106341838836681 1.0000000180025095e-35 92.500000000000014 -76.289150238037095 131292.78125000003 14.170030593872072 65.000000000000014 13.635059356689455 14.803239822387697 1.3226690888404848 0.17620325088500979 4.5000000000000009 2.5000000000000004 3.5000000000000004 -20.897933959960934 232.50000000000003 -0.11946580559015273 77.500000000000014 128.50000000000003 1.6903409361839297 1.0812492966651919 -12.61930465698242 -0.12813866138458249 0.080903094261884703 114127.31640625001
decision_type=2 2 2 2 2 2 2 2 2 2 2 2 2 2 2 2 2 2 2 2 2 2 2 2 2 2 2 2 2 2 2
left_child=1 -1 3 8 5 -4 10 24 9 -3 -6 -9 16 -14 -11 -5 -13 -7 -2 20 -10 25 -22 -24 -8 26 -21 28 -12 -29 -23
right_child=18 2 4 15 6 17 7 11 19 14 27 12 13 -15 -16 -17 -18 -19 -20 21 22 30 23 -25 -26 -27 -28 29 -30 -31 -32
leaf_value=-1.5917372652754695 -1.5908736606877896 -1.5441205658584476 -1.5824075934496578 -1.57755985664362 -1.5779264381849101 -1.5995546821644409 -1.5833478542612323 -1.5800952181272629 -1.5846611386167022 -1.5758091392800984 -1.569239832750758 -1.5677571167126698 -1.5824064149080217 -1.5553794336673683 -1.5994885630291387 -1.5919710225035451 -1.5413152636078 -1.5798930019427957 -1.5822403556573956 -1.574729498353594 -1.5510851267714301 -1.5852622549814335 -1.5609827286914923 -1.5802962356232351 -1.5586071830692791 -1.5332223385774686 -1.548509602181334 -1.5913817987576033 -1.5381137995522609 -1.5700174929825903 -1.5666326630182708
leaf_weight=713.49023965001106 1507.1286443173885 36.520111888647079 1250.7525568306446 470.83983179926872 1876.2513859570026 353.68135204911232 2617.6831877231598 967.66041433811188 58.824341297149658 288.48437377810478 90.932627588510513 142.15882480144501 233.58165523409843 53.92231285572052 57.353732764720917 176.22792246937752 47.54967588186264 77.69715079665184 411.28018623590469 120.83500108122826 201.96357178688049 161.76693856716156 349.02442502975464 80.148165017366409 38.480923265218735 22.794432252645493 52.206602901220322 55.392921388149261 46.079067349433899 271.81747707724571 94.854250341653824
leaf_count=2911 6149 149 5103 1921 7655 1443 10680 3948 240 1177 371 580 953 220 234 719 194 317 1678 493 824 660 1424 327 157 93 213 226 188 1109 387
internal_value=-1.58108 -1.5797 -1.57887 -1.57245 -1.58058 -1.5859 -1.57919 -1.5809 -1.56862 -1.57633 -1.5762 -1.57705 -1.57089 -1.57734 -1.57974 -1.58148 -1.56112 -1.59601 -1.58902 -1.56604 -1.56235 -1.57167 -1.56027 -1.56459 -1.58299 -1.56289 -1.56681 -1.56924 -1.55876 -1.57364 -1.57838
internal_weight=12927.4 11009 10295.5 2171.84 8123.64 1682.13 6441.51 4101.04 1524.78 382.358 2340.47 1444.87 477.212 287.504 345.838 647.068 189.709 431.379 1918.41 1142.42 689.961 452.457 631.136 429.173 2656.16 195.836 173.042 464.222 137.012 327.21 256.621
internal_count=52743 44916 42005 8861 33144 6863 26281 16732 6221 1560 9549 5895 1947 1173 1411 2640 774 1760 7827 4661 2815 1846 2575 1751 10837 799 706 1894 559 1335 1047
is_linear=0
shrinkage=1


Tree=3
num_leaves=32
num_cat=0
split_feature=70 89 202 57 86 99 265 202 293 107 71 84 116 258 119 250 129 265 279 273 271 107 174 57 221 57 114 106 291 57 257
split_gain=196.737 109.383 108.951 106.1 78.8767 77.9186 70.9156 66.5227 47.9657 58.3469 66.7396 49.7728 46.1042 53.519 49.4062 46.464 43.5455 47.6633 39.646 36.9799 36.908 48.5141 36.8145 36.4989 36.4531 40.785 34.2283 33.4429 31.774 55.9848 42.9154
threshold=2.4880264997482304 -0.66560068726539601 131752.34375000003 0.028719092719256881 102465.96093750001 104342.59375000001 91.000000000000014 116355.13671875001 -2.0797637701034541 98533.109375000015 -11.781668663024901 -126.32288360595702 1.5000000000000002 5.0622181892395028 188.50000000000003 4.5000000000000009 37.500000000000007 7.0000000000000009 28.587767601013187 9.5000000000000018 98.500000000000014 81240.871093750015 63.228498458862312 0.06298841163516046 11.500000000000002 0.31665332615375524 1.0771351456642153 40.500000000000007 0.029298557899892334 0.11408536508679391 2.5000000000000004
decision_type=2 2 2 2 2 2 2 2 2 2 2 2 2 2 2 2 2 2 2 2 2 2 2 2 2 2 2 2 2 2 2
left_child=1 -1 4 -3 5 12 28 -6 11 23 -11 -9 13 -2 15 22 -7 -18 -15 -4 -17 -22 -14 -10 25 -20 -27 -24 29 -5 -30
right_child=2 3 19 6 7 16 -8 8 9 10 -12 -13 14 18 -16 20 17 -19 24 -21 21 -23 27 -25 -26 26 -28 -29 30 -31 -32
leaf_value=0.01351764179432426 0.025748279832587474 0.016222064343369598 -0.0067874724152858839 -0.0043957948695122163 0.020532985633561037 -0.013360598548731475 -0.01758697043345946 0.029488254566073922 0.012391462868578399 -0.0063533319848921551 0.0057687012482839908 -0.0038085968381177905 0.0052772045800422709 0.027213016768215994 -0.015333636396465133 -0.00073173395802459751 -0.011112605217972735 0.028953837661341644 -0.008285470567750676 0.02090316392047287 0.042853469860082725 -0.0071094551384013535 0.018692161530198197 -0.0063234083575295892 0.020173657257919329 0.025950355718884731 -0.00049847935785272241 -0.0022146096276071305 -0.0064777037255507094 0.0031275139594351483 0.020270009723394319
leaf_weight=279.23148232698441 159.00292357802391 190.51566427946091 997.38235849142075 2640.073132365942 120.04674261808395 25.431267589330673 302.510298371315 80.620630502700806 83.760254144668579 475.76720434427261 1231.5670926272869 58.508400797843933 2200.1534708440304 66.063080579042435 97.480280607938766 1255.0417479872704 25.185496807098389 203.38137531280518 188.20303654670715 37.794546484947205 34.103751331567764 25.741432249546051 298.69248619675636 1306.3354840278625 87.208568423986435 64.961403012275696 85.695412993431091 71.637720286846161 2974.3891253769398 1042.5707667171955 45.997614800930023
leaf_count=879 498 596 3143 8330 377 80 954 253 264 1498 3877 184 6915 207 307 3945 79 637 591 119 107 81 938 4111 273 203 268 225 9377 3282 145
internal_value=-4.31912e-05 -0.00336212 0.00263031 -0.00401723 0.0036858 0.00591396 -0.00456776 0.00044093 -0.000304304 -0.00101377 0.00239042 0.0154841 0.00510116 0.0118829 0.00399225 0.00447735 0.0207387 0.024536 0.00740102 -0.00577549 0.000273777 0.0213605 0.00662739 -0.00519517 0.00432646 0.000245317 0.0109051 0.0146467 -0.00398006 -0.00226577 -0.00607002
internal_weight=16755.1 7475.29 9279.77 7196.06 8244.59 4887.98 7005.54 3356.61 3236.56 3097.43 1707.33 139.129 4633.99 651.134 3982.85 3885.37 253.998 228.567 492.132 1035.18 1314.89 59.8452 2570.48 1390.1 426.068 338.86 150.657 370.33 6703.03 3682.64 3020.39
internal_count=52743 23563 29180 22684 25918 15354 22088 10564 10187 9750 5375 437 14558 2040 12518 12211 796 716 1542 3262 4133 188 8078 4375 1335 1062 471 1163 21134 11612 9522
is_linear=0
shrinkage=0.0274897


Tree=4
num_leaves=32
num_cat=0
split_feature=57 186 284 133 149 92 298 114 130 72 285 65 72 93 122 289 149 92 277 277 145 151 100 250 258 297 202 21 288 286 106
split_gain=112.073 61.2395 49.1679 46.2869 47.1992 41.7074 39.9986 38.1054 36.5431 37.8615 36.5742 34.6244 40.3486 40.7603 34.2945 32.4045 31.6345 40.2089 38.8 49.689 39.0266 31.4763 33.6178 31.2847 35.9628 31.7267 31.1928 33.7132 32.7428 30.6268 31.8661
threshold=0.087931122630834593 7.9061224460601816 137.50000000000003 1.5000000000000002 5.5000000000000009 120958.09375000001 -0.81209221482276905 0.75247508287429821 507.50000000000006 23.221109390258793 69.946338653564467 294.50000000000006 -13.807339668273924 1.3564633131027224 1.0000000180025095e-35 -6.6897816658020011 113.50000000000001 118070.57421875001 296.50000000000006 243.50000000000003 -1.0255252122879026 0.58501556515693676 85262.140625000015 5.5000000000000009 24.839697837829593 28.52242469787598 114562.03515625001 0.84412041306495678 -224.4075012207031 13.5893611907959 52.500000000000007
decision_type=2 2 2 2 2 10 2 2 2 2 2 2 2 8 2 2 2 10 2 2 2 2 2 2 2 2 2 2 2 2 2
left_child=3 2 5 4 -1 8 -5 -6 9 10 16 12 14 -14 -8 -9 17 18 19 23 -20 -15 -23 25 -25 26 28 -28 -2 -11 -31
right_child=1 -3 -4 6 7 -7 11 15 -10 29 -12 -13 13 21 -16 -17 -18 -19 20 -21 -22 22 -24 24 -26 -27 27 -29 -30 30 -32
leaf_value=-0.0086361666807546131 0.011592520829874647 0.0022506316956274687 0.0073447521928476402 -0.0043204473404689732 0.021352924897307845 0.022299093764547622 0.002750995131625078 -0.0023449065505856876 0.0023764089727398964 -0.010046364975438536 -0.015633866318666763 0.018965205088763672 -0.00099181668299751485 -0.0070151480647152268 0.015655284848336632 0.017698942171652896 -0.0068412617372862585 0.008016136993123462 -0.010151093203836746 -0.016945008167930622 0.020181818382180257 -0.023122432671085692 0.0072535009477845006 0.0007553107302922682 -0.017678638680177765 0.023936148955988053 -0.0009966046264036064 -0.0063866600391705563 -0.0083849148314528964 0.013150070775674681 -0.011085639200968918
leaf_weight=81.706625670194626 64.844191700220108 2977.8112604320049 396.96014896035194 564.52697411179543 254.91517862677574 50.998016387224197 299.14517304301262 142.4372219145298 1010.9483489394188 77.592010259628296 182.15832012891769 106.48681929707527 1752.4297273159027 142.44379258155823 324.65792861580849 106.46208274364471 1520.9976198375225 264.63604706525803 46.098921179771423 192.26836320757866 104.94814962148666 28.110551685094833 1270.3883822858334 2042.7290114462376 83.208289980888367 30.737954378128052 2636.8230198323727 1314.0467464029789 1392.3991019427776 257.13942322134972 48.729746222496033
leaf_count=218 173 7944 1059 1506 680 136 798 380 2697 207 486 284 4675 380 866 284 4058 706 123 513 280 75 3389 5450 222 82 7035 3506 3715 686 130
internal_value=-5.33191e-05 -0.00126948 -0.00216405 0.0034692 0.0107387 -0.00249752 0.00252066 0.0138822 -0.00260982 -0.00310121 -0.00343031 0.00350509 0.00307354 0.00182417 0.00946821 0.00622739 -0.00320089 -0.00252332 -0.0028761 -0.00314486 0.0109208 0.00524918 0.00659507 -0.00279398 3.33689e-05 -0.00389923 -0.00405764 -0.00278948 -0.00749542 0.00537297 0.00928668
internal_weight=19769.8 14696.1 11718.3 5073.71 585.521 11321.3 4488.19 503.814 11270.3 10259.4 9875.9 3923.66 3817.18 3193.37 623.803 248.899 9693.74 8172.74 7908.1 7757.06 151.047 1440.94 1298.5 7564.79 2125.94 5438.85 5408.11 3950.87 1457.24 383.461 305.869
internal_count=52743 39208 31264 13535 1562 30205 11973 1344 30069 27372 26349 10467 10183 8519 1664 664 25863 21805 21099 20696 403 3844 3464 20183 5672 14511 14429 10541 3888 1023 816
is_linear=0
shrinkage=0.0274897


Tree=5
num_leaves=32
num_cat=0
split_feature=129 295 233 127 78 119 272 126 202 147 72 94 185 272 204 276 145 129 106 149 252 271 106 228 114 297 267 31 121 120 233
split_gain=150.676 90.6691 99.7185 65.8461 70.5798 60.6169 55.8679 53.5703 51.519 40.2894 32.5343 29.2719 41.8919 42.4718 27.9934 29.0167 27.5024 25.875 25.8266 24.8352 24.1397 26.3335 30.8233 25.3868 23.7517 23.5647 23.4506 23.2525 23.136 33.9113 29.8864
threshold=77.500000000000014 -3.5084159374237056 0.00032089458545669919 1.0000000180025095e-35 0.91689261794090282 206.50000000000003 20.500000000000004 1.0000000180025095e-35 132366.25781250003 1.049962103366852 16.049681663513187 102045.39453125001 -0.76709473133087147 8.5000000000000018 -3.8550834655761714 42.500000000000007 0.52005341649055492 197.50000000000003 6.5000000000000009 46.500000000000007 186.50000000000003 45.500000000000007 29.500000000000004 -0.20467589795589444 0.11659081280231477 9.1868143081665057 18.500000000000004 113.85323333740236 1.0000000180025095e-35 1.0000000180025095e-35 0.00031118358310777699
decision_type=2 2 2 2 2 2 2 2 2 2 2 2 2 2 10 2 2 2 2 2 2 2 2 2 2 2 2 2 2 2 2
left_child=7 -2 -3 4 8 6 9 28 11 -5 16 -4 13 -13 15 -10 -9 -17 -7 -15 21 22 24 -23 -11 -12 -18 -14 29 -1 -30
right_child=1 2 3 5 -6 18 -8 10 14 20 25 12 27 19 -16 17 26 -19 -20 -21 -22 23 -24 -25 -26 -27 -28 -29 30 -31 -32
leaf_value=-0.013362533613503222 -0.0084270627325908967 -0.0094853539198561168 0.0006967386484531676 0.003033309000388373 -0.0017876470950608243 0.058073415152429128 0.047787973986668855 -0.0061117273017595175 0.014445071632682525 -0.014927354969116688 0.0040311178672376401 0.0093823607917266644 -0.0023560040404910602 0.049130472503663675 0.0071308587007411052 0.061932846857737395 -0.00022655814119606051 0.021223187560954308 0.018719802719880919 0.015541891169175164 0.019531073376970763 0.022646809982389163 0.04066255678710344 -0.0049472851424708416 0.011662519754242238 0.039789091043194988 0.017802134845492028 0.005884842316888142 -0.020760899249740093 0.00016501633373081719 -0.0040676980609135821
leaf_weight=717.43472248315811 624.42895831167698 505.83727321028709 2031.3987095952034 1343.626087397337 2656.2254622727633 23.320932522416115 24.39965033531189 254.70054492354393 135.39466945827007 27.032692119479179 27.381861314177513 316.48787380754948 389.73496343195438 35.74027444422245 279.07471141219139 21.297044664621353 134.85197897255421 26.630916446447372 27.577430903911591 31.269381880760193 183.7006893903017 30.018367514014244 26.278068527579308 156.05412523448467 408.00342260301113 28.403500825166702 91.436559930443764 769.31042121350765 86.255352392792702 173.90856195986271 1341.518813431263
leaf_count=2947 2557 2078 8282 5469 10834 94 99 1041 550 110 112 1287 1586 145 1134 86 551 108 112 127 746 122 107 635 1659 116 373 3131 355 710 5480
internal_value=0.000137545 0.00171778 0.00238831 0.00306002 0.00169218 0.00712832 0.00644134 -0.00543578 0.0039823 0.00597665 0.00238918 0.00286496 0.00571994 0.0135957 0.0126167 0.0209628 8.28193e-05 0.039347 0.0367814 0.0334763 0.0107343 0.00823672 0.0117578 -0.000490381 0.0100083 0.0222566 0.00705727 0.00311339 -0.00724715 -0.0107227 -0.00507689
internal_weight=12928.7 10072.8 9448.41 8942.58 6692.56 2250.01 2199.11 2855.89 4036.34 2174.71 536.774 3573.94 1542.54 383.498 462.397 183.323 480.989 47.928 50.8984 67.0097 831.087 647.387 461.314 186.072 435.036 55.7854 226.289 1159.05 2319.12 891.343 1427.77
internal_count=52743 41058 38501 36423 27270 9153 8947 11685 16436 8848 2193 14558 6276 1559 1878 744 1965 194 206 272 3379 2633 1876 757 1769 228 924 4717 9492 3657 5835
is_linear=0
shrinkage=0.0274897


Tree=6
num_leaves=32
num_cat=0
split_feature=233 233 86 233 249 233 114 71 295 148 300 261 270 269 96 71 249 221 86 272 270 91 71 227 148 71 38 295 249 108 269
split_gain=175.901 107.045 69.46 50.3577 80.8231 51.0423 47.4848 49.1998 42.1312 63.6338 49.2995 70.2825 52.4519 48.7606 43.0139 50.9534 46.6154 42.3302 41.583 38.1604 36.9451 39.7587 36.7204 33.8337 34.6277 33.2616 35.3218 34.9767 41.8839 37.477 34.0041
threshold=0.0011193987447768452 0.00020810744899790737 104128.72656250001 0.00060561974532902252 14.500000000000002 0.00037290158797986811 0.7033764421939851 15.043759822845461 2.6344259977340703 101.50000000000001 3.0700123310089116 122.50000000000001 -66.357761383056626 259.58413696289068 83563.074218750015 22.366659164428714 6.5000000000000009 9.5000000000000018 120819.72265625001 21.500000000000004 -15.286881446838377 98057.085937500015 19.890748977661136 -0.067126519978046403 11.500000000000002 13.994365692138674 31.202527999877933 -2.3315187692642207 7.5000000000000009 113317.17578125001 66.597003936767592
decision_type=2 2 2 2 2 2 2 2 2 2 2 2 2 2 2 2 2 2 2 2 2 8 2 2 2 2 2 2 2 2 2
left_child=1 -1 8 4 5 20 7 23 9 10 13 12 -12 14 15 16 17 -2 19 25 21 -3 -21 24 -4 26 27 28 30 -29 -5
right_child=2 3 6 18 -6 -7 -8 -9 -10 -11 11 -13 -14 -15 -16 -17 -18 -19 -20 22 -22 -23 -24 -25 -26 -27 -28 29 -30 -31 -32
leaf_value=0.017712510058833973 0.021839871670130778 -0.01003413509198473 -0.012579372253094599 0.016594220587233383 0.014827536804735749 -0.0068365611712093381 -0.0058768277960379988 -0.012281462981663618 -0.00056821678816600248 0.038206784354214991 0.0033604682981772469 0.034791829791562513 0.026653573779843353 0.030176352040696148 0.0017930986365293346 -0.013438540803899862 0.0013822677577010501 0.0080900677019009586 -0.019562002380724933 0.0071813684019339744 -0.010521556764435672 0.0051997367242668192 0.044122184570034778 0.011911215629270154 0.0079520290650996264 -0.0053053937248382374 -0.0051488959319702637 0.00093975587911398974 -0.0048902498159755087 -0.0079410440170892393 -0.0024728563679799432
leaf_weight=206.47416850924492 327.55326154828072 157.71658927202225 109.50348377227783 304.55459588766098 158.18837162852287 3365.5293261110783 715.79816979169846 119.174107670784 570.65583407878876 50.372687160968781 276.91517686843872 106.66818678379059 99.245403170585632 59.071757525205612 1413.9324590563774 70.053128510713577 278.98128387331963 350.3960836827755 87.746796220541 118.70836240053177 203.80195999145508 721.86465409398079 24.530510723590851 398.94695395231247 143.24590417742729 1051.7578739821911 845.64503428339958 3778.5146078765392 149.75886932015419 396.77001640200615 91.974542260169983
leaf_count=642 1024 499 344 958 498 10651 2258 375 1789 156 865 333 310 184 4429 220 872 1095 279 373 643 2275 77 1253 450 3316 2663 11900 471 1252 289
internal_value=-4.25383e-05 -0.00190341 0.00422104 -0.002257 -0.00447929 -0.00516597 -0.000778225 0.00395551 0.00628348 0.0075727 0.00705487 0.0150971 0.00950883 0.00550132 0.00490364 0.00918554 0.0108426 0.0147347 -0.00076227 -0.000518175 2.32893e-05 0.00246738 0.0135181 0.00692587 -0.000941558 -0.000822056 2.48646e-05 0.000951628 0.00749253 9.56636e-05 0.0121705
internal_weight=16754.1 11663.5 5090.51 11457.1 4607.1 4448.91 1486.67 770.87 3603.85 3033.19 2982.82 482.829 376.161 2499.99 2440.92 1026.98 956.931 677.949 6849.96 6762.21 1083.38 879.581 143.239 651.696 252.749 6618.98 5567.22 4721.57 546.288 4175.28 396.529
internal_count=52743 36786 15957 36144 14566 14068 4680 2422 11277 9488 9332 1508 1175 7824 7640 3211 2991 2119 21578 21299 3417 2774 450 2047 794 20849 17533 14870 1718 13152 1247
is_linear=0
shrinkage=0.0274897


Tree=7
num_leaves=32
num_cat=0
split_feature=63 58 122 279 92 71 106 289 301 8 253 56 87 225 230 290 282 72 225 71 107 174 300 300 72 290 261 296 106 280 112
split_gain=106.082 61.6045 47.8662 46.8598 43.1158 37.4435 41.2134 54.9312 69.122 47.7185 36.5412 36.2388 37.8562 37.1415 36.3506 34.0182 37.1986 36.1006 33.2184 29.6097 28.1452 28.824 28.1054 27.433 29.1796 27.3527 27.2212 26.9189 29.4349 35.9695 26.8908
threshold=0.29002285003662115 1.0322960615158083 1.0000000180025095e-35 33.040830612182624 118350.96484375001 15.689552783966066 44.500000000000007 19.973837852478031 12.099027633666994 65.007011413574233 413.50000000000006 88.491539001464858 0.14885790646076205 0.49807190895080572 2.7147566080093388 31.873822212219242 213.50000000000003 -25.207528114318844 0.47898922860622412 -16.481547355651852 110841.42968750001 57.85704421997071 -10.986596107482908 -4.5383617877960196 -20.735727310180661 28.387378692626957 51.500000000000007 2.0000000000000004 26.500000000000004 7.5000000000000009 109481.19140625001
decision_type=2 2 2 2 8 2 2 2 8 2 2 2 2 2 2 2 2 2 2 2 2 2 2 2 2 2 2 2 2 2 2
left_child=2 5 4 19 11 6 9 8 -8 15 26 12 14 -14 -1 20 17 -17 -7 -4 -2 -22 -11 -5 -25 -9 -10 -20 -29 -30 -28
right_child=1 -3 3 23 -6 18 7 25 10 22 -12 -13 13 -15 -16 16 -18 -19 27 -21 21 -23 -24 24 -26 -27 30 28 29 -31 -32
leaf_value=0.00074092772878507987 -0.0055633721804354466 0.0011128975335244757 0.019188538282926014 -0.015176130661848189 0.0085749813868577739 0.011123188631979915 -0.01312484936347994 0.0035721448154374955 0.0038381732448037188 -0.021004662794471333 0.019436206447467168 -0.0049197838788040396 0.014802321438240893 0.0015115259725804815 -0.012304656458924902 -0.013018885169611102 -0.023176011402282582 0.0026576805284241182 -0.0073420543068778822 0.0075784775368848267 -0.00040574676601127005 0.028845590452723696 -0.0074538712817165641 0.015898143008757137 0.0015818096715770433 0.017480175654121324 -0.010977795648129776 0.0091928362174565816 0.0083302211307190281 -0.010607275545989328 0.0037320477347526854
leaf_weight=1538.7900287508965 2394.3629391789436 4609.0253958404064 193.85514605045319 66.703173518180847 474.66936883330345 232.01587268710136 362.00866714119911 357.17520779371262 482.70847955346107 124.3853434920311 74.583836436271667 919.43223044276237 276.30128034949303 374.11172339320183 180.29148429632187 121.80337765812874 48.706881612539291 1249.0674530863762 295.33010482788086 1158.4303993880749 91.455167710781097 35.232149749994278 1656.6737131774426 118.48168605566025 1169.214762121439 152.54441270232201 266.08047553896904 285.23012748360634 126.69409310817719 188.51971483230591 145.05248615145683
leaf_count=4105 6389 12296 517 178 1266 619 966 953 1288 332 199 2453 737 998 481 325 130 3333 788 3090 244 94 4421 316 3119 407 710 761 338 503 387
internal_value=-5.14085e-05 -0.00145605 0.00283552 0.00562362 0.000830233 -0.00281869 -0.00351559 6.27223e-05 -0.00287683 -0.00466649 0.000953722 -0.00028742 0.00150989 0.00715872 -0.000627119 -0.00297851 0.000424883 0.00126421 0.00185357 0.00924353 -0.00489511 0.00772938 -0.00840081 0.00200888 0.00289975 0.00773609 -0.000588443 -0.000547054 0.00279442 -0.00299405 -0.00578685
internal_weight=19768.9 13298.7 6470.28 2706.69 3763.6 8689.63 7561.84 1840.15 1330.43 5721.69 968.425 3288.93 2369.49 650.413 1719.08 3940.63 1419.58 1370.87 1127.79 1352.29 2521.05 126.687 1781.06 1354.4 1287.7 509.72 893.841 895.774 600.444 315.214 411.133
internal_count=52743 35483 17260 7220 10040 23187 20178 4910 3550 15268 2584 8774 6321 1735 4586 10515 3788 3658 3009 3607 6727 338 4753 3613 3435 1360 2385 2390 1602 841 1097
is_linear=0
shrinkage=0.0274897


Tree=8
num_leaves=32
num_cat=0
split_feature=70 57 70 58 129 149 129 125 67 296 70 128 289 202 238 93 265 161 293 290 164 275 203 251 79 275 293 263 61 119 110
split_gain=178.134 136.122 150.807 82.2814 52.7517 49.2602 46.4224 47.6467 45.9229 43.5242 42.5355 39.8798 49.6468 48.2849 45.8674 38.0185 42.6247 37.5892 35.0637 42.9309 34.879 34.6299 33.9962 33.203 33.0332 31.8151 31.0204 30.888 30.0194 29.994 29.9135
threshold=5.1417078971862802 0.05218112654983998 1.7724601030349734 1.2457268238067629 67.500000000000014 19.500000000000004 72.500000000000014 1.0000000180025095e-35 0.0005394639156293125 2.0000000000000004 0.93178847432136547 1.5000000000000002 13.630659580230715 131177.64843750003 0.26638214290142065 0.75481772422790538 65.000000000000014 1.7759659290313723 0.37074178457260137 42.742801666259773 0.047512223944067962 386.35243225097662 -3.0966258049011226 3.5000000000000004 0.68912073969841015 135.53827667236331 0.57773825526237499 2.5000000000000004 0.3436440527439118 218.50000000000003 119150.50781250001
decision_type=2 2 2 2 2 2 2 2 2 2 2 2 2 2 2 10 2 2 2 2 2 2 2 2 2 2 2 2 2 2 2
left_child=1 -1 4 6 21 8 7 -4 -6 10 -7 13 29 14 -8 -14 -17 25 19 -18 26 -3 -11 -23 30 -10 -20 -2 -12 -13 -15
right_child=27 2 3 -5 5 9 11 -9 17 22 28 12 15 24 -16 16 18 -19 20 -21 -22 23 -24 -25 -26 -27 -28 -29 -30 -31 -32
leaf_value=-0.0094420005950117264 -0.0094640246109144403 -0.0041694671411195193 -0.0006190649879933821 -0.0093996418780047542 0.0068448085727775103 0.040939974413210602 -0.0029038289748150141 -0.013347535641391236 0.0063017874888379637 0.011124804262401637 0.0038420175141168121 0.0019030962095209394 0.0012494900810385747 0.012798655499840004 0.0046729204425562431 0.025289459499077887 -0.0050807193406897308 -0.0054003739769872376 0.057983887673528689 0.031617347308246786 0.0050530605378024656 9.7466270499085684e-06 -0.0076266270561668598 0.035609399599273922 0.0035124367452102141 0.032106083706235057 0.020686882590148042 -0.00094770515378237883 0.014050350418844854 0.034204295696284345 0.046846120440961043
leaf_weight=800.41513654589653 1494.2033808082342 320.27529601752758 1152.9812623113394 575.07371667027473 163.08938699960709 34.70831073820591 2216.5582126379013 275.30907687544823 42.887011185288429 115.47773890197277 364.99365572631359 1489.4060454070568 222.10756081342697 174.91267594695091 829.76152542233467 189.88955126702785 153.90162664651871 27.925894156098366 21.316630870103836 28.53210674226284 90.660664230585098 43.996441259980202 198.8081010133028 36.01307275891304 560.81255348026752 230.57862582802773 80.874035283923149 410.35444693267345 540.04192009568214 22.022090464830399 21.946830227971077
leaf_count=3307 6149 1310 4715 2361 659 140 9034 1143 173 467 1481 6053 900 704 3379 763 624 113 86 114 367 179 807 146 2280 926 327 1678 2181 89 88
internal_value=0.000133759 0.00147487 0.00232952 0.00062261 0.00885949 0.0109529 0.00138802 -0.00307308 0.018601 0.00811934 0.011081 0.00243219 0.00529087 0.000704567 -0.000839873 0.0108885 0.0146755 0.0249597 0.00930219 0.000659646 0.0174741 -0.000126695 -0.000734846 0.0160462 0.00691468 0.0280621 0.0284846 -0.00762941 0.0099342 0.00237465 0.0166027
internal_weight=12929.8 11025.3 10224.9 8106.07 2118.8 1718.51 7530.99 1428.29 464.481 1254.03 939.744 6102.7 2298.71 3803.99 3046.32 787.282 565.175 301.392 375.285 182.434 192.851 400.285 314.286 80.0095 757.672 273.466 102.191 1904.56 905.036 1511.43 196.86
internal_count=52743 44916 41609 33027 8582 6947 30666 5858 1871 5076 3802 24808 9323 15485 12413 3181 2281 1212 1518 738 780 1635 1274 325 3072 1099 413 7827 3662 6142 792
is_linear=0
shrinkage=0.0274897


Tree=9
num_leaves=32
num_cat=0
split_feature=67 67 70 291 202 87 91 114 202 292 259 148 233 288 148 290 88 94 88 253 152 253 70 260 295 72 147 233 63 272 220
split_gain=187.078 111.394 87.6712 82.0565 73.3389 64.7515 62.341 49.7109 48.9994 46.6833 59.5666 43.4782 43.0685 40.3325 39.6855 43.4604 56.0772 46.4255 42.3975 42.2657 39.2659 47.4072 49.6237 38.1671 45.9109 37.9551 42.8195 37.0585 38.1914 44.1075 36.0432
threshold=0.0012173461145721378 0.00025994588213507091 2.5366325378417973 -0.11530162766575812 124810.92968750001 -0.51087200641632069 104280.07031250001 0.7033764421939851 124092.84375000001 1.1106814146041872 3.3660480976104741 24.500000000000004 0.00097567695775069307 74.774467468261733 106.50000000000001 23.240030288696293 82767.398437500015 94316.464843750015 99625.949218750015 39.500000000000007 0.84243911504745495 286.50000000000006 3.1750841140747075 131.50000000000003 -0.35351495444774622 15.798965454101564 2.8263683319091801 0.00060561974532902252 0.18077030032873156 3.5000000000000004 6.5000000000000009
decision_type=2 2 2 2 2 2 10 2 2 2 2 2 2 2 2 2 2 2 2 2 2 2 2 2 2 2 2 2 2 2 2
left_child=1 -1 5 -4 8 -3 14 25 9 10 -5 -11 -13 27 15 16 -2 23 -19 -20 -12 22 -22 -18 -25 26 -8 28 -7 -30 -17
right_child=6 2 3 4 -6 13 7 -9 -10 11 20 12 -14 -15 -16 30 17 18 19 -21 21 -23 -24 24 -26 -27 -28 -29 29 -31 -32
leaf_value=0.018140527498237021 0.025793061106999086 0.0057558689879414005 -0.0046315310993865913 -0.0059219176633383361 -0.0023498540064404334 -0.0021369194438349681 0.0046613585165648959 -0.0059554127040295085 0.022008968685070723 -0.011949259564116049 0.0001776516756429757 0.02063006489850646 -0.0069990527692586259 -0.0095130499640366222 0.029288886366308171 0.011520401333272874 0.0013485188357820817 0.048591873329260349 0.03325555964483199 0.0054386868301034451 0.0039244196092920354 -0.000497819419591403 0.017968353029564371 0.0048172924886970038 0.031385796831001456 -0.011872579369502848 0.028807854689859691 -0.0012512641722732672 -0.012671898968837365 -0.0038270930255639157 0.0022125900173760819
leaf_weight=206.87519019842148 156.65828147530556 455.48239028453827 1597.7570852637291 236.58749622106552 1276.0881090760231 1168.4768287837505 555.71757200360298 637.61437067389488 134.50013247132301 215.32709351181984 304.20230042934418 84.11623814702034 86.372470170259476 1199.289163351059 57.330994367599487 383.39522898197174 578.67889922857285 31.790536254644394 60.550263553857803 129.79018667340279 266.36738303303719 210.15239828824997 665.30956766009331 127.15342178940773 80.16260689496994 91.732291668653488 61.646558880805969 2231.3802301287651 921.64048969745636 792.79428830742836 1747.7445973455906
leaf_count=639 486 1434 5036 744 4031 3697 1741 2016 422 677 956 264 271 3804 177 1192 1810 99 188 405 836 660 2085 397 250 290 193 7039 2930 2520 5454
internal_value=-4.1923e-05 -0.00185598 -0.00220528 0.000525405 0.00289391 -0.00425336 0.00460997 -0.00038548 0.00593168 0.00488574 0.00686338 -0.00373769 0.00663078 -0.00497556 0.00661635 0.00622159 0.0104917 0.00811278 0.0192096 0.0142936 0.00895562 0.0112937 0.0139539 0.0049755 0.0150956 0.00462228 0.00707442 -0.00391138 -0.00597012 -0.00858227 0.00388744
internal_weight=16752.7 12052.7 11845.8 5076.78 3479.02 6769.06 4699.97 1346.71 2202.94 2068.43 1682.62 385.816 170.489 6313.58 3353.26 3295.92 1164.78 1008.13 222.131 190.34 1446.03 1141.83 931.677 785.995 207.316 709.096 617.364 5114.29 2882.91 1714.43 2131.14
internal_count=52743 38045 37406 15982 10946 21424 14698 4240 6915 6493 5281 1212 535 19990 10458 10281 3635 3149 692 593 4537 3581 2921 2457 647 2224 1934 16186 9147 5450 6646
is_linear=0
shrinkage=0.0274897


Tree=10
num_leaves=32
num_cat=0
split_feature=122 270 93 129 233 129 93 70 290 70 233 300 293 70 87 99 115 270 202 70 290 70 294 277 288 147 245 12 71 71 149
split_gain=101.599 67.4381 87.1191 59.3619 55.1833 62.0318 54.0703 49.1654 45.4234 42.5761 52.7084 43.8105 41.926 47.521 54.2832 40.1914 39.1322 38.849 36.025 35.982 35.9422 46.2342 38.3077 35.6532 34.7473 33.5732 32.1221 35.403 33.0208 30.4926 30.3847
threshold=1.0000000180025095e-35 -47.826425552368157 2.2386620044708256 292.50000000000006 0.00060561974532902252 67.500000000000014 0.67482247948646557 1.6586032509803774 35.715200424194343 7.0786931514739999 0.0010655183577910068 -1.6237483620643614 0.5163639783859254 3.0902131795883183 0.66675424575805675 101647.03125000001 4.5000000000000009 -98.578044891357408 133430.15625000003 7.5152912139892587 15.001148223876955 3.4298082590103154 -1.3511953353881834 125.50000000000001 -91.514202117919908 -3.6580506563186641 34.500000000000007 33.251522064208991 8.647130489349367 -6.8127214908599845 107.50000000000001
decision_type=2 2 8 2 2 2 10 2 2 2 2 2 2 2 2 2 2 2 2 2 2 2 2 2 2 2 2 2 2 2 2
left_child=1 6 9 4 8 -6 7 16 29 10 25 -12 -8 14 -14 19 -1 -5 -4 -9 -17 -22 23 -23 -25 -3 27 -15 -28 -2 -24
right_child=3 2 18 17 5 -7 12 15 -10 -11 11 -13 13 26 -16 20 -18 -19 -20 -21 21 22 30 24 -26 -27 28 -29 -30 -31 -32
leaf_value=-0.016346144986518197 0.0088753550656891327 0.02531561545030973 0.0052229654371840125 -0.011591016497390352 0.0049946155242604866 -0.0021812059917620487 -0.010170839836939997 -0.0055553575740438892 0.017754556507861782 0.018607262634918284 -0.025759552063328466 -0.004785729197877924 -0.0029378435568350766 -0.013647675411324951 0.013891689882710112 0.015352798796769828 0.0076882678791365183 0.010667935782047791 0.02115459909569797 0.0059554590526537873 -0.0026141743053262863 -0.00652735583387197 0.014795300783111436 0.001172555115445184 0.034199913080019032 -0.0010972728430455444 -0.013997867193989037 -0.0023551348114461091 0.012529202867649495 0.0014056501863940762 0.0012619948149395995
leaf_weight=259.67188584804535 629.52679029107094 36.733323782682419 1339.339427113533 63.704878777265549 1274.6359649300575 3185.175817579031 1188.7347567975521 1344.8747849464417 200.59205454587936 78.707602828741074 118.00072214007378 207.96137753129005 478.55573353171349 536.54869610071182 207.63994535803795 140.93565091490746 63.713432610034943 840.43973654508591 116.6032395362854 242.10739326477051 1175.3092333972454 269.81103163957596 366.20610877871513 72.704606264829636 35.988002806901932 3393.863175958395 52.080605655908585 344.70652359724045 110.92773041129112 1201.1292333006859 190.76015815138817
leaf_count=693 1679 98 3573 170 3400 8499 3173 3589 535 210 315 555 1277 1432 554 376 170 2242 311 646 3136 720 977 194 96 9055 139 920 296 3204 509
internal_value=-4.95112e-05 -0.00157318 0.0007746 0.00249958 0.00158027 -0.000130191 -0.00332754 -0.00131564 0.00533596 -0.00139862 -0.00181804 -0.0123814 -0.00619583 -0.0034648 0.0021543 -0.000448281 -0.0116091 0.00909875 0.0064996 -0.0037989 0.00191299 0.0010152 0.00557558 -0.00117126 0.0121181 -0.000814119 -0.00715761 -0.00923133 0.00404991 0.0039747 0.0101613
internal_weight=19767.7 12372.5 5291.21 7395.2 6491.06 4459.81 7081.28 4162.08 2031.25 3835.27 3756.56 325.962 2919.19 1730.46 686.196 3838.7 323.385 904.145 1455.94 1586.98 2251.71 2110.78 935.47 378.504 108.693 3430.6 1044.26 881.255 163.008 1830.66 556.966
internal_count=52743 33014 14117 19729 17317 11899 18897 11106 5418 10233 10023 870 7791 4618 1831 10243 863 2412 3884 4235 6008 5632 2496 1010 290 9153 2787 2352 435 4883 1486
is_linear=0
shrinkage=0.0274897


Tree=11
num_leaves=32
num_cat=0
split_feature=70 57 70 270 35 272 270 91 289 298 299 167 270 67 70 227 43 167 227 274 145 285 113 289 298 285 289 145 296 92 226
split_gain=171.614 130.583 135.852 91.0967 43.4227 43.0055 35.5353 37.3791 35.3286 33.5468 32.8902 32.8736 29.1353 28.8513 41.2476 35.1501 29.5861 28.4094 27.1284 28.8084 36.854 29.7112 28.7072 26.4831 25.8404 24.6623 27.4412 25.4327 24.4838 24.3932 23.4987
threshold=5.1417078971862802 0.049815999343991287 1.7724601030349734 -27.914450645446774 18.006072998046879 26.500000000000004 -83.049457550048814 105246.10546875001 14.170030593872072 1.6398645639419558 -3.1559114456176753 2.1471095085144047 -12.608722209930418 0.00054820298100821685 1.0486746430397036 0.039026020094752319 14.382160663604738 -0.73271775245666493 -0.15769651532173154 -85.777252197265611 -2.5015228986740108 41.301469802856452 111578.40625000001 17.291023254394535 -0.93358764052391041 -1.1428071260452268 12.862532138824465 -0.96416255831718434 -1.9999999999999998 118032.32031250001 2.0134764909744267
decision_type=2 2 2 2 2 2 2 10 2 2 2 2 2 2 2 2 2 2 2 2 2 2 2 2 2 2 2 2 2 10 2
left_child=1 -1 3 6 5 8 7 -3 12 -2 -5 23 -4 -8 15 -15 -16 -10 25 22 -21 30 -20 -6 -19 28 27 -27 -18 -25 -22
right_child=9 2 4 10 11 -7 13 -9 17 -11 -12 -13 -14 14 16 -17 18 24 19 20 21 -23 -24 29 -26 26 -28 -29 -30 -31 -32
leaf_value=-0.01006452694968395 -0.0087194806941930693 0.010298943934951604 -0.0027022860419130554 0.016070952933198938 0.0031235794186516238 0.03040689892456688 0.004727701665735197 0.045790042516672312 -0.0058739594270912042 0.003568350720367092 -0.0026914382324219476 -0.006994626609287331 0.02735355098034797 0.043138712492859332 -0.00908766290400519 0.00060927998495134336 0.021065187597894944 0.015637477046463771 -0.021633726093853948 0.044230651748005653 0.0094165118194222235 -0.0027293746564984876 0.0069030312117998628 0.0087941354991426871 0.0024594309803791948 0.039352281547292228 0.059411165841294085 0.012641898970282244 -0.01564883760638754 0.033325626878165031 0.021923039933104474
leaf_weight=698.07614512741566 1708.8592044711113 43.384476944804192 3663.1510521322489 80.587054282426834 1773.7696925401688 33.310022339224815 414.0991450548172 46.533314555883408 292.7046849578619 186.11347004771233 568.57402460277081 200.36268259584904 24.507333815097809 58.689898103475571 48.850286588072777 19.616934239864349 36.568240374326706 121.03650243580341 37.282685965299606 27.242312386631966 293.13456943631172 92.719306036829948 93.107714399695396 413.39052323997021 1583.7788756787777 45.662402525544167 18.91497677564621 65.93556421995163 21.928221508860588 33.082817748188972 185.59346063435078
leaf_count=2911 7062 173 14956 326 7216 134 1674 185 1196 765 2314 820 100 232 197 79 146 487 151 108 1176 373 374 1677 6424 183 75 265 88 134 742
internal_value=0.000130045 0.00144241 0.00221953 0.00828305 0.00058165 -0.000724635 0.0119053 0.0286795 -0.000907265 -0.00751234 -0.000360941 0.00366783 -0.00250221 0.0108709 0.013304 0.0324947 0.0117485 0.00203694 0.0128579 0.01045 0.0130001 0.0115084 -0.00125531 0.00463035 0.00339555 0.022141 0.0287894 0.0235821 0.00729293 0.0106148 0.014267
internal_weight=12930.6 11035.6 10337.5 2198.42 8139.09 5718.49 1549.26 89.9178 5685.18 1894.97 649.161 2420.61 3687.66 1459.35 1045.25 78.3068 966.94 1997.52 918.089 729.08 598.69 571.447 130.39 2220.24 1704.82 189.009 130.513 111.598 58.4965 446.473 478.728
internal_count=52743 44916 42005 8861 33144 23297 6221 358 23163 7827 2640 9847 15056 5863 4189 311 3878 8107 3681 2924 2399 2291 525 9027 6911 757 523 448 234 1811 1918
is_linear=0
shrinkage=0.0274897


Tree=12
num_leaves=32
num_cat=0
split_feature=233 233 202 202 300 226 276 103 269 86 114 263 94 280 300 133 281 56 272 286 228 285 202 61 95 114 145 289 285 101 300
split_gain=158.502 93.4839 63.9018 58.2064 57.1026 49.5691 40.6391 40.3637 53.0121 39.5583 46.6334 40.7999 38.747 37.1479 34.9891 42.3876 39.3413 38.8607 40.2031 35.6344 35.1107 34.9841 32.5027 32.1457 31.8073 57.8116 31.7375 31.1787 31.9811 30.4602 30.2417
threshold=0.0013993644970469179 0.00020810744899790737 125058.43750000001 103799.21093750001 -2.2722394466400142 1.8163659572601321 116.50000000000001 3.5000000000000004 97.198112487792983 104218.56250000001 0.7033764421939851 3.5000000000000004 115700.24218750001 23.500000000000004 -10.986596107482908 3.5000000000000004 94.500000000000014 55.392339706420906 13.500000000000002 30.210634231567386 -0.096009876579046236 -6.9781084060668936 131704.51562500003 0.44780541956424719 95128.925781250015 0.8109821379184724 0.19565207511186603 40.480949401855476 -26.330440521240231 0.61984738707542431 -2.4465407133102413
decision_type=2 2 2 2 2 2 2 2 2 2 2 2 2 2 2 2 2 2 2 2 2 2 2 2 2 2 2 2 2 2 2
left_child=1 -1 6 -2 5 -4 12 8 27 11 -11 22 14 -14 19 17 23 -16 -19 21 -20 -3 -5 -17 -13 -26 -9 28 29 -7 -30
right_child=3 2 4 9 -6 7 -8 26 -10 10 -12 24 13 -15 15 16 -18 18 20 -21 -22 -23 -24 -25 25 -27 -28 -29 30 -31 -32
leaf_value=0.016884353864126258 0.024901756704835749 0.0010780264157228053 -0.011673793364450496 0.0085574302233350618 -0.0052509574390640929 0.030470066195843994 -0.011394914183907095 0.0083206053826610366 0.036277920276358559 0.0060312562916953628 -0.0079095882963977869 -0.0096191687737586969 0.0066259152594644773 0.039219982689296572 0.025043026999454689 -0.0053803686978151381 0.016029018037309727 0.00056357486425846846 0.024238171382055879 -0.0064221779569243465 0.0041481077748328245 0.034415735026545456 -0.00598448584658274 -7.0519604762578984e-05 0.04009607635412487 -0.0053408104584687401 -0.016386629692817824 -0.019046229477056212 -0.00076878259289939622 -0.0011031215708578207 0.017290801187313153
leaf_weight=209.03239518404007 111.69573989510536 37.524076730012894 153.4399970471859 2005.9682648479939 4419.8001417815685 78.295471787452698 233.40964794158936 65.769593507051468 49.491113275289536 363.47746020555496 361.75983172655106 195.27316868305206 115.51042765378952 34.264143407344818 53.047545105218887 1859.3285921216011 84.793712496757507 3579.4691514670849 101.60903191566467 48.127602368593216 186.39128425717354 65.110058069229126 123.22847029566765 1605.9464392960072 31.654255539178848 63.672475844621658 97.440878421068192 33.758733034133911 253.08110868930817 32.698515027761459 96.845796018838882
leaf_count=642 345 116 487 6226 14022 246 739 207 155 1137 1146 610 362 107 164 5895 266 11261 316 151 582 201 385 5058 98 199 308 106 799 103 304
internal_value=-4.13036e-05 -0.001355 -0.00164206 0.0054018 -0.00398936 0.00248759 -9.34659e-05 0.0055604 0.00915691 0.0047089 -0.000921993 0.00639673 0.000245951 0.0140914 -2.612e-05 -0.000290807 -0.00246689 0.00167953 0.00135877 0.0130842 0.0112394 0.0222354 0.00771551 -0.00291974 -0.00326387 0.00974847 -0.00642741 0.00644076 0.00830954 0.021166 0.00422885
internal_weight=16750.9 13494.2 13285.2 3256.73 5280.62 860.821 8004.53 707.381 544.171 3145.03 725.237 2419.8 7771.12 149.775 7621.35 7470.59 3550.07 3920.52 3867.47 150.762 288 102.634 2129.2 3465.28 290.6 95.3267 163.21 494.68 460.921 110.994 349.927
internal_count=52743 42597 41955 10146 16737 2715 25218 2228 1713 9801 2283 7518 24479 469 24010 23542 11219 12323 12159 468 898 317 6611 10953 907 297 515 1558 1452 349 1103
is_linear=0
shrinkage=0.0274897


Tree=13
num_leaves=32
num_cat=0
split_feature=63 58 249 298 130 71 106 289 301 8 285 253 294 292 294 106 158 290 95 244 271 290 91 133 130 271 71 285 63 130 244
split_gain=94.7087 57.4554 47.8375 46.5503 35.6247 35.152 39.4766 52.7953 66.2851 44.9369 35.6288 35.2277 36.8174 34.7579 42.2085 34.575 35.1358 33.3637 33.5705 33.0457 32.699 32.6646 31.5587 30.74 33.373 29.0913 28.9287 28.4341 27.937 27.9078 27.8326
threshold=0.29002285003662115 1.0322960615158083 15.500000000000002 -0.81209221482276905 477.50000000000006 15.689552783966066 44.500000000000007 19.973837852478031 12.099027633666994 65.007011413574233 22.449398040771488 413.50000000000006 1.5027003288269045 -1.4745450615882871 -1.6947736740112302 16.500000000000004 0.37869647145271307 32.959539413452156 94868.687500000015 25.500000000000004 294.50000000000006 31.873822212219242 118213.53515625001 4.5000000000000009 172.50000000000003 32.500000000000007 -24.440937995910641 -60.630939483642571 0.09046341106295587 392.50000000000006 50.500000000000007
decision_type=2 2 2 2 2 2 2 2 8 2 2 2 2 2 2 2 2 2 2 2 2 2 8 2 2 2 2 2 2 2 2
left_child=2 5 3 23 -3 6 9 8 -8 21 -7 12 13 -10 -15 -12 -17 18 -16 -14 22 -2 28 24 -1 -4 -23 -9 -5 -20 -28
right_child=1 4 25 20 -6 10 7 27 11 -11 15 -13 19 14 17 16 -18 -19 29 -21 -22 26 -24 -25 -26 -27 30 -29 -30 -31 -32
leaf_value=-0.024509738325069343 -0.004733787620228861 -0.00023183102591384257 -0.02778910647573862 -0.0066673834475076948 0.0054721845162022179 -0.0076795335301632975 -0.012786149591935376 0.028149665562049928 -0.016336309502577171 -0.0081184561541376016 0.010353958565884853 0.019148637083992393 -0.026150149159254839 0.026656285496328591 -0.0055987400359892589 0.0037378488132700431 -0.013157585987198725 -0.023619938425502432 0.012564410155215349 0.00019649627219525513 0.018907474689071262 -0.011342543653394384 0.010048191275005549 -0.0075688744022102197 0.0047091025184433375 -0.003027866562861011 0.00030211708812423601 0.0055989395028319226 0.003453925047345814 -0.0044836267322293077 0.012896004160751453
leaf_weight=31.851959973573685 2520.2491889894009 3527.8391911387444 58.414090126752853 215.7970575094223 1080.8724347651005 235.26045823097229 361.78430283069611 46.48996302485466 71.18762394785881 1780.0349886417389 399.58693972229958 74.601856827735901 73.41873773932457 56.221612572669983 204.53927502036095 368.4293407201767 124.39611080288887 36.717053383588791 283.70847156643867 70.441115826368332 109.11211287975311 140.84724014997482 533.17701077461243 472.64461177587509 402.22775262594223 92.940157204866409 1128.2366198897362 463.23371353745461 4554.1360118985176 97.431246370077133 150.26078534126282
leaf_count=85 6727 9413 156 576 2883 628 966 124 190 4753 1066 199 196 150 546 983 332 98 757 188 291 376 1422 1261 1073 248 3011 1236 12148 260 401
internal_value=-4.76269e-05 -0.00137508 0.00268006 0.00304596 0.00110583 -0.00269132 -0.00336674 0.000135658 -0.0027469 -0.0044934 0.00183588 0.0010039 -0.000510741 0.00193281 0.00385056 0.00434508 -0.000526237 0.00178866 0.0033834 -0.0132483 0.00401174 -0.00285531 0.00370507 -0.00271811 0.00256258 -0.0125908 0.000479864 0.00765802 0.00299589 0.00820506 0.00178289
internal_weight=19766.1 13295.8 6470.3 6318.95 4608.71 8687.08 7559.4 1839.77 1330.05 5719.63 1127.67 968.267 893.665 749.805 678.618 892.412 492.825 622.396 585.679 143.86 5412.22 3939.59 5303.11 906.724 434.08 151.354 1419.34 509.724 4769.93 381.14 1278.5
internal_count=52743 35483 17260 16856 12296 23187 20178 4910 3550 15268 3009 2584 2385 2001 1811 2381 1315 1661 1563 384 14437 10515 14146 2419 1158 404 3788 1360 12724 1017 3412
is_linear=0
shrinkage=0.0274897


Tree=14
num_leaves=32
num_cat=0
split_feature=70 57 70 129 129 127 119 78 41 161 202 298 133 276 129 252 285 290 283 129 28 129 293 122 129 146 259 252 70 57 261
split_gain=164.79 125.227 128.948 68.859 48.7022 35.9386 46.5942 37.3751 42.6034 34.8006 33.3093 32.4602 31.1684 34.1231 31.7812 30.8694 30.2492 33.2191 30.3859 30.1204 29.1882 29.101 36.4039 36.2589 28.81 27.5611 27.5158 30.6239 46.5307 35.4235 36.1899
threshold=5.1417078971862802 0.049815999343991287 1.7724601030349734 72.500000000000014 92.500000000000014 1.0000000180025095e-35 203.50000000000003 0.90098172426223766 7.4101965427398691 1.6862502098083498 130271.02734375001 1.6398645639419558 5.5000000000000009 56.500000000000007 167.50000000000003 76.500000000000014 -61.660797119140618 49.783926010131843 162.50000000000003 362.50000000000006 153.56476593017581 307.50000000000006 1.0997996330261233 1.0000000180025095e-35 287.50000000000006 25.500000000000004 20.229203224182132 90.500000000000014 1.0965548157691958 0.076347108930349364 105.50000000000001
decision_type=2 2 2 2 2 2 2 2 2 2 2 2 2 2 2 2 2 2 2 2 2 2 2 2 2 2 2 2 2 2 2
left_child=1 -1 4 -4 10 7 12 8 -5 16 -3 -2 13 20 15 -14 -6 18 21 24 -7 26 23 -23 -9 -16 27 29 -29 -18 -31
right_child=11 2 3 5 9 6 -8 19 -10 -11 -12 -13 14 -15 25 -17 17 -19 -20 -21 -22 22 -24 -25 -26 -27 -28 28 -30 30 -32
leaf_value=-0.0099071633985884158 -0.0085820615091963832 -0.0030285720191919226 -0.004417727056990871 0.00069956028815131585 0.03910242690317535 0.0024731334537949107 0.032051702037585582 -0.0018593442218245188 0.0083669302937596605 -0.0021068614171127912 0.011864009506824435 0.0034977141377793412 0.027849336857761971 -0.0068447690926741241 0.036243495876288903 -0.016341510939011188 0.008842449171894454 -0.014389523914895619 -0.0086481659001851324 0.0042971686551582528 0.011894537091327559 0.012961188790107112 -0.018352181898589795 -0.010333342198095046 -0.010517613417994554 0.0010027501241706446 0.034679434312307869 0.027195927289030711 0.0061592634931494179 0.039993356658523584 0.017968307419918481
leaf_weight=692.70557203888893 1698.2078702747822 409.36107535660267 1665.8980542719364 2138.3480186909437 29.870084404945374 882.95804281532764 48.032827451825142 1170.8378132581711 736.22984434664249 151.43209411203861 156.98780901730061 186.49320161342621 18.834578916430473 210.76974979043007 64.682352796196938 32.554608896374702 132.82205440104008 37.432211682200432 52.677944138646126 418.68687064945698 345.91911374032497 311.80267287790775 40.149668753147125 60.206825330853462 386.29103142023087 22.679919868707657 52.058756396174431 96.874575331807137 442.21868400275707 92.688334301114082 144.42122061550617
leaf_count=2911 7062 1664 6863 8675 117 3570 188 4785 2978 611 635 765 76 852 259 132 532 150 210 1707 1386 1243 162 244 1582 91 205 385 1769 362 572
internal_value=0.000126344 0.00140821 0.00216533 0.000566654 0.00805264 0.00184877 0.00538501 0.000662877 0.00266354 0.0104468 0.001099 -0.00738645 0.00457267 0.00337281 0.0170155 -0.000129464 0.0117203 0.0111603 0.0118316 -0.00224759 0.00512579 0.0126178 0.00650422 0.00918933 -0.00400774 0.0271035 0.0152388 0.0141239 0.0099416 0.0202162 0.0265837
internal_weight=12931.1 11046.4 10353.7 8142.72 2211 6476.82 1626.43 4850.39 2874.58 1644.66 566.349 1884.7 1578.4 1439.65 138.751 51.3892 1493.22 1463.35 1425.92 1975.82 1228.88 1373.24 412.159 372.009 1557.13 87.3623 961.084 909.025 539.093 369.932 237.11
internal_count=52743 44916 42005 33144 8861 26281 6554 19727 11653 6562 2299 7827 6366 5808 558 208 5951 5834 5684 8074 4956 5474 1649 1487 6367 350 3825 3620 2154 1466 934
is_linear=0
shrinkage=0.0274897


Tree=15
num_leaves=32
num_cat=0
split_feature=67 67 297 202 97 158 284 67 72 88 285 285 91 295 114 234 107 274 301 279 274 243 87 1 95 292 301 133 114 282 202
split_gain=153.848 96.6154 55.5147 51.3863 51.3094 48.3834 40.8263 48.71 39.1465 45.0366 54.5869 44.6632 36.9861 45.1106 35.7693 36.7537 52.4854 34.8888 34.6253 34.4984 32.6719 32.2199 33.8537 32.1285 31.6755 39.7264 31.5093 30.7679 44.1744 80.6666 47.8991
threshold=0.0012014077510684731 0.00025994588213507091 -12.177504062652586 125009.20312500001 82014.238281250015 0.44052231311798101 34.500000000000007 0.0029910085722804074 -19.618721961975094 83037.570312500015 33.170410156250007 -58.607280731201165 103278.89062500001 -4.0173654556274405 3.7266491651535039 -0.081970669329166398 111574.96093750001 157.96327209472659 7.8555059432983407 44.879384994506843 -155.39130401611325 0.70105803012847911 0.38791483640670782 42.536237716674812 116608.28515625001 0.10281504690647127 15.819895267486574 2.5000000000000004 1.628943204879761 71.500000000000014 116355.13671875001
decision_type=2 2 2 2 2 2 2 2 2 2 2 2 10 2 2 2 2 2 8 2 2 2 2 2 2 2 10 2 2 2 2
left_child=1 -1 4 8 -2 26 17 12 11 10 -10 -3 13 -8 15 -5 18 -4 21 -7 -20 22 -17 -21 27 -26 -6 28 30 -30 -11
right_child=2 3 6 14 5 19 7 -9 9 24 -12 -13 -14 -15 -16 16 -18 -19 20 23 -22 -23 -24 -25 25 -27 -28 -29 29 -31 -32
leaf_value=0.017056815982343248 0.025799378471825223 0.014467037389303159 0.0019190402014496316 -0.00029054827298996214 0.00029367381820404932 0.019572495311388102 -0.0063372573489607941 0.032840325070630519 0.017732375514403095 0.0052918246268706826 -0.017080586520663958 -0.0097173847954235351 -0.0021385689388644497 0.011227503912743835 0.02398392631417107 0.003213761485258496 -0.013554216093187408 -0.0068254049915152876 0.0066958931026154011 0.014115791766882079 -0.0067622189401994812 0.02336211628104341 -0.012226082518370252 -0.0075004839851032885 0.028145480872448107 -0.0042420513568533396 0.02925029745812241 -0.0020990327691617675 0.0059164906640399931 0.048490353178009822 -0.0031438670212588934
leaf_weight=205.54669311642647 127.42284724116325 64.579506188631058 1967.0787859261036 1243.3678780794144 537.10929125547409 296.07233560085297 130.65828624367714 50.975973159074783 200.74948799610138 925.67875409126282 40.948768526315689 539.42691752314568 347.87288048863411 714.20807665586472 33.879254579544067 457.00162374973297 554.23152542114258 418.04297232627869 145.47435414791107 124.14252942800522 2152.5548512935638 46.403238296508789 140.2176276743412 89.295669913291931 65.248457491397858 50.912113130092621 29.959617257118225 3686.7941645085812 197.85678926110268 40.506369739770889 1128.9835743904114
leaf_count=627 389 203 6146 3944 1674 919 404 156 624 2905 128 1709 1093 2211 107 1450 1767 1304 462 386 6852 146 446 278 203 160 93 11664 620 125 3564
internal_value=5.19436e-05 -0.00162538 0.00418921 -0.00195325 0.00930427 0.00735089 0.0024919 0.00652973 -0.000443451 0.000193777 0.011831 -0.00713027 0.00540414 0.00851041 -0.00414888 -0.00435023 -0.00579396 0.000386122 -0.00433158 0.0134989 -0.00590998 0.00130324 -0.000410794 0.00507005 -0.000267592 0.0139482 0.00182568 -0.000543883 0.00195631 0.0131579 0.000656403
internal_weight=16753.2 11920.4 4832.84 11714.8 1204 1076.58 3628.84 1243.72 6941.68 6337.68 241.698 604.006 1192.74 844.866 4773.13 4739.25 3495.88 2385.12 2941.65 509.511 2298.03 643.622 597.219 213.438 6095.98 116.161 567.069 5979.82 2293.03 238.363 2054.66
internal_count=52759 37706 15053 37079 3739 3350 11314 3864 21905 19993 752 1912 3708 2615 15174 15067 11123 7450 9356 1583 7314 2042 1896 664 19241 363 1767 18878 7214 745 6469
is_linear=0
shrinkage=0.0274897


Tree=16
num_leaves=32
num_cat=0
split_feature=122 275 270 286 92 290 93 89 92 253 70 292 273 277 284 144 70 221 147 268 70 288 292 110 272 288 269 89 70 277 70
split_gain=94.4928 78.5817 55.0392 66.494 49.3415 44.8674 44.7356 42.442 40.3172 38.2922 37.9931 60.4773 33.6752 33.4048 33.0132 32.9642 32.3949 32.2526 32.1909 30.8198 30.2879 33.8995 31.4251 30.2529 30.1514 41.7882 35.9751 41.7805 61.5413 63.7544 42.0539
threshold=1.0000000180025095e-35 124.88903045654298 -47.826425552368157 31.114093780517582 112155.35546875001 49.783926010131843 -0.28656378388404841 -0.46253120899200434 117418.44531250001 167.50000000000003 5.2226040363311776 -1.4159114956855772 7.5000000000000009 163.50000000000003 143.50000000000003 15.500000000000002 1.6972774863243105 9.5000000000000018 -3.6580506563186641 106.50000000000001 5.1417078971862802 -275.77046203613276 -1.7830695509910581 84565.207031250015 1.5000000000000002 -170.55682373046872 221.19477844238284 0.65041062235832225 3.318956851959229 199.50000000000003 3.4298082590103154
decision_type=2 2 2 2 10 2 10 2 8 2 2 2 2 2 2 2 2 2 2 2 2 2 2 2 2 2 2 2 2 2 2
left_child=2 -2 6 5 14 8 10 -6 18 -5 11 -1 -12 15 17 -9 -13 -3 -4 24 22 -22 -19 -10 25 -8 27 30 29 -29 -26
right_child=1 4 3 9 7 -7 19 13 23 -11 12 16 -14 -15 -16 -17 -18 20 -20 -21 21 -23 -24 -25 26 -27 -28 28 -30 -31 -32
leaf_value=-0.014123792991964678 0.0098692611401649376 -0.0020190569036426936 0.025852567010094488 0.013068135074083961 -0.0054512276616366564 0.027729330347402499 0.019722217460172595 0.0044054700739463134 -0.01349370438091043 0.0027483154328291248 0.0089240538267245234 -0.010369218766135266 -0.0072903188381429392 0.025227896320378123 0.012750411546076102 0.016180443222381529 0.00078790304400714543 -0.023591613130121959 -0.0027428166306336841 0.013752893014718329 -0.0062546140711264176 0.013482227782280181 0.0014343099150839146 0.0063837448982928674 -0.010327528296732455 -0.0023711997711257518 -0.019895105230045302 0.017219483758070045 -0.0050905224023550383 -0.02623271892089455 -0.0023281100653806163
leaf_weight=274.15943646430969 958.94454836845398 2997.0957368016243 29.989693015813828 425.84355688095093 212.14011719822884 40.854944705963135 70.435156971216202 931.11330237984657 63.34337106347084 751.13483434915543 488.72486820816994 219.83615931868553 120.64281591773033 78.355222880840302 151.83874663710594 222.68160638213158 1863.1366656124592 38.960539966821671 3321.5294287800789 66.332205295562744 83.174826562404633 313.31760489940643 1381.0925044715405 664.2440564930439 1499.7149566411972 790.32676669955254 141.77786469459534 199.74567672610283 597.66421648859978 29.221719473600388 742.79880544543266
leaf_count=732 2558 7997 80 1136 566 109 188 2484 169 2004 1304 587 322 209 405 594 4972 104 8864 177 222 836 3685 1772 4004 2110 379 533 1596 78 1983
internal_value=6.43753e-05 0.00252989 -0.00140055 0.000720292 0.00143176 -0.000925824 -0.00298186 0.00590379 -0.00121312 0.00648277 -0.000405329 -0.00198728 0.00571292 0.00785928 0.000130873 0.00667878 -0.000389486 -0.000267152 -0.00248659 -0.00482882 0.002623 0.00934048 0.000746925 0.00465211 -0.00513175 -0.000562194 -0.00635655 -0.00573081 -0.000447387 0.0116694 -0.00767813
internal_weight=19770.2 7368.71 12401.5 5296.94 6409.77 4119.96 7104.52 1444.29 4079.11 1176.98 2966.5 2357.13 609.368 1232.15 4965.48 1153.79 2082.97 4813.64 3351.52 4138.02 1816.55 396.492 1420.05 727.587 4071.69 860.762 3210.92 3069.15 826.632 228.967 2242.51
internal_count=52759 19660 33099 14134 17102 10994 18965 3853 10885 3140 7917 6291 1626 3287 13249 3078 5559 12844 8944 11048 4847 1058 3789 1941 10871 2298 8573 8194 2207 611 5987
is_linear=0
shrinkage=0.0274897


Tree=17
num_leaves=32
num_cat=0
split_feature=129 70 125 63 70 270 63 70 70 270 63 295 149 149 248 44 202 261 260 277 262 127 297 288 63 127 270 301 262 88 286
split_gain=132.561 119.063 101.353 90.9739 59.0474 62.8358 43.6404 51.1374 40.7298 36.1495 32.7937 31.6124 29.0166 28.8962 34.4254 28.7043 41.1952 28.6501 39.122 31.056 39.9971 29.328 42.9859 36.0437 36.552 27.2644 27.1346 26.7003 38.6896 38.6838 33.8791
threshold=77.500000000000014 2.5870321989059453 1.0000000180025095e-35 0.15021488815546039 1.7724601030349734 -27.914450645446774 0.1826993674039841 2.0187047719955449 5.1417078971862802 -79.431381225585923 0.3997571468353272 1.2971172332763674 66.500000000000014 5.5000000000000009 19.176116943359379 18.28090858459473 133290.92968750003 391.50000000000006 149.50000000000003 245.50000000000003 14.500000000000002 1.0000000180025095e-35 -27.096542358398434 -173.74430084228513 0.22315956652164462 1.0000000180025095e-35 -22.825275421142575 12.52484178543091 52.500000000000007 97177.679687500015 -58.66618347167968
decision_type=2 2 2 2 2 2 2 2 2 2 2 2 2 2 2 2 2 2 2 2 2 2 2 2 2 2 2 8 2 2 2
left_child=2 3 6 -2 5 13 -1 9 10 -8 12 25 15 -5 -15 16 -3 19 -19 21 -21 23 -23 -6 -25 -7 -27 28 -12 30 -29
right_child=1 8 -4 4 17 11 7 -9 -10 -11 27 -13 -14 14 -16 -17 -18 18 -20 20 -22 22 -24 24 -26 26 -28 29 -30 -31 -32
leaf_value=-0.012694494480630947 -0.0062520899641172667 -0.0092774905545975148 -0.014622015576000886 0.025716718907791862 0.018933466309917314 0.0016966102246247182 0.03008453473999656 -0.0036210325701178992 -0.0054935030180738613 0.0043693219892725049 0.0064986891165329606 -0.0096649550189522194 -0.0092390982917343965 0.010606959354653177 0.036308179099077673 0.0027481350387199778 0.030423002624607145 0.006993547956789351 0.040956961830542198 0.0003816991251387256 0.05563004740462741 0.041240750713639411 0.0056237055175585851 -0.0096675346584586333 0.0012000946690746217 0.040988411513705018 0.0070771790184785575 0.037247697145206031 0.044062883763052722 -0.0033667992293001576 0.0036464194682738513
leaf_weight=275.08967554569244 543.07162937521935 338.63309709727764 687.0507760643959 120.62432822585106 75.109427183866501 270.66169516742229 45.76361808180809 1383.515091791749 1461.7200596928596 423.61920872330666 344.6824684292078 141.56245455145836 437.60278674960136 1075.3743657171726 40.879251345992088 638.67352941632271 20.94452491402626 105.83688203990459 33.822916477918625 20.941224455833435 18.79098504781723 26.696924656629562 616.83186048269272 277.43724693357944 1488.5091370046139 29.444417580962181 45.298130542039871 23.19565512239933 22.027788385748863 929.53915399312973 972.76465609669685
leaf_count=1150 2280 1381 2880 469 304 1090 181 5703 6092 1728 1391 578 1775 4243 159 2593 83 429 136 84 75 103 2477 1136 6039 116 181 94 88 3771 3950
internal_value=-0.000165699 0.00130191 -0.0054422 0.00436083 0.00567451 0.00963888 -0.00247799 -0.000960771 -0.00160433 0.00687909 -7.92805e-05 0.00127316 -0.00333696 0.012932 0.0115495 -0.000748968 -0.0069616 0.00310893 0.0152285 0.00243805 0.0265429 0.0020521 0.00710367 0.000286011 -0.000507083 0.00575796 0.0204527 0.00196115 0.00875945 0.000666048 0.00443044
internal_weight=12935.7 10120.7 2815.04 4930.89 4387.82 1723.84 2127.99 1852.9 5189.78 469.383 3728.06 486.967 1435.85 1236.88 1116.25 998.251 359.578 2663.98 139.66 2524.32 39.7322 2484.58 643.529 1841.06 1765.95 345.404 74.7425 2292.21 366.71 1925.5 995.96
internal_count=52759 41117 11642 19899 17619 6836 8762 7612 21218 1909 15126 1965 5832 4871 4402 4057 1464 10783 565 10218 159 10059 2580 7479 7175 1387 297 9294 1479 7815 4044
is_linear=0
shrinkage=0.0274897


Tree=18
num_leaves=32
num_cat=0
split_feature=70 55 202 56 292 300 297 147 291 70 202 202 261 283 269 274 72 260 294 292 56 284 265 297 291 294 270 275 253 202 59
split_gain=151.894 89.3815 72.8411 72.2477 54.6401 42.49 43.082 42.4368 63.6353 40.8658 40.2129 40.0052 43.0469 42.3847 58.6978 75.8875 49.0226 43.8731 44.2795 42.5691 38.7707 36.6775 40.7707 53.7445 38.6646 37.3876 37.3092 34.8955 34.8843 36.2856 34.626
threshold=2.4464857578277592 -0.29158456623554224 120975.67187500001 34.490060806274421 0.43166150152683264 -10.414897441864012 -12.177504062652586 2.7900712490081792 0.80968546867370617 1.2588158249855044 102785.96875000001 132012.31250000003 584.50000000000011 12.500000000000002 66.597003936767592 155.62471771240237 23.221109390258793 107.50000000000001 1.4306898117065432 -1.541943311691284 48.961036682128913 110.50000000000001 57.000000000000007 -8.8106055259704572 -0.060807598754763596 -1.0322181582450864 -35.593236923217766 246.60749053955081 209.50000000000003 131528.45312500003 48.500000000000007
decision_type=2 2 2 2 2 2 2 2 2 2 2 2 2 2 2 2 2 2 2 2 2 2 2 2 2 2 2 2 2 2 2
left_child=1 -1 5 -3 9 6 -2 20 -9 -5 -11 13 -13 14 17 16 28 18 21 -15 -7 22 24 -24 26 -25 -4 -21 29 -16 -12
right_child=2 3 11 4 -6 7 -8 8 -10 10 30 12 -14 19 15 -17 -18 -19 -20 27 -22 -23 23 25 -26 -27 -28 -29 -30 -31 -32
leaf_value=0.0074241426487200619 0.022668446480084762 0.010489010270057801 0.023959826733472998 -0.0080359696471225366 -0.0099092830667427117 0.03306246294643761 0.0046570768567456133 0.019555879298021914 -0.0027248571628947674 0.024768117752105696 -0.0043736693675567456 -0.0065734345852231316 0.031228096342122414 0.011755775332530081 0.016336917875147999 -0.0026340201909021018 -0.019570008523141565 -0.0072180863113429326 -0.013329556738560344 0.0035708162950330025 0.0027729450998744769 -0.01424417730288381 -0.017485756749228844 0.040634333241812738 0.041577519523625671 0.0053912318510105041 -0.01627204040590571 -0.0037015419318867553 0.032920897779187538 -0.014690331103252158 0.00090268924997741976
leaf_weight=568.57220661640167 194.88181793689728 251.84747177362442 58.727819114923477 1079.9477459490299 1160.1022600829601 32.199502974748611 207.08553194999695 290.40160459280014 145.28153699636459 41.916730523109436 2381.1374841630459 795.92431858181953 23.405618101358414 186.41856810450554 411.77021086215973 253.00097841024399 28.559055149555206 390.97928908467293 77.729174762964249 670.15447828173637 3582.1195156276226 42.994400262832642 58.603499889373779 30.998480647802353 55.983554840087891 85.462482511997223 24.722583562135696 1947.0944702029228 90.604139178991318 30.562797963619232 1552.5563277006149
leaf_count=1789 590 773 183 3452 3692 100 639 899 453 132 7585 2527 74 577 1283 786 90 1236 244 2117 11173 135 184 96 174 268 78 6130 283 96 4921
internal_value=5.0893e-05 -0.00302504 0.00227853 -0.00394375 -0.00452866 0.00486669 0.0133915 0.00402039 0.0121253 -0.00329383 -0.00200548 8.93968e-05 -0.005492 0.00111848 0.00462778 0.00986448 0.0154969 -0.000534261 0.00546902 -0.000934997 0.00304317 0.00955846 0.012815 0.00397716 0.0239048 0.0147832 0.0120335 -0.00183922 0.0173778 0.0141912 -0.00229107
internal_weight=16751.7 7036.08 9715.67 6467.51 6215.66 4451.97 401.967 4050 435.683 5055.56 3975.61 5263.7 819.33 4444.37 1640.7 814.497 561.496 826.201 435.222 2803.67 3614.32 357.493 314.498 175.064 139.434 116.461 83.4504 2617.25 532.937 442.333 3933.69
internal_count=52759 22344 30415 20555 19782 13854 1229 12625 1352 16090 12638 16561 2601 13960 5136 2538 1752 2598 1362 8824 11273 1118 983 548 435 364 261 8247 1662 1379 12506
is_linear=0
shrinkage=0.0274897


Tree=19
num_leaves=32
num_cat=0
split_feature=67 86 284 275 202 297 114 151 297 185 285 272 260 275 71 149 86 290 301 272 285 275 94 253 297 92 94 253 202 290 202
split_gain=85.2549 66.5621 46.9695 42.7189 39.9176 41.6132 44.2893 38.0126 36.1483 35.7934 35.7268 44.253 36.7881 37.2355 36.9274 36.8599 40.3431 35.697 33.1809 33.0084 31.9852 31.5319 44.4912 31.4202 31.0129 44.5973 29.4836 29.0954 29.057 28.9354 28.6474
threshold=0.00098914769478142283 118363.36328125001 138.50000000000003 116.15645599365236 117703.07812500001 -16.311581611633297 0.65351060032844555 1.3369389772415163 11.129784584045412 0.11476423591375352 19.244130134582523 10.500000000000002 114.50000000000001 476.24626159667974 -20.335976600646969 25.500000000000004 115761.56640625001 14.909672260284426 11.402707099914553 6.5000000000000009 65.857528686523452 354.34828186035162 113219.69140625001 513.50000000000011 0.64544251561164867 120958.09375000001 113911.83203125001 67.500000000000014 102942.04687500001 30.419578552246097 123438.96484375001
decision_type=2 2 2 2 2 2 2 2 2 2 2 2 2 2 2 2 2 2 10 2 2 2 2 2 2 10 2 2 2 2 2
left_child=1 2 3 -1 23 19 8 21 9 29 12 20 13 14 -9 16 -14 -4 26 -6 -12 -5 -23 28 -3 27 -16 -26 -2 -7 -31
right_child=4 24 17 7 5 6 -8 10 -10 -11 11 -13 15 -15 18 -17 -18 -19 -20 -21 -22 22 -24 -25 25 -27 -28 -29 -30 30 -32
leaf_value=0.0049840493280254557 -0.023000843453272447 0.019145755464832118 0.026177058835088376 -0.004767491766302835 -0.0026345540918269032 -0.0084374832147820576 0.0030522888580737581 0.015181735668897274 -0.010029094763582599 0.0048655177953306449 0.0057787774713302922 -0.0068688371401229142 -0.0047728241622863677 -0.011668798678196939 -0.0013140040150997879 0.005734845848889749 0.0098579232860376911 0.0061511134166452319 -0.0092695589526876482 -0.014917609074333755 -0.0097976775016749649 -0.0016113489655261736 0.013304176125767004 0.011726487744998274 -0.017486492434076347 0.02808925240927327 0.015617354476732613 0.0055081909326121295 -0.0045011221905606842 -0.013788818675112559 0.0080062962822202034
leaf_weight=1533.8321335613728 65.489744395017624 217.44158792495728 80.236156463623047 1826.9387829303741 561.85039705038071 481.64895075559616 2359.4535208642483 95.149396121501923 397.8232935667038 536.58024314045906 2107.6194130778313 263.75390177965164 717.27426755428314 321.72571960091591 1042.0358336865902 1044.1199884414673 177.66680192947388 416.46703672409058 399.82404062151909 234.33262357115746 104.51748365163803 732.08770173788071 190.39969417452812 88.438651770353317 53.594830840826035 53.590993016958237 83.9586121737957 185.17834231257439 3138.1122234463692 59.179006963968277 197.79329752922058
leaf_count=4092 175 580 214 4875 1500 1286 6297 254 1062 1432 5623 704 1914 859 2781 2786 474 1111 1067 626 279 1954 508 236 143 143 224 494 8380 158 528
internal_value=6.29287e-05 0.00157036 0.00112569 0.000739929 -0.00209909 -0.00050758 0.000626265 2.50581e-05 -0.00279483 -0.000537407 0.00119304 0.00377333 -0.000452618 -0.00312635 -0.00143039 0.00222587 -0.00186751 0.00938827 -0.00246689 -0.00625071 0.0050425 -0.00267554 0.00146693 -0.00443329 0.0112834 0.00543302 -5.07548e-05 0.000343365 -0.00487964 -0.00446315 0.00298417
internal_weight=19768.1 11647.4 11137.6 10640.9 8120.7 4828.66 4032.48 9107.07 1673.02 1275.2 6357.65 2475.89 3881.75 1942.69 1620.97 1939.06 894.941 496.703 1525.82 796.183 2212.14 2749.43 922.487 3292.04 509.806 292.364 1125.99 238.773 3203.6 738.621 256.972
internal_count=52759 31079 29719 28394 21680 12889 10763 24302 4466 3404 16965 6606 10359 5185 4326 5174 2388 1325 4072 2126 5902 7337 2462 8791 1360 780 3005 637 8555 1972 686
is_linear=0
shrinkage=0.0274897


Tree=20
num_leaves=32
num_cat=0
split_feature=129 70 125 233 70 270 133 70 298 233 92 133 128 289 129 286 121 152 271 67 279 269 275 54 38 129 269 70 275 67 127
split_gain=127.494 113.554 98.8043 86.4715 63.3967 63.3416 41.5942 38.8323 41.3422 37.2314 42.7335 37.8099 34.3391 47.1939 34.6256 34.3403 35.3576 34.7775 32.2126 30.869 30.387 33.4461 42.1005 30.8286 29.5081 29.3867 28.0529 27.2757 47.5577 29.9416 26.8772
threshold=77.500000000000014 2.5870321989059453 1.0000000180025095e-35 0.0003788580652326346 1.7724601030349734 -27.914450645446774 4.5000000000000009 5.1417078971862802 1.6398645639419558 0.00037290158797986811 93443.988281250015 5.5000000000000009 1.5000000000000002 17.291023254394535 422.50000000000006 -30.438490867614743 1.0000000180025095e-35 0.51146286725997936 58.500000000000007 0.00059894152218475949 41.257720947265632 40.287595748901374 175.81370544433597 0.048337755724787719 0.79315558075904857 162.50000000000003 199.4612731933594 2.0338191986083989 213.35475158691409 0.00075103744165971886 1.0000000180025095e-35
decision_type=2 2 2 2 2 2 2 2 2 2 10 2 2 2 2 2 2 2 2 2 2 2 2 2 2 2 2 2 2 2 2
left_child=2 3 9 -2 5 -5 -4 12 18 -1 24 27 14 -14 25 -15 -17 -18 -9 -6 23 22 -22 -21 -11 -3 -27 28 -12 -29 -7
right_child=1 7 6 4 19 30 -8 8 -10 10 11 -13 13 15 -16 16 17 -19 -20 20 21 -23 -24 -25 -26 26 -28 29 -30 -31 -32
leaf_value=-0.014246702313975693 -0.0046596282133729355 0.0032811807779057726 -0.018826827854236644 0.013244496534770471 -0.0025778640238295694 -0.0028505037002426988 -0.0038655184619314944 -0.0084170046010371806 0.0076160798433992094 -0.0099498755067756618 -0.0062760547584916867 -0.012434130947925382 -0.00019904089920521072 0.0010599631985958185 0.0092556653327364544 0.00046998709698890334 0.048122331613429624 0.017458276869469051 0.0065663654250343794 -0.0005327478551382744 0.056855853323599582 0.0063512114175018133 0.015361670261768916 0.0074008328658253745 -0.00036238396333069779 -0.0053512195380312454 0.015250986236128351 -0.008052765448155981 0.019280907727006389 0.0054692934411851076 0.013511767403515876
leaf_weight=183.98175330460072 705.07952487468719 433.4307187050581 481.98526571691036 1197.3073203414679 568.80161036550999 329.17314082384109 198.29918844997883 1171.4153223931789 164.10671561956406 508.6372003108263 77.023224905133247 109.40116928517818 940.08797752857208 176.51023232936859 185.85258273780346 75.702421769499779 33.405829399824142 171.85502511262894 119.43212912976742 903.6853041946888 22.27803410589695 385.03290741145611 108.40261992812157 626.73910103738308 463.98921735584736 1660.0204351246357 51.457713305950165 176.82175356149673 192.28901872038841 412.00471241772175 98.551266595721245
leaf_count=782 2943 1763 2048 4672 2310 1332 832 4920 673 2102 315 451 3813 707 753 307 131 681 499 3661 89 1547 437 2516 1913 6764 207 730 776 1693 392
internal_value=-0.000162149 0.00127404 -0.00534915 0.00425408 0.00573651 0.0100007 -0.0144667 -0.00156894 -0.00537778 -0.00242875 -0.00130765 0.00278245 -8.24037e-05 0.00332442 -0.00212542 0.0105657 0.016535 0.0224567 -0.00703021 0.00308632 0.00466116 0.0104323 0.0224492 0.00271595 -0.00537684 -0.00311191 -0.00473127 0.00472326 0.0119698 0.00140765 0.000918905
internal_weight=12932.8 10128.3 2804.43 4945.05 4239.97 1625.03 680.284 5183.28 1454.95 2124.15 1940.17 967.54 3728.32 1397.56 2330.76 457.474 280.963 205.261 1290.85 2614.94 2046.14 515.714 130.681 1530.42 972.626 2144.91 1711.48 858.139 269.312 588.826 427.724
internal_count=52759 41117 11642 19899 16956 6396 2880 21218 6092 8762 7980 3965 15126 5639 9487 1826 1119 812 5419 10560 8250 2073 526 6177 4015 8734 6971 3514 1091 2423 1724
is_linear=0
shrinkage=0.0274897


Tree=21
num_leaves=32
num_cat=0
split_feature=70 89 67 295 202 288 269 292 249 119 106 295 229 133 290 292 116 269 272 299 249 65 292 252 113 67 234 293 253 119 102
split_gain=143.572 95.8786 105.197 76.2025 63.5174 49.1842 51.1788 48.3777 47.6909 47.2826 44.7983 43.0823 42.9401 42.3282 40.9251 48.6725 45.8392 46.182 44.5621 39.1728 38.8608 40.8585 43.6939 40.8539 39.3006 38.8121 46.5215 38.2738 38.0491 36.2894 36.1915
threshold=2.4464857578277592 -0.52330932021141041 0.00025994588213507091 -2.5183193683624263 120975.67187500001 -109.21154785156249 67.535472869873061 0.43166150152683264 16.500000000000004 188.50000000000003 41.500000000000007 2.6344259977340703 0.64786362648010265 2.5000000000000004 44.191223144531257 -1.3730775117874143 2.5000000000000004 19.227352142333988 22.500000000000004 3.4629279375076298 4.5000000000000009 33.500000000000007 -0.34804576635360712 58.500000000000007 107798.03515625001 0.00096778987790457915 0.046189006417989738 1.2356813549995425 582.50000000000011 2.5000000000000004 3.5000000000000004
decision_type=2 2 2 2 2 2 2 2 2 2 2 2 2 2 2 2 2 2 2 2 2 2 2 2 2 2 2 2 2 2 2
left_child=1 -1 -3 10 9 -6 8 25 27 11 20 14 -8 -14 15 -5 18 -18 -17 -15 21 22 23 -2 -22 30 -27 28 -7 -25 -4
right_child=3 2 7 4 5 6 12 -9 -10 -11 -12 -13 13 19 -16 16 17 -19 -20 -21 24 -23 -24 29 -26 26 -28 -29 -30 -31 -32
leaf_value=0.0087327895304030768 -0.0094643421469869891 0.01602757619791639 -0.0054077035868472954 0.023327855395486038 -0.0067316225439578922 -0.0018146783513791444 0.0019655015361496357 -0.0094862673398260315 0.036053459184803897 -0.017479889584922012 -0.00302335475792428 -0.00030489592812547194 0.023886888418828793 -0.0073814360090666588 -0.018048783908252514 -0.00071214867106660345 0.031105607214087012 0.0075756298296171583 0.033176128286947569 0.024753647354522228 -0.00049409518995825828 0.0019838518377889671 0.03008391344649388 0.00096408673460277343 0.014546973401213591 0.0093554796432112272 -0.0044672609385370552 -0.012566059019072729 0.033497924009488554 0.01947030464882914 0.0011612127210225557
leaf_weight=493.81541135907173 55.998603969812393 195.53903594613075 3659.2495381832123 125.64898645877838 949.15848928689957 1712.9378404319286 1002.4673446714878 1171.3817593455315 24.105212271213531 77.962993413209915 262.85308596491814 1131.2236332595348 153.22415962815285 91.386196911334991 51.681518524885178 792.68106320500374 65.88881653547287 1452.017879575491 30.422893434762955 41.731114685535431 433.09570038318634 193.26541343331337 138.52719095349312 102.86198118329048 188.30843177437782 373.52183556556702 362.52064627408981 264.41469171643257 23.34589621424675 362.36665952205658 766.43183693289757
leaf_count=1548 174 592 11701 385 3000 5421 3145 3745 75 246 820 3533 479 288 161 2462 203 4514 92 130 1335 598 423 317 586 1173 1140 840 73 1115 2445
internal_value=4.94858e-05 -0.00294587 -0.00382934 0.00221193 0.00107734 -0.00121449 0.000365738 -0.00444258 -0.00235972 0.00369838 0.00742988 0.00415106 0.00464797 0.0140363 0.00615283 0.00666029 0.00576523 0.00859786 0.00054079 0.00269168 0.0092938 0.0131031 0.0163593 0.0127095 0.00406351 -0.00329784 0.0025468 -0.00282325 -0.00133908 0.01538 -0.00427
internal_weight=16750 7022.46 6528.64 9727.58 7990.3 4262.77 3313.61 6333.11 2024.8 3727.53 1737.28 3649.56 1288.81 286.341 2518.34 2466.66 2341.01 1517.91 823.104 133.117 1474.42 853.02 659.754 521.227 621.404 5161.72 736.042 2000.7 1736.28 465.229 4425.68
internal_count=52759 22344 20796 30415 25047 13451 10451 20204 6409 11596 5368 11350 4042 897 7817 7656 7271 4717 2554 418 4548 2627 2029 1606 1921 16459 2313 6334 5494 1432 14146
is_linear=0
shrinkage=0.0274897


Tree=22
num_leaves=32
num_cat=0
split_feature=122 275 270 93 129 93 86 233 252 274 226 290 106 251 291 295 270 221 291 261 233 274 100 133 269 225 96 274 269 87 288
split_gain=88.1991 73.5421 50.8968 59.2929 45.741 42.6474 40.1837 36.3852 35.0474 38.6512 35.0093 33.2686 36.1857 34.4825 32.3637 31.8232 30.6899 30.5372 30.0803 33.7812 29.195 35.9532 28.9967 28.8456 28.0797 27.6037 27.3211 26.766 27.6013 39.9698 40.1438
threshold=1.0000000180025095e-35 124.88903045654298 -47.826425552368157 2.209461092948914 307.50000000000006 -0.28656378388404841 112182.00781250001 0.001111943041905761 264.50000000000006 -129.01259613037107 1.9937899112701418 14.39035224914551 172.50000000000003 5.5000000000000009 -0.13835640996694562 -1.7698217034339903 -98.578044891357408 9.5000000000000018 0.2906371951103211 228.50000000000003 0.00065959393396042298 143.43550109863284 99607.078125000015 1.5000000000000002 70.354648590087905 0.49703317880630499 83147.593750000015 -283.58804321289057 199.4612731933594 0.65041062235832225 -141.88383483886716
decision_type=2 2 2 8 2 10 2 2 2 2 2 2 2 2 2 2 2 2 2 2 2 2 2 2 2 2 2 2 2 2 2
left_child=2 10 5 7 6 -1 17 8 -4 -10 -2 13 24 -11 20 18 -6 -3 19 22 -8 -22 -5 -12 -13 -17 -9 -7 29 30 -29
right_child=1 4 3 15 16 27 14 26 9 11 23 12 -14 -15 -16 25 -18 -19 -20 -21 21 -23 -24 -25 -26 -27 -28 28 -30 -31 -32
leaf_value=-0.00035905510015063252 0.0041137774989971629 -0.0023751601205397165 0.001146813119151867 -0.01314368577644948 -0.01241601393548767 0.0057066292365069611 0.010056405613992179 -0.027078741882604361 0.023210415224870131 0.02165000503190595 0.027999755690004756 -0.012011829220094607 0.015353072632604036 -0.013665613771028691 0.0076124884579253033 0.011537740520034208 0.010830446716733258 0.0022855242064157176 -0.019696296670654444 -0.024394615568293289 -0.0097530432810509857 0.019968037880523731 0.017278211296804388 0.011331225085693258 0.011249954286890631 0.0034100527638847296 -0.0062180505407450747 0.0044932305062557187 -0.013380878644888752 0.00032423979115947879 -0.0072547284018464218
leaf_weight=2965.8029947280884 463.67817696928978 2771.3123148083687 2695.9263046681881 32.598494619131088 46.79126825928688 179.3352138698101 115.82736548781395 59.021048158407211 34.110673844814301 58.062087506055832 97.842619478702545 588.94428989291191 43.844784796237946 32.589947909116745 944.58578741550446 559.65203437209129 513.19700145721436 1722.6591570675373 67.360376179218292 28.482350498437881 259.64895275235176 34.856240600347519 86.198544949293137 397.37595525383949 41.969359546899796 725.22079873085022 242.20393455028534 241.16427585482597 285.66600340604782 956.09654131531715 2473.9321979284286
leaf_count=7917 1237 7396 7194 87 125 479 309 158 91 155 261 1572 117 87 2520 1493 1369 4597 180 76 693 93 230 1060 112 1935 647 644 764 2553 6608
internal_value=6.16237e-05 0.00244371 -0.00135392 0.000685599 0.00138126 -0.00287493 0.000662549 -0.00114224 -0.000352062 -0.00540666 0.00954397 -0.00668339 -0.00878444 0.00894797 0.00481225 0.00531386 0.00888664 -0.00058848 -0.00448239 0.00247471 -0.00163275 -0.00623223 0.00892498 0.0146268 -0.0104632 0.00695078 -0.0103091 -0.00467877 -0.00514962 -0.0045089 -0.00621101
internal_weight=19766 7367.77 12398.2 5296.19 6408.88 7102 5848.89 3796.67 3495.45 799.521 958.897 765.41 674.758 90.652 1354.92 1499.51 559.988 4493.97 214.64 147.279 410.333 294.505 118.797 495.219 630.914 1284.87 301.225 4136.19 3956.86 3671.19 2715.1
internal_count=52759 19660 33099 14134 17102 18965 15608 10133 9328 2134 2558 2043 1801 242 3615 4001 1494 11993 573 393 1095 786 317 1321 1684 3428 805 11048 10569 9805 7252
is_linear=0
shrinkage=0.0274897


Tree=23
num_leaves=32
num_cat=0
split_feature=129 125 294 127 289 58 290 286 219 261 129 299 279 121 226 269 62 234 274 293 266 299 260 149 86 185 274 283 245 174 37
split_gain=123.114 96.5388 60.3927 59.7908 38.8237 37.5231 35.5326 38.4452 34.8434 31.8129 37.9979 33.107 31.7832 30.3448 30.9032 37.2951 29.4381 35.2201 29.7004 28.9334 26.2717 25.9935 25.0584 25.0451 23.8736 43.2564 29.9277 26.7097 26.582 25.5672 25.4365
threshold=77.500000000000014 1.0000000180025095e-35 -3.307045459747314 1.0000000180025095e-35 17.291023254394535 1.3326898813247683 37.947923660278327 -28.743278503417965 0.089499514549970641 132.50000000000003 287.50000000000006 2.5269181728363042 23.117260932922367 1.0000000180025095e-35 1.8801587820053103 26.815836906433109 25.250000000000004 -0.17240453511476514 157.96327209472659 -1.2542510032653806 30.500000000000004 -1.4242009520530698 14.500000000000002 1.0000000180025095e-35 103105.67578125001 -0.77828624844551075 79.317863464355483 134.50000000000003 15.500000000000002 46.641551971435554 -301.38188171386713
decision_type=2 2 2 2 2 2 2 2 2 2 2 2 2 2 2 2 2 2 2 2 2 2 2 2 2 2 2 2 2 2 2
left_child=1 13 -2 5 -5 8 7 -6 -4 10 11 21 -8 14 -1 -16 -10 -18 24 -17 -11 -9 -12 -20 27 26 28 -19 -26 -28 -27
right_child=2 -3 3 4 6 -7 12 9 16 20 22 -13 -14 -15 15 19 17 18 23 -21 -22 -23 -24 -25 25 30 29 -29 -30 -31 -32
leaf_value=-0.0074245325178395319 -0.0089859311462553628 -0.014327487127457048 -0.0071938057292752992 0.003191019744087972 -0.00078176631300753638 -0.010949384148599866 0.001298821374708211 0.023373810631364796 -0.0017852845458717834 -0.0008335031509854316 0.025416305420063554 0.0083492457487649805 0.031598054742153263 -0.0047475626456521735 -0.013767193334835318 -0.0058664816540549055 -0.0026971859932443795 0.0011758749557844799 0.025241181225636095 0.011579014477867111 0.030600347070994481 0.051639921693344991 -0.013924090402097368 -0.0047212575981801265 0.0025498344485219921 0.034550664669806157 0.057518829720755858 0.031772605617061703 0.017200671033111809 0.020038639067117097 0.0037035783604453636
leaf_weight=187.03388871252537 417.56976197659969 674.19875755906105 390.99047821760178 1736.8708299547434 232.53316187858582 212.22133983671665 35.659527361392975 50.525471910834312 1772.9763199239969 126.09049516916275 19.629699468612671 43.364428222179413 98.596973568201065 1398.889392003417 66.106425181031227 88.519661128520966 861.13382206857204 1481.2394758462906 22.148375689983368 380.17843103408813 23.868880793452263 48.186722174286842 32.380563959479332 426.54697476327419 168.41797567903996 20.436359629034996 19.005055353045464 21.854973554611206 210.8772748708725 50.082887902855873 1611.4451314508915
leaf_count=770 1764 2880 1625 7010 931 875 141 199 7215 502 76 172 380 5807 275 367 3521 6019 90 1543 93 185 129 1739 675 82 75 85 836 199 6499
internal_value=-0.000158354 -0.00526637 0.00125029 0.00169024 0.00540635 0.000438893 0.0108183 0.00785054 0.000781469 0.013686 0.0210337 0.0283919 0.0235559 -0.00238538 0.00219173 0.00555591 0.00124935 0.00234901 0.00342687 0.00828299 0.00417083 0.0371871 0.000919272 -0.00323976 0.0042618 0.00616916 0.0137318 0.00162163 0.0106972 0.0303739 0.00409073
