tree
version=v4
num_class=1
num_tree_per_iteration=1
label_index=0
max_feature_idx=117
objective=binary sigmoid:1
feature_names=session_range_pct session_london ad_line realized_vol_20 atr_pct parkinson_vol kc_width macd_hist_min_50 atr_14 ema200_1d_dist_pct day_of_week weekly_pivot_times_tested_this_week squeeze_mom_peak_since_fire adx_peak_50 minutes_into_session wt_last_os_depth vwap_daily wt_last_ob_depth bars_since_ema200_touch_1h macd_hist_max_50 dist_to_nearest_weekly_pivot_pct vwap_upper_band wt1_1h vfi_1h wt_bars_since_os_exit bars_since_ema50_touch_1h ema50_1d_dist_pct squeeze_momentum_at_fire wt_bars_since_ob_exit vwap_lower_band vwap_band_position vwap_session weekly_pivot_S3 adx_1h session_sydney session_tokyo pivot_S3 overlap_sydney_tokyo pivot_times_tested_today wt2_1h ema200_1h_dist_pct atr_percentile ema20_1d_dist_pct adx_bars_since_weak rsi_bars_since_ob vfi_signal macd_hist_1h ema21_1h_dist_pct weekly_pivot_S2 rsi_bars_since_os pivot_touch_count_today vfi_1h_direction ema9_1h_dist_pct minutes_to_session_close ema50_bounce_5bar_5m squeeze_duration_last vwap_dist_pct vfi weekly_pivot_R3 active_session_count pivot_R2 pivot_R3 divergence_freshness ema100_1h_dist_pct kama_dist_pct ema_stack_1d ema50_1h_dist_pct pivot_S2 bars_since_volume_spike ema50_pivot_confluence nearest_weekly_pivot_type autocorrelation_5 adx_bars_since_trend squeeze_count_200 pivot_R1 pivot_P overlap_london_ny pivot_S1 rsi_os_count_100 autocorrelation_1 stoch_bars_since_green hurst_exponent swing_range_pct nearest_pivot_type bb_width price_entropy swing_high_dist_pct rsi_ob_count_100 session_new_york ema21_bounce_5bar_5m lower_lows_count_20 weekly_pivot_zone stoch_bars_in_ob vwap_session_dist_pct adx bars_since_squeeze_release ema21_pivot_confluence bars_since_pivot_touch macd_hist_1h_direction stoch_bars_in_os cloud_dist_pct swing_low_dist_pct macd_signal_5min pivot_zone wt_ob_count_100 dist_from_range_low_20_pct rsi_time_above_50_pct higher_highs_count_20 stoch_red_count_50 weekly_pivot_R1 weekly_pivot_P weekly_pivot_S1 mean_reversion_score macd_bars_since_zero_cross return_60bar wt_os_count_100 dist_to_nearest_pivot_pct stoch_bars_since_red
feature_infos=[0.54549556970596313:16.891002655029297] [0:1] [101852.078125:141393.359375] [8.5863313870504498e-05:0.021597558632493019] [0.0087995817884802818:1.9502072334289551] [5.5937041906872764e-05:0.018528565764427185] [0.019226456061005592:6.9132614135742188] [-1020.6376953125:13.420256614685059] [9.445429801940918:2205.770263671875] [-25.681266784667969:19.430305480957031] [0:6] [0:291] [0.22822143137454987:4823.546875] [14.029764175415039:73.06451416015625] [0:475] [0.0018559229793027043:37.068862915039062] [75668.640625:124810.40625] [0.0029590311460196972:37.526187896728516] [0:298] [-9.9459466934204102:424.62173461914062] [1.122901539929444e-05:15.034049987792969] [75954.28125:125084.6953125] [-92.948501586914062:87.342460632324219] [-41.162704467773438:43.512901306152344] [0:959] [0:133] [-22.55946159362793:13.186323165893555] [-868.7244873046875:746.70233154296875] [0:970] [75017.84375:124622.703125] [-10.908810615539551:19.797540664672852] [75668.640625:124810.40625] [69864:112604.1953125] [7.1107816696166992:66.345443725585938] [0:1] [0:1] [71306.40625:121531.7578125] [0:1] [0:260] [-92.071792602539062:85.882904052734375] [-14.619240760803223:8.1063356399536133] [1:100] [-14.538352966308594:9.0240192413330078] [0:602] [0:1084] [-48.8099365234375:50.382484436035156] [-947.87347412109375:872.1826171875] [-5.9296054840087891:7.4919681549072266] [74292.140625:114820.9375] [0:790] [0:260] [-3.9137835502624512:4.6830606460571289] [-4.4246482849121094:5.9312829971313477] [65:540] [-7.4363870620727539:6.3158340454101562] [1:42] [-11.987512588500977:5.9227356910705566] [-51.724800109863281:52.423240661621094] [88313.8828125:138585.765625] [1:2] [80670.265625:126572.8515625] [82438.1953125:132991.5] [0:268] [-10.649415016174316:8.4197168350219727] [-6.828557014465332:3.0870776176452637] [-3:3] [-8.2414636611938477:8.6802473068237305] [74142.3515625:122721.9296875] [0:287] [5.518118996405974e-06:30.720584869384766] [0:6] [-0.58241415023803711:0.72541946172714233] [0:246] [0:13] [79578.03125:125837.5625] [77810.1015625:124647.390625] [0:1] [75731.9453125:123457.21875] [0:10] [-0.58439028263092041:0.73460584878921509] [0:217] [0.35013970732688904:0.68065643310546875] [-1.751104474067688:13.730503082275391] [0:6] [0.045124556869268417:12.91199779510498] [0.55421024560928345:2.2864766120910645] [-12.73320198059082:3.3678948879241943] [0:11] [0:1] [-6.9568295478820801:7.0712380409240723] [2:16] [0:5] [1:45] [-11.987512588500977:5.9227356910705566] [6.1781635284423828:73.06451416015625] [0:719] [6.7498018324840814e-05:30.369043350219727] [0:514] [-243.94027709960938:362.26950073242188] [1:34] [-13.865297317504883:8.782374382019043] [-8.7172079086303711:9.8178396224975586] [-1581.4278564453125:1543.36962890625] [0:5] [0:8] [0:8.6749734878540039] [0:100] [2:15] [0:9] [84821.5625:125654.90625] [81361.2734375:120250.4609375] [77027.0390625:116631.0546875] [-3:3] [0:180] [-12.447732925415039:10.327567100524902] [0:6] [2.878227633118513e-06:13.085362434387207] [0:231]
tree_sizes=3524 3556 3579

Tree=0
num_leaves=32
num_cat=0
split_feature=75 8 3 57 72 41 109 81 48 19 19 15 42 18 39 43 73 29 72 76 18 60 46 80 56 68 19 51 44 25 80
split_gain=440.229 447.042 296.035 184.979 138.055 137.02 135.731 212.092 130.98 135.4 130.399 130.213 206.241 131.643 120.333 139.956 120.073 115.297 115.999 112.723 187.908 111.053 132.217 108.025 107.249 106.727 106.302 102.191 102.373 102.076 99.4358
threshold=82957.617187500015 53.936100006103523 0.0012629209668375554 22.699732780456547 111.50000000000001 54.500000000000007 107892.87890625001 0.5765632987022401 114415.65625000001 118.87189865112306 28.835566520690922 19.798408508300785 -2.1675786972045894 68.500000000000014 40.673871994018562 230.50000000000003 3.5000000000000004 84151.886718750015 59.500000000000007 1.0000000180025095e-35 5.5000000000000009 106472.04296875001 -20.567361831665036 80.500000000000014 1.2691130042076113 30.500000000000004 223.2466735839844 1.6018217802047732 183.50000000000003 15.500000000000002 82.500000000000014
decision_type=2 2 2 2 2 2 2 2 2 2 2 2 2 2 2 2 2 8 2 2 2 2 2 2 2 2 2 2 2 2 2
left_child=14 5 4 6 8 21 26 -8 11 10 -10 17 13 -13 -1 24 -14 18 -3 -19 29 22 -2 -23 -16 -7 30 28 -22 -21 -4
right_child=1 2 3 -5 -6 25 7 -9 9 -11 -12 12 16 -15 15 -17 -18 19 -20 20 27 23 -24 -25 -26 -27 -28 -29 -30 -31 -32
leaf_value=-0.73153329256056587 -0.79190999719051502 -0.78067581289410226 -0.74638772396103414 -0.7836523080140011 -0.77629126361348644 -0.74315058270987522 -0.74951397024744626 -0.77701345983470949 -0.74707124866603936 -0.70054825722259717 -0.78028260030457364 -0.73049528851937617 -0.76702021189308289 -0.78066412874501556 -0.75441818289939666 -0.70349601256052008 -0.79913456306392316 -0.7565994632171732 -0.73291684220768871 -0.80961480833251209 -0.73356395362205673 -0.72529892063782486 -0.73858358385368994 -0.78576536708706368 -0.8101504800412892 -0.79126913235066243 -0.71353155645979716 -0.78384900172806016 -0.76149612073132222 -0.74892505863225334 -0.72359350696169045
leaf_weight=837.31135326623917 45.598170101642609 244.65763604640961 1494.0895440280437 113.49944034218788 313.99606561660767 91.6434026658535 1467.5859214961529 247.67064920067787 113.07348623871803 20.024409055709839 425.16746178269386 124.58913499116898 183.56232136487961 57.852392673492432 94.785239696502686 29.511016815900803 168.89921671152115 7435.1301547288895 45.564306497573853 49.856549084186554 552.67313215136528 642.50464743375778 152.74620917439461 23.10889533162117 35.970994889736176 56.143969058990479 90.239601105451584 39.88476350903511 120.95275536179543 36.067828118801117 160.23713371157646
leaf_count=2477 189 960 4856 452 1205 292 4860 954 369 47 1665 366 671 227 323 71 724 25657 136 224 1657 1822 473 93 162 232 235 159 429 119 449
internal_value=-0.753376 -0.75459 -0.755911 -0.749125 -0.758352 -0.736965 -0.747992 -0.753485 -0.757767 -0.770691 -0.773305 -0.75697 -0.770129 -0.746405 -0.735711 -0.757543 -0.782408 -0.756145 -0.773176 -0.755544 -0.745734 -0.732781 -0.750846 -0.727399 -0.769758 -0.761433 -0.742592 -0.741109 -0.738578 -0.784133 -0.744179
internal_weight=15514.6 14517 13505.3 3573.32 9931.95 1011.75 3459.82 1715.26 9617.96 558.265 538.241 9059.69 534.903 182.442 997.579 160.267 352.462 8524.79 290.222 8234.57 799.435 863.958 198.344 665.614 130.756 147.787 1744.57 713.511 673.626 85.9244 1654.33
internal_count=52555 49522 46421 11806 34615 3101 11354 5814 33410 2081 2034 31329 1988 593 3033 556 1395 29341 1096 28245 2588 2577 662 1915 485 524 5540 2245 2086 343 5305
is_linear=0
shrinkage=1


Tree=1
num_leaves=32
num_cat=0
split_feature=4 75 6 14 57 61 67 52 57 38 12 3 25 117 72 20 46 95 3 42 26 111 40 85 72 8 43 57 33 39 42
split_gain=440.415 464.691 294.528 165.007 144.935 137.863 129.283 144.011 117.363 110.31 107.819 110.342 145.972 117.162 107.606 101.255 97.7447 94.8627 91.2456 88.9895 158.371 87.0803 112.646 84.9871 83.92 88.1843 82.3265 82.3022 141.267 107.74 87.9171
threshold=0.049518268555402763 82957.617187500015 0.60727196931839 57.500000000000007 22.699732780456547 106212.10546875001 74841.062500000015 0.95339304208755504 18.71181678771973 49.500000000000007 443.50543212890631 0.0022862730547785763 6.5000000000000009 46.500000000000007 111.50000000000001 2.1901308298110966 -207.96958160400388 77.500000000000014 0.00023115683870855722 1.2354078292846682 -1.0953807830810545 116324.73828125001 -2.5393352508544917 1.9271512031555178 179.50000000000003 140.93466949462893 69.500000000000014 12.481443881988527 44.387680053710945 61.047632217407234 7.8309788703918466
decision_type=2 2 2 2 2 2 2 2 2 2 2 2 2 2 2 2 2 2 2 2 2 2 2 2 2 2 2 2 2 2 2
left_child=18 6 3 16 5 19 15 9 10 17 23 13 -13 -12 21 -2 -3 -8 -1 -4 -21 27 26 -7 25 -16 -23 30 29 -29 -5
right_child=1 2 4 14 -6 8 7 -9 -10 -11 11 12 -14 -15 24 -17 -18 -19 -20 20 -22 22 -24 -25 -26 -27 -28 28 -30 -31 -32
leaf_value=0.058905845904853676 -0.0070377944615127074 -0.004134637372933082 0.038564067922949127 0.018129568704893188 -0.012221020084243341 0.021407589336676539 0.051475015417298577 0.012841737779980331 -0.030579215659151428 0.00080529940154101267 0.019973965624756604 -0.023761178406969983 0.041938660719495167 -0.005523559984508178 -0.013000461186365591 0.048673357538949982 0.026436677990205663 0.0098266049749456477 0.036557611521525264 -0.020105568835010575 0.031059915790348416 0.049066113868877749 -0.012706778220260208 0.047728241902957907 0.037148915689879158 0.035832616669259305 -0.0084950314553832677 0.011132408417336445 0.034825623777024813 -0.015427055914001458 0.037981033753260458
leaf_weight=166.71175374090672 74.715549573302269 82.490790039300919 1091.5902148783207 6606.0493411868811 66.605864584445953 164.19116444885731 712.00817936658859 107.39979973435402 30.614410281181335 37.608488976955414 528.4609373062849 28.792352169752121 225.6077745705843 183.41101714968681 209.25712141394615 36.7558613717556 1866.2411063909531 43.920937463641167 808.32145988941193 55.692499727010727 254.50183068215847 49.515689849853516 160.73215128481388 213.39453665912151 38.623677149415016 32.222480237483978 30.20445753633976 1264.6377115547657 176.33876858651638 126.97349521517754 173.05263410508633
leaf_count=433 292 321 3302 22803 273 554 1959 379 135 142 1802 123 671 718 858 103 6132 158 2468 233 807 142 656 609 120 101 121 4539 550 522 529
internal_value=0.0224897 0.0213006 0.0199685 0.0178988 0.0278427 0.0288042 0.0392711 0.0427267 0.0226159 0.0467702 0.0238287 0.0189592 0.0344993 0.013404 0.0163069 0.0113345 0.0251423 0.0490563 0.0403807 0.034871 0.0218711 0.0168538 0.000541732 0.0362864 -0.000458466 -0.00647905 0.0272553 0.0173236 0.0116466 0.00870846 0.0186365
internal_weight=15646.6 14671.6 13659.2 10816.3 2842.86 2776.26 1012.41 900.937 1374.47 793.538 1343.86 966.272 254.4 711.872 8867.61 111.471 1948.73 755.929 975.033 1401.78 310.194 8587.5 240.452 377.586 280.103 241.48 79.7201 8347.05 1567.95 1391.61 6779.1
internal_count=52555 49654 46621 37394 9227 8954 3033 2638 4612 2259 4477 3314 794 2520 30941 395 6453 2117 2901 4342 1040 29862 919 1163 1079 959 263 28943 5611 5061 23332
is_linear=0
shrinkage=0.0274897


Tree=2
num_leaves=32
num_cat=0
split_feature=5 75 5 53 99 57 52 21 42 42 42 55 38 53 39 40 56 41 88 39 60 75 29 33 38 73 72 28 73 40 40
split_gain=383.643 425.966 293.45 155.117 143.663 125.657 117.401 115.653 144.118 109.459 163.996 132.619 112.389 152.363 128.511 112.289 107.008 104.531 101.074 106.527 99.4926 136.019 144.226 106.128 121.047 102.303 98.9454 153.487 111.919 103.027 104.137
threshold=0.00032870308496057993 82957.617187500015 0.00126241403631866 482.50000000000006 18.500000000000004 19.027045249938968 0.98009851574897777 91749.074218750015 1.3137664198875429 -0.70014536380767811 -1.0984024405479429 13.500000000000002 62.500000000000007 237.50000000000003 61.047632217407234 0.068845681846141829 -0.58013790845870961 58.500000000000007 1.0000000180025095e-35 -63.844678878784173 108186.62890625001 105705.05468750001 107644.08984375001 57.773084640502937 2.5000000000000004 4.5000000000000009 28.500000000000004 342.50000000000006 8.5000000000000018 -2.8443293571472164 -1.671546936035156
decision_type=2 2 2 2 2 2 2 10 2 2 2 2 2 2 2 2 2 2 2 2 2 2 10 2 2 2 2 2 2 2 2
left_child=17 6 3 9 5 7 -2 8 18 10 16 20 14 -14 15 -13 -3 -1 -4 -20 21 23 -23 24 -11 -22 27 28 -18 -28 -31
right_child=1 2 4 -5 -6 -7 -8 -9 -10 11 -12 12 13 -15 -16 -17 26 -19 19 -21 25 22 -24 -25 -26 -27 29 -29 -30 30 -32
leaf_value=0.041237000481702542 0.040824744881670295 0.031877025358665337 0.030685242200061146 0.024174916002434634 -0.011807264651564014 0.0056365428808574907 0.010213295969764001 0.024539689982776915 0.012099995630428998 -0.0034736828788496637 -0.0084595230248186125 -0.0050578341150012539 0.043271072898832683 -0.025440295877374487 -0.01803369209550261 0.046363401552477972 0.010609016998729416 0.011125567196120758 -0.0023296060895887354 0.051700802385602096 0.017616569191045386 0.057823118098191281 -0.0097933619156498983 0.063605779192952919 0.020277730015711513 0.0076191300654323627 0.018774013288663894 0.039122546151470941 0.047796760267361432 -0.017941531982639883 0.0068132808351606825
leaf_weight=890.41282367706299 920.43911232054234 214.36915361881256 475.24801906943321 1898.7461822032928 72.381730675697327 189.64508697390556 105.60560244321823 1888.1688914895058 167.46923784911633 178.80723640322685 292.09151741862297 35.336960792541504 43.443887636065483 55.523420721292496 29.371593773365021 347.03746475279331 1283.0140506774187 96.647809937596321 29.304850324988365 461.90701447427273 1774.2071918845177 129.87643904983997 29.172941222786903 39.445615857839584 1736.1410229951143 1371.8573947846889 232.57700826227665 184.43347023427486 64.205073520541191 214.8410679101944 319.12847276031971
leaf_count=2570 2657 675 1482 6233 289 702 376 6169 590 688 1161 137 127 238 122 994 4580 341 110 1245 6087 342 116 98 5859 4982 793 555 182 891 1164
internal_value=0.0216958 0.0205878 0.0193133 0.0170649 0.0264834 0.0273466 0.0376749 0.0287087 0.0356496 0.0154904 0.0110349 0.0176559 0.0310311 0.00472039 0.0373533 0.04161 0.0133014 0.0382895 0.0397294 0.0484765 0.0163569 0.0209704 0.0454181 0.01898 0.0180597 0.0132574 0.0115681 0.0156034 0.0123826 0.00350435 -0.00314618
internal_weight=15770.9 14783.8 13757.8 10473.6 3284.12 3211.74 1026.04 3022.1 1133.93 8574.88 2804.66 5770.22 510.713 98.9673 411.746 382.374 2512.57 987.061 966.46 491.212 5259.51 2113.44 159.049 1954.39 1914.95 3146.06 2298.2 1531.65 1347.22 766.547 533.97
internal_count=52555 49644 46611 36024 10587 10298 3033 9596 3427 29791 10001 19790 1618 365 1253 1131 8840 2911 2837 1355 18172 7103 458 6645 6547 11069 8165 5317 4762 2848 2055
is_linear=0
shrinkage=0.0274897


end of trees

feature_importances:
ema20_1d_dist_pct=6
vfi=5
adx_bars_since_trend=5
wt2_1h=4
ema200_1h_dist_pct=4
pivot_P=4
realized_vol_20=3
macd_hist_max_50=3
pivot_times_tested_today=3
squeeze_count_200=3
parkinson_vol=2
atr_14=2
bars_since_ema200_touch_1h=2
bars_since_ema50_touch_1h=2
vwap_lower_band=2
adx_1h=2
atr_percentile=2
adx_bars_since_weak=2
macd_hist_1h=2
ema9_1h_dist_pct=2
minutes_to_session_close=2
vwap_dist_pct=2
pivot_R2=2
stoch_bars_since_green=2
atr_pct=1
kc_width=1
squeeze_mom_peak_since_fire=1
minutes_into_session=1
wt_last_os_depth=1
dist_to_nearest_weekly_pivot_pct=1
vwap_upper_band=1
ema50_1d_dist_pct=1
wt_bars_since_ob_exit=1
rsi_bars_since_ob=1
weekly_pivot_S2=1
vfi_1h_direction=1
squeeze_duration_last=1
pivot_R3=1
pivot_S2=1
bars_since_volume_spike=1
overlap_london_ny=1
hurst_exponent=1
price_entropy=1
session_new_york=1
bars_since_squeeze_release=1
stoch_bars_in_os=1
weekly_pivot_R1=1
weekly_pivot_S1=1
stoch_bars_since_red=1

parameters:
[boosting: gbdt]
[objective: binary]
[metric: binary_logloss]
[tree_learner: serial]
[device_type: cpu]
[data_sample_strategy: bagging]
[data: ]
[valid: ]
[num_iterations: 1000]
[learning_rate: 0.0274897]
[num_leaves: 32]
[num_threads: -1]
[seed: 42]
[deterministic: 0]
[force_col_wise: 0]
[force_row_wise: 0]
[histogram_pool_size: -1]
[max_depth: -1]
[min_data_in_leaf: 73]
[min_sum_hessian_in_leaf: 0.001]
[bagging_fraction: 0.668424]
[pos_bagging_fraction: 1]
[neg_bagging_fraction: 1]
[bagging_freq: 5]
[bagging_seed: 400]
[bagging_by_query: 0]
[feature_fraction: 0.502556]
[feature_fraction_bynode: 1]
[feature_fraction_seed: 30056]
[extra_trees: 0]
[extra_seed: 12879]
[early_stopping_round: 0]
[early_stopping_min_delta: 0]
[first_metric_only: 0]
[max_delta_step: 0]
[lambda_l1: 0.0184309]
[lambda_l2: 0.0258861]
[linear_lambda: 0]
[min_gain_to_split: 0]
[drop_rate: 0.1]
[max_drop: 50]
[skip_drop: 0.5]
[xgboost_dart_mode: 0]
[uniform_drop: 0]
[drop_seed: 17869]
[top_rate: 0.2]
[other_rate: 0.1]
[min_data_per_group: 100]
[max_cat_threshold: 32]
[cat_l2: 10]
[cat_smooth: 10]
[max_cat_to_onehot: 4]
[top_k: 20]
[monotone_constraints: ]
[monotone_constraints_method: basic]
[monotone_penalty: 0]
[feature_contri: ]
[forcedsplits_filename: ]
[refit_decay_rate: 0.9]
[cegb_tradeoff: 1]
[cegb_penalty_split: 0]
[cegb_penalty_feature_lazy: ]
[cegb_penalty_feature_coupled: ]
[path_smooth: 0]
[interaction_constraints: ]
[verbosity: -1]
[saved_feature_importance_type: 0]
[use_quantized_grad: 0]
[num_grad_quant_bins: 4]
[quant_train_renew_leaf: 0]
[stochastic_rounding: 1]
[linear_tree: 0]
[max_bin: 255]
[max_bin_by_feature: ]
[min_data_in_bin: 3]
[bin_construct_sample_cnt: 200000]
[data_random_seed: 175]
[is_enable_sparse: 1]
[enable_bundle: 1]
[use_missing: 1]
[zero_as_missing: 0]
[feature_pre_filter: 1]
[pre_partition: 0]
[two_round: 0]
[header: 0]
[label_column: ]
[weight_column: ]
[group_column: ]
[ignore_column: ]
[categorical_feature: ]
[forcedbins_filename: ]
[precise_float_parser: 0]
[parser_config_file: ]
[objective_seed: 16083]
[num_class: 1]
[is_unbalance: 0]
[scale_pos_weight: 2.17429]
[sigmoid: 1]
[boost_from_average: 1]
[reg_sqrt: 0]
[alpha: 0.9]
[fair_c: 1]
[poisson_max_delta_step: 0.7]
[tweedie_variance_power: 1.5]
[lambdarank_truncation_level: 30]
[lambdarank_norm: 1]
[label_gain: ]
[lambdarank_position_bias_regularization: 0]
[eval_at: ]
[multi_error_top_k: 1]
[auc_mu_weights: ]
[num_machines: 1]
[local_listen_port: 12400]
[time_out: 120]
[machine_list_filename: ]
[machines: ]
[gpu_platform_id: -1]
[gpu_device_id: -1]
[gpu_use_dp: 0]
[num_gpu: 1]

end of parameters

pandas_categorical:null
