tree
version=v4
num_class=1
num_tree_per_iteration=1
label_index=0
max_feature_idx=117
objective=binary sigmoid:1
feature_names=session_range_pct session_london ad_line realized_vol_20 atr_pct parkinson_vol kc_width macd_hist_min_50 atr_14 ema200_1d_dist_pct day_of_week weekly_pivot_times_tested_this_week squeeze_mom_peak_since_fire adx_peak_50 minutes_into_session wt_last_os_depth vwap_daily wt_last_ob_depth bars_since_ema200_touch_1h macd_hist_max_50 dist_to_nearest_weekly_pivot_pct vwap_upper_band wt1_1h vfi_1h wt_bars_since_os_exit bars_since_ema50_touch_1h ema50_1d_dist_pct squeeze_momentum_at_fire wt_bars_since_ob_exit vwap_lower_band vwap_band_position vwap_session weekly_pivot_S3 adx_1h session_sydney session_tokyo pivot_S3 overlap_sydney_tokyo pivot_times_tested_today wt2_1h ema200_1h_dist_pct atr_percentile ema20_1d_dist_pct adx_bars_since_weak rsi_bars_since_ob vfi_signal macd_hist_1h ema21_1h_dist_pct weekly_pivot_S2 rsi_bars_since_os pivot_touch_count_today vfi_1h_direction ema9_1h_dist_pct minutes_to_session_close ema50_bounce_5bar_5m squeeze_duration_last vwap_dist_pct vfi weekly_pivot_R3 active_session_count pivot_R2 pivot_R3 divergence_freshness ema100_1h_dist_pct kama_dist_pct ema_stack_1d ema50_1h_dist_pct pivot_S2 bars_since_volume_spike ema50_pivot_confluence nearest_weekly_pivot_type autocorrelation_5 adx_bars_since_trend squeeze_count_200 pivot_R1 pivot_P overlap_london_ny pivot_S1 rsi_os_count_100 autocorrelation_1 stoch_bars_since_green hurst_exponent swing_range_pct nearest_pivot_type bb_width price_entropy swing_high_dist_pct rsi_ob_count_100 session_new_york ema21_bounce_5bar_5m lower_lows_count_20 weekly_pivot_zone stoch_bars_in_ob vwap_session_dist_pct adx bars_since_squeeze_release ema21_pivot_confluence bars_since_pivot_touch macd_hist_1h_direction stoch_bars_in_os cloud_dist_pct swing_low_dist_pct macd_signal_5min pivot_zone wt_ob_count_100 dist_from_range_low_20_pct rsi_time_above_50_pct higher_highs_count_20 stoch_red_count_50 weekly_pivot_R1 weekly_pivot_P weekly_pivot_S1 mean_reversion_score macd_bars_since_zero_cross return_60bar wt_os_count_100 dist_to_nearest_pivot_pct stoch_bars_since_red
feature_infos=[0.54549556970596313:11.750151634216309] [0:1] [101852.078125:137852.203125] [8.5863313870504498e-05:0.01085265725851059] [0.0087995817884802818:1.4340786933898926] [5.5937041906872764e-05:0.010343501344323158] [0.019226456061005592:4.4757275581359863] [-495.83294677734375:2.12270188331604] [9.445429801940918:1476.5750732421875] [2.4000968933105469:19.430305480957031] [0:6] [0:407] [0.22924642264842987:3925.673095703125] [13.451381683349609:73.06451416015625] [0:475] [0.0019368119537830353:37.068862915039062] [75668.640625:123911.9375] [0.016868563368916512:40.3931884765625] [0:253] [-14.943637847900391:632.06256103515625] [1.122901539929444e-05:15.034049987792969] [75954.28125:124025.390625] [-92.948501586914062:87.342460632324219] [-41.162704467773438:37.399154663085938] [0:959] [0:162] [-17.834375381469727:13.186323165893555] [-868.7244873046875:781.12939453125] [0:985] [75017.84375:123641.140625] [-10.908810615539551:19.797540664672852] [75668.640625:123911.9375] [69864:112604.1953125] [7.1107816696166992:70.190780639648438] [0:1] [0:1] [71306.40625:117438.3671875] [0:1] [0:260] [-92.071792602539062:85.882904052734375] [-14.619240760803223:8.1063356399536133] [1:100] [-12.606088638305664:9.0240192413330078] [0:602] [0:1084] [-46.404373168945312:50.382484436035156] [-947.87347412109375:884.88946533203125] [-5.9296054840087891:7.4919681549072266] [74292.140625:114820.9375] [0:793] [0:260] [-3.9137835502624512:4.6830606460571289] [-4.4246482849121094:5.9312829971313477] [65:540] [-7.4363870620727539:6.3158340454101562] [1:42] [-5.9447498321533203:6.1316432952880859] [-48.335681915283203:52.423240661621094] [88313.8828125:127393.1640625] [1:2] [80670.265625:124898.609375] [82438.1953125:127277.03125] [0:268] [-10.649415016174316:8.4197168350219727] [-3.3939468860626221:3.0870776176452637] [-1:3] [-8.2414636611938477:8.6802473068237305] [74142.3515625:119031.484375] [0:287] [5.518118996405974e-06:30.720584869384766] [0:6] [-0.58241415023803711:0.53519302606582642] [0:302] [0:13] [79578.03125:123778.3515625] [77810.1015625:121965.046875] [0:1] [75731.9453125:120151.7421875] [0:9] [-0.58439028263092041:0.72736251354217529] [0:308] [0.35013970732688904:0.68065643310546875] [-1.751104474067688:7.683445930480957] [0:6] [0.045124556869268417:10.448933601379395] [0.69400840997695923:2.2854504585266113] [-7.2437162399291992:5.3780994415283203] [0:11] [0:1] [-6.9568295478820801:7.0712380409240723] [2:16] [0:5] [1:45] [-5.9447498321533203:6.1316432952880859] [6.1781635284423828:73.06451416015625] [0:719] [6.7498018324840814e-05:30.369043350219727] [0:514] [-288.9520263671875:402.79330444335938] [1:31] [-6.2957077026367188:8.782374382019043] [-5.5719184875488281:6.3501935005187988] [-956.9478759765625:1543.36962890625] [0:5] [0:8] [0:7.1733627319335938] [0:100] [2:15] [0:9] [84821.5625:122490.9453125] [81361.2734375:119561] [77027.0390625:116631.0546875] [-3:3] [0:198] [-7.0950827598571777:10.327567100524902] [0:7] [2.878227633118513e-06:6.9740653038024902] [0:230]
tree_sizes=3539 3560 3588 3574 3574 3570 3577 3564 3575 3571 3562 3575 3578 3571 3582 3579 3592 3574 3598 3575 3564 3572 3573

Tree=0
num_leaves=32
num_cat=0
split_feature=16 3 3 29 33 66 32 44 29 25 66 55 64 68 60 83 60 51 51 57 44 97 42 75 75 115 42 40 109 15 15
split_gain=403.008 406.653 323.121 232.169 169.27 242.78 164.388 166.158 164.181 203.692 183.388 151.364 150.843 133.798 125.533 191.64 122.491 110.605 109.898 160.107 211.005 127.167 147.459 146.079 196.213 130.327 114.31 107.607 107.458 106.63 127.28
threshold=82767.398437500015 0.00033346543204970663 0.0012613318976946177 103452.26953125001 23.080936431884769 -0.50336438417434681 111574.96093750001 402.50000000000006 120958.09375000001 93.500000000000014 1.2356813549995425 2.5000000000000004 -0.03049561288207769 124.50000000000001 104342.59375000001 3.5000000000000004 99607.976562500015 0.32539077103137976 1.5636969804763796 14.820900440216066 123.50000000000001 3.5000000000000004 1.6617081165313723 82957.617187500015 83871.285156250015 2.5000000000000004 1.0464025139808657 -2.1750106811523433 96124.699218750015 19.54583835601807 6.1555197238922128
decision_type=2 2 2 8 2 2 2 2 10 2 2 2 2 2 2 2 2 2 2 2 2 2 2 2 2 2 2 2 2 2 2
left_child=4 -2 6 14 -1 11 7 8 9 13 -11 -6 -8 18 -4 -16 17 -15 21 20 -20 22 25 -23 -25 26 -3 -5 -9 30 -26
right_child=1 2 3 27 5 -7 12 28 -10 10 -12 -13 -14 16 15 -17 -18 -19 19 -21 -22 23 -24 24 29 -27 -28 -29 -30 -31 -32
leaf_value=-0.71492223855046699 -0.73246262704425957 -0.75957110104203629 -0.74594351744283516 -0.74122346873124634 -0.77357145133138694 -0.77284678719905708 -0.75671712856706463 -0.71700980823023974 -0.8135082077863347 -0.71586063789194632 -0.77778211896195859 -0.7230029916390236 -0.7798230073366188 -0.77147201723016534 -0.72173519728182012 -0.77597810793945643 -0.78469574112219043 -0.734149891151468 -0.74692399573899182 -0.79363929660435706 -0.79604107499008081 -0.72289896221529049 -0.766050617897023 -0.78458281047401923 -0.75601845634015963 -0.73022760869111503 -0.74148475851554296 -0.76123978501362888 -0.77693975956861949 -0.7682785432058572 -0.74644346939473427
leaf_weight=246.46384170651436 618.21075704693794 1431.6869460940361 1923.3230758607388 250.79367685317993 52.570679515600204 144.24809515476227 395.14377090334892 23.945435047149658 37.191451966762543 168.19993227720261 46.012094438076019 300.85533308982849 464.37989655137062 155.7044161260128 355.96182623505592 57.139896422624588 233.00534841418266 97.647654175758362 278.96908217668533 134.45048934221268 86.58107453584671 127.96486374735832 1308.1946929395199 141.17869773507118 1858.6047779619694 158.83391135931015 323.91400903463364 1065.666561961174 397.73653882741928 274.88301187753677 2411.2650682032108
leaf_count=649 1841 5026 6237 790 199 544 1365 64 170 446 178 840 1815 583 985 219 933 294 910 562 366 357 4759 565 6395 466 1022 3776 1532 1012 7843
internal_value=-0.753298 -0.754289 -0.755239 -0.748191 -0.733556 -0.742788 -0.757678 -0.756656 -0.755889 -0.755657 -0.729162 -0.730523 -0.769201 -0.756286 -0.742989 -0.729236 -0.770312 -0.757082 -0.755487 -0.767994 -0.758559 -0.754709 -0.758936 -0.751879 -0.752671 -0.754075 -0.756233 -0.757426 -0.773534 -0.751679 -0.750611
internal_weight=15570.7 14826.6 14208.4 3652.89 744.138 497.674 10555.5 9695.97 9274.29 9237.1 214.212 353.426 859.524 9022.88 2336.42 413.102 486.357 253.352 8536.53 500.001 365.55 8036.53 3222.63 4813.9 4685.93 1914.43 1755.6 1316.46 421.682 4544.75 4269.87
internal_count=52743 50511 48670 12007 2232 1583 36663 33483 31887 31717 624 1039 3180 31093 7441 1204 1810 877 29283 1838 1276 27445 11273 16172 15815 6514 6048 4566 1596 15250 14238
is_linear=0
shrinkage=1


Tree=1
num_leaves=32
num_cat=0
split_feature=6 4 31 31 44 31 25 45 32 25 25 50 12 14 102 92 90 25 43 38 18 112 14 12 40 45 20 42 26 33 18
split_gain=411.988 459.458 276.15 223.066 170.912 141.685 145.313 141.1 138.529 135.756 176.626 133.863 110.188 110.15 110.378 161.357 102.506 101.699 122.899 130.97 119.751 99.9271 99.2189 97.4324 96.1869 125.635 121.721 126.727 132.24 147.544 141.346
threshold=0.12008036673069002 0.20034719258546832 103729.47265625001 83037.570312500015 384.50000000000006 121220.90625000001 103.50000000000001 22.144845008850101 111574.96093750001 29.500000000000004 59.500000000000007 108.50000000000001 628.18569946289074 62.500000000000007 194.49150848388675 14.500000000000002 11.500000000000002 101.50000000000001 108.50000000000001 67.500000000000014 37.500000000000007 -0.015604779124259947 202.50000000000003 617.40344238281261 -2.3315187692642207 0.80773016810417186 6.1087996959686288 -0.636043220758438 3.1942659616470341 11.367245197296144 207.50000000000003
decision_type=2 2 2 2 2 2 2 2 2 2 2 2 2 2 2 2 2 2 2 2 2 2 2 2 2 2 2 2 2 2 2
left_child=9 3 7 -2 5 6 8 17 11 -1 -11 13 -4 -5 15 24 -6 18 19 -3 23 -18 -17 -20 25 -15 27 -26 29 -29 -31
right_child=1 2 12 4 16 -7 -8 -9 -10 10 -12 -13 -14 14 -16 22 21 -19 20 -21 -22 -23 -24 -25 26 -27 -28 28 -30 30 -32
leaf_value=0.052007505487749038 0.042712194910007252 0.039545216225447384 0.02837133989455606 0.026620626985125389 0.0006049400159521658 -0.034820747694249095 0.040678272331793684 0.0068836225507748951 0.007007466446644889 0.0030634390340499671 0.058137029465771518 0.0049159688081790581 0.0070158252258385352 0.039542669066460118 -0.0028862614374140761 0.016577232584800095 0.055424673829090526 0.0661215178478715 0.053314616943735495 -0.005655518600575454 0.014957269027594691 0.0029142393930001063 0.053155325921679278 0.022828102728789657 0.01190904530311745 0.0075720523914378206 -0.017843317896716469 -0.028535313669920303 0.017106695829168579 0.029115736418796181 -0.030522508946860594
leaf_weight=459.91258256137371 289.69829480350018 1819.8822567164898 303.35258850455284 1755.6453411132097 591.14289508759975 36.591358855366707 235.88739788532257 136.21516636013985 695.47724914550781 114.84278605878353 71.341634020209312 440.51366396248341 458.82241527736187 337.7407940775156 170.75168390572071 83.904090404510498 55.563716545701027 79.930009827017784 153.44575326144695 49.740224063396454 400.45795106887817 54.027273654937744 169.18845465779305 164.05314627289772 1749.2659184634686 128.19591501355171 71.513728082180023 35.620570883154869 2958.873815074563 1601.0129210650921 30.577074766159058
leaf_count=1264 850 5463 986 5761 2257 168 701 498 2566 426 187 1634 1683 1021 661 292 152 196 420 194 1397 204 466 547 6248 468 297 156 10275 5170 135
internal_value=0.0224931 0.0215706 0.0301911 0.0188954 0.0182793 0.0191564 0.0193453 0.0341799 0.0188532 0.0439889 0.0241743 0.0197173 0.0155169 0.0204344 0.0189539 0.0194744 0.00513328 0.0355735 0.034629 0.0383423 0.0249575 0.029549 0.0410341 0.0375668 0.0186848 0.0307484 0.0178127 0.0182128 0.0205963 0.0267887 0.0279973
internal_weight=15703.2 15057.1 3565.9 11491.2 11201.5 10500.8 10464.2 2803.72 10228.3 646.097 186.184 9532.8 762.175 9092.29 7336.64 7165.89 700.734 2667.51 2587.58 1869.62 717.957 109.591 253.093 317.499 6912.8 465.937 6446.86 6375.35 4626.08 1667.21 1631.59
internal_count=52743 50866 11384 39482 38632 36019 35851 8715 35150 1877 613 32584 2669 30950 25189 24528 2613 8217 8021 5657 2364 356 758 967 23770 1489 22281 21984 15736 5461 5305
is_linear=0
shrinkage=0.0274897


Tree=2
num_leaves=32
num_cat=0
split_feature=16 5 3 29 2 33 83 33 99 55 38 32 105 21 20 38 73 95 83 40 5 60 83 105 89 39 24 33 52 37 73
split_gain=345.555 370.936 277.804 196.767 196.085 150.598 221.541 148.084 155.746 146.033 139.839 137.202 157.841 143.06 134.683 153.424 122.761 121.026 114.999 123.766 110.949 110.557 171.413 109.136 103.129 101.976 101.722 219.703 177.717 142.41 102.047
threshold=82767.398437500015 0.00027253026200924074 0.0012613318976946177 103452.26953125001 110683.58593750001 23.080936431884769 3.5000000000000004 11.133418560028078 11.500000000000002 2.5000000000000004 108.50000000000001 111574.96093750001 0.02217573951929808 121105.48437500001 0.68452519178390514 27.500000000000004 5.5000000000000009 35.500000000000007 3.5000000000000004 0.9875205159187318 0.00038402967038564389 104342.59375000001 3.5000000000000004 0.77888900041580211 -1.801247179508209 74.238212585449233 271.50000000000006 30.882444381713871 0.71722722053527843 1.0000000180025095e-35 2.5000000000000004
decision_type=2 2 2 8 2 2 2 2 2 2 2 2 2 10 2 2 2 2 2 2 2 2 2 2 2 2 2 2 2 2 2
left_child=5 -2 4 21 7 -1 9 -3 -9 -7 11 13 -13 20 17 24 18 23 -12 -20 -6 -4 -23 -5 -16 26 28 29 30 -28 -22
right_child=1 2 3 14 10 6 -8 8 -10 -11 16 12 -14 -15 15 -17 -18 -19 19 -21 25 22 -24 -25 -26 -27 27 -29 -30 -31 -32
leaf_value=0.05697163582036123 0.042248735480276356 -0.026957511707662744 0.028355619685958802 0.041815696274977721 0.029212867765186883 -0.00096391447605999108 -0.015093133736956187 0.031025582683514154 -0.031072388141786176 0.044567753259018308 -0.0043875691780759316 0.029343925515650821 0.00062250168388472069 -0.023455929499716144 0.052220478140663114 -0.0071775885026002665 -0.026975318372148817 0.01139494782644351 0.053434811443663952 -0.00092715673759180485 0.027844447259632563 0.050742115023479195 -0.00018412536386469284 0.0066423586246326877 0.013672367984744161 0.049421417631459817 0.0082587634649429961 0.024507476488935479 -0.010369062240067279 -0.017806670577432085 0.017905619198391801
leaf_weight=255.04717655479908 584.78299045562744 36.182063147425652 1965.7271337509155 352.97154742479324 665.3355029374361 61.866764783859253 67.99276539683342 1199.316179484129 31.290288105607033 380.31951244175434 197.43287108838558 183.06301055848598 687.89537660777569 61.98537203669548 62.986503958702087 264.92079402506351 93.465706139802933 257.67440947890282 70.572191894054413 57.329490572214127 927.4981007874012 367.37954562902451 57.78084622323513 82.239775836467743 313.48226375877857 74.849075391888618 639.60505452752113 518.58745023608208 154.70903965830803 210.50441513955593 4942.9734274446964
leaf_count=649 1672 158 6237 1041 2116 235 277 3776 137 1071 768 588 2620 270 172 1039 405 917 193 218 2989 985 219 300 1097 208 2311 1700 618 871 16886
internal_value=0.021699 0.0207834 0.0199163 0.0263862 0.0176747 0.0397206 0.0310931 0.0278337 0.0294456 0.0381965 0.0163179 0.0170352 0.00666061 0.0181376 0.0179274 0.00884802 0.000786408 0.0263306 0.00876517 0.0290689 0.0184547 0.0311063 0.0438203 0.0351711 0.0201263 0.0174962 0.0171727 0.0104065 0.0187096 0.00180349 0.0194761
internal_weight=15827.8 15062.5 14477.8 3725.16 10752.6 765.226 510.179 1266.79 1230.61 442.186 9485.81 9067.01 870.958 8196.05 1334.28 641.39 418.8 692.886 325.335 127.902 8134.06 2390.89 425.16 435.211 376.469 7468.73 7393.88 1368.7 6025.18 850.109 5870.47
internal_count=52743 50511 48839 12007 36832 2232 1583 4071 3913 1306 32761 31177 3208 27969 4566 2308 1584 2258 1179 411 27699 7441 1204 1341 1269 25583 25375 4882 20493 3182 19875
is_linear=0
shrinkage=0.0274897


Tree=3
num_leaves=32
num_cat=0
split_feature=0 93 21 82 102 21 42 25 42 44 77 98 25 54 102 84 23 0 93 58 21 1 117 0 23 43 90 93 0 23 43
split_gain=494.823 267.86 266.101 233.202 161.346 144.089 141.411 137.591 128.622 128.01 168.186 175.08 121.973 114.419 151.282 118.096 120.128 116.031 153.477 113.338 135.061 120.305 106.569 134.51 123.784 149.499 111.912 105.002 105.275 106.521 98.2124
threshold=2.4464857578277592 0.5690411925315858 104565.50781250001 0.079604763537645354 -15.080587387084959 121462.52343750001 1.7052385807037356 101.50000000000001 0.99290671944618236 96.500000000000014 104679.02343750001 49.320898056030281 104.50000000000001 0.92684984207153331 149.41589355468753 1.7155552506446841 -13.248881816864012 5.3156468868255624 0.95797288417816173 116120.53125000001 111289.56640625001 1.0000000180025095e-35 42.500000000000007 4.4912109375000009 -4.5502698421478263 68.500000000000014 8.5000000000000018 -0.48605133593082422 1.9841448664665224 1.0000000180025095e-35 150.50000000000003
decision_type=2 2 10 2 2 10 2 2 2 2 2 2 2 2 2 2 2 2 2 2 10 2 2 2 2 2 2 2 2 2 2
left_child=1 3 7 -1 6 9 8 13 -5 10 -4 -12 27 15 -15 22 -17 18 -16 20 -11 -21 -2 -24 26 -26 -25 28 -8 -30 -6
right_child=2 -3 5 4 30 -7 12 -9 -10 19 11 -13 -14 14 17 16 -18 -19 -20 21 -22 -23 23 24 25 -27 -28 -29 29 -31 -32
leaf_value=0.032704491088726813 0.01843265798567844 -0.012881407882659231 0.0035666618245642268 0.020426877709585196 0.0091080316031258921 -0.032364341974699368 0.047884250000697799 0.052522579649549012 0.038962891863771068 0.029528019058491214 0.031233925694812974 -4.5231489323347559e-06 0.059020131728942486 0.035839975723250823 0.025540006244628898 0.056366908220679739 0.027689590195565397 0.030229233111945451 -0.016538013751465651 0.00032418838849626792 -0.030708448702819392 0.020109880458373447 0.037200252877319713 -0.0052254393260394811 -0.026290046751286152 0.022756403325472574 0.038775909369848809 0.0043182385672178494 0.027571749181156149 -0.025459919087596369 0.028193780723572558
leaf_weight=589.07534736394882 1946.9879346936941 248.10029976069927 253.06296290457249 1172.5912919044495 2962.5354194194078 41.659028172492981 94.94806843996048 171.40905565023422 373.02409900724888 380.11192718148232 1268.2675969153643 151.77308554947376 39.15770635008812 1920.4695551842451 144.2841010093689 159.27307404577732 360.38660462200642 374.8544812053442 119.91815604269505 608.65360313653946 30.34784859418869 375.53670477867126 646.42953559756279 54.919963285326958 85.213646650314331 104.56100632250309 212.92432413995266 707.3185959905386 84.78253173828125 43.171412065625191 218.80945561826229
leaf_count=1788 6505 992 930 3912 10538 191 266 441 1096 1199 3966 574 97 5744 462 405 1124 1156 486 2285 133 1266 1917 209 361 339 617 2592 272 184 696
internal_value=0.0209447 0.0151323 0.0249798 0.0162382 0.0145351 0.0183985 0.0197388 0.0282271 0.0249013 0.0190883 0.0242156 0.0278949 0.0115064 0.0275474 0.0319843 0.0243667 0.0364824 0.0203955 0.00643964 0.0129366 0.0250715 0.00787464 0.0223026 0.0291263 0.0177185 0.000730048 0.0297522 0.00950421 0.0259558 0.00967348 0.0104211
internal_weight=15944.6 6533.51 9411.04 6285.41 5696.34 3109.41 2514.99 6301.63 1545.62 3067.75 1673.1 1420.04 969.378 6130.22 2559.53 3570.7 519.66 639.057 264.202 1394.65 410.46 984.19 3051.04 1104.05 457.619 189.775 267.844 930.221 222.902 127.954 3181.34
internal_count=52743 22433 30310 21441 19653 10544 8419 19766 5008 10353 5470 4540 3411 19325 7848 11477 1529 2104 948 4883 1332 3551 9948 3443 1526 700 826 3314 722 456 11234
is_linear=0
shrinkage=0.0274897


Tree=4
num_leaves=32
num_cat=0
split_feature=3 3 32 50 3 51 11 74 57 63 25 66 1 66 25 17 22 74 12 57 47 12 28 22 25 55 19 38 11 28 22
split_gain=287.585 349.831 141.873 134.339 131.446 121.621 152.002 138.297 131.441 120.019 118.953 258.609 132.011 133.363 131.768 151.335 147.87 121.445 117.121 154.549 139.118 108.632 105.797 105.604 129.067 105.286 97.4974 95.2398 129.096 131.342 103.027
threshold=0.00033346543204970663 0.0012173461145721378 107785.44531250001 108.50000000000001 0.0028744608862325553 1.5636969804763796 56.500000000000007 103142.29296875001 15.242863178253176 -6.5492615699768058 93.500000000000014 1.5645984411239626 1.0000000180025095e-35 -1.8188952803611753 32.500000000000007 19.104071617126468 61.022953033447273 83991.511718750015 128.03335571289065 0.91949653625488292 -0.067221693694591508 469.24096679687506 198.50000000000003 -4.6094281673431388 41.500000000000007 2.5000000000000004 36.884778976440437 97.500000000000014 172.50000000000003 340.50000000000006 29.722051620483402
decision_type=2 2 2 2 2 2 2 2 2 2 2 2 2 2 2 2 2 2 2 2 2 2 2 2 2 2 2 2 2 2 2
left_child=18 2 3 5 9 10 7 -7 -8 -3 12 -12 14 -14 27 16 23 -15 19 20 -1 26 25 24 -16 -17 -11 28 30 -30 -2
right_child=1 4 -4 -5 -6 6 8 -9 -10 21 11 -13 13 17 15 22 -18 -19 -20 -21 -22 -23 -24 -25 -26 -27 -28 -29 29 -31 -32
leaf_value=0.031596705202781399 0.021529358122722442 0.059037291133761868 0.0095739514850203284 0.0015497373985331275 0.03802015249247407 0.013031204612807403 0.036437856606452421 -0.023758492382842337 -0.025267054731375263 0.044788971318660692 0.051962469426885788 -0.034341341965779884 -0.015977425908148539 0.052661957268663816 -0.031787758206295556 -0.026747561992987581 0.038227374379340331 0.023073580296703203 0.046478943275582538 0.049445923704982749 -0.025479116415801299 0.019416272645882898 0.065497816383563889 -0.0090633665301076104 0.022760408693530184 0.039576350501380635 0.025937995558797909 0.040189248794351991 -0.016423667100921174 0.049850242762924268 0.010710428223525798
leaf_weight=63.273871198296547 2505.0050647854805 72.629401192069054 1750.2203054726124 354.74330952763557 577.84867124259472 147.8111956268549 148.32713556289673 161.59560775756836 31.624467328190804 240.4217956662178 185.33639980852604 30.538043364882469 64.047838032245636 108.51586610078812 39.442256048321724 29.263294026255608 77.825679585337639 3102.7102095931768 430.27569988369942 89.874314084649086 65.807684496045113 2274.6292660087347 50.433987677097321 478.63749107718468 193.27740739285946 47.251394167542458 1512.8170126229525 145.41521279513836 142.62881726026535 26.823297768831253 906.03839366137981
leaf_count=188 8187 176 6229 1323 1654 510 440 682 136 662 474 138 257 278 172 124 225 10043 1149 233 271 7455 122 1865 627 137 4751 423 574 72 3166
internal_value=0.0202257 0.0194703 0.0167345 0.0181305 0.0257434 0.0188125 0.00550091 -0.0061819 0.025589 0.024013 0.0196134 0.0397488 0.0190642 0.0232905 0.016082 0.00674063 0.00225835 0.024074 0.0381487 0.021773 0.00249541 0.0233809 0.0345948 -0.00167736 0.0135107 0.0142035 0.0285239 0.0183787 0.0174924 -0.00592389 0.0186559
internal_weight=16055.1 15405.9 10727.5 8977.29 4678.35 8622.55 489.358 309.407 179.952 4100.5 8133.19 215.874 7917.32 3275.27 4642.04 916.132 789.183 3211.23 649.232 218.956 129.082 4027.87 126.949 711.357 232.72 76.5147 1753.24 3725.91 3580.5 169.452 3411.04
internal_count=52743 50902 36204 29975 14698 28652 1768 1192 576 13044 26884 612 26272 10578 15694 3272 2889 10321 1841 692 459 12868 383 2664 799 261 5413 12422 11999 646 11353
is_linear=0
shrinkage=0.0274897


Tree=5
num_leaves=32
num_cat=0
split_feature=4 5 36 19 29 69 57 10 19 81 25 27 27 85 4 21 111 20 85 25 15 20 65 94 42 11 28 11 91 24 18
split_gain=313.158 312.794 159.392 155.399 148.154 146.034 114.835 113.71 162.635 135.689 134.324 129.033 138.202 121.267 119.106 131.922 164.332 149.454 125.898 166.208 168.58 162.245 124.025 145.08 120.404 129.8 142.115 119.096 136.672 116.848 111.077
threshold=0.36391259729862219 0.00020810744899790737 78664.343750000015 56.820383071899421 120958.09375000001 6.5985808372497567 19.510840415954593 2.5000000000000004 25.567504882812504 0.5171041488647462 85.500000000000014 -191.60695648193357 -172.24491119384763 1.7622076869010928 0.053337672725319869 104918.99218750001 92429.539062500015 1.1118304729461672 1.9153341650962832 10.500000000000002 12.795630455017092 1.3986692428588869 -1.0000000180025095e-35 18.746505737304691 -4.723362684249877 122.50000000000001 334.50000000000006 69.500000000000014 3.5000000000000004 408.50000000000006 67.500000000000014
decision_type=2 2 2 2 10 2 2 2 2 2 2 2 2 2 2 10 2 2 2 2 2 2 8 2 2 2 2 2 2 2 2
left_child=1 -1 3 -3 5 7 -5 8 9 -4 11 -9 -13 -12 -14 16 24 -18 19 20 -17 -21 23 -20 -16 26 29 28 -10 -26 -7
right_child=-2 2 4 6 -6 30 -8 10 27 -11 13 12 14 -15 15 18 17 -19 22 21 -22 -23 -24 -25 25 -27 -28 -29 -30 -31 -32
leaf_value=0.04978055738135527 0.035378853545658548 0.0467663652328743 0.050701849746388583 0.026404554112114287 -0.033346019054707729 0.011866024955651444 -0.015721255871939156 0.034194878438534498 0.019934649703490417 0.023264664761173417 -0.0044395477891627996 -0.025884475788133528 0.026027650318436471 0.038932815783656066 -0.037623099634227448 0.012353704565662938 0.028126369697680103 0.012312773131081261 0.063638804143024086 0.029384014707043916 -0.030293948458815535 -0.027654669202106501 0.0010361893180126102 0.0080377617599989362 0.015985420707102446 -0.0058040368709100024 0.050451085694913474 0.029975969537411742 0.0038537964975942436 -0.011983378812333913 -0.012805148155135818
leaf_weight=243.69565017521381 922.64685894548893 287.7305541485548 250.67806728184223 315.77445389330387 42.680383235216141 815.53231561183929 57.82688207924366 270.64950196444988 4094.0693063735962 298.66613146662712 57.369678393006325 62.364838123321533 691.28869557380676 321.91901578009129 37.836566492915154 314.30578197538853 1296.9764149934053 693.23443083465099 53.49821463227272 567.27079732716084 90.095164582133293 40.338026478886604 1286.929462864995 105.20379933714867 1111.7324049770832 259.15868282318115 82.29370604455471 783.15576809644699 442.67139311134815 125.59490068256855 165.9307523816824
leaf_count=615 2639 755 666 963 201 2797 229 800 13348 954 212 262 2143 901 170 1083 4029 2371 130 1762 390 172 4735 370 3707 984 217 2409 1594 497 654
internal_value=0.0198259 0.0188859 0.0183846 0.031581 0.0177768 0.0179293 0.0198822 0.0186824 0.021546 0.0357876 0.0164318 0.0155788 0.0148396 0.0323713 0.0152157 0.013983 0.01733 0.0226186 0.00907072 0.0165071 0.00284979 0.0255955 0.00386438 0.0267913 0.0108186 0.0119805 0.0154736 0.0200751 0.0183657 0.0131458 0.00769426
internal_weight=16189.1 15266.5 15022.8 661.332 14361.4 14318.8 373.601 13337.3 5869.24 549.344 7468.06 7088.77 6818.12 379.289 6755.76 6064.47 3606.83 1990.21 2457.64 1012.01 404.401 607.609 1445.63 158.702 1616.62 1578.78 1319.62 5319.9 4536.74 1237.33 981.463
internal_count=52759 50120 49505 1947 47558 47357 1192 43906 18971 1620 24935 23822 23022 1113 22760 20617 11975 6400 8642 3407 1473 1934 5235 500 5575 5405 4421 17351 14942 4204 3451
is_linear=0
shrinkage=0.0274897


Tree=6
num_leaves=32
num_cat=0
split_feature=0 6 52 56 21 43 56 5 0 29 9 45 19 52 54 4 30 78 55 4 96 19 49 17 92 17 43 17 50 9 14
split_gain=377.63 343.193 276.6 219.911 216.221 177.061 160.667 152.158 140.74 128.182 147.99 156.99 126.477 199.722 156.843 139.098 123.764 122.107 128.617 192.083 135.632 133.026 195.536 150.229 120.737 117.266 129.83 116.985 114.886 112.328 110.983
threshold=2.4464857578277592 0.097681608051061644 0.48359841108322149 -0.51087200641632069 104472.85546875001 193.50000000000003 0.5690411925315858 0.00050456754979677509 1.2588158249855044 120958.09375000001 14.751117229461672 -21.66612339019775 221.19477844238284 0.95790413022041332 0.92684984207153331 0.19248641282320025 -1.369363486766815 3.5000000000000004 3.5000000000000004 0.053337672725319869 6.1191837787628183 41.544633865356452 120.50000000000001 0.66512030363082897 6.5000000000000009 13.635059356689455 143.50000000000003 2.6649247407913212 23.500000000000004 14.385945796966555 327.50000000000006
decision_type=2 2 2 2 10 2 2 2 2 10 10 2 2 2 2 2 8 2 2 2 2 2 2 2 2 2 2 2 2 10 2
left_child=1 -1 3 -3 12 6 8 -6 16 10 27 -12 13 14 15 25 -5 18 19 -10 21 23 -23 -20 -18 -2 -27 29 -14 -9 -25
right_child=4 2 -4 5 7 -7 -8 9 17 -11 11 -13 28 -15 -16 -17 24 -19 20 -21 -22 22 -24 30 -26 26 -28 -29 -30 -31 -32
leaf_value=0.039824209864405755 0.014562312175300889 0.030558569118173121 -0.016245509048603078 0.034996675523666379 0.033574585292461712 0.039524161840847852 -0.018078858356738003 0.028584824121584505 0.038866212123422901 -0.032891040952320372 -0.010704827314766498 0.026881550209720554 0.057944770920610976 0.0057381019836690635 0.03179743493061523 0.028112907429349833 -0.0059006659604900116 -0.0055054291517909722 -0.033058178699755296 0.0073742226597142786 0.00055931537288859935 0.024462560392166557 -0.0025243467158648208 0.026518163011187843 0.018660443224712699 0.042041249198113848 -0.026367174121851484 0.0069841884078698955 0.010182909343658918 -0.031558769058623204 0.049940813704672765
leaf_weight=370.53237871825695 1593.7636917382479 536.12951794266701 241.53687754273415 81.104832798242569 364.23406754434109 172.48039469122887 137.70058114826679 340.27962909638882 159.93496698141098 42.089835196733475 91.994511991739273 959.63218621909618 159.6755048930645 387.60104340314865 2253.1606966108084 1732.2091517746449 686.10631355643272 225.71500284969807 28.339720472693443 1723.3992751836777 241.98523677885532 555.58024705946445 319.54052926599979 778.41155894100666 193.98690503835678 213.10991282761097 23.225538834929466 1409.5590143203735 50.016848713159561 25.175714358687401 190.36132483184338
leaf_count=991 5308 1629 969 240 1083 489 560 1048 450 201 359 2990 375 1350 6604 5165 2589 850 122 6054 885 1760 1188 2429 634 589 96 4970 168 109 505
internal_value=0.0191607 0.0141166 0.0125977 0.0137531 0.0226343 0.0121131 0.0112244 0.016837 0.0120029 0.0147114 0.0154207 0.0235929 0.0255568 0.0248467 0.0261201 0.0225289 0.0025083 0.0141637 0.0152745 0.0100493 0.0199286 0.0224317 0.0146082 0.0292969 -0.000486031 0.0172429 0.0353142 0.0105784 0.0465575 0.0244383 0.0311224
internal_weight=16288.6 6642.85 6272.31 6030.78 9645.73 5494.65 5322.17 3232.96 5184.47 2868.73 2826.64 1051.63 6412.76 6203.07 5815.47 3562.31 961.198 4223.27 3997.55 1883.33 2114.22 1872.23 875.121 997.113 880.093 1830.1 236.335 1775.01 209.692 365.455 968.773
internal_count=52759 22344 21353 20384 30415 18755 18266 10760 17706 9677 9476 3349 19655 19112 17762 11158 3463 14243 13393 6504 6889 6004 2948 3056 3223 5993 685 6127 543 1157 2934
is_linear=0
shrinkage=0.0274897


Tree=7
num_leaves=32
num_cat=0
split_feature=0 4 64 2 17 11 11 46 47 40 38 18 36 90 4 18 109 75 2 96 82 83 32 63 19 47 45 106 4 40 9
split_gain=351.369 282.076 246.615 243.926 209.5 187.966 180.424 168.426 167.601 164.67 143.615 140.58 132.245 124.205 129.948 156.738 123.837 138.061 136.52 128.027 126.972 121.427 119.73 118.654 118.606 119.871 177.444 120.733 122.78 128.851 154.736
threshold=2.4464857578277592 0.028719092719256881 -0.038578908890485757 131752.34375000003 2.5858407020568852 167.50000000000003 225.50000000000003 29.912676811218265 -0.13236127793788907 2.6344259977340703 34.500000000000007 61.500000000000007 117328.27343750001 10.500000000000002 0.14683011174201968 23.500000000000004 85789.828125000015 94066.363281250015 120975.67187500001 3.2701708078384404 0.58536598086357128 1.5000000000000002 86712.921875000015 -2.546517968177795 221.19477844238284 1.1106814146041872 21.681526184082035 75.000000000000014 0.051047958433628089 -2.7447946071624751 14.751117229461672
decision_type=2 2 2 2 2 2 2 2 2 2 2 2 2 2 2 2 2 2 2 2 2 2 2 2 2 2 2 2 2 2 8
left_child=1 -1 8 5 11 9 -7 22 -3 10 24 21 -6 14 15 -11 -12 20 19 -19 -18 -5 -4 -9 25 27 -27 28 -2 -30 -31
right_child=3 2 7 4 12 6 -8 23 -10 13 16 -13 -14 -15 -16 -17 17 18 -20 -21 -22 -23 -24 -25 -26 26 -28 -29 29 30 -32
leaf_value=0.043313130263742457 0.060928894248913817 0.027508465755281 0.00049294429796121933 0.058341092451650318 -0.0038551933625958763 -0.0057350806418016006 0.034280593074064725 0.060995348805469786 0.013307761590238977 -0.027703118545843577 0.045179386025872258 0.061629886793790625 0.039377994686185594 -0.011920431173185272 0.01223040694314987 0.033470655608605966 -0.015858192978897998 0.038760504266527461 0.016083888074819676 -0.013267793259393928 0.018884391891316476 0.0086800553770884463 0.014940462004117052 -0.0017456725136808758 0.051932059671347716 0.025152010721838924 -0.015671276325253992 0.038360770178852269 0.034958799073353503 0.0087850264095933536 0.026224939844565788
leaf_weight=234.03251567482948 78.047231987118721 1065.2307243198156 544.90563741326332 45.241586059331894 600.91087904572487 304.70768488943577 118.13439202308655 23.211765214800835 1531.0965056121349 33.857339233160019 135.75017160177231 69.504004657268524 58.662712827324867 110.36034153401852 936.43879950046539 479.91060683131218 159.1001745313406 407.09219078719616 1066.8688593655825 39.152458101511002 158.81238596141338 209.25896161794662 2120.955833107233 1151.7965762019157 160.17797973752022 276.66419693827629 113.41692125797272 866.75344741344452 891.64259238541126 481.60329587757587 1908.3708080053329
leaf_count=592 178 3267 1982 111 2239 1145 345 56 5151 141 356 163 165 427 3115 1396 620 1137 3518 150 499 721 7051 4245 383 840 444 2396 2483 1653 5790
internal_value=0.0185256 0.013668 0.01259 0.0218627 0.00888366 0.0233254 0.00544479 0.00816587 0.0191345 0.0242358 0.0260982 0.0269842 -7.85542e-06 0.0161875 0.018327 0.0294371 0.0198449 0.0179657 0.0214257 0.034194 0.00149591 0.0175151 0.0119876 -0.000504504 0.0286728 0.0278654 0.013281 0.0292112 0.0268503 0.0260392 0.022711
internal_weight=16381.7 6671.23 6437.2 9710.44 983.578 8726.86 422.842 3840.87 2596.33 8304.02 6743.45 324.005 659.574 1560.57 1450.21 513.768 1966.78 1831.03 1513.11 446.245 317.913 254.501 2665.86 1175.01 4776.68 4616.5 390.081 4226.42 3359.66 3281.62 2389.97
internal_count=52759 22344 21752 30415 3399 27016 1490 13334 8418 25526 20447 995 2404 5079 4652 1537 6280 5924 4805 1287 1119 832 9033 4301 14167 13784 1284 12500 10104 9926 7443
is_linear=0
shrinkage=0.0274897


Tree=8
num_leaves=32
num_cat=0
split_feature=3 67 73 50 21 10 25 83 15 39 29 117 22 43 16 94 68 29 45 51 33 107 51 66 67 9 108 9 33 63 47
split_gain=225.181 251.764 147.577 159.555 140.769 190.616 147.143 180.745 174.523 149.225 144.743 144.725 138.302 136.734 133.151 129.618 121.877 115.866 105.173 162.93 135.412 114.524 103.731 101.165 100.599 100.058 99.1285 119.747 98.5004 129.382 98.0067
threshold=0.00031548169499728834 81416.414062500015 3.5000000000000004 50.500000000000007 104918.99218750001 4.5000000000000009 12.500000000000002 3.5000000000000004 20.853597640991214 25.500871658325199 86675.335937500015 18.500000000000004 46.242099761962898 22.500000000000004 102642.62890625001 39.799272537231452 135.50000000000003 120958.09375000001 12.629213333129885 1.3686494231224062 13.543137550354006 12.500000000000002 -0.43181453645229334 1.5645984411239626 74841.062500000015 19.077937126159672 1.5000000000000002 12.416344165802004 23.337954521179203 0.66621181368827831 1.5716742873191836
decision_type=2 2 2 2 10 2 2 2 2 2 8 2 2 2 2 2 2 10 2 2 2 2 2 2 2 8 2 10 2 2 2
left_child=-1 2 -2 24 5 6 7 10 9 28 -3 -12 22 -10 15 -7 -13 18 25 20 -20 26 -11 -16 -4 30 -22 -28 -8 -30 -6
right_child=1 4 3 -5 17 14 8 -9 13 12 11 16 -14 -15 23 -17 -18 -19 19 -21 21 -23 -24 -25 -26 -27 27 -29 29 -31 -32
leaf_value=0.035439818483930789 -0.0010381890355148666 0.0044083375997737116 0.0081181905742932024 -0.019139404930293206 0.01560789273861595 0.0054214370068609444 0.044290553329156046 0.0049295561190887821 0.020356636053935354 0.023245655086058924 0.014522806519186512 0.032665603138336975 0.026582294110646984 -0.034610748399091666 0.024941393571102553 0.031063627915727046 -0.018715414545760926 -0.03250855135779393 0.053087330444710965 -0.020883069919042225 0.01821588476207987 0.047671420311737121 -0.0050674887948207927 -0.020518174223427863 0.034919778010100398 -0.0020458072016523144 -0.013374803234152336 0.012561331048629594 0.032308595502542309 0.0033009565881339594 0.063806008190951544
leaf_weight=536.29555070400238 120.13985668122768 331.37529012560844 116.2384572327137 46.742580637335777 5079.7782533615828 1512.6171954870224 428.96514321863651 709.91631478071213 75.994930878281593 169.94761450588703 688.25443734228611 982.82336218655109 843.99216823279858 62.132562264800072 645.19203570485115 165.23428109288216 36.14177568256855 41.582611888647079 51.951732590794563 150.18485371768475 281.34384281933308 50.321575477719307 230.17553602159023 39.212020307779312 1189.8688741475344 245.72085173428059 303.3874696046114 241.63506336510181 926.93433965742588 132.90081329643726 32.066668152809143
leaf_count=1444 432 1148 385 185 16753 5278 1130 2459 233 525 2231 2825 2551 264 1976 482 144 201 131 618 909 131 847 158 3268 897 1182 808 2628 462 74
internal_value=0.0179185 0.0173287 0.0281561 0.030749 0.0162256 0.0186693 0.0214237 0.0168766 0.0257765 0.0273002 0.0210366 0.0242638 0.0202714 -0.004367 0.0121164 0.00794741 0.0308422 0.0132145 0.0135101 0.00567829 0.00997495 0.00741808 0.00695765 0.0223354 0.0325351 0.015087 0.00496482 -0.00187507 0.033173 0.0286718 0.0159107
internal_weight=16469.1 15932.8 1472.99 1352.85 14459.8 7981.81 5619.55 2748.51 2871.04 2732.92 2038.59 1707.22 1244.12 138.127 2362.26 1677.85 1018.97 6477.97 6436.39 1078.82 928.64 876.688 400.123 684.404 1306.11 5357.57 826.366 545.023 1488.8 1059.84 5111.84
internal_count=52759 51315 4270 3838 47045 25341 17447 8807 8640 8143 6348 5200 3923 497 7894 5760 2969 21704 21503 3779 3161 3030 1372 2134 3653 17724 2899 1990 4220 3090 16827
is_linear=0
shrinkage=0.0274897


Tree=9
num_leaves=32
num_cat=0
split_feature=36 5 2 64 5 11 50 33 70 42 45 46 18 23 46 77 2 31 63 62 10 69 18 12 106 69 33 12 68 45 68
split_gain=241.668 247.259 185.654 156.878 143.559 133.148 132.532 140.996 111.707 165.828 122.435 109.871 115.897 109.437 103.711 120.471 103.412 102.776 111.994 170.577 156.375 125.665 100.199 115.239 98.8363 98.323 163.758 113.025 102.786 140.885 121.658
threshold=78664.343750000015 0.00020810744899790737 131752.34375000003 -0.28977356851100916 0.00032855366589501506 167.50000000000003 78.500000000000014 28.06911659240723 2.5000000000000004 -4.408050298690795 -20.455510139465328 29.912676811218265 7.5000000000000009 4.3613853454589853 -197.48283386230466 117176.29687500001 103799.21093750001 116696.39453125001 -0.084488909691572175 52.500000000000007 4.5000000000000009 3.2400993108749394 80.500000000000014 169.25235748291018 69.000000000000014 6.0742959976196298 57.248121261596687 354.34828186035162 24.500000000000004 -1.6096270680427549 52.500000000000007
decision_type=2 2 2 2 2 2 2 2 2 2 2 2 2 2 2 2 2 2 2 2 2 2 2 2 2 2 2 2 2 2 2
left_child=16 -2 3 -3 22 8 7 -7 13 -10 -11 12 -4 -6 -14 17 -1 18 -16 20 -20 -22 -5 -24 -8 27 -27 -12 -29 -30 -31
right_child=1 2 11 4 5 6 24 -9 9 10 25 -13 14 -15 15 -17 -18 -19 19 -21 21 -23 23 -25 -26 26 -28 28 29 30 -32
leaf_value=0.061457547199281225 0.04343291941211723 0.028077118256174295 -0.0031270095524985309 0.035595752769439451 0.023454309934201799 -0.018298281884571839 0.047252941935850785 0.009063745698412012 -0.026464785379698326 0.0024360402641105286 0.020363577808378178 0.0016218554969165374 -0.012648909414028854 -0.0088036394428957655 0.009197258248383168 0.043962482130909288 0.028032116998582064 -0.017888419259565115 0.048575057810565661 -0.003481631949239792 -0.0097923994736521264 0.055851400949093563 -0.027315791582557359 0.032706674466665059 -0.010401332165185184 0.0017988368771179012 0.067467185060202356 0.008158100937668859 0.028075739040447256 0.019312994774519223 0.0013422937461177557
leaf_weight=75.912055924534798 253.55793112516403 957.7438733279705 256.43204799294472 455.7994784116745 2076.6553367376328 216.41138862073421 83.918948441743851 415.52856104075909 71.490116059780121 504.2981483489275 4014.8477770388126 924.75051885843277 82.160705178976059 82.601572319865227 491.34324848651886 132.5788965523243 894.32623848319054 63.025567904114723 254.95244655013084 101.39642576873302 76.733051151037216 30.88402171432972 45.091736689209938 52.03554479777813 30.652979850769043 532.95647428929806 30.30540107190609 1494.4637918174267 656.9281589537859 721.07824312150478 470.47594168782234
leaf_count=162 615 2808 939 1251 6323 863 220 1424 292 1773 12614 3307 321 311 1668 362 2532 252 658 368 294 75 181 143 118 1901 66 5041 1944 2274 1659
internal_value=0.0173374 0.0165083 0.0160628 0.017371 0.0165133 0.0158498 0.00462546 -0.000306098 0.016636 0.0152169 0.0155707 0.00906522 0.0136859 0.02222 0.0171828 0.0193131 0.0306494 0.0161024 0.0183458 0.0280321 0.0368463 0.0090503 0.0301939 0.00483593 0.0318246 0.0164069 0.00533585 0.0172543 0.0135198 0.0178542 0.012218
internal_weight=16551.3 15581.1 15327.5 12913.3 11955.5 11402.6 746.512 631.94 10656.1 8496.84 8425.35 2414.26 1489.51 2159.26 1233.07 1150.91 970.238 1018.33 955.309 463.966 362.57 107.617 552.927 97.1273 114.572 7921.06 563.262 7357.79 3342.95 1848.48 1191.55
internal_count=52759 50065 49450 41206 38398 36823 2625 2287 34198 27564 27272 8244 4937 6634 3998 3677 2694 3315 3063 1395 1027 369 1575 324 338 25499 1967 23532 10918 5877 3933
is_linear=0
shrinkage=0.0274897


Tree=10
num_leaves=32
num_cat=0
split_feature=6 6 29 52 10 54 55 54 52 42 42 68 54 95 57 46 10 17 12 49 46 40 19 97 68 18 116 18 29 12 39
split_gain=233.898 245.273 181.441 152.397 187.545 150.951 138.43 128.576 146.391 131.933 139.958 119.251 139.618 117.435 109.402 115.314 106.877 112.614 105.629 109.496 142.173 104.386 140.612 114.486 188.093 141.41 102.571 110.875 102.01 100.702 99.3104
threshold=1.0484127998352053 0.12976973503828051 107980.73828125001 0.9918026626110078 4.5000000000000009 2.2542487382888798 22.500000000000004 -2.9091845750808711 -0.53427684307098378 0.53317573666572582 1.59072881937027 25.500000000000004 1.4023364782333376 177.50000000000003 14.609290599823 -216.80622100830075 3.5000000000000004 22.043146133422855 355.61466979980474 174.50000000000003 127.4930992126465 -2.5183193683624263 56.820383071899421 70.500000000000014 132.50000000000003 166.50000000000003 0.218827560544014 119.50000000000001 96641.152343750015 567.01858520507824 50.624868392944343
decision_type=2 2 10 2 2 2 2 2 2 2 2 2 2 2 2 2 2 2 2 2 2 2 2 2 2 2 2 2 8 2 2
left_child=1 -1 3 4 5 6 13 -6 -9 -10 -11 28 -13 21 15 -4 26 -18 -7 20 -20 22 -3 -23 25 -25 29 30 -12 -17 -28
right_child=-2 2 14 -5 7 18 -8 8 9 10 11 12 -14 -15 -16 16 17 -19 19 -21 -22 23 -24 24 -26 -27 27 -29 -30 -31 -32
leaf_value=0.030247269854442864 0.028842614398061354 0.044473059212302692 -0.0071692671171358323 -0.0013210587314507558 -0.018192335644656828 0.038810462627110139 0.045011535637881656 0.034707873907661661 0.0055468015528853014 0.034391723516253796 -0.018293917245702528 0.029852348053305975 -0.0087114555769831677 -0.039924534784338002 -0.00071231875552847331 0.0070605219657648094 0.0045222909311092175 0.033701081905978224 0.023038593064598139 0.042735169855514558 -0.014667914323205536 0.014790570602597978 0.019181678995198431 0.034541314802679308 -0.016900904944275975 -0.025302569790877336 0.021072148135198986 0.039492410528650587 0.011033257076230251 0.025089244852330474 -0.010969261605118043
leaf_weight=842.99110306799412 1118.1119617521763 247.48695337772369 222.21965464949608 330.14629229903221 104.0076255351305 500.09114181995392 143.74284593760967 215.33319753408432 1435.2349068075418 294.28338043391705 130.42297624051571 360.8826267272234 88.266796946525574 26.576797232031822 578.8838128298521 993.02190591394901 1217.428571626544 108.87919101119041 356.83148294687271 141.8751318603754 95.829304382205009 4201.1153002083302 505.80857194960117 594.56554065644741 67.03728049993515 31.387549385428429 837.64115810394287 233.60509693622589 286.36743824183941 306.40639843046665 80.050562918186188
leaf_count=2322 3130 615 844 1178 408 1350 364 601 4952 826 515 1052 328 116 2098 3402 4264 313 1079 375 366 13452 1522 1657 265 127 2632 648 946 940 303
internal_value=0.0166972 0.0158254 0.0150003 0.0170483 0.0176655 0.0201316 0.0183691 0.0118167 0.0129275 0.01112 0.0180134 0.0124459 0.0222726 0.0176939 0.0104563 0.012073 0.0132053 0.00691863 0.0294979 0.0216624 0.0150545 0.0179653 0.0274928 0.0164986 0.0268517 0.0315388 0.0166073 0.0225825 0.00185435 0.0113125 0.0182764
internal_weight=16696.5 15578.4 14735.4 10157.3 9827.15 6912.35 5817.72 2914.8 2810.79 2595.46 1160.22 865.94 449.149 5673.98 4578.14 3999.25 3777.03 1326.31 1094.63 594.536 452.661 5647.4 753.296 4894.11 692.99 625.953 2450.73 1151.3 416.79 1299.43 917.692
internal_count=52990 49860 47538 32094 30916 21288 18118 9628 9220 8619 3667 2841 1380 17754 15444 13346 12502 4577 3170 1820 1445 17638 2137 15501 2049 1784 7925 3583 1461 4342 2935
is_linear=0
shrinkage=0.0274897


Tree=11
num_leaves=32
num_cat=0
split_feature=0 6 64 11 11 22 4 40 17 21 93 48 93 0 12 15 19 32 33 17 0 80 48 15 62 16 50 24 57 54 22
split_gain=320.144 278.654 243.24 163.715 203.044 135.793 131.6 130.309 138.965 144.266 129.203 125.835 123.67 119.885 120.548 138.794 126.767 116.644 152.878 115.79 114.162 109.864 118.228 109.856 105.823 96.8965 96.2101 94.8962 94.7715 90.6775 89.0451
threshold=2.4464857578277592 0.1046859845519066 -0.088069669902324663 160.50000000000003 225.50000000000003 -50.85693168640136 0.045356895774602897 -2.5183193683624263 0.21852633357048037 121105.48437500001 0.54273924231529247 114767.77343750001 -0.46253120899200434 1.2588158249855044 401.43647766113287 5.3114287853240976 67.804721832275405 86712.921875000015 16.205368041992191 7.3670198917388925 2.2782797813415532 74.500000000000014 114415.65625000001 2.188818216323853 50.500000000000007 84114.859375000015 111.50000000000001 135.50000000000003 22.366659164428714 1.0935050845146181 -59.553874969482415
decision_type=2 2 2 2 2 2 2 2 2 10 2 2 2 2 2 2 2 2 2 2 2 2 2 2 2 2 2 2 2 2 2
left_child=1 -1 12 6 5 -5 -2 28 -9 11 13 -10 -3 23 16 -16 17 19 26 25 21 22 30 -4 -6 -15 -19 -13 -8 -25 -20
right_child=3 2 10 4 24 -7 7 8 9 -11 -12 27 -14 14 15 -17 -18 18 20 -21 -22 -23 -24 29 -26 -27 -28 -29 -30 -31 -32
leaf_value=0.032353632622504125 0.053706898245542055 0.031980655285071775 0.029365317569853916 0.011941747542715219 0.04618056166326568 -0.020456075004727028 0.027448469984072889 0.052339482994970411 0.018838075519396705 -0.017061322397445528 -0.011439000361802131 0.01169889954290161 0.014760420954392358 0.022373519323531987 -0.015285829450354215 0.0094025545036045093 -0.01083249647211422 0.032576708625011393 -0.016718462084676623 0.043412468992217373 -0.015230763958915263 -0.010010279651038824 -0.014215237597821952 0.0020023219557405185 -0.0021053109144816085 -0.0068760948729266686 -0.027413010267843967 -0.030794961722376977 -0.021186511171518138 -0.018511711784024627 0.020387201302675011
leaf_weight=455.62994234263897 87.608964994549751 423.3634222894907 78.68464170396328 178.64499260485172 109.07435277104378 215.8551047295332 1727.4753637462854 89.469465434551239 7195.5269170850515 88.228351086378098 272.94254565238953 98.401862159371376 1234.3253540843725 108.06791980564594 273.19752997159958 464.80557656288147 163.06639841198921 492.88127261400223 50.769773483276367 48.996942341327667 101.90840466320515 123.99938191473484 86.291178867220879 490.44802838563919 49.994622200727463 411.00616206228733 21.038039222359657 66.541591063141823 30.788036406040192 243.70646241307259 1286.2654594779015
leaf_count=1195 194 1204 232 597 276 870 4850 210 22197 374 1056 335 4003 338 1054 1562 616 1399 196 129 395 467 336 1736 178 1534 88 283 122 959 4005
internal_value=0.0161664 0.011585 0.0101006 0.0193157 0.004787 -0.00578398 0.0201727 0.0198565 0.0182843 0.017875 0.00691767 0.0182939 0.0191591 0.00804499 0.0101806 0.000262388 0.0127094 0.0141152 0.0170265 0.00302826 0.0129461 0.0148024 0.0169646 -0.00149772 0.0310035 -0.000784723 0.0301187 -0.00544307 0.0265963 -0.00480714 0.0189776
internal_weight=16769 6831.39 6375.76 9937.61 553.569 394.5 9384.04 9296.43 7538.17 7448.7 4718.08 7360.47 1657.69 4445.13 3632.29 738.003 2894.29 2731.22 2163.15 568.071 1649.23 1547.33 1423.33 812.839 159.069 519.074 513.919 164.943 1758.26 734.154 1337.04
internal_count=52990 22504 21309 30486 1921 1467 28565 28371 23399 23189 16102 22815 5207 15046 12119 2616 9503 8887 6886 2001 5399 5004 4537 2927 454 1872 1487 618 4972 2695 4201
is_linear=0
shrinkage=0.0274897


Tree=12
num_leaves=32
num_cat=0
split_feature=0 5 106 56 21 43 11 67 75 51 19 102 54 3 0 18 51 0 43 51 33 19 7 57 21 16 51 7 7 27 36
split_gain=299.368 262.458 223.466 169.205 155.136 142.468 225.887 142.252 214.48 178.78 111.093 148.24 186.54 110.491 137.871 124.738 107.544 106.889 109.79 106.164 115.271 112.411 104.136 180.82 154.83 140.069 129.223 117.76 100.392 170.889 151.606
threshold=2.4464857578277592 0.00023967089509824294 91.000000000000014 -0.59674665331840504 104958.42578125001 150.50000000000003 93.500000000000014 104148.25390625001 106379.41796875001 1.3967369198799136 221.19477844238284 149.41589355468753 2.2542487382888798 0.0023064786801114683 7.5152912139892587 46.500000000000007 -0.34221120178699488 4.0569826364517221 104.50000000000001 0.08977729827165605 45.235620498657234 26.674225807189945 -36.572881698608391 12.686932086944582 102690.94921875001 118253.01171875001 1.0811939835548403 -35.593236923217766 -49.948074340820305 90.846343994140639 106543.52734375001
decision_type=2 2 2 2 10 2 2 2 2 2 2 2 2 2 2 2 2 2 2 2 2 2 2 2 8 2 2 2 2 2 2
left_child=1 -1 3 -3 10 22 -7 16 9 -9 11 12 13 14 19 -16 -6 18 28 20 -2 -21 23 -5 27 26 -26 -24 29 -10 -30
right_child=4 2 -4 5 7 6 -8 8 17 -11 -12 -13 -14 -15 15 -17 -18 -19 -20 21 -22 -23 24 -25 25 -27 -28 -29 30 -31 -32
leaf_value=0.033065500741483539 0.017576707151737484 0.028511190530438851 -0.016923474206763905 0.0071627939020344296 -0.023498001354253038 -0.0034913790591943111 0.040012094456064434 0.049910464590708123 0.030907075289937594 -0.0063122786047423397 0.039741014123125494 0.0084629196364481244 0.035068298082095009 0.0300989450642506 -0.02019614123626827 0.014987300847570533 0.0087134046175467612 0.0001353721563375509 0.0045110272595362925 0.043202373430821991 -0.0058842033940247531 0.022192829490204499 0.038112167044404129 -0.015652229728376356 0.019851499977914012 -0.032514215410332975 -0.0056849630997810076 9.8278305986298077e-05 -0.024210459629423382 0.0028585323273012005 0.015914179969468534
leaf_weight=392.2407670468092 2238.7588425129652 385.89684380590916 226.34041871130466 2281.4321259409189 125.37605799734592 135.55634979903698 269.36927531659603 217.38027189671993 747.60027873516083 53.172513917088509 230.6424772888422 710.62184895575047 701.11164285242558 705.37691669166088 126.80253639817238 190.53568962216377 208.6022664308548 403.54495987296104 508.71457652747631 218.57584567368031 170.25193984806538 1615.0905945450068 66.358439981937408 296.60685892403126 1739.1056565195322 42.978206053376198 163.81229524314404 851.6828366369009 82.410594671964645 210.38599139451981 519.91725565493107
leaf_count=1003 6842 1116 892 7728 502 487 715 530 2142 197 573 2307 1863 1899 492 585 697 1456 1767 550 603 4764 183 1166 5402 181 600 3031 333 727 1657
internal_value=0.0156576 0.0112322 0.00990608 0.0108805 0.0186942 0.00971669 0.025448 0.0135595 0.0156219 0.0388594 0.0209813 0.0203331 0.0217467 0.0199726 0.0184059 0.000926545 -0.00337818 0.0130786 0.0156028 0.0197132 0.0159184 0.0246981 0.00854596 0.00453757 0.0121539 0.0165442 0.0176529 0.00284757 0.0192186 0.024748 0.0104227
internal_weight=16836.3 6851.38 6459.14 6232.8 9984.87 5846.9 404.926 3077.1 2743.13 270.553 6907.77 6677.13 5966.5 5265.39 4560.02 317.338 333.978 2472.57 2069.03 4242.68 2409.01 1833.67 5441.98 2578.04 2863.94 1945.9 1902.92 918.041 1560.31 957.986 602.328
internal_count=52990 22504 21501 20609 30486 19493 1202 10008 8809 727 20478 19905 17598 15735 13836 1077 1199 8082 6626 12759 7445 5314 18291 8894 9397 6183 6002 3214 4859 2869 1990
is_linear=0
shrinkage=0.0274897


Tree=13
num_leaves=32
num_cat=0
split_feature=0 5 64 2 37 106 11 17 47 43 43 11 33 114 43 11 29 9 68 47 23 23 10 2 60 27 5 69 23 94 62
split_gain=280.25 246.21 219.514 191.285 168.189 159.903 159.165 142.461 135.186 128.516 128.041 115.834 109.397 106.295 104 145.446 101.313 128.872 155.759 142.375 148.703 135.013 129.349 143.887 128.161 114.132 104.424 102.488 100.608 153.398 96.8488
threshold=2.4464857578277592 0.00023967089509824294 -0.083935867995023714 131752.34375000003 1.0000000180025095e-35 91.000000000000014 160.50000000000003 2.9524757862091069 -0.13236127793788907 296.50000000000006 52.500000000000007 241.50000000000003 18.419004440307621 -1.3229875564575193 142.50000000000003 93.500000000000014 102291.58593750001 17.614464759826664 110.50000000000001 0.98413243889808666 12.003443717956545 -25.317599296569821 2.5000000000000004 124738.19140625001 105579.62500000001 255.5829772949219 0.00099958851933479331 1.2201924324035647 -13.749425411224363 26.327939987182621 85.500000000000014
decision_type=2 2 2 2 2 2 2 2 2 2 2 2 2 2 2 2 10 8 2 2 2 2 2 2 2 2 2 2 2 2 2
left_child=1 -1 8 6 7 14 9 12 -3 16 11 -8 -5 -11 -4 -16 24 18 19 21 -21 -18 23 -23 -2 -25 -22 -24 29 -29 -19
right_child=3 2 5 4 -6 -7 10 -9 -10 13 -12 -13 -14 -15 15 -17 17 30 -20 20 26 22 27 25 -26 -27 -28 28 -30 -31 -32
leaf_value=0.031979567145981276 0.021730849041232434 0.026650290348056493 0.0063570759318189989 -0.01297653112167152 -0.01505586927332837 -0.01772107868091418 -0.025876520527236071 0.0040759971452542934 0.011227484006630357 0.02566042230676531 0.017903136319922682 0.019346413637938317 0.035160222997032468 -0.018887017684923003 -0.00079184175313291633 0.035227279742996442 -0.0045775919306450747 0.010617815305961913 -0.014216590941620241 -0.011862301221331861 0.055349221591701213 0.047512486832942291 0.0075776256817107583 0.027430256787012532 0.038199582944675591 -0.031777019712415124 -0.0044092172070551673 -0.038220820930433483 0.031665151475416306 0.04146604372986254 -0.020912105760082952
leaf_weight=394.38137784600258 5081.0383722782135 759.75986018776894 4169.4515981525183 41.74247370660305 210.36670118570328 196.87657637894154 145.75080879032612 530.92938071489334 988.49533993005753 62.824804916977882 209.64957350492477 60.557322204113007 244.46935066580772 113.668427541852 135.4611930847168 226.00819709897041 110.40014888346195 787.35628692805767 94.359000504016876 172.81957401335239 55.104560986161232 367.55357533693314 328.44418171048164 335.63621281087399 384.21137149631977 26.52050718665123 36.848965778946877 41.070653900504112 473.18085379898548 32.817807883024216 81.178489744663239
leaf_count=1003 14776 2213 14167 157 809 786 602 1836 3243 179 671 185 664 434 480 612 396 2562 360 652 126 894 1084 973 988 109 131 176 1319 85 318
internal_value=0.0151692 0.010892 0.00960755 0.0180994 0.0068616 0.00652967 0.0193822 0.012505 0.0179305 0.0201869 0.00277348 -0.0125991 0.0281374 -0.00302553 0.00758362 0.0217286 0.0206742 0.0165614 0.0202833 0.0219275 0.0031627 0.0248231 0.0268455 0.0353941 0.0228889 0.0230912 0.0314019 0.0197191 0.0270068 -0.00281865 0.00766972
internal_weight=16898.9 6870.43 6476.05 10028.5 1027.51 4727.8 9000.99 817.141 1748.26 8585.03 415.958 206.308 286.212 176.493 4530.92 361.469 8408.54 2943.29 2074.76 1980.4 264.773 1715.62 1605.22 729.71 5465.25 362.157 91.9535 875.513 547.069 73.8885 868.535
internal_count=52990 22504 21501 30486 3466 16045 27020 2657 5456 25562 1458 787 821 613 15259 1092 24949 9185 6305 5945 909 5036 4640 1976 15764 1082 257 2664 1580 261 2880
is_linear=0
shrinkage=0.0274897


Tree=14
num_leaves=32
num_cat=0
split_feature=0 6 64 2 37 106 4 17 21 46 96 12 0 106 93 24 2 44 63 12 92 43 72 2 57 102 43 46 12 111 60
split_gain=262.64 233.363 206.386 179.147 158.929 154.231 135.08 133.281 131.615 147.652 130.793 155.262 123.339 110.648 108.032 107.957 107.48 99.3799 97.5491 96.0189 95.2048 95.0533 96.8118 151.775 101.707 103.971 94.8101 154.549 114.663 136.197 170.9
threshold=2.4464857578277592 0.097681608051061644 -0.083935867995023714 131752.34375000003 1.0000000180025095e-35 91.000000000000014 0.045356895774602897 2.9524757862091069 104472.85546875001 -114.90993499755858 5.522512912750245 594.07928466796886 3.3691695928573613 47.000000000000007 -0.44223038852214808 227.50000000000003 130429.21093750001 215.50000000000003 -5.2103376388549796 225.71568298339847 14.500000000000002 303.50000000000006 67.500000000000014 108703.72265625001 -9.3386421203613263 -249.84208679199216 142.50000000000003 74.774467468261733 310.25553894042974 92439.417968750015 85739.765625000015
decision_type=2 2 2 2 2 2 2 2 10 2 2 2 2 2 2 2 2 2 2 2 2 2 2 2 2 2 2 2 2 2 2
left_child=1 -1 14 6 7 26 -2 17 18 13 11 12 20 19 -3 -13 -14 -5 -8 -10 -11 22 24 -24 25 -20 27 28 29 30 -4
right_child=3 2 5 4 -6 -7 8 -9 9 10 -12 15 16 -15 -16 -17 -18 -19 21 -21 -22 -23 23 -25 -26 -27 -28 -29 -30 -31 -32
leaf_value=0.031053687973674995 0.050870035747023624 0.028653959196487628 0.032375737976314399 0.038669516377334553 -0.014708126645107055 -0.01758986048612491 0.035782922051945408 0.0039592566254305775 0.03148290841730466 0.014910494862061066 -0.01015945434504683 -0.0010683096119452325 0.037632268969100345 -0.025165230762686352 0.013244496603389307 0.023891372153407271 -0.018083575281457688 0.0044920875149923748 0.032417711454990873 0.00080119623153977206 0.048703141434190633 -0.011345622699156559 0.039340583661398774 -0.0032014887904124266 0.023504891271301651 0.01225331116320052 0.020803119943845923 -0.0076654489962548278 0.0011207913653576472 0.014947274466329489 -0.0080195637992751898
leaf_weight=395.89238956570625 97.972984030842781 469.31592135131359 96.564194917678833 191.22484494745731 209.43441945314407 195.27628456056118 305.26148961484432 531.55059097707272 95.021502986550331 832.56265209615231 127.93194301426411 412.23097422719002 469.57973025739193 99.183750003576279 1286.9267904758453 191.86713281273842 27.680752217769623 96.915507420897484 226.2063452154398 407.94100341200829 68.160119742155075 72.893120557069778 81.93732962012291 279.32105441391468 3916.7108225673437 1327.1941050589085 364.54177862405777 531.33932505548 1172.150894254446 1938.6710032522678 438.1509450674057
leaf_count=1002 211 1318 270 490 809 785 759 1836 271 2636 479 1448 1233 400 4137 565 110 331 593 1423 166 264 204 965 11189 4104 1097 1991 4102 6152 1650
internal_value=0.0146998 0.0105635 0.00931399 0.0175297 0.00666124 0.00632945 0.0187669 0.0121221 0.018415 0.0133863 0.016784 0.0185061 0.0235385 0.00136605 0.017363 0.00685896 0.034529 0.0271772 0.0206274 0.00660003 0.0174696 0.0198436 0.0202336 0.00644824 0.0211439 0.0151905 0.00735816 0.0061845 0.00820331 0.0115595 -0.000722416
internal_weight=16957.6 6888.83 6492.94 10068.8 1029.13 4736.69 9039.66 819.691 8941.68 2732.16 2130.01 2002.08 1397.98 602.146 1756.24 604.098 497.26 288.14 6209.52 502.963 900.723 5904.26 5831.37 361.258 5470.11 1553.4 4541.42 4176.88 3645.54 2473.39 534.715
internal_count=52990 22504 21502 30486 3466 16047 27020 2657 26809 8731 6637 6158 4145 2094 5455 2013 1343 821 18078 1694 2802 17319 17055 1169 15886 4697 15262 14165 12174 8072 1920
is_linear=0
shrinkage=0.0274897


Tree=15
num_leaves=32
num_cat=0
split_feature=2 6 16 6 51 9 7 72 17 46 7 43 7 69 40 3 47 23 23 46 114 92 20 19 19 29 20 11 81 66 89
split_gain=193.304 189.646 186.078 185.225 139.924 165.738 129.955 117.816 110.351 110.535 105.771 131.002 104.592 101.465 98.7474 95.7236 112.596 93.7372 93.0158 122.455 112.714 109.827 90.8214 88.823 106.392 86.094 107.44 113.639 92.7104 120.046 84.9782
threshold=131752.34375000003 0.15021488815546039 104631.81640625001 0.24557006359100345 1.5636969804763796 19.077937126159672 -15.651830673217772 77.500000000000014 1.6157116889953616 31.158703804016117 -160.61846160888669 98.500000000000014 -40.239772796630852 3.2400993108749394 0.55610719323158275 0.0029910085722804074 2.6496304273605351 24.319497108459476 -5.1223778724670401 -239.73019409179685 -0.17405748367309568 14.500000000000002 0.97601178288459789 35.269126892089851 16.442769050598148 115314.43359375001 0.27595810592174536 99.500000000000014 0.53028401732444774 0.58824145793914806 -3.7124100923538204
decision_type=2 2 2 2 2 8 2 2 2 2 2 2 2 2 2 2 2 2 2 2 2 2 2 2 2 8 2 2 2 2 2
left_child=1 6 3 13 5 17 -1 -7 12 14 11 -5 -2 -3 -10 16 30 18 20 -20 21 23 -11 24 -4 26 27 -16 29 -27 -12
right_child=8 2 4 10 -6 7 -8 -9 9 22 15 -13 -14 -15 25 -17 -18 -19 19 -21 -22 -23 -24 -25 -26 28 -28 -29 -30 -31 -32
leaf_value=0.034336985696547043 0.034770011345921767 0.011827747148536842 -0.013117114926591187 0.038399016841880157 -0.0060439001197949652 -0.011938568899491988 0.0099930088758955621 0.044418817086351599 0.0047794143972028618 -5.8986292041497485e-05 -0.034463612703250615 0.011540090546241938 0.001186050649385503 -0.0089285829795415442 -0.034927999468848392 0.034103423244012034 -0.030959176218502242 -0.014639853431586551 -0.018630909845945585 0.018591563136837467 0.0036739210055950823 0.067240577746270458 -0.034440874332738416 0.0093234925934320527 0.035965415275787088 0.036807436264867016 0.046888873427386846 0.034598595907999935 -0.0087097364653704792 -0.020281413111255298 0.017669025248560889
leaf_weight=651.53994405269623 199.28947818279266 538.53035691380501 39.340184509754181 422.48199887573719 344.73167438805103 300.86212641000748 222.35226947069168 30.88301257789135 943.90221256017685 743.58995522558689 23.684742107987404 203.37285073101521 108.12709024548531 265.76665332913399 30.211104482412338 263.74159818887711 36.436691716313362 88.112429291009903 68.664540037512779 2404.092803388834 1100.7613063305616 31.399484619498253 62.953001037240028 624.31684398651123 219.05553841590881 120.33525370061398 142.49882334470749 43.037862047553062 117.34005266427994 36.177349537611008 6503.3432558178902
leaf_count=1686 529 1741 146 1038 1266 1126 674 77 3200 2633 96 617 371 975 127 665 146 341 272 7372 3750 63 263 2049 593 324 349 116 433 141 19486
internal_value=0.0144962 0.0157324 0.0149295 0.0175026 0.0108838 0.0120731 0.028144 -0.00668753 0.00751617 0.00539619 0.0188552 0.0296728 0.0229603 0.00496846 0.00997663 0.0178633 0.0172105 0.0134334 0.0139848 0.0175576 0.00959965 0.0167345 -0.00274424 0.0149354 0.0284902 0.0199945 0.032982 0.00591364 0.00975868 0.0236071 0.0174796
internal_weight=16930.9 14383.5 13509.6 8257.36 5252.22 4907.49 873.892 331.745 2547.46 2240.05 7453.06 625.855 307.417 804.297 1433.5 6827.21 6563.46 4575.74 4487.63 2472.76 2014.87 914.112 806.543 882.713 258.396 489.6 215.748 73.249 273.853 156.513 6527.03
internal_count=52665 44179 41819 24764 17055 15789 2360 1203 8486 7586 22048 1655 900 2716 4690 20393 19728 14586 14245 7644 6601 2851 2896 2788 739 1490 592 243 898 465 19582
is_linear=0
shrinkage=0.0274897


Tree=16
num_leaves=32
num_cat=0
split_feature=0 5 2 64 37 17 8 11 19 29 61 56 68 42 81 82 10 0 5 11 17 72 10 23 104 40 42 13 11 79 39
split_gain=240.44 187.054 179.184 172.517 168.253 144.701 139.862 141.29 132.593 107.953 127.808 123.594 115.59 106.134 103.37 99.9425 99.4012 104.477 173.364 99.2853 96.6871 125.073 99.5424 98.6204 95.7639 114.142 108.849 142.074 126.715 138.31 131.897
threshold=2.4464857578277592 0.00020810744899790737 131752.34375000003 -0.13322509825229642 1.0000000180025095e-35 2.9524757862091069 53.046594619750984 160.50000000000003 74.199142456054702 102291.58593750001 106589.29687500001 1.1450685262680056 126.50000000000001 1.8415446877479555 0.52289649844169628 0.079604763537645354 5.5000000000000009 2.8154509067535405 0.001277333125472069 225.50000000000003 3.2696940898895268 28.500000000000004 2.5000000000000004 -8.4003705978393537 1.5000000000000002 1.3477783203125002 1.0534972548484804 32.785335540771491 17.500000000000004 0.05039863474667073 -36.961338043212884
decision_type=2 2 2 2 2 2 2 2 2 10 2 2 2 2 2 2 2 2 2 2 2 2 2 2 2 2 2 2 2 2 2
left_child=1 -1 6 -3 5 -4 -2 9 13 10 16 12 20 24 15 -15 -8 -18 -19 -9 21 23 -22 -11 26 -26 27 28 29 -5 -30
right_child=2 3 4 8 -6 -7 7 19 -10 11 -12 -13 -14 14 -16 -17 17 18 -20 -21 22 -23 -24 -25 25 -27 -28 -29 30 -31 -32
leaf_value=0.033811700098295205 0.043744124917483522 0.019597911616442823 0.027263034962883254 0.045947127275306358 -0.01659972946941617 0.0029869171437351769 0.02055293351958316 -0.0057654412283683733 -0.0067595913861088876 0.043718975935619346 0.034689462590966065 -0.0070008449661454327 -0.008081849543375862 0.038380411403193711 -0.0082928513824178009 0.00504121320424684 0.034645813620923019 -0.018826674666660829 0.018301540026747241 0.025180500380218428 0.020338044133918529 0.044322579830981951 0.0077231593184400905 0.012763244270311764 0.0059394637529269793 -0.029349118169296778 0.022158809934488998 0.017685657431046838 0.019083625922141561 -0.022840995448939253 -0.0039151809463890061
leaf_weight=242.46480450034142 156.56388886272907 1025.9193633645773 283.69563955068588 96.222187370061874 202.37339271605015 536.40825439989567 4624.0961452424526 314.4219651222229 462.52649112045765 95.347840547561646 445.38230530917645 196.54288604855537 147.86522820591927 72.501252323389053 458.41784138977528 1078.2560896575451 85.900185897946358 177.06769597530365 205.07631862163544 104.31470391154289 892.62321856617928 194.64528152346611 1005.2641738653183 422.23257412016392 436.70073735713959 82.295537576079369 756.19153858721256 1029.1618215441704 239.32379056513309 28.639166250824928 885.79894725978374
leaf_count=581 355 3085 792 240 792 1858 13187 1155 1699 239 1138 703 546 189 1682 3650 225 673 598 303 2663 474 3280 1317 1476 341 2229 3171 747 111 3166
internal_value=0.0140524 0.0100953 0.0167562 0.00923065 0.00584607 0.0113859 0.0179863 0.0175336 0.00733998 0.0183023 0.0205665 0.0140582 0.0155592 0.00860309 0.00274525 0.00714294 0.0193309 0.00725657 0.00109662 0.00194361 0.0168988 0.0255364 0.0136567 0.0184687 0.011255 0.000341708 0.0131208 0.0101216 0.00389323 0.0301638 0.00097675
internal_weight=16984.2 6894.42 10089.8 6651.95 1022.48 820.104 9067.34 8910.78 5626.04 8492.04 5537.52 2954.52 2757.98 5163.51 1609.18 1150.76 5092.14 468.044 382.144 418.737 2610.11 712.226 1897.89 517.58 3554.33 518.996 3035.34 2279.15 1249.98 124.861 1125.12
internal_count=52665 22367 30298 21786 3442 2650 26856 26501 18701 25043 15821 9222 8519 17002 5521 3839 14683 1496 1271 1458 7973 2030 5943 1556 11481 1817 9664 7435 4264 351 3913
is_linear=0
shrinkage=0.0274897


Tree=17
num_leaves=32
num_cat=0
split_feature=0 106 5 4 21 21 106 43 46 46 117 11 4 0 54 94 80 10 38 47 23 60 117 0 0 51 15 4 56 39 85
split_gain=225.835 185.197 178.248 153.799 137.561 145.731 126.389 118.188 127.29 107.112 111.617 104.464 98.4325 109.433 106.279 98.0595 103.84 92.995 120.08 94.1436 148.532 120.583 88.4829 87.3658 86.1726 109.018 105.046 85.1186 99.3969 87.3006 87.8177
threshold=2.4464857578277592 91.000000000000014 0.00023967089509824294 0.051047958433628089 105004.16796875001 105631.92968750001 33.000000000000007 193.50000000000003 122.50565338134767 -197.48283386230466 156.50000000000003 95.500000000000014 0.36391259729862219 9.8853430747985858 2.6888766288757329 33.526075363159187 37.500000000000007 2.5000000000000004 83.500000000000014 0.95835748314857494 11.370767593383791 108879.89453125001 29.500000000000004 3.6083288192749028 1.4004054069519045 1.6849203109741213 1.4258411526679995 0.056522570550441749 0.15938203036785129 20.774322509765629 2.153879046440125
decision_type=2 2 2 2 10 10 2 2 2 2 2 2 2 2 2 2 2 2 2 2 2 2 2 2 2 2 2 2 2 2 2
left_child=1 2 -1 -2 12 -6 -4 8 24 10 -7 -9 14 -14 -5 -16 -17 19 -19 21 -21 -11 -10 -22 27 26 -26 -8 29 30 -29
right_child=3 -3 6 4 5 9 7 11 22 17 -12 -13 13 -15 15 16 -18 18 -20 20 23 -23 -24 -25 25 -27 -28 28 -30 -31 -32
leaf_value=0.029047724126936944 0.04207011961112625 -0.013959645381573878 0.015641874639913997 0.015348446996955391 -0.012219796601640553 -0.0072929175044796693 0.011310157142171436 -0.0020940019712352405 -0.024514746161506468 0.040002600855196462 0.060138240403433484 0.041740730519583755 0.022319441791631641 0.048956542592857567 0.033737989858855108 0.031063764968312462 -0.0092975831364482467 0.0059557059877598474 0.041796184325215167 -0.023402986468448669 -0.025605918042624631 0.017815351767910752 0.014916983803612669 0.032920032101696264 -0.0037611619356909477 -0.015123891846403502 0.012557410630167657 0.0016824785028232252 -0.022044816882141133 -0.022010741991144014 0.03857603952543763
leaf_weight=375.47236573696136 171.28346818685532 239.37978109717369 1826.9002133309841 5382.2425747811794 193.4424275457859 285.45232105255127 351.42546448111534 59.503323793411255 163.67257471382618 231.95382794737816 19.812756285071373 132.52060323953629 790.25523215532303 136.77336728572845 472.4879298210144 94.349822491407394 98.340461313724518 1030.2617792636156 75.825491115450859 94.387030839920044 23.629329070448875 917.83233052492142 58.289690151810646 103.97295860946178 337.30767464637756 129.44163098931313 2560.6182499676943 328.05316892266273 192.95066329836845 96.96477584540844 57.248214691877365
leaf_count=941 389 932 5655 16059 722 1065 1120 209 669 570 42 326 2144 294 1213 249 345 3449 191 374 101 2799 190 292 1200 501 8175 1134 769 388 158
internal_value=0.0136267 0.00979516 0.0106478 0.0162421 0.0157973 0.0108493 0.00955008 0.00705904 0.00611132 0.012453 -0.00291002 0.0281564 0.017909 0.0262513 0.0166299 0.0269974 0.010464 0.0143459 0.00841405 0.0191282 0.00273573 0.0222926 -0.0141567 0.0220753 0.00722123 0.00955516 0.0106578 0.000338371 -0.0053715 0.00129912 0.00716767
internal_weight=17032.1 6909.75 6670.37 10122.3 9951.02 2976.57 6294.9 4468 4275.97 2783.13 305.265 192.024 6974.45 927.029 6047.42 665.178 192.69 2477.86 1106.09 1371.78 221.989 1149.79 221.962 127.602 4054.01 3027.37 2897.93 1026.64 675.217 482.266 385.301
internal_count=52665 22367 21435 30298 29909 9605 20494 14839 14304 8883 1107 535 20304 2438 17866 1807 594 7776 3640 4136 767 3369 859 393 13445 9876 9375 3569 2449 1680 1292
is_linear=0
shrinkage=0.0274897


Tree=18
num_leaves=32
num_cat=0
split_feature=4 4 29 52 54 36 10 52 36 29 50 12 28 18 54 39 50 95 40 11 36 47 26 50 10 52 13 26 95 85 102
split_gain=177.857 180.9 145.771 134.603 155.228 134.452 121.501 131.593 113.579 130.905 136.831 109.725 122.275 108.786 133.329 108.524 103.583 103.458 102.882 99.3425 98.4334 120.099 158.948 100.943 91.9615 102.437 116.905 96.9482 93.6792 129.157 92.0389
threshold=0.36391259729862219 0.049815999343991287 107980.73828125001 0.9918026626110078 2.6888766288757329 99851.433593750015 4.5000000000000009 -0.50534009933471669 78664.343750000015 103526.19921875001 48.500000000000007 354.34828186035162 222.50000000000003 8.5000000000000018 1.0000000180025095e-35 12.584428310394289 73.500000000000014 176.50000000000003 -1.7698217034339903 2.5000000000000004 117328.27343750001 0.76699313521385204 8.616580009460451 5.5000000000000009 3.5000000000000004 -0.42770670354366297 37.674585342407234 -1.5113245248794553 39.500000000000007 1.9364513754844668 -64.071063995361314
decision_type=2 2 10 2 2 2 2 2 2 8 2 2 2 2 2 2 2 2 2 2 2 2 2 2 2 2 2 2 2 2 2
left_child=1 5 3 4 6 -1 11 -8 -9 10 -10 12 16 -11 -15 17 18 -13 19 -3 21 24 -23 -24 25 27 28 -4 29 -27 -30
right_child=-2 2 20 -5 -6 -7 7 8 9 13 -12 15 -14 14 -16 -17 -18 -19 -20 -21 -22 22 23 -25 -26 26 -28 -29 30 -31 -32
leaf_value=-0.0031229729159371238 0.02445939029648711 -0.0096701471493203899 0.055613052928424368 -0.0028515595636877666 0.02475888990579295 0.02684530782231619 0.026601994937645236 0.031179146811498235 -0.0065886473577358032 0.035205801563916547 0.010613785395514823 0.016203608858930088 0.0089670589633092171 0.019638560222973386 -0.0042736795399819444 0.0049115058512126863 -0.011383780609409994 -0.040138975715348066 0.020060299702543888 0.040635004213233357 0.03960258325658382 -0.019682008584274636 0.061646761777058696 0.0042211392269073146 0.0028494406587736055 0.025306343138986765 0.023904748829791222 -0.0054290734544315787 0.023620026163925709 0.0063161406688650766 -0.0056108150278817177
leaf_weight=128.15547874569893 1001.0595677495003 32.635031938552856 20.825084283947945 366.93000489473343 936.39153495430946 962.77584047615528 264.166119992733 130.21053487062454 929.38341110944748 143.47484843432903 559.89841447770596 1862.5327808409929 778.38369278609753 394.90903386473656 318.09727983176708 1210.0485524088144 70.781396076083183 24.929115697741508 2147.7332143783569 323.29048888385296 71.387505427002907 264.0951776355505 29.928558349609375 101.67664411664009 1416.5573611855507 469.80495615303516 619.97376352548599 344.54301033914089 101.40993751585484 638.66525727510452 412.09836120903492
leaf_count=431 2663 112 47 1264 2610 2542 733 335 3350 387 1807 5503 2450 1181 1123 3911 256 108 6277 766 179 1053 61 347 4861 1357 1827 1242 299 2113 1470
internal_value=0.0132165 0.0125163 0.0117293 0.0135031 0.0140958 0.0233244 0.0130092 0.00815919 0.00619103 0.00480343 -0.000120947 0.0150694 0.0185158 0.0133664 0.00896999 0.0113386 0.0214026 0.0154586 0.0223298 0.0360207 0.00758447 0.00706695 -0.00738269 0.0172938 0.00848806 0.0115513 0.0137509 -0.00194474 0.00986917 0.0143657 0.000161737
internal_weight=17076.8 16075.7 14984.8 10493.8 10126.9 1090.93 9190.47 2740.14 2475.97 2345.76 1489.28 6450.33 3352.82 856.481 713.006 3097.51 2574.44 1887.46 2503.66 355.926 4490.97 4419.58 395.7 131.605 4023.88 2607.32 2241.95 365.368 1621.98 1108.47 513.508
internal_count=52665 50002 47029 32173 30909 2973 28299 8916 8183 7848 5157 19383 9861 2691 2304 9522 7411 5611 7155 878 14856 14677 1461 408 13216 8355 7066 1289 5239 3470 1769
is_linear=0
shrinkage=0.0274897


Tree=19
num_leaves=32
num_cat=0
split_feature=2 4 4 7 15 99 29 52 54 3 44 32 16 16 23 18 98 80 47 44 30 22 18 7 63 19 52 80 57 30 57
split_gain=168.666 180.641 166.961 128.715 119.51 112.758 94.3959 98.0905 103.827 100.832 96.5374 92.3871 127.366 95.9947 129.202 130.882 99.6525 106.34 91.4448 102.146 92.6092 89.8627 92.9464 89.4884 87.1424 85.0543 84.6658 84.5538 116.766 82.3803 103.247
threshold=131752.34375000003 0.049815999343991287 0.36391259729862219 -17.770966529846188 1.055029094219208 14.500000000000002 104779.93750000001 0.9918026626110078 2.6888766288757329 0.00067374209174886357 559.50000000000011 90946.566406250015 97609.148437500015 111698.45312500001 -2.9295641183853145 15.500000000000002 -11.355062961578367 77.500000000000014 0.43166150152683264 219.50000000000003 -1.5519375801086424 43.643672943115241 68.500000000000014 -34.210626602172844 1.8601305484771731 95.834411621093764 0.32452183961868292 84.500000000000014 9.875216484069826 -0.87553489208221424 0.91949653625488292
decision_type=2 2 2 2 2 2 10 2 2 2 2 2 2 2 2 2 2 2 2 2 10 2 2 2 2 2 2 2 2 10 2
left_child=1 3 5 -1 -5 6 7 8 9 10 21 12 -2 14 -13 -16 23 18 19 -18 -21 -3 -23 -15 -20 -9 -17 -8 -29 -6 -31
right_child=11 2 -4 4 29 -7 27 25 -10 -11 -12 13 -14 16 15 26 17 -19 24 20 -22 22 -24 -25 -26 -27 -28 28 -30 30 -32
leaf_value=0.035234284954613219 0.0009800461461661001 0.0042503597593477769 0.024315327562086552 0.049118831596858488 0.037258905324101622 -0.0073256981761731831 0.01051223749811275 -0.020945163073446883 0.025366015338107416 0.015848307074117288 0.055172984215459603 0.031927591313826678 -0.041000108038174062 -0.012165009014957543 -0.02933259647642945 0.021546892346754221 0.022929504346480601 -0.017896637121551453 -0.022920362519558653 0.019652592974235789 -0.011519713214001416 0.036854436442511553 -0.013587015980920224 0.014176257765870424 0.019094534575971971 0.0092438043919566022 -0.03341055442755804 0.0093033059446600321 -0.027895685530021301 -0.028157376625154253 0.013569745433764274
leaf_weight=498.12202320992947 357.46876420080662 1274.8143985420465 957.29057659208775 52.656867012381554 43.102000802755356 214.97953133285046 4262.7655662894249 102.52894972264767 686.14277321100235 5588.8480419963598 31.721003383398056 273.73272448778152 64.432398557662964 360.54888080060482 63.474011242389679 193.4711197912693 556.36049671471119 95.496906027197838 97.018924459815025 133.22145998477936 156.69947017729282 127.54833474755287 35.1972346752882 133.52537100017071 60.565208971500397 225.77858890593052 23.757742702960968 160.73101371526718 105.6561134904623 80.75348749756813 100.59815157949924
leaf_count=1215 1213 4254 2519 112 101 753 13630 390 1867 16538 72 734 279 1361 262 567 1608 367 395 409 585 332 129 416 192 717 98 522 434 310 284
internal_value=0.0128205 0.0139673 0.0132405 0.0268793 0.0118571 0.0124133 0.01275 0.0145323 0.0151562 0.0141635 0.00775448 0.0063275 -0.00543205 0.00863767 0.0184899 0.00538244 0.00520901 0.00981773 0.0124551 0.0160354 0.00280299 0.00670682 0.0259418 -0.00504479 -0.00676884 -0.000183438 0.0155307 0.00957325 -0.00545016 0.00310855 -0.00500936
internal_weight=17119 14549.2 13774 775.233 277.111 12816.7 12601.7 8072.58 7744.27 7058.13 1469.28 2569.77 421.901 2147.87 554.436 280.703 1593.44 1099.36 1003.87 846.281 289.921 1437.56 162.746 494.074 157.584 328.308 217.229 4529.15 266.387 224.454 181.352
internal_count=52665 44179 42157 2022 807 39638 38885 24299 23192 21325 4787 8486 1492 6994 1661 927 5333 3556 3189 2602 994 4715 461 1777 587 1107 665 14586 956 695 594
is_linear=0
shrinkage=0.0274897


Tree=20
num_leaves=32
num_cat=0
split_feature=4 4 12 77 92 4 15 77 4 68 15 6 20 32 22 30 87 43 43 33 55 89 56 30 89 109 27 78 28 94 27
split_gain=143.468 147.99 104.295 148.705 153.383 109.133 103.272 90.8051 89.254 88.4057 134.704 85.7104 104.294 90.9975 83.7984 124.251 119.398 102.443 81.9671 108.778 91.3945 81.1028 79.5496 84.4502 82.1113 78.7864 83.6115 77.0253 101.715 74.7613 79.0942
threshold=0.028719092719256881 0.29832208156585699 399.28007507324224 81613.871093750015 14.500000000000002 0.12185127660632135 14.685906410217287 77384.589843750015 0.20385348051786426 34.500000000000007 4.2972903251647958 0.1761891767382622 0.85344037413597118 107785.44531250001 65.857528686523452 1.5262147784233095 2.5000000000000004 129.50000000000003 195.50000000000003 21.779533386230472 4.5000000000000009 -2.5691114664077754 -1.1694459915161131 1.1545517444610598 -1.111550986766815 87147.421875000015 259.77082824707037 2.5000000000000004 49.500000000000007 46.745918273925788 -8.2624821662902814
decision_type=2 2 2 2 2 2 2 2 2 2 2 2 2 2 2 10 2 2 2 2 2 2 2 8 2 2 2 2 2 2 2
left_child=-1 2 3 7 5 11 21 -2 -8 29 -11 12 -5 -14 15 17 -17 25 -13 -20 -21 -7 -19 24 -24 -12 -27 28 -3 -4 -31
right_child=1 27 9 4 -6 6 8 -9 -10 10 14 18 13 -15 -16 16 -18 22 19 20 -22 -23 23 -25 -26 26 -28 -29 -30 30 -32
leaf_value=0.032552756220983095 -0.0064540777941250347 0.013598075313032311 0.0063376911231708037 0.0093957915365229135 0.035691804592818663 0.040915120443422444 -0.0012527125741202659 0.034049725745843369 0.027782870847057814 0.0014646538453747294 0.043560686061032472 0.0072251270231798474 0.029541670141012416 -0.0032669629901382617 0.041755855188130679 -0.0088884958272451922 0.020158887097004377 0.036394165416814638 0.044644780728961886 0.032247362840559179 -0.035749800439732637 0.016895303451791653 0.010195875031841448 0.024722201649715669 -0.033780558643234246 0.022665582514323154 -0.018024316741529385 0.011718964176657631 0.03090727356667421 0.0047168401800918164 -0.027347567818235829
leaf_weight=266.86867092549801 47.318231999874115 414.26290810108185 2651.5070449560881 785.27086333930492 208.00261516869068 110.51479977369308 410.99213401973248 358.58688201010227 99.30611477792263 634.9895545989275 131.55723737180233 4590.4385537058115 468.62542544305325 73.929833829402924 92.601774781942368 270.68423396348953 176.72611221671104 44.551236972212791 100.69604042172432 29.474180698394775 30.232027143239975 2752.7224268764257 53.501957595348358 53.44066958129406 80.037750154733658 726.75549928843975 40.244544386863708 552.54626171290874 674.69486927986145 127.84844496846199 106.54687213897705
leaf_count=625 155 1202 8515 2438 538 271 1389 876 262 2124 304 14986 1258 253 223 963 508 116 233 80 125 8143 170 150 326 2108 150 1604 1697 430 427
internal_value=0.0125538 0.0122379 0.0113939 0.0130262 0.0123411 0.0118271 0.0157924 0.0293267 0.00439786 0.00822859 0.0122428 0.00962635 0.0158012 0.0250702 0.0163403 0.0148474 0.00258453 0.0197018 0.00790035 0.0272165 -0.00217485 0.017823 0.00339369 -0.00447048 -0.0161593 0.0239031 0.0205294 0.0200812 0.0243234 0.00502204 -0.00985762
internal_weight=17165.5 16898.6 15257.1 10066.1 9660.21 9452.2 3373.54 405.905 510.298 5190.99 2305.09 6078.67 1327.83 542.555 1670.1 1577.5 447.41 1130.09 4750.84 160.402 59.7062 2863.24 231.532 186.98 133.54 898.557 767 1641.5 1088.96 2885.9 234.395
internal_count=52649 52024 47521 31007 29976 29438 10065 1031 1651 16514 7142 19373 3949 1511 5018 4795 1471 3324 15424 438 205 8414 762 646 496 2562 2258 4503 2899 9372 857
is_linear=0
shrinkage=0.0274897


Tree=21
num_leaves=32
num_cat=0
split_feature=75 4 2 18 75 17 12 30 11 29 85 47 51 58 25 19 47 38 4 12 25 17 45 13 11 44 38 8 19 74 18
split_gain=142.66 144.732 127.188 134.895 150.378 128.179 118.213 111.328 108.122 103.683 97.9188 97.2234 95.6793 116.804 107.239 92.9884 130.453 106.673 89.3237 115.805 126.297 102.454 146.145 106.953 100.943 107.46 100.746 110.84 99.1127 96.0465 112.093
threshold=82715.632812500015 0.028719092719256881 131752.34375000003 13.500000000000002 96357.707031250015 1.6157116889953616 329.25915527343756 -1.3318307995796201 106.50000000000001 118350.96484375001 1.5212828516960146 1.4767209291458132 1.5199817419052126 113832.03125000001 1.0000000180025095e-35 68.851276397705092 0.44194699823856359 77.500000000000014 0.30375136435031896 354.34828186035162 95.500000000000014 15.210537910461428 7.5601704120635995 27.569376945495609 160.50000000000003 157.50000000000003 99.500000000000014 58.723821640014656 29.512179374694828 84191.238281250015 35.500000000000007
decision_type=2 2 2 2 2 2 2 10 2 10 2 2 2 2 2 2 2 2 2 2 2 2 2 2 2 2 2 2 2 2 2
left_child=11 -2 9 4 -4 6 -5 8 -6 12 -7 -1 18 -14 -15 16 17 -12 19 20 21 24 23 -23 29 28 27 -24 -26 -3 -31
right_child=1 2 3 5 7 10 -8 -9 -10 -11 15 -13 13 14 -16 -17 -18 -19 -20 -21 -22 22 26 -25 25 -27 -28 -29 -30 30 -32
leaf_value=0.025581684324121407 0.031616871767898874 -0.028600287591258447 0.030632432814046581 0.004959710424318785 -0.03793161143525163 0.03554370949358554 0.042538843257959973 -0.019436393485650478 0.016315760980621499 -0.0039937860168961035 0.015740099663948653 0.0010209557969959166 0.011424313218709724 0.021730129166820229 -0.01756484689525695 -0.0090113624028239515 -0.014098545884216222 -0.0072722245810100889 0.020955564115465005 0.0091369405992968028 0.038325920419938916 0.046002695240082152 0.052463006592329976 0.021419612486026071 0.0095097127788709868 0.020365937072575072 0.055957618891865159 -0.0033924217695296224 -0.02230732000245517 0.018682194212119155 0.01057664288977977
leaf_weight=875.87388814985752 267.21048851311207 39.742500469088554 76.374475866556168 107.52941028773785 33.795743152499199 82.177460804581642 153.75879947841167 362.38995204865932 154.95998901128769 289.567458152771 869.92815874516964 141.51856568455696 561.84005631506443 66.205337837338448 252.69986300170422 298.69441644847393 172.0714328289032 184.45475566387177 1043.8439926207066 4503.3325666636229 168.63976274430752 227.05418992042542 30.098671838641167 325.90518710017204 127.920669734478 138.08908194303513 29.680664971470833 246.72457499802113 175.36555626988411 2375.0478257238865 2821.710567265749
leaf_count=2253 625 159 205 345 143 218 360 1420 478 1027 2680 455 1721 197 973 1101 667 656 2826 14083 406 525 63 929 409 411 67 841 691 6916 8799
internal_value=0.0121805 0.0115528 0.011216 0.00551749 -0.00550942 0.00922085 0.0270777 -0.0105199 0.00659649 0.0122756 0.00631733 0.0221659 0.0126343 0.00388189 -0.00940444 0.00474166 0.00809165 0.0117137 0.0132634 0.012547 0.0148368 0.0142307 0.0230768 0.0315164 0.0128914 0.000265207 0.00784802 0.00268318 -0.00888613 0.0139556 0.0142813
internal_weight=17204.2 16186.8 15919.6 2496.13 627.52 1868.61 261.288 551.146 188.756 13423.5 1607.33 1017.39 13133.9 880.745 318.905 1525.15 1226.45 1054.38 12253.2 11209.3 6705.98 6537.34 859.463 552.959 5677.88 441.375 306.504 276.823 303.286 5236.5 5196.76
internal_count=52649 49941 49316 8273 2246 6027 705 2041 621 41043 5322 2708 40016 2891 1170 5104 4003 3336 37125 34299 20216 19810 2425 1454 17385 1511 971 904 1100 15874 15715
is_linear=0
shrinkage=0.0274897


Tree=22
num_leaves=32
num_cat=0
split_feature=75 6 64 10 38 2 15 44 16 32 47 48 95 24 33 24 92 21 9 61 97 48 44 42 96 56 15 39 44 12 38
split_gain=134.568 135.076 130.544 105.018 155.215 191.267 144.241 139.894 138.278 128.409 151.146 125.789 122.351 115.849 128.243 128.793 144.183 127.008 125.296 141.069 118.097 115.959 108.07 127.037 107.931 106.734 162.724 121.212 120.94 120.23 108.899
threshold=82715.632812500015 0.097681608051061644 -0.22246810048818585 4.5000000000000009 45.500000000000007 125912.17187500001 4.2884042263031015 449.50000000000006 118363.36328125001 83553.566406250015 0.36961759626865393 77271.921875000015 176.50000000000003 42.500000000000007 42.742801666259773 143.50000000000003 6.5000000000000009 94906.878906250015 17.028807640075687 116714.63671875001 47.500000000000007 113891.28906250001 364.50000000000006 4.6019794940948495 4.286942958831788 0.70271542668342601 14.394954204559328 18.258242607116703 121.50000000000001 275.86799621582037 71.500000000000014
decision_type=2 2 2 2 2 2 2 2 2 2 2 2 2 2 2 2 2 8 8 2 2 2 2 2 2 2 2 2 2 2 2
left_child=-1 -2 -3 6 7 9 13 -5 12 11 -11 -6 25 -4 15 18 17 -17 19 20 -15 -21 23 24 -19 26 29 28 -28 30 -8
right_child=1 2 3 4 5 -7 8 -9 -10 10 -12 -13 -14 14 -16 16 -18 22 -20 21 -22 -23 -24 -25 -26 -27 27 -29 -30 -31 -32
leaf_value=0.021508813051866974 0.026520216118603935 0.01782254828270419 -0.0031222079882313992 0.0031243541930976509 0.022804324110805903 0.00050508927320616398 0.026757248242665031 -0.030417983862619253 -0.0062776627495326996 0.03437504433189028 0.0038675843409557453 -0.011944810906724758 -0.03542384401061497 -0.019961627603716729 -0.020886859405188123 -0.029806036755607036 -0.015029156680720503 0.010352356374142453 0.022966237224237008 0.038089705819445915 0.035832805608429996 -0.006643364860634559 0.064907439118964488 -0.015589610213121212 0.042409444437258324 0.0066416601756406398 0.023350665568438678 -0.0068368337304887039 0.0046236252299709998 0.015221614565950434 -0.0018278528961876996
leaf_weight=1019.6167892515659 424.23735068738461 1776.1482397466898 722.7321929037571 2320.3036770671606 160.55689406394958 593.11315487325191 1495.2959927469492 97.900216281414032 253.5347648113966 510.66966310143471 161.60205292701721 154.382962718606 36.997604623436928 179.37373679876328 101.07181206345558 58.840286582708359 238.42857271432877 550.45131547749043 826.57932598888874 118.78168788552284 34.090886518359184 69.317008540034294 28.162159368395805 122.24598301947117 92.73902739584446 1048.1041388809681 449.36751121282578 318.09092751145363 620.54875987768173 2547.3229900151491 107.94749303162098
leaf_count=2708 1043 5128 2442 7706 449 2013 4078 400 920 1318 540 564 154 690 392 227 881 1728 2292 306 90 248 57 455 223 3305 1248 1099 1972 7608 365
internal_value=0.0118214 0.0112123 0.0108011 0.00991137 0.00614455 0.0128443 0.0114145 0.00176588 0.0136442 0.0202569 0.0270428 0.00576917 0.0144068 0.00653511 0.00941938 0.0107407 0.00386605 0.00915196 0.0168463 0.00424703 -0.0110455 0.0216036 0.012042 0.0100941 0.0149768 0.0146869 0.0162093 0.00806035 0.0124899 0.0189342 0.0248323
internal_weight=17238.6 16218.9 15794.7 14018.6 3998.53 1580.32 10020 2418.2 6877.21 987.212 672.272 314.94 6623.68 3142.81 2420.08 2319.01 1090.87 852.439 1228.14 401.563 213.465 188.099 793.598 765.436 643.19 6586.68 5538.57 1388.01 1069.92 4150.57 1603.24
internal_count=52649 49941 48898 43770 12990 4884 30780 8106 20749 2871 1858 1013 19829 10031 7589 7197 3571 2690 3626 1334 780 554 2463 2406 1951 19675 16370 4319 3220 12051 4443
is_linear=0
shrinkage=0.0274897


end of trees

feature_importances:
atr_pct=23
session_range_pct=22
weekly_pivot_times_tested_this_week=21
squeeze_mom_peak_since_fire=17
adx_bars_since_weak=17
macd_hist_max_50=16
vwap_lower_band=16
ad_line=15
wt_last_ob_depth=15
bars_since_ema200_touch_1h=15
bars_since_ema50_touch_1h=15
vwap_upper_band=14
adx_1h=14
ema21_1h_dist_pct=13
parkinson_vol=12
day_of_week=12
wt_last_os_depth=12
vfi_1h=12
ema20_1d_dist_pct=12
vfi_1h_direction=12
rsi_bars_since_ob=11
macd_hist_1h=11
ema50_bounce_5bar_5m=11
realized_vol_20=10
kc_width=10
pivot_times_tested_today=10
ema200_1h_dist_pct=10
ema9_1h_dist_pct=10
vfi=10
vwap_daily=9
weekly_pivot_S3=9
pivot_touch_count_today=9
bars_since_volume_spike=9
macd_hist_min_50=8
ema200_1d_dist_pct=8
wt1_1h=8
vfi_signal=8
kama_dist_pct=8
rsi_time_above_50_pct=8
dist_to_nearest_weekly_pivot_pct=7
pivot_S3=7
wt2_1h=7
vwap_dist_pct=7
pivot_P=7
wt_bars_since_os_exit=6
squeeze_momentum_at_fire=6
vwap_band_position=6
squeeze_duration_last=6
pivot_R2=6
ema100_1h_dist_pct=6
ema50_1h_dist_pct=6
nearest_pivot_type=6
stoch_bars_in_ob=6
vwap_session_dist_pct=6
macd_signal_5min=6
wt_bars_since_ob_exit=5
ema50_pivot_confluence=5
price_entropy=5
adx=5
bars_since_squeeze_release=5
vwap_session=4
overlap_sydney_tokyo=4
weekly_pivot_S2=4
pivot_S1=4
stoch_bars_since_green=4
ema21_bounce_5bar_5m=4
ema21_pivot_confluence=4
stoch_bars_since_red=4
adx_peak_50=3
minutes_into_session=3
ema50_1d_dist_pct=3
divergence_freshness=3
pivot_S2=3
adx_bars_since_trend=3
squeeze_count_200=3
pivot_R1=3
hurst_exponent=3
swing_range_pct=3
lower_lows_count_20=3
bars_since_pivot_touch=3
weekly_pivot_R1=3
session_london=2
atr_14=2
rsi_bars_since_os=2
weekly_pivot_R3=2
pivot_R3=2
rsi_os_count_100=2
macd_hist_1h_direction=2
stoch_bars_in_os=2
dist_from_range_low_20_pct=2
weekly_pivot_S1=2
return_60bar=2
ema_stack_1d=1
nearest_weekly_pivot_type=1
autocorrelation_1=1
bb_width=1
rsi_ob_count_100=1
weekly_pivot_zone=1
wt_ob_count_100=1
higher_highs_count_20=1
stoch_red_count_50=1
mean_reversion_score=1
wt_os_count_100=1
dist_to_nearest_pivot_pct=1

parameters:
[boosting: gbdt]
[objective: binary]
[metric: binary_logloss]
[tree_learner: serial]
[device_type: cpu]
[data_sample_strategy: bagging]
[data: ]
[valid: ]
[num_iterations: 1000]
[learning_rate: 0.0274897]
[num_leaves: 32]
[num_threads: -1]
[seed: 42]
[deterministic: 0]
[force_col_wise: 0]
[force_row_wise: 0]
[histogram_pool_size: -1]
[max_depth: -1]
[min_data_in_leaf: 73]
[min_sum_hessian_in_leaf: 0.001]
[bagging_fraction: 0.668424]
[pos_bagging_fraction: 1]
[neg_bagging_fraction: 1]
[bagging_freq: 5]
[bagging_seed: 400]
[bagging_by_query: 0]
[feature_fraction: 0.502556]
[feature_fraction_bynode: 1]
[feature_fraction_seed: 30056]
[extra_trees: 0]
[extra_seed: 12879]
[early_stopping_round: 0]
[early_stopping_min_delta: 0]
[first_metric_only: 0]
[max_delta_step: 0]
[lambda_l1: 0.0184309]
[lambda_l2: 0.0258861]
[linear_lambda: 0]
[min_gain_to_split: 0]
[drop_rate: 0.1]
[max_drop: 50]
[skip_drop: 0.5]
[xgboost_dart_mode: 0]
[uniform_drop: 0]
[drop_seed: 17869]
[top_rate: 0.2]
[other_rate: 0.1]
[min_data_per_group: 100]
[max_cat_threshold: 32]
[cat_l2: 10]
[cat_smooth: 10]
[max_cat_to_onehot: 4]
[top_k: 20]
[monotone_constraints: ]
[monotone_constraints_method: basic]
[monotone_penalty: 0]
[feature_contri: ]
[forcedsplits_filename: ]
[refit_decay_rate: 0.9]
[cegb_tradeoff: 1]
[cegb_penalty_split: 0]
[cegb_penalty_feature_lazy: ]
[cegb_penalty_feature_coupled: ]
[path_smooth: 0]
[interaction_constraints: ]
[verbosity: -1]
[saved_feature_importance_type: 0]
[use_quantized_grad: 0]
[num_grad_quant_bins: 4]
[quant_train_renew_leaf: 0]
[stochastic_rounding: 1]
[linear_tree: 0]
[max_bin: 255]
[max_bin_by_feature: ]
[min_data_in_bin: 3]
[bin_construct_sample_cnt: 200000]
[data_random_seed: 175]
[is_enable_sparse: 1]
[enable_bundle: 1]
[use_missing: 1]
[zero_as_missing: 0]
[feature_pre_filter: 1]
[pre_partition: 0]
[two_round: 0]
[header: 0]
[label_column: ]
[weight_column: ]
[group_column: ]
[ignore_column: ]
[categorical_feature: ]
[forcedbins_filename: ]
[precise_float_parser: 0]
[parser_config_file: ]
[objective_seed: 16083]
[num_class: 1]
[is_unbalance: 0]
[scale_pos_weight: 2.17413]
[sigmoid: 1]
[boost_from_average: 1]
[reg_sqrt: 0]
[alpha: 0.9]
[fair_c: 1]
[poisson_max_delta_step: 0.7]
[tweedie_variance_power: 1.5]
[lambdarank_truncation_level: 30]
[lambdarank_norm: 1]
[label_gain: ]
[lambdarank_position_bias_regularization: 0]
[eval_at: ]
[multi_error_top_k: 1]
[auc_mu_weights: ]
[num_machines: 1]
[local_listen_port: 12400]
[time_out: 120]
[machine_list_filename: ]
[machines: ]
[gpu_platform_id: -1]
[gpu_device_id: -1]
[gpu_use_dp: 0]
[num_gpu: 1]

end of parameters

pandas_categorical:null
