tree
version=v4
num_class=3
num_tree_per_iteration=3
label_index=0
max_feature_idx=96
objective=multiclass num_class:3
feature_names=session_range_pct session_london ad_line realized_vol_20 atr_pct atr_14 parkinson_vol kc_width macd_hist_min_50 day_of_week wt_last_os_depth minutes_into_session adx_peak_50 vwap_upper_band wt_last_ob_depth vwap_daily macd_hist_max_50 squeeze_mom_peak_since_fire adx_1h vfi_1h squeeze_momentum_at_fire wt_bars_since_ob_exit pivot_S3 macd_hist_1h wt2_1h pivot_times_tested_today wt_bars_since_os_exit vwap_lower_band wt1_1h vwap_band_position rsi_bars_since_os vfi_signal vfi_1h_direction adx_bars_since_weak rsi_bars_since_ob ema50_1h_dist_pct atr_percentile pivot_R3 squeeze_duration_last session_tokyo vwap_dist_pct ema21_1h_dist_pct ema9_1h_dist_pct pivot_P squeeze_count_200 pivot_S2 bars_since_volume_spike pivot_R2 pivot_touch_count_today vfi divergence_freshness session_sydney kama_dist_pct rsi_ob_count_100 hurst_exponent vwap_session swing_low_dist_pct minutes_to_session_close rsi_os_count_100 overlap_sydney_tokyo pivot_R1 autocorrelation_1 swing_high_dist_pct autocorrelation_5 session_new_york nearest_pivot_type pivot_S1 adx_bars_since_trend macd_hist_1h_direction adx higher_highs_count_20 cloud_dist_pct stoch_bars_in_ob bars_since_pivot_touch lower_lows_count_20 bars_since_squeeze_release price_entropy stoch_bars_since_green mean_reversion_score rsi_time_above_50_pct wt_ob_count_100 stoch_bars_in_os pivot_zone overlap_london_ny bb_width dist_to_nearest_pivot_pct ema21_dist_pct vwap_slope vwap_session_dist_pct stoch_red_count_50 zscore_50 return_60bar swing_range_pct stoch_bars_since_red vfi_range_pct active_session_count stoch_last_extreme_depth
feature_infos=[0.47219109535217285:16.891002655029297] [0:1] [91338.3359375:141393.359375] [8.5863313870504498e-05:0.021597558632493019] [0.0087995817884802818:1.9502072334289551] [9.445429801940918:2205.770263671875] [5.5937041906872764e-05:0.018528565764427185] [0.019226456061005592:6.9132614135742188] [-1020.6376953125:13.420256614685059] [0:6] [0.0018559229793027043:37.068862915039062] [0:475] [13.201913833618164:75.425430297851562] [84024.8203125:125084.6953125] [0.0029590311460196972:37.526187896728516] [83712.296875:124810.40625] [-9.9459466934204102:424.62173461914062] [0.22822143137454987:4823.546875] [8.3146018981933594:65.013397216796875] [-41.162704467773438:43.512901306152344] [-868.7244873046875:746.70233154296875] [0:970] [77510.515625:121531.7578125] [-765.71429443359375:596.532958984375] [-92.071792602539062:85.882904052734375] [0:282] [0:959] [82752.0234375:124622.703125] [-92.948501586914062:87.342460632324219] [-14.817416191101074:19.578018188476562] [0:790] [-48.8099365234375:45.948307037353516] [-4.138221263885498:4.5437679290771484] [0:602] [0:1084] [-7.9429998397827148:4.7825102806091309] [1:100] [86739.9140625:132991.5] [1:39] [0:1] [-11.987512588500977:3.7156064510345459] [-5.3189435005187988:3.8221962451934814] [-3.8141989707946777:2.9549460411071777] [84409.453125:124647.390625] [0:13] [80145.9140625:122721.9296875] [0:259] [85930.0703125:126572.8515625] [0:282] [-51.724800109863281:48.999946594238281] [0:301] [0:1] [-6.828557014465332:2.4522149562835693] [0:11] [0.35013970732688904:0.6951829195022583] [83712.296875:124810.40625] [-8.7172079086303711:9.8178396224975586] [65:540] [0:10] [0:1] [85429.75:125837.5625] [-0.58789724111557007:0.73460584878921509] [-12.73320198059082:3.5621120929718018] [-0.58933287858963013:0.72541946172714233] [0:1] [0:6] [81774.0625:123457.21875] [0:223] [-249.650634765625:265.89520263671875] [6.1781635284423828:75.425430297851562] [2:15] [-13.865297317504883:4.5020542144775391] [1:45] [0:514] [2:16] [0:719] [0.55421024560928345:2.2864766120910645] [0:218] [-3:3] [0:100] [0:8] [1:34] [0:5] [0:1] [0.045124556869268417:12.91199779510498] [2.878227633118513e-06:13.085362434387207] [-10.41910457611084:2.1344151496887207] [-3.0394637584686279:2.8301942348480225] [-11.987512588500977:3.7156064510345459] [0:9] [-6.1767134666442871:6.5208344459533691] [-12.447732925415039:7.7249436378479004] [-1.751104474067688:13.730503082275391] [0:231] [0:1] [1:2] [0.00052043946925550699:20]
tree_sizes=6764 6795 6681 6897 6912 6861

Tree=0
num_leaves=63
num_cat=0
split_feature=3 15 7 12 38 24 14 18 8 10 8 38 63 20 14 12 18 23 9 65 2 9 19 15 10 67 10 21 29 23 24 33 41 10 12 66 34 19 14 37 22 19 19 33 34 24 63 20 16 14 46 12 43 2 18 19 4 18 35 50 23 6
split_gain=412.553 140.058 130.767 120.81 106.308 103.048 99.3527 102.388 84.5645 83.7763 82.1834 78.0393 76.4007 74.0796 73.9875 71.5335 77.4134 70.5415 66.8923 100.994 94.7399 87.9214 87.0148 77.91 82.2235 83.1534 71.952 71.6219 70.4335 70.111 99.1935 67.9515 87.3664 64.5825 69.8787 63.5252 62.2383 61.2249 59.7125 60.7054 107.065 79.6991 75.0622 70.6564 59.4818 84.0413 66.6203 76.4768 67.0419 65.0587 57.5471 57.3575 57.3406 56.0756 55.5245 55.4912 55.4865 54.6239 65.2109 72.5258 54.1299 53.335
threshold=0.00060765640228055428 87435.375000000015 0.14070582389831546 43.886817932128913 3.5000000000000004 -70.382453918457017 23.41532135009766 38.245557785034187 -90.442878723144517 1.1098462343215945 -24.34389495849609 14.500000000000002 -0.025767574086785313 -62.440326690673821 8.7325987815856951 34.272663116455085 15.045149326324465 183.06732177734378 2.5000000000000004 1.5000000000000002 124426.83203125001 5.5000000000000009 3.7882156372070317 88756.492187500015 17.064311981201175 41.500000000000007 19.547243118286136 697.50000000000011 -0.89215791225433339 -116.1241111755371 -20.706827163696286 123.50000000000001 0.2081059813499451 20.190391540527347 32.644073486328132 87579.988281250015 104.50000000000001 -27.157954216003414 8.2733960151672381 108875.30468750001 92415.687500000015 13.066898345947267 -20.662992477416989 98.500000000000014 203.50000000000003 11.461044311523439 -0.034970516338944428 189.61006164550784 171.07843017578128 19.427419662475589 66.500000000000014 21.164763450622562 87566.644531250015 110670.10546875001 45.829524993896491 7.0747077465057382 0.10882874950766565 24.093059539794925 -0.29972718656063074 39.500000000000007 228.7298278808594 0.0016005538054741921
decision_type=2 2 2 2 2 2 2 2 2 2 2 2 2 2 2 2 2 2 2 2 2 2 2 2 2 2 2 2 10 2 2 2 2 2 2 2 2 2 2 2 2 2 2 2 2 2 2 2 2 2 2 2 2 2 2 2 2 2 2 2 2 2
left_child=2 8 9 6 17 -5 15 -8 53 13 55 57 50 -1 38 18 -17 37 20 33 23 28 27 -3 25 29 -24 -22 -21 30 -25 -23 -33 34 -20 -16 -9 -4 39 40 41 42 -7 -42 46 49 47 -18 -48 61 -10 -6 60 54 -2 -11 -44 58 -12 -60 -14 -46
right_child=1 3 4 5 51 14 7 36 12 10 11 -13 52 -15 35 16 44 -19 19 21 22 31 26 24 -26 -27 -28 -29 -30 -31 -32 32 -34 -35 -36 -37 -38 -39 -40 -41 43 -43 56 -45 45 -47 48 -49 -50 -51 -52 -53 -54 -55 -56 -57 -58 -59 59 -61 -62 -63
leaf_value=-0.99573434683489537 -0.9867887352408734 -0.9994235447855131 -0.92871432527477293 -0.9483313653521015 -0.99310738325547476 -0.92747126477245434 -0.92966863830704949 -1.0281300131653981 -0.95885714418351187 -0.9264484683028511 -0.93200137054189147 -0.91162196333404821 -0.91570866842668941 -0.91341140028668111 -0.96954271368269684 -0.9524596896519909 -0.96574176908821807 -0.92189835755095062 -0.94207444449432476 -0.98063335283741337 -0.9989670942442721 -0.98250877658368374 -0.97732309528775752 -1.0185262747634614 -0.91778350861767966 -0.95000261204321212 -0.9017246900574255 -0.92930274177162975 -1.0020086811098605 -0.98435905892187059 -0.91526985154348417 -0.89761642609273595 -1.0220062902518476 -1.0183117486974627 -1.0012360379906786 -1.001679168222452 -0.91992224443358095 -0.98298618203102939 -0.8969434792726112 -0.99446722258412013 -0.97632375135594518 -0.91233905109388957 -0.9385842851420898 -0.92776696126514557 -1.004800874898133 -0.93862424858532112 -0.98469288759889595 -1.0114621915420008 -0.92560197453528825 -0.9224437739886715 -1.0108730270088209 -0.96233065711977339 -0.97654731501472547 -1.0167608672581541 -0.91296422827873125 -0.96641081619190383 -1.0127348428828551 -0.99124615659023896 -0.98562207915582223 -0.951690218350559 -1.0021924189935856 -0.96980334349908026
leaf_weight=32.358969807624817 96.373453557491302 221.94032552838326 53.110917836427689 129.78760716319084 164.2569445669651 33.062425673007965 171.64323115348816 53.110917836427689 216.31267860531807 243.39572942256927 129.08415129780769 58.3868368268013 205.76084062457085 171.29150322079659 165.31212836503983 278.56852269172668 1384.4011430740356 50.297094374895096 215.9609506726265 477.29480466246605 1149.7986119687557 411.87340918183327 520.55734038352966 31.655513942241669 78.435328990221024 351.02447682619095 33.414153605699539 37.986616730690002 2012.2355029284954 760.4357904791832 86.525071442127228 53.814373701810837 18.993308365345001 48.186726778745651 64.717939615249634 2155.3887715339661 17.586396634578705 2208.4996893703938 18.641580432653427 1009.1074388921261 155.11201831698418 28.489962548017502 27.43477874994278 145.2636362016201 632.7585509121418 69.290402740240097 1752.6602886021137 97.780365288257599 49.241910576820374 28.841690480709076 70.345586538314819 1896.8687410056591 65.421395480632782 102.00110048055649 34.469337403774261 135.7669820189476 296.15491932630539 251.48547187447548 364.03841033577919 277.16161096096039 19.696764230728149 131.19451889395714
leaf_count=92 274 631 151 369 467 94 488 151 615 692 367 166 585 487 470 792 3936 143 614 1357 3269 1171 1480 90 223 998 95 108 5721 2162 246 153 54 137 184 6128 50 6279 53 2869 441 81 78 413 1799 197 4983 278 140 82 200 5393 186 290 98 386 842 715 1035 788 56 373
internal_value=-0.979661 -0.983815 -0.968502 -0.984881 -0.973043 -0.992157 -0.982186 -0.950527 -0.963557 -0.956567 -0.960768 -0.967806 -0.953301 -0.926518 -0.993569 -0.982884 -0.97797 -0.980401 -0.986192 -0.991211 -0.981123 -0.994119 -0.989098 -0.972047 -0.967397 -0.97057 -0.972741 -0.996731 -0.997913 -0.978795 -0.94298 -0.974645 -0.930148 -0.964929 -0.955736 -0.999387 -1.0011 -0.981707 -0.985683 -0.986667 -0.975191 -0.992632 -0.999076 -0.952815 -0.979683 -0.991372 -0.976616 -0.968763 -0.983072 -0.995993 -0.971646 -0.964786 -0.935248 -0.988976 -0.967342 -0.940737 -1.00642 -0.971028 -0.96442 -0.970961 -0.923293 -0.998784
internal_weight=22252.1 16216.1 6036 15405.7 4373.03 4163.76 11241.9 242.341 810.381 1662.97 1459.32 1080.16 577.537 203.65 4033.97 10999.6 4424.74 2311.91 6574.85 3303.08 3271.77 2974.21 1741.76 1530.02 1308.08 1229.64 553.971 1187.79 2489.53 878.616 118.181 484.681 72.8077 328.866 280.679 2320.7 70.6973 2261.61 1713.27 1694.63 685.518 385.142 356.652 300.376 4146.17 862.085 3284.08 1482.18 1801.9 792.795 286.658 2061.13 290.879 232.844 130.843 379.163 323.59 1021.77 770.284 641.2 225.458 763.953
internal_count=63265 46104 17161 43800 12433 11838 31962 689 2304 4728 4149 3071 1642 579 11469 31273 12580 6573 18693 9391 9302 8456 4952 4350 3719 3496 1575 3377 7078 2498 336 1378 207 935 798 6598 201 6430 4871 4818 1949 1095 1014 854 11788 2451 9337 4214 5123 2254 815 5860 827 662 372 1078 920 2905 2190 1823 641 2172
is_linear=0
shrinkage=1


Tree=1
num_leaves=63
num_cat=0
split_feature=3 0 0 1 40 16 14 22 2 12 87 10 19 8 5 15 10 46 22 38 18 0 14 60 23 0 75 10 38 20 24 0 19 54 18 20 69 15 12 10 8 16 8 5 0 8 46 30 14 0 20 33 2 24 15 75 11 43 10 16 90 9
split_gain=333.279 210.063 126.173 113.231 108.893 91.2439 91.0513 96.7359 165.886 122.901 81.5548 80.2719 74.1576 86.6694 73.0734 132.167 103.837 101.316 90.6379 80.9271 80.4787 80.1943 79.1983 72.2616 113.074 95.1127 94.8094 89.8294 82.073 102.141 80.7262 91.8322 70.151 70.0828 69.1459 68.5704 68.3502 66.9727 64.979 85.6441 95.2942 74.37 64.9361 64.8283 64.1229 85.5107 63.4833 63.4547 77.6296 62.6551 62.0905 61.1478 60.9025 60.0873 59.8847 58.8377 67.3455 58.8352 58.2139 58.2124 58.0119 57.9748
threshold=0.00096102163661271345 2.5356380939483647 7.7749173641204843 1.0000000180025095e-35 -1.7518720626831052 70.535663604736342 13.493189811706545 114560.71093750001 125701.87500000001 33.491912841796882 -0.0025798211572691794 20.039875030517582 -10.617944717407225 -148.35826110839841 91.575183868408217 88329.359375000015 12.277659416198732 105.50000000000001 103699.30468750001 4.5000000000000009 10.683757305145265 5.1978995800018319 13.272613525390627 118398.23437500001 86.433696746826186 4.7211666107177743 44.500000000000007 0.40719498693943029 5.5000000000000009 -4.8284268379211417 -25.840467453002926 1.7854166030883791 12.327519416809084 0.58563950657844555 46.269260406494148 66.283481597900405 44.829431533813484 86923.464843750015 29.187413215637211 8.6885032653808612 -23.009445190429684 40.727813720703132 -140.01289367675778 134.77994537353518 5.2841055393219003 -34.945793151855462 135.50000000000003 176.50000000000003 6.5037343502044687 1.2892208099365237 -88.720153808593736 361.50000000000006 133841.73437500003 42.518480300903327 117054.43359375001 98.500000000000014 162.50000000000003 122600.54687500001 14.320805072784426 72.228111267089858 -0.61224794387817372 3.5000000000000004
decision_type=2 2 2 2 2 2 2 2 2 2 2 2 2 2 2 2 2 2 2 2 2 2 2 2 2 2 2 2 2 2 2 2 2 2 2 2 2 2 2 2 2 2 2 2 2 2 2 2 2 2 2 2 2 2 2 2 2 2 2 2 2 2
left_child=3 10 4 6 -3 33 7 14 -9 -10 -2 37 13 -13 15 53 17 20 19 -17 -16 -18 -22 25 26 27 57 -5 30 -30 31 -29 -21 -6 59 55 46 -7 39 54 -41 51 -14 -37 -27 -46 -12 48 -43 60 -33 -40 -28 -1 -32 56 -31 -25 -11 -4 -20 -35
right_child=1 2 34 23 5 11 -8 8 9 58 36 12 42 -15 16 18 21 -19 49 32 22 -23 -24 24 -26 44 52 28 29 35 38 50 -34 61 -36 43 -38 -39 41 40 -42 47 -44 -45 45 -47 -48 -49 -50 -51 -52 -53 -54 -55 -56 -57 -58 -59 -60 -61 -62 -63
leaf_value=-0.98140724974127447 -0.97870862439318063 -0.98267753346005082 -0.93708981520101964 -0.97848863667741426 -0.94714842541228739 -0.99465093389826154 -0.95801939715440654 -0.97578972411997311 -0.90023391539415965 -0.94987093361077846 -0.96510721058095006 -0.88976410081038293 -0.95047147610147398 -0.98054023103608379 -0.8795780661649848 -0.91560439432824892 -0.96989155019513118 -0.9127725201677982 -0.99072215109610995 -0.95152419712947578 -0.95330227566975323 -0.89521156912459043 -0.89035143378567672 -0.90042927610152512 -0.88615200748957446 -0.88679069437008917 -0.93176800240475588 -0.95490925673597882 -0.96481231917295429 -0.95257128912940825 -0.90566363951796469 -0.96024934415903818 -0.89498479072638371 -0.90593955132782777 -0.95835563318793948 -0.96309578939899954 -0.91321331472007483 -0.95774566314131193 -0.95661459077155508 -0.97289803677991205 -0.91106294970751422 -0.95038717060290401 -0.89076060871619911 -0.90115121417855282 -0.94974740529347956 -0.88184259291925837 -0.89643097622252632 -0.9551913026456661 -0.90578855467875097 -0.93788437712132011 -0.90445726508155788 -0.87057704238267797 -0.98405730463769259 -0.90992080534558639 -0.97160870345850192 -0.87460261524077909 -0.90286455695085344 -0.96934946256022825 -0.8935180204639801 -0.87052586872573978 -0.95029210266896458 -0.95849506185197542
leaf_weight=253.75699007511139 1136.3899990320206 293.61783564090729 51.249658584594727 165.49368917942047 2288.795516371727 128.12414646148682 1675.9350157976151 160.15518307685852 386.50784182548523 295.75323808193207 1166.2856332063675 33.810538649559021 72.959583401679993 116.73533344268799 39.504945158958435 653.78904736042023 869.46469390392303 200.37192904949188 123.85334157943726 377.61033165454865 1841.784605383873 37.369542717933655 51.249658584594727 185.06821155548096 161.22288429737091 125.63284361362457 110.32912611961365 151.96947371959686 679.41387665271759 154.81667697429657 344.51159381866455 55.87636387348175 64.062073230743408 195.03342294692993 59.079467535018921 273.68741285800934 72.603682994842529 3027.644760966301 958.43979561328888 163.00238633155823 100.71981513500214 151.25767290592194 120.29433751106262 49.826056957244873 169.0526932477951 63.706172823905945 34.522339463233948 211.04894125461578 273.68741285800934 738.13744378089905 450.56991505622864 20.998124003410339 112.10862815380096 33.098737835884094 38.081343531608582 56.232264280319214 121.36203873157501 37.013642311096191 54.096861839294434 92.534105777740479 313.19235801696777 71.535981774330139
leaf_count=713 3193 825 144 465 6431 360 4709 450 1086 831 3277 95 205 328 111 1837 2443 563 348 1061 5175 105 144 520 453 353 310 427 1909 435 968 157 180 548 166 769 204 8507 2693 458 283 425 338 140 475 179 97 593 769 2074 1266 59 315 93 107 158 341 104 152 260 880 201
internal_value=-0.948866 -0.956347 -0.951703 -0.943919 -0.952944 -0.951501 -0.94763 -0.944948 -0.9297 -0.919667 -0.968969 -0.956747 -0.933813 -0.960094 -0.947392 -0.941163 -0.952631 -0.946607 -0.937121 -0.926775 -0.950114 -0.966803 -0.951592 -0.938291 -0.922019 -0.940354 -0.935049 -0.942365 -0.940958 -0.951223 -0.936262 -0.920852 -0.943324 -0.94432 -0.912898 -0.937154 -0.960272 -0.959247 -0.940751 -0.927353 -0.949258 -0.946116 -0.913318 -0.953528 -0.915581 -0.931162 -0.963124 -0.932802 -0.921672 -0.946771 -0.910624 -0.954757 -0.958103 -0.973131 -0.912245 -0.921207 -0.930738 -0.911943 -0.941158 -0.894192 -0.961768 -0.92006
internal_weight=22516 8961.22 6551.41 13554.8 6348.55 6054.93 8169.69 6493.76 896.513 736.358 2409.8 3499.57 343.8 150.546 5597.25 2557.5 3039.75 2132.91 2270.64 1095.46 1932.54 906.834 1893.03 5385.13 605.742 4779.39 444.52 4420.99 4255.5 1335.34 2920.16 658.416 441.672 2555.36 202.863 655.924 1273.41 3155.77 2261.75 646.315 263.722 1615.43 193.254 323.513 358.392 232.759 1200.81 635.994 424.945 1175.18 506.446 979.438 222.438 286.856 382.593 332.411 276.179 222.082 349.85 143.784 437.046 266.569
internal_count=63265 25179 18408 38086 17838 17013 22955 18246 2519 2069 6771 9833 966 423 15727 7186 8541 5993 6380 3078 5430 2548 5319 15131 1702 13429 1249 12422 11957 3752 8205 1850 1241 7180 570 1843 3578 8867 6355 1816 741 4539 543 909 1007 654 3374 1787 1194 3302 1423 2752 625 806 1075 934 776 624 983 404 1228 749
is_linear=0
shrinkage=1


Tree=2
num_leaves=63
num_cat=0
split_feature=7 1 6 11 9 1 25 11 39 29 28 2 85 70 47 74 35 16 9 8 20 45 53 60 63 5 25 9 72 7 2 11 8 13 15 19 8 76 39 54 16 60 45 42 35 13 37 28 91 40 37 20 78 12 28 8 74 72 81 52 28 12
split_gain=1379.26 387.201 225.242 204.633 199.284 162.495 156.261 139.782 124.897 102.675 93.6184 94.2071 128.043 137.178 106.881 108.037 83.79 83.1278 82.073 84.0269 80.565 91.671 77.0168 92.1103 74.3324 78.0622 74.2527 98.9787 85.326 73.8659 75.0734 69.0074 65.9483 83.1322 73.4739 65.8076 62.0981 61.9953 61.6814 60.1484 59.4275 56.3645 55.2515 53.8375 53.7389 53.5282 52.9392 60.1139 52.2658 52.0824 51.4515 59.3664 51.2284 49.7988 58.5892 51.4288 48.848 49.7149 48.8147 48.8438 48.7634 63.8043
threshold=0.32165984809398657 1.0000000180025095e-35 0.00045880772813688969 207.50000000000003 4.5000000000000009 1.0000000180025095e-35 30.500000000000004 87.500000000000014 1.0000000180025095e-35 4.2605957984924325 63.917509078979499 101408.80468750001 0.67049431800842296 6.5000000000000009 104587.18750000001 9.5000000000000018 -3.1263939142227168 113.75754165649415 4.5000000000000009 -56.691459655761712 180.82527923583987 91274.992187500015 2.5000000000000004 104231.78125000001 -0.2675695121288299 161.874626159668 33.500000000000007 4.5000000000000009 5.5000000000000009 0.44215194880962377 133156.10156250003 92.500000000000014 -39.487245559692376 108374.23046875001 89219.757812500015 -24.25189113616943 -180.2682189941406 1.5231074094772341 1.0000000180025095e-35 0.53287744522094738 59.773458480834968 88581.609375000015 85994.730468750015 0.13711147755384448 -0.34497155249118799 87821.269531250015 107044.75781250001 57.257137298583991 0.84722775220870983 0.43806381523609167 96058.636718750015 -146.01939392089841 0.51771417260169994 50.160806655883796 10.384637355804445 -73.93310165405272 11.500000000000002 2.5000000000000004 10.500000000000002 0.070453088730573668 -29.311395645141598 60.711566925048835
decision_type=2 2 2 2 2 2 2 2 2 8 2 2 2 2 2 2 2 2 2 2 2 2 2 2 2 2 2 2 2 2 2 2 2 10 2 2 2 2 2 2 2 2 2 2 2 10 2 2 2 2 2 2 2 2 2 2 2 2 2 2 2 2
left_child=2 9 44 7 5 41 32 8 -3 10 11 12 13 45 26 22 -17 39 -5 -20 31 40 23 -16 25 -18 27 58 43 -10 42 -15 33 -6 -34 -25 -24 -11 -7 -12 -22 -4 -31 -29 -1 -2 -39 -48 -44 -36 -33 -52 -49 54 -26 -56 57 -9 -13 -60 61 -37
right_child=1 3 4 18 6 38 -8 56 29 37 17 14 -14 20 15 16 24 -19 19 -21 21 -23 36 35 53 -27 -28 28 -30 30 -32 50 34 -35 49 60 -38 46 -40 -41 -42 -43 48 -45 -46 -47 47 52 -50 -51 51 -53 -54 -55 55 -57 -58 -59 59 -61 -62 -63
leaf_value=-1.4513366986778868 -1.4137262299169528 -1.4598195674830228 -1.3947700959966605 -1.4709236063589399 -1.4167669564975145 -1.4741818875947907 -1.4481943266929056 -1.4326413793408541 -1.4445266015641061 -1.3867735164912425 -1.4249664443351686 -1.4410946979771813 -1.4483024314931969 -1.3567290795510871 -1.3634638787963453 -1.4508003163723096 -1.4271863284643811 -1.3414457638559745 -1.3624493813015597 -1.4573846666676071 -1.4405006137218082 -1.4731391560522316 -1.4755693862464352 -1.3742087899489859 -1.4160241007999266 -1.3297980259151569 -1.4553290370425285 -1.3724189512836587 -1.3207303617212394 -1.4589293158441943 -1.4763075953278921 -1.4222467470829758 -1.3564968448113626 -1.3561813011887758 -1.4361900289276515 -1.4535074240321832 -1.3946654235725029 -1.4503811516604408 -1.4507490435715726 -1.3668220251174008 -1.3405462632351752 -1.445846283133299 -1.3635283890839425 -1.461382051457816 -1.4682254113181161 -1.319052112637928 -1.4339734695277078 -1.339618769005277 -1.4423356956596658 -1.3664165711633571 -1.4608395814526569 -1.3559590971154833 -1.4198101545319406 -1.3816562341448329 -1.357419609340037 -1.4070586816385995 -1.4502789609145588 -1.4130541154653704 -1.4338788477505002 -1.3612717134865462 -1.4279126756779283 -1.3501759230139165
leaf_weight=589.28749233484268 19.009273946285248 685.14854523539543 55.670016556978226 584.12783226370811 151.53106945753098 955.89491844177246 723.43865418434143 518.41005662083626 230.0122147500515 65.717775642871857 124.10340276360512 445.63169351220131 136.32365030050278 53.497528105974197 51.053478598594666 97.218858182430267 30.143277257680893 73.321485221385956 37.203864723443985 61.915920853614807 17.108346551656723 18.466151833534241 25.798300355672836 47.794745922088623 857.58981603384018 65.717775642871857 309.03648215532303 35.574498385190964 37.475425779819489 24.440495073795319 29.328594088554382 486.63741302490234 35.031376272439957 90.701392829418182 412.77280569076538 358.18903335928917 276.72071644663811 403.81129083037376 398.9231918156147 69.519630432128906 108.62442255020142 1693.4547475576401 116.22813212871552 32.315765708684921 2375.072999060154 73.049924165010452 389.41855484247208 33.673570990562439 25.526739299297333 28.513910919427872 17.108346551656723 61.915920853614807 49.152551203966141 179.77341932058334 87.985782265663147 129.80618494749069 151.25950840115547 867.0944530069828 52.13972282409668 41.820402681827545 961.59770062565804 15.4789802134037
leaf_count=2170 70 2523 205 2151 558 3520 2664 1909 847 242 457 1641 502 197 188 358 111 270 137 228 63 68 95 176 3158 242 1138 131 138 90 108 1792 129 334 1520 1319 1019 1487 1469 256 400 6236 428 119 8746 269 1434 124 94 105 63 228 181 662 324 478 557 3193 192 154 3541 57
internal_value=-1.43807 -1.42559 -1.45415 -1.43939 -1.44715 -1.45429 -1.4318 -1.43309 -1.4466 -1.41833 -1.41568 -1.41718 -1.40333 -1.39616 -1.4205 -1.4161 -1.40602 -1.3868 -1.46378 -1.42176 -1.40313 -1.36946 -1.42452 -1.42936 -1.40279 -1.36033 -1.43519 -1.42553 -1.38122 -1.42534 -1.40275 -1.41099 -1.41528 -1.39404 -1.4261 -1.4318 -1.40159 -1.43358 -1.46729 -1.40404 -1.35418 -1.44422 -1.38972 -1.41481 -1.46487 -1.3385 -1.4371 -1.42573 -1.37775 -1.43166 -1.41615 -1.37873 -1.38707 -1.40604 -1.41013 -1.38695 -1.42333 -1.42038 -1.4342 -1.40146 -1.43387 -1.44919
internal_weight=17180.3 9670.02 7510.29 3330.7 4545.93 3103.94 1441.99 2647.45 1110.68 6339.32 5397.55 5130.6 991.741 855.417 4138.86 3184.87 1448.24 266.945 683.248 99.1198 763.358 144.199 1736.63 1434.11 1351.02 95.8611 953.994 644.958 105.366 425.536 195.524 619.159 718.551 242.232 476.318 1383.06 302.519 941.774 1354.82 193.623 125.733 1749.12 166.195 67.8903 2964.36 92.0592 876.056 472.245 141.755 441.287 565.662 79.0243 82.8261 1255.16 1075.38 217.792 1536.76 1385.5 539.592 93.9601 1335.27 373.668
internal_count=63265 35609 27656 12265 16740 11430 5310 9749 4090 23344 19876 18893 3652 3150 15241 11728 5333 983 2516 365 2811 531 6395 5281 4975 353 3513 2375 388 1567 720 2280 2646 892 1754 5093 1114 3468 4989 713 463 6441 612 250 10916 339 3226 1739 522 1625 2083 291 305 4622 3960 802 5659 5102 1987 346 4917 1376
is_linear=0
shrinkage=1


Tree=3
num_leaves=63
num_cat=0
split_feature=3 55 7 12 20 24 14 18 68 23 41 18 45 24 14 46 34 10 19 19 20 12 18 14 42 23 38 53 43 20 37 66 34 2 55 38 41 2 37 44 8 24 8 29 14 47 27 19 17 25 17 19 49 2 22 9 65 2 18 75 68 72
split_gain=374.625 128.419 121.003 111.286 103.104 95.2471 90.8397 94.779 82.6802 80.5845 73.0709 69.7724 106.524 73.4685 69.2513 68.7463 90.3194 70.4802 76.4738 92.9418 76.6412 66.5115 71.0365 65.8732 65.6169 61.2328 74.3032 60.1052 68.157 88.6758 67.3145 58.9577 57.7036 57.434 116.104 91.9637 66.6757 64.8306 64.5518 62.5638 65.381 56.6209 61.039 54.8608 54.3099 58.3222 108.788 72.9766 59.4631 69.7547 61.3727 56.8261 56.1361 57.7828 54.0235 53.4341 70.2108 79.4088 76.5168 74.5258 59.2338 53.3254
threshold=0.00060765640228055428 87435.375000000015 0.10504798963665964 43.886817932128913 118.58980178833009 -70.382453918457017 23.41532135009766 38.245557785034187 25.871993064880375 228.7298278808594 -0.19352833926677701 29.073880195617679 83776.417968750015 6.9732491970062265 8.7325987815856951 78.500000000000014 354.50000000000006 0.34988936781883245 -17.206561088562008 -22.770599365234371 86.215812683105483 34.272663116455085 15.045149326324465 2.7874392271041875 0.21285018324851993 27.184555053710941 1.5000000000000002 1.5000000000000002 103623.11718750001 -110.83104705810545 89490.785156250015 87579.988281250015 104.50000000000001 127794.93359375001 109536.14453125001 6.5000000000000009 1.6940928697586062 129043.66406250001 99538.968750000015 6.5000000000000009 -61.244781494140618 39.717006683349616 -20.943125724792477 -2.8574055433273311 8.2733960151672381 106782.53906250001 98086.527343750015 13.066898345947267 471.48400878906256 104.50000000000001 298.59500122070318 -20.662992477416989 -25.108271598815914 136114.52343750003 107225.20703125001 2.5000000000000004 5.5000000000000009 122784.39453125001 32.153371810913093 58.500000000000007 2.603455781936646 13.500000000000002
decision_type=2 2 2 2 2 2 2 2 2 2 2 2 2 2 2 2 2 2 2 2 2 2 2 2 2 2 2 2 2 2 2 2 2 2 2 2 2 2 2 2 2 2 2 8 2 2 10 2 2 2 2 2 2 2 2 2 2 2 2 2 2 2
left_child=2 9 10 6 15 -5 21 -8 -6 11 -1 12 -2 -14 44 16 17 -4 19 -19 25 24 -23 -12 61 26 41 -27 30 -30 -29 -16 -9 36 37 39 43 -35 -38 40 -36 42 -20 -24 45 46 47 51 50 -50 -47 -7 -52 -54 -41 56 57 59 -58 60 -26 -3
right_child=1 3 4 5 8 14 7 32 -10 -11 23 -13 13 -15 31 -17 -18 18 20 -21 -22 22 33 -25 55 27 -28 28 29 -31 -32 -33 -34 34 35 -37 38 -39 -40 54 -42 -43 -44 -45 -46 48 -48 -49 49 -51 52 -53 53 -55 -56 -57 58 -59 -60 -61 -62 -63
leaf_value=0.074565032980349777 0.075024998277138322 -0.0041353507192490825 0.051062149988012333 0.029953881845823618 0.042609958732532115 0.049531982048969608 0.047558459431430708 -0.047590520565632642 -0.023978751594885592 -0.020959444163520607 0.077820742827091227 0.0019801933520634269 0.035649046059977048 -0.01737390109577942 0.0096729372341154037 -0.0070939379157849598 -0.020838777065219784 0.017983051727276145 0.02399062571821757 -0.027971775210871089 -0.02067296106996841 0.025992498031980282 -0.035565816956689915 0.019483757380646428 0.032843922412158048 -0.0089243838738199705 0.026394129594074167 -0.027549240189374487 0.055050256058643589 -0.0056088975374962774 0.055548474940316783 -0.021251655043713246 0.056034569613714315 -0.041546212474020905 -0.028721945948877114 0.025234264001337187 0.072423007076882803 0.057089275267590736 -0.004090411301876355 0.076896406955770061 0.0037980317629108425 -0.026247768670227784 -0.009680555155379713 -0.0038205035105545087 0.078008717345609047 -0.019256469498896523 0.037110007172357289 0.065698286236206993 -0.02834328559211487 0.071597478770033002 0.072232713370318224 -0.018022384732479576 -0.0052212296771408997 0.071440064378149842 0.0063297761920278672 -0.024536582555877009 0.061534779228273065 -0.026144721388763614 -0.0096343340591706073 0.073969420364999747 -0.014887021197573229 0.028307170454522808
leaf_weight=78.468482315540314 118.34917834401131 4672.5745899677277 104.14343872666359 130.83677199482918 323.31070822477341 33.519835561513901 173.84832748770714 52.522914677858353 54.299479156732559 128.2978113591671 52.173200368881226 263.53625318408012 208.84861159324646 94.831723690032959 165.79975274205208 842.07822924852371 244.44561430811882 182.25457763671875 388.40367704629898 277.02232399582863 169.12641483545303 280.59525269269943 143.56944894790649 667.39593026041985 87.638988971710205 477.49866464734077 1265.4772857427597 29.225512862205505 71.902725964784622 368.57808485627174 142.92342028021812 2139.8446518182755 17.911620408296585 18.510296761989594 334.88539233803749 324.07802939414978 55.038508504629135 156.50305327773094 54.871790140867233 33.945022255182266 286.46963086724281 113.10639697313309 205.62088331580162 2602.1716465950012 19.03345513343811 228.7540944814682 187.31805086135864 31.443006545305252 543.11405271291733 17.919040650129318 38.582369059324265 415.80396458506584 164.47094291448593 28.782489329576492 134.49488520622253 760.16565683484077 72.359370142221451 472.89089539647102 78.622628331184387 35.069049686193466 250.53678861260414 130.05903917551041
leaf_count=220 332 13313 294 369 914 94 488 151 154 365 147 748 589 270 470 2390 695 517 1103 787 480 792 410 1886 248 1355 3580 83 203 1043 404 6128 50 53 954 921 156 445 156 96 814 322 584 7401 53 654 528 88 1553 51 110 1188 470 82 382 2173 205 1349 223 99 712 371
internal_value=-5.8335e-06 -0.00397511 0.010601 -0.005 0.00784666 -0.0120017 -0.00241484 0.0277337 0.0330176 0.0153779 0.0287441 0.0221875 0.0347906 0.0190746 -0.0133711 0.00589802 0.00860753 0.0105059 0.00935894 -0.00972472 0.0120727 -0.00308598 0.00165011 0.0237307 -0.00628154 0.0138831 0.0191393 0.00436647 0.0147336 0.00429181 0.0414042 -0.0190254 -0.0211255 2.78707e-07 0.00876225 0.0028073 -0.00395282 0.0466108 0.0342099 -0.0063909 -0.0137227 0.00614727 0.0123273 -0.00548346 -0.00573803 -0.0066889 0.00479221 -0.00779426 -0.0142015 -0.0251301 -0.000876262 -0.0129618 0.0172385 0.00620162 0.0206176 -0.0145491 -0.00692827 -0.0125371 0.0244591 0.00469242 -0.00249661 -0.00325517
internal_weight=22245.9 16188.4 6057.46 15374.6 5259.42 4145.22 11229.3 244.283 377.61 813.864 798.038 685.566 422.03 303.68 4014.39 4881.81 4039.73 3795.28 3691.14 459.277 3231.86 10985 4425.13 719.569 6559.92 3062.74 1972.61 1090.13 612.63 440.481 172.149 2305.64 70.4345 4144.54 1288.89 1113.87 2855.65 175.013 109.91 789.795 621.355 707.131 594.025 2745.74 1708.74 1689.71 668.085 480.767 1021.62 561.033 460.59 449.324 231.836 193.253 168.44 1757.28 997.118 846.136 150.982 373.245 338.176 4802.63
internal_count=63265 46104 17161 43800 14908 11838 31962 689 1068 2304 2253 1939 1191 859 11469 13840 11450 10755 10461 1304 9157 31273 12580 2033 18693 8677 5589 3088 1733 1246 487 6598 201 11788 3665 3167 8123 498 312 2246 1768 2009 1687 7811 4871 4818 1898 1370 2920 1604 1316 1282 662 552 478 5009 2836 2408 428 1059 960 13684
is_linear=0
shrinkage=0.05


Tree=4
num_leaves=63
num_cat=0
split_feature=4 0 0 0 87 14 13 35 24 33 67 14 40 87 23 59 23 24 35 44 54 87 29 0 31 8 22 74 8 2 22 37 2 18 48 24 35 58 38 68 0 12 7 30 18 18 41 30 23 4 82 37 10 2 4 38 18 14 24 14 37 18
split_gain=276.482 209.994 136.118 124.283 174.28 110.457 117.536 126.958 107.837 106.994 103.492 101.702 99.4 98.1361 89.1074 88.4531 80.9731 97.3479 86.8264 80.8013 79.8463 79.7191 78.8612 113.161 93.0357 88.8311 115.969 78.3459 75.0148 72.1287 72.1084 102.235 91.4369 71.0525 69.998 76.005 69.4074 67.8996 67.8569 67.6903 99.8654 73.5195 65.1061 64.5577 64.7076 125.164 81.8633 64.5275 64.0923 77.7618 64.0325 63.6516 63.3553 61.5869 61.5772 61.37 59.7706 58.7828 58.6314 58.443 58.1562 58.0328
threshold=0.15654242038726809 2.7184690237045293 7.7749173641204843 1.8076130151748659 -0.0025798211572691794 13.493189811706545 118101.75390625001 -0.79479023814201344 -33.795995712280266 295.50000000000006 78.500000000000014 9.4879908561706561 -1.6469368934631345 -0.0014853252796456216 -121.04645538330077 1.0000000180025095e-35 10.184125423431398 58.174509048461921 2.4391572475433354 2.5000000000000004 0.44586890935897833 0.0095180133357644098 0.87833622097969066 3.7574086189270024 9.333041191101076 -91.168529510498033 109674.71875000001 7.5000000000000009 -83.22151947021483 125701.87500000001 85144.664062500015 95789.906250000015 132720.60156250003 46.269260406494148 88.500000000000014 40.931528091430671 1.2980083823204043 2.5000000000000004 6.5000000000000009 -11.191042900085447 2.8980700969696049 63.057834625244148 0.22517599165439608 67.500000000000014 17.604852676391605 24.190770149230961 0.04148050211369992 75.500000000000014 -111.88953399658202 0.11120068654417993 4.5000000000000009 93613.011718750015 0.60068336129188549 136440.07812500003 0.030260527506470684 4.5000000000000009 19.365865707397464 13.272613525390627 0.44364997744560247 8.7748045921325701 91721.300781250015 11.675031185150148
decision_type=2 2 2 2 2 2 8 2 2 2 2 2 2 2 2 2 2 2 2 2 2 2 8 2 2 2 2 2 2 2 2 2 2 2 2 2 2 2 2 2 2 2 2 2 2 2 2 2 2 2 2 2 2 2 2 2 2 2 2 2 2 2
left_child=3 13 12 4 -1 6 8 -8 14 15 11 21 56 -2 -5 39 55 28 -19 -9 -15 53 23 47 -24 -25 52 -26 -18 -21 -16 37 57 -4 43 42 38 -32 -12 40 60 -41 61 -6 -45 -46 54 -14 49 -17 -30 -23 -27 59 -47 -13 -3 -33 -31 -10 -7 -36
right_child=1 2 33 5 34 9 7 19 10 -11 36 16 22 20 30 48 17 18 -20 29 -22 51 24 25 27 26 -28 -29 50 58 31 32 -34 -35 35 -37 -38 -39 -40 41 -42 -43 -44 44 45 46 -48 -49 -50 -51 -52 -53 -54 -55 -56 -57 -58 -59 -60 -61 -62 -63
leaf_value=-0.017189644722682258 -0.033671432070006967 0.058822248484797203 0.056397295191625431 -0.0045417155833318767 -0.012128832676997145 0.045034176888059115 -0.021968290592990266 0.0004015073004403241 0.0029210752948653621 0.060236597756365674 0.049011129492263487 0.010814734524758139 -0.013506701734573549 0.029834162313721813 -0.047597055160586599 -0.048655856053746532 -0.012066967071245278 -0.041050920375863789 0.05523356989588795 0.013492728666044852 -0.016093559434822612 0.025533639445029399 -0.019346775411782174 0.028053762519536746 -0.011036356516131426 0.053788241018958183 0.056178913249016055 0.015823963170120883 0.046183382785011169 0.021050980215839524 0.075004243286933642 0.0086831756688967986 0.052544437628415958 -0.0088149407700542203 -0.039373344345777085 0.056815425153700638 -0.048181593878559963 0.009420789504598636 0.0035138326240561446 -0.0093914179712205736 0.036650607466203348 0.053079349680495769 -0.018360161496152945 0.018563243506305078 -0.0165753354474889 -0.043658606237600997 0.00067089588295164747 0.018864884173386443 -0.026065223973993041 0.074460065726284927 -0.0042003466405627632 -0.018627857790707709 -0.010530372958089186 0.081700319670392929 0.03867739911747875 -0.021042804431941575 -0.034120939875414202 0.071612405965258627 0.051199107849390996 -0.032267289800067711 -0.014162798679409569 0.028184668808277042
leaf_weight=1459.0468679368496 951.48304614424706 18.070462375879288 142.8754902780056 315.02568435668945 790.11629074811935 49.316977292299271 143.71479174494743 227.13994136452675 2201.1811686456203 65.275169163942337 245.31244578957558 459.53735113143921 905.88965678215027 106.28953513503075 32.608395576477051 19.884257614612579 82.028444617986679 91.342320948839188 31.346240520477295 323.94857230782509 852.52917993068695 89.139317750930786 1130.2659582197666 594.35870236158371 600.76100718975067 40.986159086227417 85.220895558595657 495.07933884859085 457.77826184034348 235.90860450267792 160.1781390607357 669.171261459589 175.12611830234528 58.799155503511429 35.031419575214386 107.64762848615646 27.625746339559555 52.640414506196976 123.43339177966118 962.02362963557243 279.33924433588982 49.403774678707123 140.48155081272125 598.32650470733643 700.93395295739174 24.505754351615906 598.72451660037041 185.25147485733032 551.8040754199028 35.595935791730881 72.906781256198883 943.65118390321732 558.86570262908936 23.807075351476669 289.01267641782761 225.15097334980965 349.93701273202896 39.226658225059509 515.69023832678795 124.57202926278114 258.03488570451736 329.8275848031044
leaf_count=4102 2690 51 396 884 2222 139 404 637 6183 182 686 1288 2550 299 92 56 231 257 88 909 2402 250 3186 1668 1691 115 239 1392 1281 659 447 1877 489 166 99 302 78 147 347 2705 782 138 395 1679 1973 69 1682 520 1556 100 205 2655 1574 67 811 633 991 109 1440 350 726 924
internal_value=5.42994e-05 -0.00812878 -0.00289008 0.0038068 -0.00260396 0.00694689 0.00968237 0.0225996 0.00686871 -0.0027959 0.00350994 0.00148187 -0.00452703 -0.0222932 0.0189569 -0.00466644 0.0127115 0.0242308 -0.0163851 0.0275216 -0.0109945 -0.00323167 -0.00252372 0.0038211 -0.00928241 0.0139105 0.00163035 0.00109439 0.0323731 0.0332437 0.0255183 0.0277016 0.0201951 0.0373646 0.00328253 0.018678 0.0280629 0.0588178 0.0338001 0.0015036 0.0150158 -0.00633011 0.0105345 0.000136284 0.00452092 -0.000685097 0.0115194 -0.00800492 -0.0209092 0.0302369 0.0392526 -0.0148094 -0.0061191 0.0018558 0.0322139 0.000329947 -0.0295288 0.0121845 0.0417471 0.00103286 -0.00463637 0.0216755
internal_weight=22510.2 7076.66 5166.36 15433.5 5073.65 10359.9 8089.19 1446.4 6642.79 2270.68 5198.81 4802.44 4964.69 1910.3 1443.98 2205.4 1420.09 735.402 122.689 1302.69 958.819 3382.35 4596.68 2370.57 2226.11 1279.43 685.073 1095.84 612.713 1075.55 1128.95 1096.34 883.524 201.675 3614.61 612.988 396.372 212.819 368.746 1598.12 586.691 1011.43 505.341 3001.62 2211.5 1613.18 912.243 1091.14 607.284 55.4802 530.685 1032.79 599.852 2349.56 313.518 684.688 368.007 708.398 751.599 2325.75 307.352 364.859
internal_count=63265 19930 14539 43335 14258 29077 22693 4049 18644 6384 14599 13488 13977 5391 4045 6202 3983 2062 345 3645 2701 9505 12935 6666 6269 3596 1928 3083 1717 3008 3161 3069 2475 562 10156 1720 1111 594 1033 4490 1647 2843 1418 8436 6214 4535 2562 3070 1712 156 1486 2905 1689 6600 880 1921 1042 1986 2099 6533 865 1023
is_linear=0
shrinkage=0.05


Tree=5
num_leaves=63
num_cat=0
split_feature=3 1 11 0 0 6 3 17 9 64 6 9 33 25 9 0 3 27 2 22 36 6 0 19 44 8 4 20 32 74 24 22 13 25 0 44 23 2 54 13 34 68 42 5 0 12 44 17 38 8 19 21 96 68 12 25 81 19 8 21 6 17
split_gain=1253.54 463.534 280.229 258.268 219.637 204.266 160.799 144.005 121.596 114.535 174.811 104.673 100.042 109.28 97.2042 95.1737 94.9712 92.624 136.06 92.3574 88.357 88.1672 162.766 81.243 75.7483 74.4432 70.8947 70.3444 69.5848 67.1459 73.4552 76.8774 66.9347 66.7341 68.1496 62.6214 61.6353 60.4071 67.3932 59.2257 58.468 57.9876 57.4412 56.9671 99.5973 56.1667 69.7043 55.4188 58.7451 54.0923 83.3967 54.7625 52.5487 52.1875 51.267 49.5826 50.0012 48.0309 64.8353 47.8538 117.707 46.6874
threshold=0.00063601479632779967 1.0000000180025095e-35 207.50000000000003 2.3188805580139165 2.5697560310363774 0.00091533537488430749 0.0011416702764108779 560.93722534179699 5.5000000000000009 1.0000000180025095e-35 0.00099708524066954873 4.5000000000000009 32.500000000000007 40.500000000000007 4.5000000000000009 1.350742042064667 0.0012928647920489313 109176.01171875001 101408.80468750001 101312.45312500001 69.500000000000014 0.00029466520936694002 1.1087514162063601 17.386589050292972 8.5000000000000018 -56.691459655761712 0.077970433980226531 18.216983795166019 -2.0578237771987911 9.5000000000000018 32.763235092163093 117209.50000000001 109529.56250000001 8.5000000000000018 5.111314296722413 3.5000000000000004 159.38545227050784 92726.898437500015 0.57024163007736217 91144.570312500015 739.50000000000011 -10.32844829559326 0.91840410232543956 77.762798309326186 1.5160563588142397 64.649642944335952 6.5000000000000009 496.52714538574224 7.5000000000000009 -79.574905395507798 -14.579610824584959 40.500000000000007 12.521659374237062 76.953086853027358 39.15960884094239 77.500000000000014 6.5000000000000009 -14.579610824584959 -29.034661293029782 602.50000000000011 0.00085119626601226639 727.26684570312511
decision_type=2 2 2 2 2 2 2 2 2 2 2 2 2 2 2 2 2 10 2 2 2 2 2 2 2 2 2 2 2 2 2 2 10 2 2 2 2 2 2 8 2 2 2 2 2 2 2 2 2 2 2 2 2 2 2 2 2 2 2 2 2 2
left_child=21 3 4 5 7 8 37 11 15 10 -6 16 -7 -14 -4 57 36 18 20 -13 24 -1 26 27 -8 -16 -23 40 -12 30 -19 61 -11 34 -30 -15 55 39 59 52 45 -28 -34 -24 -45 46 -20 48 -37 50 -17 -52 -5 -35 -21 56 -3 -2 -59 -39 -61 -32
right_child=1 2 14 6 9 12 17 -9 -10 32 28 19 13 35 25 49 -18 29 23 54 -22 22 43 -25 -26 -27 41 -29 33 -31 31 -33 42 53 -36 47 -38 38 -40 -41 -42 -43 -44 44 -46 -47 -48 -49 -50 -51 51 -53 -54 -55 -56 -57 -58 58 -60 60 -62 -63
leaf_value=-0.034917494499221706 0.0099424966511278291 -0.019903433958005756 -0.034674794860511775 0.0855182383491358 -0.013878028691400125 0.027454636464776888 0.0548846651240446 0.059994410091870926 -0.014341932721675991 -0.02993249894378985 0.10477599769130458 0.060642474098752744 0.080771064999770617 -0.0085695745121206861 0.06233103065603153 0.12069525019400487 0.034260639487944618 -0.002395226427936669 0.016361024720095721 -0.013512306972386491 0.0096036584496073697 -0.0012660709642613838 -0.028515200976804957 0.083254875354860106 -0.028416261459209693 -0.012817255788795731 -0.016391869406419856 -0.0097633818777048235 0.082083943737999029 0.049207131531537579 0.033624656095452961 -0.041470758318068159 -0.0076879419854056627 0.0026575219018793034 0.0046748889760108913 -0.018611157682651237 0.088036485664007652 -0.0065455908795241232 0.017714202434157625 -0.0045773172255666374 0.094262778785770607 0.07606715522727038 0.079948478100368994 0.022554649214676255 -0.019487404416276072 0.097641052601137743 -0.020710763868330311 0.08749705104382173 0.10216266330318553 0.016013917562561254 0.075146742332646926 0.0073695059380418622 0.00055423118102041575 0.08924697564314657 0.038295754267615278 0.05974155664978173 0.020284076994950322 0.093900640538343835 0.018778599097834171 -0.020664615102532737 0.12553882274432712 0.091756246497640997
leaf_weight=925.40629240870476 39.794930189847946 478.32654076814651 833.93248453736305 57.924974024295807 570.22813233733177 307.47292044758797 332.94695454835892 178.83364260196686 231.44518628716469 628.00934273004532 28.086817979812622 171.09234297275543 325.75173464417458 62.349728733301163 44.384801387786865 30.827650994062424 171.99966469407082 195.74238088726997 570.08729022741318 104.51464581489563 254.54156923294067 585.32113546133041 1756.0111065208912 31.672164410352707 29.583766907453537 126.89080235362053 23.971701771020889 646.28562805056572 77.545213937759399 347.3552086353302 91.315690696239471 23.409278184175491 339.10041731595993 241.46724280714989 45.103376984596252 35.629465699195862 16.222211837768555 1921.3083165287971 382.49852424860001 64.954536467790604 21.225375354290009 56.950936883687973 19.684733271598816 154.66919231414795 1559.3187623918056 17.863131701946259 162.86923912167549 57.959834188222885 13.901814222335814 1144.8522903323174 44.285790681838989 91.384911745786667 26.688966482877731 18.666905134916306 87.635479390621185 24.031566172838211 92.135551065206528 100.27337864041328 40.570099949836731 32.974688917398453 23.449250757694244 56.081777065992355
leaf_count=3482 145 1768 3135 205 2111 1113 1199 651 851 2322 101 624 1168 227 158 111 628 718 2083 385 925 2183 6569 114 108 470 88 2369 280 1251 331 85 1251 881 164 129 60 7033 1392 237 77 207 72 571 5804 64 598 208 50 4187 159 332 96 68 322 88 340 363 148 122 84 200
internal_value=-6.3313e-05 0.00866708 -0.004522 0.015919 0.00253108 0.0290713 0.00963698 0.0182704 0.0193598 -0.00806253 0.00403066 0.0117501 0.0499014 0.0638093 -0.0276281 0.0245918 0.00144789 0.0179176 0.0125501 0.033929 0.0322133 -0.0209605 -0.0178358 0.00417697 0.0480673 0.0066527 0.00479323 0.00240184 0.0288949 0.0334481 0.0184913 0.0424436 -0.0200902 0.0232881 0.0536849 0.0312191 -0.00778927 0.000459305 -0.00149193 0.0312642 0.0125919 0.0486299 -0.0028449 -0.0221821 -0.0156895 0.0102642 0.00811483 0.0543313 0.0153229 0.019896 0.0465339 0.0295693 0.0588102 0.00892219 0.0100978 -0.0104269 -0.0134016 0.0586234 0.0723258 -0.00520969 0.0401223 0.0558237
internal_weight=17176.8 12115.2 4297.89 7817.28 3292.68 2526.5 5290.78 1324.79 1723.43 1967.89 981.098 1145.96 803.065 495.593 1005.21 1491.99 782.716 2780.98 2067.08 363.242 617.072 5061.65 4136.24 1450 362.531 171.276 666.244 1418.33 410.87 713.904 366.549 170.807 986.794 382.783 122.649 169.841 610.716 2509.8 2360.23 149.568 772.045 80.9226 358.785 3470 1713.99 750.82 732.957 107.491 49.5313 1311.35 166.498 135.671 84.6139 260.134 192.15 594.494 570.462 180.638 140.843 1977.73 56.4239 147.397
internal_count=63265 44361 15879 28482 12116 9191 19291 4866 6296 7250 3605 4215 2895 1782 3763 5445 2884 10122 7537 1331 2232 18904 15422 5305 1307 628 2478 5191 1494 2585 1334 616 3645 1393 444 614 2256 9169 8631 538 2822 295 1323 12944 6375 2745 2681 387 179 4789 602 491 301 949 707 2196 2108 656 511 7239 206 531
is_linear=0
shrinkage=0.05


end of trees

feature_importances:
session_range_pct=18
macd_hist_min_50=17
ad_line=15
wt_last_ob_depth=15
adx_1h=15
vfi_1h=15
adx_peak_50=13
wt2_1h=13
wt_last_os_depth=11
squeeze_momentum_at_fire=11
day_of_week=10
macd_hist_1h=10
squeeze_duration_last=9
pivot_S3=8
pivot_R3=8
realized_vol_20=6
parkinson_vol=6
vwap_daily=6
macd_hist_max_50=6
pivot_times_tested_today=6
ema50_1h_dist_pct=6
atr_pct=5
kc_width=5
minutes_into_session=5
vwap_upper_band=5
squeeze_mom_peak_since_fire=5
adx_bars_since_weak=5
rsi_bars_since_ob=5
squeeze_count_200=5
macd_hist_1h_direction=5
session_london=4
atr_14=4
wt1_1h=4
vwap_band_position=4
ema21_1h_dist_pct=4
bars_since_volume_spike=4
hurst_exponent=4
lower_lows_count_20=4
vwap_slope=4
wt_bars_since_ob_exit=3
rsi_bars_since_os=3
vwap_dist_pct=3
ema9_1h_dist_pct=3
pivot_P=3
pivot_S2=3
pivot_R1=3
autocorrelation_5=3
stoch_bars_in_ob=3
bars_since_squeeze_release=3
vwap_lower_band=2
session_tokyo=2
pivot_R2=2
rsi_ob_count_100=2
vwap_session=2
nearest_pivot_type=2
pivot_S1=2
adx_bars_since_trend=2
stoch_bars_in_os=2
vfi_signal=1
vfi_1h_direction=1
atr_percentile=1
pivot_touch_count_today=1
vfi=1
divergence_freshness=1
kama_dist_pct=1
rsi_os_count_100=1
overlap_sydney_tokyo=1
session_new_york=1
adx=1
higher_highs_count_20=1
price_entropy=1
mean_reversion_score=1
pivot_zone=1
dist_to_nearest_pivot_pct=1
zscore_50=1
return_60bar=1
stoch_last_extreme_depth=1

parameters:
[boosting: gbdt]
[objective: multiclass]
[metric: multi_logloss]
[tree_learner: serial]
[device_type: cpu]
[data_sample_strategy: bagging]
[data: ]
[valid: ]
[num_iterations: 1000]
[learning_rate: 0.05]
[num_leaves: 63]
[num_threads: -1]
[seed: 42]
[deterministic: 0]
[force_col_wise: 0]
[force_row_wise: 0]
[histogram_pool_size: -1]
[max_depth: -1]
[min_data_in_leaf: 50]
[min_sum_hessian_in_leaf: 0.001]
[bagging_fraction: 0.8]
[pos_bagging_fraction: 1]
[neg_bagging_fraction: 1]
[bagging_freq: 5]
[bagging_seed: 400]
[bagging_by_query: 0]
[feature_fraction: 0.8]
[feature_fraction_bynode: 1]
[feature_fraction_seed: 30056]
[extra_trees: 0]
[extra_seed: 12879]
[early_stopping_round: 0]
[early_stopping_min_delta: 0]
[first_metric_only: 0]
[max_delta_step: 0]
[lambda_l1: 0.1]
[lambda_l2: 0.1]
[linear_lambda: 0]
[min_gain_to_split: 0]
[drop_rate: 0.1]
[max_drop: 50]
[skip_drop: 0.5]
[xgboost_dart_mode: 0]
[uniform_drop: 0]
[drop_seed: 17869]
[top_rate: 0.2]
[other_rate: 0.1]
[min_data_per_group: 100]
[max_cat_threshold: 32]
[cat_l2: 10]
[cat_smooth: 10]
[max_cat_to_onehot: 4]
[top_k: 20]
[monotone_constraints: ]
[monotone_constraints_method: basic]
[monotone_penalty: 0]
[feature_contri: ]
[forcedsplits_filename: ]
[refit_decay_rate: 0.9]
[cegb_tradeoff: 1]
[cegb_penalty_split: 0]
[cegb_penalty_feature_lazy: ]
[cegb_penalty_feature_coupled: ]
[path_smooth: 0]
[interaction_constraints: ]
[verbosity: -1]
[saved_feature_importance_type: 0]
[use_quantized_grad: 0]
[num_grad_quant_bins: 4]
[quant_train_renew_leaf: 0]
[stochastic_rounding: 1]
[linear_tree: 0]
[max_bin: 255]
[max_bin_by_feature: ]
[min_data_in_bin: 3]
[bin_construct_sample_cnt: 200000]
[data_random_seed: 175]
[is_enable_sparse: 1]
[enable_bundle: 1]
[use_missing: 1]
[zero_as_missing: 0]
[feature_pre_filter: 1]
[pre_partition: 0]
[two_round: 0]
[header: 0]
[label_column: ]
[weight_column: ]
[group_column: ]
[ignore_column: ]
[categorical_feature: ]
[forcedbins_filename: ]
[precise_float_parser: 0]
[parser_config_file: ]
[objective_seed: 16083]
[num_class: 3]
[is_unbalance: 0]
[scale_pos_weight: 1]
[sigmoid: 1]
[boost_from_average: 1]
[reg_sqrt: 0]
[alpha: 0.9]
[fair_c: 1]
[poisson_max_delta_step: 0.7]
[tweedie_variance_power: 1.5]
[lambdarank_truncation_level: 30]
[lambdarank_norm: 1]
[label_gain: ]
[lambdarank_position_bias_regularization: 0]
[eval_at: ]
[multi_error_top_k: 1]
[auc_mu_weights: ]
[num_machines: 1]
[local_listen_port: 12400]
[time_out: 120]
[machine_list_filename: ]
[machines: ]
[gpu_platform_id: -1]
[gpu_device_id: -1]
[gpu_use_dp: 0]
[num_gpu: 1]

end of parameters

pandas_categorical:null
