tree
version=v4
num_class=3
num_tree_per_iteration=3
label_index=0
max_feature_idx=119
objective=multiclass num_class:3
feature_names=session_range_pct session_london realized_vol_20 ad_line kc_width atr_pct atr_14 day_of_week parkinson_vol macd_hist_min_50 wt_last_os_depth adx_peak_50 vwap_upper_band wt_last_ob_depth macd_hist_max_50 wt_bars_since_ob_exit squeeze_mom_peak_since_fire minutes_into_session vfi_1h vwap_daily vfi_1h_direction adx_1h atr_percentile vwap_band_position adx_bars_since_weak minutes_to_session_close pivot_S3 pivot_times_tested_today squeeze_momentum_at_fire wt1_1h macd_hist_1h wt2_1h vwap_lower_band rsi_bars_since_ob vfi_signal bars_since_volume_spike rsi_bars_since_os bb_width wt_bars_since_os_exit pivot_R2 squeeze_duration_last vwap_session pivot_R3 ema21_1h_dist_pct session_sydney vwap_dist_pct ema50_1h_dist_pct pivot_touch_count_today ema9_1h_dist_pct session_tokyo overlap_sydney_tokyo vfi pivot_P squeeze_count_200 autocorrelation_5 vwap_session_dist_pct pivot_S1 pivot_R1 divergence_freshness overlap_london_ny rsi_os_count_100 pivot_S2 stoch_bars_in_ob hurst_exponent session_new_york swing_range_pct adx_bars_since_trend macd_hist_1h_direction active_session_count higher_highs_count_20 rsi_ob_count_100 autocorrelation_1 dist_to_nearest_pivot_pct swing_low_dist_pct stoch_bars_since_green adx lower_lows_count_20 volume_ratio kama_dist_pct bars_since_pivot_touch cloud_dist_pct stoch_red_count_50 nearest_pivot_type stoch_bars_in_os price_entropy wt_ob_count_100 bars_since_squeeze_release return_60bar rsi_time_above_50_pct swing_high_dist_pct macd_bars_since_zero_cross stoch_last_extreme_depth regime_quiet vwap_slope pivot_zone bars_since_new_low_20 macd_signal_5min stoch_bars_since_red vfi_range_pct ema50_dist_pct di_bars_since_cross volume_trend cci_20 di_minus stoch_green_count_50 macd_bars_since_bear_cross rsi_bars_since_50_cross cum_delta_20 wt_os_count_100 atr_ratio adx_direction mfi_14 stoch_recovery_speed zscore_50 rsi_bb_upper mean_reversion_score bb_width_percentile overlap_tokyo_london squeeze_bars_since_fire bars_since_new_high_20
feature_infos=[0.61513602733612061:13.782705307006836] [0:1] [8.5863313870504498e-05:0.01085265725851059] [157.67788696289062:137852.203125] [0.019226456061005592:4.4757275581359863] [0.0087995817884802818:1.4340786933898926] [9.445429801940918:1476.5750732421875] [0:6] [5.5937041906872764e-05:0.012363499961793423] [-495.83294677734375:6.8511152267456055] [0.0019368119537830353:35.125026702880859] [12.362148284912109:73.06451416015625] [67695.2109375:121917.0078125] [0.016868563368916512:40.3931884765625] [-14.943637847900391:632.06256103515625] [0:985] [0.22924642264842987:3925.673095703125] [0:475] [-36.331676483154297:50.899063110351562] [67610.8671875:121461.6328125] [-3.8724021911621094:4.6830606460571289] [7.1107816696166992:72.359542846679688] [1:100] [-10.869976997375488:19.797540664672852] [0:602] [65:540] [65396.671875:116649.8515625] [0:231] [-808.6749267578125:841.523681640625] [-88.182548522949219:87.342460632324219] [-947.87347412109375:884.88946533203125] [-87.192070007324219:85.882904052734375] [67466.7421875:121319.9765625] [0:814] [-46.404373168945312:50.382484436035156] [0:402] [0:793] [0.045124556869268417:10.448933601379395] [0:959] [68607.7890625:123320.109375] [1:42] [67610.8671875:121461.6328125] [69116.6328125:124967.609375] [-5.9296054840087891:7.4919681549072266] [0:1] [-7.352180004119873:6.1316432952880859] [-8.2414636611938477:8.6802473068237305] [0:231] [-4.4246482849121094:5.9312829971313477] [0:1] [0:1] [-48.335681915283203:52.423240661621094] [67784.5859375:120654.7890625] [0:13] [-0.58241415023803711:0.53519302606582642] [-7.352180004119873:6.1316432952880859] [67043.640625:119007.2890625] [68293.4296875:122302.28125] [0:243] [0:1] [0:9] [66414.703125:117989.4609375] [1:36] [0.35013970732688904:0.68065643310546875] [0:1] [-1.751104474067688:9.0835409164428711] [0:302] [-288.9520263671875:402.79330444335938] [1:2] [2:15] [0:11] [-0.57669013738632202:0.72736251354217529] [1.1113543223473243e-06:6.9740653038024902] [-5.5719184875488281:6.6317267417907715] [0:308] [6.1424469947814941:73.06451416015625] [2:16] [0.069346137344837189:14.702263832092285] [-3.3939468860626221:3.0870776176452637] [0:514] [-6.2957077026367188:8.782374382019043] [0:9] [0:6] [1:31] [0.69400840997695923:2.2854504585266113] [0:8] [0:470] [-7.0950827598571777:10.327567100524902] [0:100] [-7.2437162399291992:5.3780994415283203] [0:198] [0.0012195887975394726:20] [0:1] [-4.3043098449707031:5.5539603233337402] [-1:5] [0:191] [-956.9478759765625:1543.36962890625] [0:230] [0:1] [-5.4954562187194824:5.7993402481079102] [0:157] [0.12778177857398987:3.5129265785217285] [-541.32763671875:604.05126953125] [1.9401545524597168:75.661544799804688] [0:8] [0:115] [0:108] [-5102.24755859375:8467.4931640625] [0:7] [0.26560011506080627:2.098527193069458] [-4.3973045349121094:4.4786677360534668] [0:99.512687683105469] [0:22] [-6.1887545585632324:6.410283088684082] [21.979825973510742:110.67617797851562] [-3:3] [1:100] [0:1] [0:470] [0:188]
tree_sizes=3493 3532 3464 3624 3637 3612 3613 3634 3576 3628 3620 3600 3600 3633 3583 3626 3634 3598 3608 3631 3595 3626 3635 3584 3611 3629 3591 3614 3625 3604 3625 3612 3610 3622 3615 3625 3636 3615 3616 3625 3644 3615 3622 3612 3608 3628 3621 3595 3610 3635 3606 3627 3631 3589 3633 3655 3610 3591 3626 3599 3610 3613 3596 3614 3610 3609 3628 3621 3618 3606 3607 3604 3612 3624 3608 3614 3624 3629 3638 3639 3596 3607 3617 3603 3596 3636 3583 3622 3618 3622 3629 3601 3594 3597 3621 3607 3616 3606 3600 3628 3594 3615 3635 3607 3601 3617 3650 3608 3628 3630 3613 3650 3614 3603 3612 3643 3631 3629 3626 3630 3623 3623 3598 3625 3646 3624 3606 3621 3635 3615 3619 3627 3639 3625 3620 3629 3626 3634 3610 3609 3628 3601 3614 3627 3602 3626 3599 3628 3624 3597 3623 3648 3616 3620 3640 3622 3627 3616 3623 3622 3624 3617 3627 3608 3616 3616 3629 3618 3629 3626 3628 3620 3604 3623 3641 3633 3599 3606 3622 3613 3604 3618 3623 3615 3648 3619 3623 3613 3597 3631 3648 3593 3630 3599 3615 3613 3604 3617 3630 3621 3616 3632 3613 3614 3612 3635 3633 3624 3634 3607 3635 3629 3594 3626 3622 3609 3617 3640 3589 3622 3635 3603 3622 3632 3618 3636 3622 3617 3627 3627 3610 3610 3613 3617 3612 3629 3611 3628 3607 3608 3617 3632 3641 3621 3617 3630 3618 3635 3609 3636 3604 3599 3635 3597 3622 3620 3618 3612 3605 3622 3604 3624 3623 3611 3622 3617 3616 3615 3600 3619 3654 3626 3611 3599 3618 3616 3616 3621 3612 3623 3605 3612 3634 3608 3621 3626 3633 3582 3642 3618 3626 3596 3628 3610 3619 3632 3599 3624 3597 3624 3636 3627 3629 3613 3620 3614 3629 3611 3625 3627 3632 3610 3623 3624 3624 3605 3602 3601 3628 3616 3608 3603 3618 3620 3615 3629 3616 3646 3622 3646 3612 3627 3601 3625 3602 3594 3606 3613 3646 3632 3646 3629 3626 3659 3615 3642 3610 3625 3599 3618 3629 3613 3620 3634 3614 3634 3622 3648 3625 3629 3627 3635 3626 3616 3614 3616 3613 3628 3627 3592 3631 3627 3602 3613 3608 3652 3617 3617 3598 3635 3626 3635 3645 3610 3619 3592 3614 3644 3637 3622 3628 3619 3601 3627 3636 3635 3614 3631 3631 3619 3624 3617 3602 3641 3600 3619 3595 3592 3625 3609 3633 3614 3617 3628 3628 3619 3624 3610 3611 3605 3606 3630 3627 3616 3619 3605 3621 3622 3626 3634 3613 3629 3611 3627 3613 3636 3619 3609 3613 3641 3614 3608 3628 3623 3613 3644 3611 3629 3646 3622 3607 3606 3606 3602 3630 3594 3587 3609 3616 3599 3577 3609 3573 3616 3611 3611 3593 3619 3612 3600 3632 3642 3603 3612 3626 3617 3606 3629 3585 3614 3622 3591 3620 3612 3639 3622 3611 3645 3620 3608 3621 3615 3629 3597 3608

Tree=0
num_leaves=32
num_cat=0
split_feature=41 61 39 27 31 33 11 42 52 66 6 66 38 66 42 9 58 61 39 27 35 42 61 41 90 6 63 30 30 9 13
split_gain=119.739 164.474 96.8669 84.3449 80.9046 95.9983 79.8082 79.6571 64.9292 56.8397 59.6879 55.1031 53.101 72.1819 78.5092 68.1067 63.8637 58.9843 55.4617 78.5703 51.5127 50.4547 77.5636 72.9222 55.2964 47.4475 46.5887 53.5495 51.8734 45.8894 43.4498
threshold=83046.550781250015 74841.062500000015 69719.500000000015 21.500000000000004 57.772855758666999 268.50000000000006 40.035282135009773 85147.808593750015 118657.73828125001 88.500000000000014 131.86763763427737 21.500000000000004 419.50000000000006 12.500000000000002 89433.679687500015 -15.411790847778319 146.50000000000003 116459.22656250001 112736.98437500001 7.5000000000000009 321.50000000000006 109268.50781250001 103843.56250000001 104933.89843750001 78.500000000000014 68.549892425537124 0.47838114202022558 1.0000000180025095e-35 404.14056396484381 -37.57600021362304 29.810904502868656
decision_type=2 10 8 2 10 2 2 10 10 2 2 2 2 2 10 2 2 10 10 2 2 10 10 2 2 2 2 10 10 2 2
left_child=1 2 6 11 5 -5 -1 -2 12 -4 -11 -3 13 21 -15 16 17 20 29 -20 26 22 23 30 -24 -23 27 -16 -28 -14 -9
right_child=7 3 9 4 -6 -7 -8 8 -10 10 -12 -13 18 14 15 -17 -18 -19 19 -21 -22 25 24 -25 -26 -27 28 -29 -30 -31 -32
leaf_value=-0.97979398853639088 -0.98743605488745267 -0.99903747947446642 -1.0225535742004226 -1.0224985066361643 -0.96731098442723507 -0.97965298776723841 -1.0261632302957526 -1.015995241895175 -1.029102205086776 -1.0164154550214894 -0.97018124545509565 -0.98025447890392714 -1.0269909055119419 -1.0209815891090719 -1.0104071628859144 -1.0305977106608446 -1.0300489786273928 -0.99317798340247943 -0.97803209407808056 -1.0261390636183296 -0.97201716415712092 -1.0057491457462573 -1.0021195590041529 -1.0326150069063276 -1.0375266832877958 -1.0223683263335195 -1.0095628591522523 -1.0220567389734121 -1.039328624778844 -1.0153267200243328 -0.98573579453884297
leaf_weight=89.079630315303802 76.254936456680298 489.76466006040573 716.44978934526443 253.37435704469681 28.422294497489929 46.792801916599274 40.900375008583069 6017.2077131271362 264.46598416566849 57.537815690040588 33.274881362915039 155.62939304113388 697.73266857862473 764.97565799951553 611.77255839109421 138.99195235967636 131.36645871400833 142.11147248744965 52.338615477085114 50.258935391902924 25.302774369716644 142.11147248744965 437.42604458332062 201.72896826267242 36.047788143157959 1495.2899812459946 3955.5515220165253 581.61719715595245 44.713121831417084 401.72486978769302 36.047788143157959
leaf_count=257 220 1413 2067 731 82 135 118 17360 763 166 96 449 2013 2207 1765 401 379 410 151 145 73 410 1262 582 104 4314 11412 1678 129 1159 104
internal_value=-1.0147 -1.00819 -1.01641 -1.00028 -1.01162 -1.01582 -0.994388 -1.01546 -1.01559 -1.01996 -0.999472 -0.994506 -1.01537 -1.01492 -1.01272 -1.0116 -1.01112 -1.01065 -1.02093 -1.0016 -1.01113 -1.0166 -1.01554 -1.01636 -1.00482 -1.02093 -1.01132 -1.01608 -1.0099 -1.02273 -1.01581
internal_weight=18216.3 1911.23 937.242 973.984 328.589 300.167 129.98 16305 16228.8 807.262 90.8127 645.394 15964.3 14762.3 6396.4 5631.43 5492.44 5361.07 1202.06 102.598 5218.96 8365.86 6728.46 6254.98 473.474 1637.4 5193.65 1193.39 4000.26 1099.46 6053.26
internal_count=52555 5514 2704 2810 948 866 375 47041 46821 2329 262 1862 46058 42590 18454 16247 15846 15467 3468 296 15057 24136 19412 18046 1366 4724 14984 3443 11541 3172 17464
is_linear=0
shrinkage=1


Tree=1
num_leaves=32
num_cat=0
split_feature=2 41 28 14 29 21 34 0 10 42 94 88 38 10 0 81 0 21 0 45 111 63 26 0 10 36 0 48 36 46 10
split_gain=295.332 85.3334 74.3986 68.7193 67.3124 66.8743 64.5967 109.176 78.3328 71.2296 65.912 64.1722 66.2211 63.5856 85.5049 87.4915 64.4491 62.1981 61.956 94.9364 69.5531 60.0733 58.5466 115.651 76.7068 78.7836 57.9277 55.828 52.8163 58.4328 52.0585
threshold=0.001000570831820369 118111.41796875001 29.319952011108402 222.03117370605472 71.375667572021499 45.381620407104499 -5.9310696125030509 5.2634668350219735 4.4109272956848153 109225.82031250001 1.5000000000000002 85.000000000000014 400.50000000000006 3.467071652412415 1.9307440519332888 2.5000000000000004 7.8803176879882821 48.477252960205085 3.0762277841567998 -0.6308738887310027 53.750467300415046 0.4770397692918778 93831.625000000015 4.7953896522521982 15.67825222015381 178.50000000000003 4.4363276958465585 1.0326226949691775 254.50000000000003 -2.8324800729751582 2.9507274627685551
decision_type=2 2 2 2 8 10 10 2 2 10 2 2 2 2 2 2 2 10 2 2 10 2 10 2 2 2 2 2 2 10 2
left_child=1 4 6 5 13 11 7 8 -2 27 -10 12 22 14 15 30 18 -9 21 -20 -21 -15 -4 -24 25 -25 -11 -8 29 -7 -1
right_child=2 -3 3 -5 -6 28 9 17 10 26 -12 -13 -14 16 -16 -17 -18 -19 19 20 -22 -23 23 24 -26 -27 -28 -29 -30 -31 -32
leaf_value=-0.75042463120846226 -0.73709667638470999 -0.72573246976637706 -0.74926971513274443 -0.76178352899592239 -0.7594885796048596 -0.73986139259206485 -0.75354333937269857 -0.73224997115002077 -0.76014044848917894 -0.74582830152477686 -0.74631195193327826 -0.7360072034466536 -0.72612152744257674 -0.73317195852005124 -0.73038221197426589 -0.72757904500317694 -0.71493973974112923 -0.75592348068123272 -0.72264603567423769 -0.74106393680686844 -0.75096717816166003 -0.74063742280805078 -0.74624552758608043 -0.71572552336134065 -0.76092991270250721 -0.76509054924391262 -0.72384659599204204 -0.74189927804631861 -0.74865562173399169 -0.71730471411029373 -0.73201321862235835
leaf_weight=539.88349583745003 337.84809198975563 352.43953782320023 1826.1755670011044 144.41789978742599 125.71091794967651 156.76450780034065 2439.3904316425323 621.82007628679276 459.06933429837227 428.38988408446312 602.36481517553329 677.19274252653122 130.20059359073639 1048.7134018242359 1236.9056391119957 253.66667371988297 73.705508440732956 96.902165919542313 141.05064305663109 1091.3653204143047 1052.8289378285408 3648.6097376346588 947.32156026363373 229.34759733080864 42.277778953313828 27.312193483114243 114.86086848378181 356.55507382750511 117.47984594106674 194.5526111125946 147.7851565182209
leaf_count=1443 903 942 4881 386 336 419 6520 1662 1227 1145 1610 1810 348 2803 3306 678 197 259 377 2917 2814 9752 2532 613 113 73 307 953 314 520 395
internal_value=-0.742421 -0.739011 -0.74575 -0.74313 -0.739511 -0.74251 -0.747906 -0.744151 -0.748624 -0.750288 -0.752294 -0.743695 -0.745321 -0.739239 -0.735134 -0.741377 -0.740507 -0.735443 -0.740777 -0.744489 -0.745926 -0.738971 -0.746135 -0.741542 -0.726635 -0.720982 -0.741181 -0.752058 -0.732703 -0.727368 -0.746467
internal_weight=19662.9 9712.66 9950.24 4493.04 9360.23 4348.62 5457.2 2118 1399.28 3339.2 1061.43 3879.83 3202.64 9234.51 2178.24 941.335 7056.27 718.722 6982.57 2285.24 2144.19 4697.32 3072.43 1246.26 298.938 256.66 543.251 2795.95 468.797 351.317 687.669
internal_count=52555 25960 26595 12009 25018 11623 14586 5661 3740 8925 2837 10370 8560 24682 5822 2516 18860 1921 18663 6108 5731 12555 8212 3331 799 686 1452 7473 1253 939 1838
is_linear=0
shrinkage=1


Tree=2
num_leaves=32
num_cat=0
split_feature=37 110 50 77 50 10 36 32 36 48 46 89 36 48 18 26 119 24 10 46 36 27 84 15 52 37 32 72 39 54 119
split_gain=402.494 125.688 86.9012 70.4509 57.5877 44.2767 48.7906 43.943 39.3205 41.0637 36.465 36.6578 38.299 44.7672 36.2756 36.2331 41.2862 35.0113 34.9069 36.2306 39.0506 40.8242 33.8449 37.0972 33.8609 33.0945 32.6311 42.2838 58.6245 60.4892 32.5294
threshold=0.45364770293235784 0.10415425524115564 1.0000000180025095e-35 0.51317641139030468 1.0000000180025095e-35 19.50586032867432 510.50000000000006 117687.01171875001 450.50000000000006 -0.74132770299911488 1.6913797259330752 -0.12768384814262387 44.500000000000007 0.63560882210731517 -11.01633310317993 78207.019531250015 49.500000000000007 92.500000000000014 11.408070087432863 1.1740210652351382 228.50000000000003 19.500000000000004 1.7076812386512759 22.500000000000004 99476.722656250015 0.29594229161739355 94383.851562500015 1.0202201604843142 100096.25390625001 0.022687993012368683 17.500000000000004
decision_type=2 2 2 2 2 2 2 10 2 2 8 2 2 2 8 10 2 10 2 10 2 2 2 2 10 2 8 10 10 2 2
left_child=2 3 25 18 26 6 7 -4 9 15 -3 12 -12 30 -9 -6 -17 -7 -2 -20 21 -21 23 -11 -25 -1 -5 -28 29 -29 -14
right_child=1 10 5 4 8 17 -8 14 -10 22 11 -13 13 -15 -16 16 -18 -19 19 20 -22 -23 -24 24 -26 -27 27 28 -30 -31 -32
leaf_value=-1.8381824959333004 -1.813949252793025 -1.8247364166514972 -1.8286265370601109 -1.8244451853909809 -1.8324980296646258 -1.8139703562469254 -1.78418993602002 -1.7646828494890257 -1.7701239337960362 -1.7590346742216389 -1.8285980446520891 -1.8246879093210939 -1.8076793866957461 -1.817359186901857 -1.8235258749286118 -1.7693005484027571 -1.8136452706538901 -1.7695618543198197 -1.8077929302107969 -1.796834596290914 -1.8085723630840287 -1.7426892422926259 -1.8173005780074905 -1.8300734107746623 -1.7804445717533839 -1.8314554421903186 -1.8192397063194707 -1.8098469173170821 -1.8144880924791198 -1.7332493134484324 -1.7783310927359457
leaf_weight=881.84130755066872 675.24545180797577 2855.5731997787952 761.78412884473801 965.12970563769341 15.438825011253355 93.851804673671722 20.31424343585968 15.032540142536162 16.860822051763535 15.641967445611952 67.037003338336945 250.27147912979126 56.676739186048508 111.32205402851105 16.657679617404941 42.456768780946732 25.3928042948246 15.641967445611952 302.07279989123344 20.517385870218277 33.924786537885666 21.736240476369858 535.68659940361977 23.970807254314423 18.282819092273712 1482.5334859490395 1173.3507008552551 14.829397708177568 72.928133934736252 16.454537183046341 57.692451357841492
leaf_count=4341 3324 14057 3750 4751 76 462 100 74 83 77 330 1232 279 548 82 209 125 77 1487 101 167 107 2637 118 90 7298 5776 73 359 81 284
internal_value=-1.82317 -1.81961 -1.83117 -1.8163 -1.81849 -1.82402 -1.82623 -1.82731 -1.81157 -1.8126 -1.82349 -1.81697 -1.81036 -1.80494 -1.7956 -1.79453 -1.78588 -1.80761 -1.8102 -1.80352 -1.78657 -1.76894 -1.81514 -1.79518 -1.8086 -1.83396 -1.82063 -1.81775 -1.80097 -1.7695 -1.79286
internal_weight=10676.2 7388.49 3287.66 3989.92 2936.42 923.282 813.789 793.474 693.731 676.871 3398.57 543 292.728 225.691 31.6902 83.2884 67.8496 109.494 1053.5 378.251 76.1784 42.2536 593.582 57.8956 42.2536 2364.37 2242.69 1277.56 104.212 31.2839 114.369
internal_count=52555 36371 16184 19641 14455 4545 4006 3906 3415 3332 16730 2673 1441 1111 156 410 334 539 5186 1862 375 208 2922 285 208 11639 11040 6289 513 154 563
is_linear=0
shrinkage=1


Tree=3
num_leaves=32
num_cat=0
split_feature=3 57 14 13 5 3 43 26 33 46 24 24 57 3 41 26 36 26 70 26 26 57 13 27 26 41 13 41 9 62 43
split_gain=113.983 93.4366 87.3812 107.654 84.7215 77.6268 103.021 89.7394 84.1091 99.119 75.6607 100.446 94.6008 75.3607 114.975 120.923 75.9641 78.5475 74.2766 74.259 76.0219 72.2163 87.5189 72.159 70.7179 69.7738 64.0113 64.7149 62.1411 60.7018 57.5677
threshold=4690.8940429687509 119757.68359375001 222.03117370605472 6.4741630554199228 0.036847949028015144 116312.51562500001 1.0705370903015139 104073.39062500001 322.50000000000006 -4.1419937610626212 301.50000000000006 212.50000000000003 110668.14062500001 7631.0798339843759 82958.726562500015 73335.082031250015 212.50000000000003 81499.695312500015 2.5000000000000004 75813.062500000015 113583.44921875001 107697.31640625001 17.378364562988285 7.5000000000000009 103765.42187500001 107806.26953125001 29.810904502868656 106720.38671875001 -15.411790847778319 4.5000000000000009 0.28144252300262457
decision_type=2 10 2 2 2 2 10 10 2 10 10 10 10 2 2 10 2 10 2 10 10 10 2 2 10 2 2 2 2 2 10
left_child=-1 2 4 -4 28 13 8 -8 10 -10 11 19 -13 -6 15 18 17 -17 -15 -7 21 24 -23 -9 -21 -26 27 -16 -2 -22 -24
right_child=1 -3 3 -5 5 6 7 23 9 -11 -12 12 -14 14 26 16 -18 -19 -20 20 29 22 30 -25 25 -27 -28 -29 -30 -31 -32
leaf_value=0.025122467700818038 0.029190245857095929 -0.014424376589664802 0.040442020020712323 0.0032047275040540764 -0.0094925986741010524 0.033642329683258095 -0.016182374239346244 0.031741206492576189 0.017221217595107148 -0.013497307406168252 -0.019794674717467764 0.021776425149757805 -0.018288996717445691 0.0073823979405582161 0.00054111782326201621 0.027098290436257551 -0.0038685129995431168 -0.022180538568609038 -0.017327251522126708 -0.00063467217401963472 0.020543657593811212 -0.0097261804452170239 0.039140953695700177 -0.0060604353425988723 0.021291659785813866 -0.024090035794372053 0.041325398559201899 0.020665040694956116 -0.00071641142587256759 0.00099817717497268006 0.002413641908435145
leaf_weight=137.69002538919449 129.70608875155449 332.25493764877319 89.899887710809708 168.91146299242973 433.74397811293602 47.940431475639343 632.22837695479393 56.11998263001442 90.208292812108994 659.1591220498085 144.52111932635307 271.91080969572067 53.221761703491211 340.05578565597534 7075.8101328909397 428.88738405704498 86.056680649518967 25.889777809381485 125.95903924107552 4414.3189878463745 218.03029453754425 1212.2438270747662 40.884460687637329 119.06284669041634 192.61909738183022 29.493733525276184 29.674141675233841 122.83211407065392 88.139566391706467 267.35597184300423 152.55316516757011
leaf_count=395 373 963 258 486 1253 138 1826 161 260 1903 417 784 154 979 20413 1230 248 75 364 12738 629 3501 118 344 555 85 85 354 254 772 440
internal_value=0.000208088 1.82833e-05 0.000288718 0.0161441 5.40245e-05 -0.000160845 -0.00201101 -0.0113581 -0.00104267 -0.00979829 -0.000111252 0.000300984 0.0152155 0.00167496 0.00226324 0.0109662 0.0198091 0.0242907 0.000701954 -0.000436468 -0.000686966 -0.0015279 -0.00698595 0.00604936 0.000126805 0.0152612 0.00105088 0.00088464 0.0170891 0.00977947 0.010183
internal_weight=18217.4 18079.7 17747.4 258.811 17488.6 17270.8 8601.87 807.411 7794.46 749.367 7045.09 6900.57 325.133 8668.91 8235.17 1006.85 540.834 454.777 466.015 6575.44 6527.5 6042.11 1405.68 175.183 4636.43 222.113 7228.32 7198.64 217.846 485.386 193.438
internal_count=52555 52160 51197 744 50453 49826 24825 2331 22494 2163 20331 19914 938 25001 23748 2896 1553 1305 1343 18976 18838 17437 4059 505 13378 640 20852 20767 627 1401 558
is_linear=0
shrinkage=0.0274897


Tree=4
num_leaves=32
num_cat=0
split_feature=2 1 40 3 31 28 18 47 28 12 31 3 76 52 28 90 18 3 20 118 74 2 15 20 76 47 61 18 36 31 7
split_gain=280.495 91.2671 80.8391 80.5619 66.7725 65.0587 62.2996 98.4114 68.2755 60.913 60.299 57.3066 55.6815 61.3232 56.4278 55.0702 50.1114 50.0596 49.4759 47.7501 47.3667 46.0951 52.4808 45.7472 51.0261 49.5268 45.5401 58.3308 53.0063 45.1648 59.0439
threshold=0.001000570831820369 1.0000000180025095e-35 10.500000000000002 118285.59375000001 49.358011245727546 -497.12117004394526 -4.9392719268798819 11.500000000000002 133.62322235107425 118231.60546875001 29.344514846801761 5705.4912109375009 11.500000000000002 105728.50000000001 71.985473632812514 26.500000000000004 -7.1704134941101065 128317.26953125001 1.8930289149284365 25.500000000000004 33.500000000000007 0.00066166685428470384 233.50000000000003 0.31887258589267736 8.5000000000000018 15.500000000000002 102334.84765625001 -5.8343629837036124 96.500000000000014 -54.930368423461907 5.5000000000000009
decision_type=2 2 2 2 8 2 10 2 2 10 10 2 2 10 2 2 10 2 8 2 2 2 2 10 2 2 8 10 2 10 2
left_child=1 2 4 15 10 -5 8 17 -7 11 21 -3 13 14 -9 -2 19 -8 23 -10 -6 22 -1 24 26 -25 27 -13 -28 -24 -31
right_child=3 9 -4 5 20 6 7 12 16 -11 -12 18 -14 -15 -16 -17 -18 -19 -20 -21 -22 -23 29 25 -26 -27 28 -29 -30 30 -32
leaf_value=0.0081743883923352644 -0.0075503683389846884 -0.022763035671932337 -0.00766246435731087 -0.031887007078935811 -0.011228119419077578 -0.0073231957221308987 -0.0086270300069686869 0.0078923182641190397 0.0030988892661824182 0.024542513170073898 0.0099630827434670846 0.019883997045317708 -0.013572701391886032 0.0013237064107499616 0.022822806367189922 -0.0022510126974211882 -0.01366477128326719 0.0084108896928657608 0.020033735341814001 0.025093619305620939 0.0067880044363598955 -0.0011089232773584994 0.016174601639432629 -0.0068366174695113748 0.011246803042660005 0.0049344107666819455 -0.020160792249294384 0.0024498277664244334 0.0027915648910913512 -0.0009082936755363556 -0.027094203010287633
leaf_weight=1189.6250166296959 3619.7028615772724 52.715298682451248 725.5164555311203 48.601924806833267 430.96439430117607 1194.9907446205616 584.71678397059441 501.33558571338654 233.42558485269547 134.05819579958916 834.57963591814041 194.98421829938889 88.667633682489395 496.48897722363472 309.48526510596275 2509.6572298109531 83.029201477766037 167.63479334115982 183.00677308440208 109.64275202155113 148.14150711894035 1940.6208330094814 77.830971121788025 402.97293618321419 1309.5368656516075 819.10506719350815 117.09648391604424 566.14974799752235 216.6454122364521 286.64174887537956 84.171148836612701
leaf_count=3179 9679 141 1939 130 1152 3195 1563 1340 624 358 2230 521 237 1327 827 6710 222 448 489 293 396 5186 208 1077 3499 2189 313 1513 579 766 225
internal_value=-0.000183434 0.00313906 0.000911428 -0.00342815 0.00215751 -0.000293501 0.00011394 0.00318399 -0.00395428 0.00632634 0.00330918 0.00569376 0.00750339 0.00893349 0.0135924 -0.00538066 0.00549253 -0.0048299 0.00608782 0.0101311 -0.00661843 0.00175732 0.00515282 0.00538378 0.00758497 0.00105251 0.00320457 0.00691723 -0.00526091 -0.00285806 -0.0068551
internal_weight=19661.7 9714.36 5718.09 9947.38 4992.58 3818.02 3769.42 2148.33 1621.09 3996.27 4413.47 3862.21 1395.98 1307.31 810.821 6129.36 426.098 752.352 3809.5 343.068 579.106 3578.89 1638.27 3626.49 2404.41 1222.08 1094.88 761.134 333.742 448.644 370.813
internal_count=52555 25960 15281 26595 13342 10206 10076 5742 4334 10679 11794 10321 3731 3494 2167 16389 1139 2011 10180 917 1548 9564 4378 9691 6425 3266 2926 2034 892 1199 991
is_linear=0
shrinkage=0.0274897


Tree=5
num_leaves=32
num_cat=0
split_feature=8 59 17 61 29 50 9 9 112 36 51 64 17 102 102 13 88 8 56 19 69 58 30 29 13 36 43 63 53 24 8
split_gain=605.67 115.82 112.239 107.408 116.95 105.393 88.4725 80.5257 162.847 76.2727 72.3739 71.9247 78.5846 69.4683 68.3084 63.9463 76.4839 59.885 63.7959 88.8605 55.921 72.1225 55.2887 51.4477 52.5048 49.5342 50.3 55.0183 49.4949 85.785 47.1637
threshold=0.00095294910715892922 1.0000000180025095e-35 87.500000000000014 80913.425781250015 13.598834514617922 1.0000000180025095e-35 -51.396003723144524 -158.66462707519528 7.5000000000000009 140.50000000000003 -3.5878717899322505 1.0000000180025095e-35 182.50000000000003 63.255382537841804 -83.650436401367173 14.461308956146242 77.000000000000014 0.0018029876518994572 98393.941406250015 103687.12500000001 6.5000000000000009 46.500000000000007 11.534525394439699 -54.716159820556634 5.4287719726562509 510.50000000000006 -0.55758875608444203 0.49589699506759649 4.5000000000000009 86.500000000000014 0.00064492857200093578
decision_type=2 2 2 10 10 2 2 2 2 2 10 2 2 2 2 2 2 2 10 2 2 2 10 10 2 2 10 2 2 10 2
left_child=5 3 -3 28 14 11 7 8 -6 10 -9 12 30 -12 -5 16 20 18 -11 -20 21 23 -21 -16 -25 26 27 -7 29 -2 -1
right_child=1 2 -4 4 6 25 -8 9 -10 17 13 -13 -14 -15 15 -17 -18 -19 19 22 -22 -23 -24 24 -26 -27 -28 -29 -30 -31 -32
leaf_value=-0.012677060259438388 0.0003139044985802591 -0.013453268330735018 0.0057619090034799073 -0.0021837489553411015 -0.0088873384245369245 0.053729429602753738 0.0034583871938554133 0.0085156431077147796 0.066090283336987216 0.0030260430787516861 0.041872085214486765 -0.0039370722411888395 -0.017158303828437166 0.017382567260425221 -0.0024523657195233573 -0.0019745792951125548 -0.0080478204182613967 0.035141046281204187 0.054822076509256877 0.049622877964797481 0.010477836821383396 0.04585348792295766 -0.00040024572819495461 0.043464688482633219 0.0063594030074894357 0.036656533016122456 -0.0026108161742253071 0.0063261310117764431 -0.0052807523855164691 0.042570290351417989 -0.0021772339658056323
leaf_weight=631.71839025616646 147.39732567965984 401.8941358178854 536.10284049808979 574.31523257493973 150.36449073255062 23.977721124887466 343.9790982156992 99.443937882781029 25.593430534005165 289.0006175339222 295.2539639621973 1287.4018716514111 1159.60247425735 124.60919909179211 75.035732552409172 331.44286848604679 135.32757921516895 90.589876160025597 50.487652733922005 21.112523823976517 910.73342850804329 83.99141401052475 79.370107188820839 63.899434953927994 52.558208003640175 26.689840763807297 1297.3031191080809 80.921000897884369 575.44349958002567 48.154602885246277 662.41237638890743
leaf_count=3134 723 1974 2630 2827 738 118 1688 487 125 1413 1442 6369 5739 611 368 1624 665 443 246 103 4465 412 389 312 258 128 6393 398 2832 235 3266
internal_value=-1.72045e-05 0.00632735 -0.00247063 0.00813401 0.0100334 -0.00677428 0.0157802 0.0192373 0.00202354 0.0221217 0.0296121 -0.00919993 -0.0119609 0.0346067 0.00598275 0.00882042 0.0115282 0.0147881 0.0105945 0.0250763 0.013762 0.0246154 0.0101152 0.0152926 0.0267283 -0.000423034 -0.00112984 0.017177 -0.00121989 0.0107264 -0.00730317
internal_weight=10676.1 5506.1 937.997 4568.1 3797.11 5170.03 1569.8 1225.83 175.958 1049.87 519.307 3741.14 2453.73 419.863 2227.3 1652.99 1321.55 530.561 439.971 150.97 1186.22 275.485 100.483 191.493 116.458 1428.89 1402.2 104.899 770.995 195.552 1294.13
internal_count=52555 27010 4604 22406 18616 25545 7685 5997 863 5134 2540 18508 12139 2053 10931 8104 6480 2594 2151 738 5815 1350 492 938 570 7037 6909 516 3790 958 6400
is_linear=0
shrinkage=0.0274897


Tree=6
num_leaves=32
num_cat=0
split_feature=0 41 87 4 53 3 40 18 46 35 43 13 29 33 15 13 45 35 78 2 29 4 16 38 31 41 31 38 98 13 0
split_gain=138.187 120.198 119.341 92.9326 86.7041 86.262 98.5541 109.592 96.2766 103.907 83.1115 81.0782 114.076 75.3531 82.3198 75.0186 85.6533 74.2915 74.1452 72.6342 69.0185 68.1634 61.3462 63.4409 62.962 60.6239 59.8238 59.1101 60.2166 56.8385 67.2428
threshold=2.9416469335556035 83136.285156250015 0.60036319494247448 0.10389854758977891 7.5000000000000009 110240.80078125001 3.5000000000000004 0.42592537403106695 1.8142338395118716 136.50000000000003 -0.87201327085494984 19.268215179443363 23.197153091430668 388.50000000000006 135.50000000000003 2.6649247407913212 0.77026695013046276 163.50000000000003 -0.20478267967700955 0.00078486884012818347 63.54704666137696 0.21991616487503055 509.39521789550787 404.50000000000006 53.411397933959968 84649.441406250015 52.979515075683601 455.50000000000006 0.26513893902301794 7.5706758499145517 7.3068683147430429
decision_type=2 2 2 2 2 2 2 10 10 2 10 2 10 2 2 2 2 2 2 2 10 2 2 2 10 2 10 2 10 2 2
left_child=2 4 3 -1 10 8 7 13 9 19 -2 18 -13 14 21 16 -9 -12 -5 -3 -10 -7 23 -20 -25 -21 -17 28 -14 30 -23
right_child=1 5 -4 11 -6 6 -8 15 20 -11 17 12 27 -15 -16 26 -18 -19 22 25 -22 29 -24 24 -26 -27 -28 -29 -30 -31 -32
leaf_value=0.016669865614282218 -0.0062391880536726623 0.023355028057092112 -0.011616454961253419 0.0066006346766017401 0.021744774890461196 0.034068876765794572 -0.0035860085823706351 0.026461134549016357 -0.010941311869823611 0.026344294072716434 0.011862362255768892 0.042225051014871687 0.032704517878576062 -0.012324366293489019 0.018897594839856816 -0.0098215025351776966 -0.010211590690019597 -0.022608344263799072 -0.0016273829523444558 0.042257838453755282 0.011722312475402893 0.0061271317649540507 -0.012023619562128277 -0.016683084614405225 0.015116579810187582 0.0030639707157254169 0.0043627325256247228 -0.014135303370282461 -0.0026206105154880899 -0.0035519131406545842 0.038111074562287531
leaf_weight=211.78887435793877 315.92666652798653 166.1153205037117 955.07400232553482 616.62771424651146 332.62094834446907 57.665490329265594 3586.6868255734444 126.91446036100388 367.20004376769066 225.72061792016029 895.9782007932663 71.923143535852432 67.822180360555649 125.22385224699974 501.76912775635719 756.35965004563332 77.475647866725922 49.844676733016968 4937.8898952007294 30.541771858930588 140.30986595153809 373.79927968978882 565.8229173719883 373.08772078156471 53.80412483215332 1228.8039799928665 319.58729830384254 94.733635902404785 78.780421257019043 454.59211215376854 57.276623725891113
leaf_count=607 909 479 2758 1781 950 166 10355 366 1059 650 2569 207 195 363 1445 2186 224 144 14260 88 404 1079 1635 1080 155 3541 922 274 227 1313 164
internal_value=0.000201911 0.00232688 -0.00249559 -0.00126375 0.00925916 0.00104101 -0.000553596 0.00326159 0.00579642 0.00901504 0.00596694 -0.00181751 0.0118439 0.00812853 0.00990139 -0.00270734 0.012558 0.0100447 -0.00247128 0.00627019 -0.00467429 0.00511529 -0.00341463 -0.00250649 -0.0126733 0.00401576 -0.0056079 0.00278399 0.0137211 0.00322862 0.01038
internal_weight=18217.8 10190.4 8027.35 7072.28 1594.37 8596.04 6437.35 2850.66 2158.69 1651.18 1261.75 6860.49 313.259 1570.33 1445.1 1280.34 204.39 945.823 6547.23 1425.46 507.51 943.334 5930.6 5364.78 426.892 1259.35 1075.95 241.336 146.603 885.668 431.076
internal_count=52555 29376 23179 20421 4572 24804 18583 8228 6221 4758 3622 19814 903 4530 4167 3698 590 2713 18911 4108 1463 2722 17130 15495 1235 3629 3108 696 422 2556 1243
is_linear=0
shrinkage=0.0274897


Tree=7
num_leaves=32
num_cat=0
split_feature=2 1 3 10 31 3 10 10 20 88 3 18 47 24 24 51 10 31 57 20 114 62 3 3 18 30 14 107 76 10 9
split_gain=264.452 86.414 76.2198 70.9207 81.2484 69.8773 74.8813 64.4263 63.3484 60.3784 56.8749 54.7866 67.5099 53.4028 52.9888 52.0579 68.6336 51.2568 49.652 54.5448 57.5236 48.1468 52.3282 58.8449 47.8603 47.2261 59.1559 48.4824 46.8649 46.6915 49.9347
threshold=0.001000570831820369 1.0000000180025095e-35 118285.59375000001 9.1327633857727069 59.690246582031257 125579.21093750001 9.7586617469787615 0.1707413047552109 -0.20607957988977429 85.000000000000014 5705.4912109375009 -5.1166796684265128 11.500000000000002 107.50000000000001 204.50000000000003 -13.24536085128784 4.5513937473297128 -0.84800264239311207 118398.23437500001 1.8930289149284365 68.904010772705092 3.5000000000000004 123055.63671875001 110640.02343750001 -2.1087639331817623 404.14056396484381 148.11047363281253 212.66539001464847 12.500000000000002 21.074895858764652 -234.33133697509763
decision_type=2 2 2 2 8 2 2 2 10 2 2 10 2 10 10 10 2 10 10 8 2 2 2 2 10 10 2 2 2 2 2
left_child=1 3 7 4 14 -5 -7 -2 28 13 -3 -10 -13 15 -1 16 -9 24 19 20 21 22 23 -12 -8 26 27 -11 29 30 -4
right_child=2 10 8 5 -6 6 17 9 11 25 18 12 -14 -15 -16 -17 -18 -19 -20 -21 -22 -23 -24 -25 -26 -27 -28 -29 -30 -31 -32
leaf_value=0.0052351770772211502 0.015440323533212102 -0.022235413722339913 0.020307821260635291 -0.0046234894669703666 -0.014441088560713954 -0.0192195313891745 -0.0090618991375613703 0.013758794552960217 -0.0088276980553750987 -0.0033874931668436154 -0.0035847021368731235 -0.0082708119847871193 0.0052367055909687786 -0.012418220812839833 -0.014032466309956245 -0.0069637315670894482 -0.0038459013076600291 0.025907479234920754 0.02016896414853759 0.020538824215522528 -0.0012419119158355498 0.010985121081232823 -0.0055887666247739273 0.010401554969837414 0.023264553384245417 0.023919041099502152 -0.016632824307618546 0.01206893344153577 -0.011615399948694684 0.020223761310377422 0.0019452358385436599
leaf_weight=3003.8685791492462 111.84779232740402 52.610940635204315 121.98937076330185 2067.9104890525341 180.17584982514381 60.630325555801392 93.167313426733017 222.22762829065323 862.91105580329895 373.88269525766373 314.06539565324783 443.08291766047478 757.77429023385048 1003.1241073012352 111.84128314256668 3271.2390268445015 677.35902309417725 145.63367846608162 191.84104540944099 181.31961733102798 832.98301041126251 1250.0168500542641 352.287467867136 822.51084652543068 55.024196803569794 63.965648621320724 142.79749938845634 259.93545722961426 141.31435918807983 137.31417399644852 1353.1185042262077
leaf_count=8026 299 141 326 5527 482 162 249 594 2308 1000 839 1185 2025 2684 299 8752 1812 389 512 484 2226 3339 941 2197 147 171 382 695 378 367 3617
internal_value=-0.000177085 0.00304834 -0.00332861 0.000880568 0.0035052 -0.00269031 0.00858604 -0.00522843 -0.000279597 -0.00561294 0.00614899 -0.00354407 0.000252314 -0.00672312 0.00454327 -0.00535321 0.000502748 0.0143266 0.00652779 0.00583027 0.00508332 0.00700721 0.00366698 0.00653635 0.00293961 0.00121983 -0.000649866 0.00295078 0.00356169 0.00489231 0.00346447
internal_weight=19659.8 9715.89 9943.88 5718.25 3295.89 2422.37 354.456 6126.38 3817.5 6014.53 3997.64 2063.77 1200.86 5173.95 3115.71 4170.83 899.587 293.825 3945.02 3753.18 3571.86 2738.88 1488.86 1136.58 148.192 840.581 776.616 633.818 1753.74 1612.42 1475.11
internal_count=52555 25960 26595 15281 8807 6474 947 16389 10206 16090 10679 5518 3210 13842 8325 11158 2406 785 10538 10026 9542 7316 3977 3036 396 2248 2077 1695 4688 4310 3943
is_linear=0
shrinkage=0.0274897


Tree=8
num_leaves=32
num_cat=0
split_feature=4 0 1 1 0 0 4 50 7 4 80 86 0 3 13 117 78 84 29 116 76 11 7 74 10 29 68 32 26 32 116
split_gain=589.539 403.114 265.673 151.41 113.156 103.27 127.713 85.7524 83.0787 80.0585 78.9859 78.4422 77.5128 75.6633 71.7917 67.0836 66.085 64.0023 50.3807 59.4733 49.2239 49.086 48.8356 62.2581 48.7949 94.4557 47.8724 45.3575 47.4141 44.8742 44.3696
threshold=0.430250033736229 2.5489027500152592 1.0000000180025095e-35 1.0000000180025095e-35 4.3883492946624765 1.8848364353179934 0.18744936585426333 1.0000000180025095e-35 5.5000000000000009 0.57903113961219799 1.2901358604431155 41.500000000000007 1.2754277586936953 135509.66406250003 23.063088417053226 1.0000000180025095e-35 -0.021415942348539826 1.3388400077819826 -23.500686645507809 59.500000000000007 12.500000000000002 25.973181724548343 3.5000000000000004 34.500000000000007 19.949247360229496 36.151174545288093 1.5000000000000002 76256.535156250015 69618.886718750015 94316.144531250015 80.500000000000014
decision_type=2 2 2 2 2 2 2 2 2 2 2 2 2 2 2 2 2 2 10 2 2 2 2 2 2 10 2 8 10 8 2
left_child=3 7 4 5 8 6 -1 9 14 -2 20 29 16 24 21 -4 -8 -12 -18 -20 -6 -3 -23 -24 27 -26 -5 28 -7 -9 -11
right_child=1 2 15 26 10 13 12 11 -10 30 17 -13 -14 -15 -16 -17 18 -19 19 -21 -22 22 23 -25 25 -27 -28 -29 -30 -31 -32
leaf_value=-0.01086903143770771 0.011486093878162946 0.0013819017589654819 -0.0086384619764766704 -0.016321772465096068 -0.0010922113718826942 -0.0002833001283597375 0.0041189737071334999 0.077912783705815752 -0.006608512647806865 0.045301202362547276 0.067879561578622793 0.0076242781222026663 0.0045245282198541166 0.048031833553613526 0.059679400500632064 0.0061502712369427325 0.062740941210870413 0.012619612239839255 0.01198083305821483 0.061714539765695041 0.024203218206286407 0.013239434685983629 0.036776464476469053 0.010481769579566671 0.00012795629301558278 0.070788201100709075 -0.0079964816977066699 -0.009603334561706341 0.056872250205403221 0.041644968793315626 0.020988715817026105
leaf_weight=322.50313743948936 381.07134841382504 189.98406794667244 1312.9754975885153 1120.4216013550758 1316.1791636496782 38.233934819698334 79.460632994771004 33.542463138699532 145.59179018437862 104.20525914430618 16.802039176225662 42.740981340408325 595.51849630475044 18.811557680368423 26.899263322353363 281.42064046859741 37.662662044167519 271.5199653506279 69.113666281104088 24.652969062328339 60.794707998633385 874.65370361506939 171.72858905792236 112.84343367815018 158.82337775826454 15.685978025197981 977.94850032031536 1621.1261360794306 15.344338610768316 112.7474302649498 124.90961541235447
leaf_count=1611 1857 926 6447 5611 6435 188 394 161 710 504 81 207 2946 90 129 1379 185 1326 343 122 297 4249 829 550 783 76 4869 8023 76 543 608
internal_value=-1.83963e-05 0.00615414 0.00313333 -0.00677894 0.00771663 -0.00281348 0.00375035 0.0242252 0.0131354 0.0192103 0.00276467 0.0404055 0.0095978 -0.00678049 0.0152248 -0.00602779 0.0239192 0.0158475 0.0358831 0.0250756 2.4672e-05 0.014337 0.0164596 0.0263533 -0.00733902 0.0064918 -0.0124421 -0.00878062 0.0160956 0.0499765 0.0320525
internal_weight=10675.9 5580.61 4781.39 5095.31 3187 2996.94 1128.91 799.217 1521.7 610.186 1665.3 189.031 806.408 1868.03 1376.11 1594.4 210.89 288.322 131.429 93.7666 1376.97 1349.21 1159.23 284.572 1849.21 174.509 2098.37 1674.7 53.5783 146.29 229.115
internal_count=52555 27238 23358 25317 15532 14837 5601 3880 7393 2969 8139 911 3990 9236 6683 7826 1044 1407 650 465 6732 6554 5628 1379 9146 859 10480 8287 264 704 1112
is_linear=0
shrinkage=0.0274897


Tree=9
num_leaves=32
num_cat=0
split_feature=3 57 5 7 3 43 7 21 84 39 45 76 30 30 41 38 41 18 46 13 21 26 52 82 3 57 41 81 45 5 21
split_gain=104.103 87.7631 75.8262 68.7037 92.3125 95.0521 84.1075 103.672 68.7989 65.6088 63.7806 82.3759 61.3109 96.4284 59.6587 96.3875 89.4892 62.7359 62.7592 53.4644 52.5206 54.1904 100.81 111.752 66.3742 55.7695 60.6088 55.6514 52.2643 50.6972 70.1056
threshold=4690.8940429687509 119757.68359375001 0.036847949028015144 2.5000000000000004 116755.04687500001 1.1107164621353152 1.5000000000000002 12.888234138488771 2.1218744516372685 86399.289062500015 0.37991523742675787 7.5000000000000009 244.51330566406253 131.33766937255862 109677.47265625001 356.50000000000006 104839.73437500001 27.150360107421879 1.1740210652351382 31.855135917663578 9.8371472358703631 75010.984375000015 82874.996093750015 4.5000000000000009 65080.613281250007 84309.078125000015 80869.156250000015 5.5000000000000009 1.4392338991165163 0.07714784145355226 37.39996528625489
decision_type=2 10 2 2 2 10 2 10 2 10 2 2 10 10 2 2 2 10 10 2 10 10 10 2 2 10 2 2 2 2 10
left_child=-1 2 -2 4 6 9 8 -8 10 -6 11 -4 13 -9 15 16 17 20 -19 28 -5 -22 23 -23 -24 -26 -27 -28 -12 30 -17
right_child=1 -3 3 14 5 -7 7 12 -10 -11 19 -13 -14 -15 -16 29 -18 18 -20 -21 21 22 24 -25 25 26 27 -29 -30 -31 -32
leaf_value=0.023850426441580818 0.01632060662314342 -0.014039989435940776 0.017212959271052587 -0.01724058364006056 0.037907165334307838 -0.012616869377825635 0.030139288722603994 0.005454483907592061 0.012780907479062549 0.0001435322866734537 -0.012673186381630393 0.00045741574182086946 -0.009349894789199887 0.025581425600462952 0.0064504268607733844 -0.0045081384350716689 -0.0083875699419164226 0.034122861082601673 0.0022592970558747007 0.025633867014856274 -0.0096269071041422769 0.02547156463030277 0.025225418783118767 -0.011661402547550161 -0.017851575394118961 0.041664445712077142 -0.00054300986028248794 0.022902768239235378 0.0049186891980315733 -0.012559745584034972 0.038386557903701254
leaf_weight=139.4976159632206 219.7691667675972 329.64758634567261 267.60726121068001 135.40079754590988 35.14418026804924 476.78684821724892 175.14358785748482 837.00278967618942 384.30087497830391 3029.4410512447357 513.47195753455162 1293.180984467268 143.59533780813217 229.14658975601196 676.3624167740345 180.65988013148308 1070.0281178057194 80.55522695183754 111.23543238639832 36.951344788074493 410.80051699280739 234.50948533415794 77.061767816543579 82.853542536497116 135.92815348505974 26.188303172588348 5719.8075245022774 77.515361100435257 169.7648167014122 884.14903005957603 34.223397672176361
leaf_count=395 627 963 769 392 100 1384 500 2410 1104 8754 1478 3725 415 657 1948 524 3097 231 318 105 1189 670 221 238 394 74 16505 223 486 2561 98
internal_value=0.000196174 1.35885e-05 0.000274657 7.34264e-05 0.00204248 -0.0011992 0.00487705 0.0103727 0.00202124 0.000577082 0.000208096 0.00333082 0.00750992 0.00978134 -0.00143078 -0.00200644 -0.000977245 0.000140789 0.015648 -0.00655864 -0.000290224 4.90423e-05 0.000674744 0.0157756 -0.000119146 -0.000447071 -4.06632e-05 -0.000229331 -0.00830135 -0.00964904 0.00232493
internal_weight=18217.7 18078.2 17748.6 17528.8 7591.54 3541.37 4050.17 1384.89 2665.28 3064.59 2280.98 1560.79 1209.74 1066.15 9937.28 9260.92 8161.88 7091.86 191.791 720.188 6900.07 6764.66 6353.86 317.363 6036.5 5959.44 5823.51 5797.32 683.237 1099.03 214.883
internal_count=52555 52160 51197 50570 21887 10238 11649 3982 7667 8854 6563 4494 3482 3067 28683 26735 23552 20455 549 2069 19906 19514 18325 908 17417 17196 16802 16728 1964 3183 622
is_linear=0
shrinkage=0.0274897


Tree=10
num_leaves=32
num_cat=0
split_feature=5 41 1 17 20 0 5 23 23 52 15 63 55 55 21 21 29 0 35 39 0 6 46 63 21 29 30 33 40 20 33
split_gain=226.062 96.927 64.4983 87.8471 73.3443 120.259 89.8847 87.7235 62.1691 61.0246 70.7398 67.3805 60.3817 59.3606 58.0313 57.9468 66.389 66.6162 57.1945 58.8829 55.6728 50.4067 48.3965 54.2005 51.9474 50.0782 47.3924 47.2587 44.4789 44.3296 43.5084
threshold=0.13156978040933612 118111.41796875001 1.0000000180025095e-35 187.50000000000003 -0.16524695605039594 4.6573641300201425 0.24712466448545459 1.2663688659667971 2.3425395488739018 115694.50781250001 251.50000000000003 0.45786587893962866 0.28763060271739965 -2.4795901775360103 23.093429565429691 10.767368316650392 -58.559022903442376 2.1237869262695317 116.50000000000001 108733.91406250001 1.826038718223572 98.99591445922853 1.7762721776962282 0.46817630529403692 33.455417633056648 49.408153533935554 -91.890686035156236 146.50000000000003 6.5000000000000009 -0.1296320557594299 394.50000000000006
decision_type=2 2 2 2 8 2 2 10 8 10 2 2 2 2 10 10 10 2 2 8 2 2 10 2 10 10 10 2 2 10 2
left_child=1 9 4 30 5 6 -2 13 -6 10 11 21 29 -7 -3 -12 -17 -18 19 -13 28 -1 -10 -24 -25 -26 -11 -22 -21 -5 -4
right_child=2 14 3 12 8 7 -8 -9 22 26 15 18 -14 -15 -16 16 17 -19 -20 20 27 -23 23 24 25 -27 -28 -29 -30 -31 -32
leaf_value=0.018015580910901049 -0.0022523507519854199 0.026929395741883879 -0.0028558129149378487 0.0081378247981132787 -0.0088593032249844605 -0.0093307242033448569 -0.016946242526754352 -0.012485511280849435 -0.0060900782181945706 0.009830114934945523 0.023138055253801509 0.0014494010161343917 0.01515170395027503 0.011044551924119404 0.0023990764953329426 0.010879378631722137 -0.012640794470577733 0.0015836286841025731 0.011786953824234581 -0.017753778321424152 0.010446159871279616 0.00019515918161976296 0.03384923912850251 0.0083256407282802525 0.02068124811216622 -0.012823316996617908 -0.013394008950898014 0.03155238571866819 0.013727261517911723 -0.0073433736999022623 0.014137923470600576
leaf_weight=444.57194834947586 1615.0240450501442 205.37922602891922 2798.6397001743317 323.58095246553421 2818.7090160548687 121.96266278624535 390.71612852811813 171.14503335952759 942.96724009513855 86.13882839679718 62.914892017841339 4282.0946052372456 424.12727898359299 944.48310926556587 113.03644782304764 192.87900120019913 595.83233371376991 427.054019510746 573.200090020895 83.052530974149704 398.67925283312798 164.34481000900269 41.898644924163818 360.76999086141586 39.693109273910522 222.62567320466042 289.22416132688522 100.39046171307564 57.273571580648422 246.00319111347198 118.64493876695633
leaf_count=1187 4320 548 7485 865 7543 326 1046 458 2524 230 168 11441 1134 2525 302 515 1592 1141 1531 222 1065 439 112 965 106 596 773 268 153 658 317
internal_value=-0.000170976 0.00335918 -0.00263279 0.000240016 -0.00409773 -0.000957033 -0.00511514 0.00578149 -0.00639872 0.00274894 0.00329877 0.00453047 0.00729913 0.00871372 0.0182237 -0.00258015 -0.00391193 -0.00670173 0.0035688 0.00261148 0.0103929 0.0132069 -0.00208498 0.00359359 0.00155696 -0.00775006 -0.00806284 0.0146942 -0.00490114 0.00145058 -0.00216439
internal_weight=19657.1 8076.07 11581 3911 7669.99 3243.33 2005.74 1237.59 4426.66 7757.65 7382.29 6103.61 993.711 1066.45 318.416 1278.68 1215.77 1022.89 5494.69 4921.49 639.396 608.917 1607.95 664.987 623.089 262.319 375.363 499.07 140.326 569.584 2917.28
internal_count=52555 21575 30980 10459 20521 8675 5366 3309 11846 20725 19722 16306 2657 2851 850 3416 3248 2733 14680 13149 1708 1626 4303 1779 1667 702 1003 1333 375 1523 7802
is_linear=0
shrinkage=0.0274897


Tree=11
num_leaves=32
num_cat=0
split_feature=8 0 1 1 50 16 12 35 70 0 8 0 0 36 9 0 25 25 33 16 40 0 51 25 41 55 40 8 10 38 35
split_gain=554.953 356.82 249.019 130.799 97.2803 145.836 93.2762 90.5102 89.5799 84.671 111.351 83.9438 75.5729 77.0958 66.3909 65.4011 65.0433 64.1078 63.3006 62.8601 62.7795 61.5999 60.2451 57.1031 91.5203 96.9025 66.708 63.7893 63.1486 53.4812 53.5731
threshold=0.00091014706413261603 2.6931842565536503 1.0000000180025095e-35 1.0000000180025095e-35 1.0000000180025095e-35 454.32803344726568 109642.73437500001 39.500000000000007 4.5000000000000009 1.8848364353179934 0.00042935002420563256 4.3883492946624765 4.2222113609313974 126.50000000000001 -83.237438201904283 1.2754277586936953 367.50000000000006 357.50000000000006 8.5000000000000018 857.60540771484386 9.5000000000000018 1.8392624258995058 17.797199249267582 352.50000000000006 81207.511718750015 0.3241900503635407 14.500000000000002 0.0015523515758104625 3.9320992231369023 392.50000000000006 38.500000000000007
decision_type=2 2 2 2 2 2 8 2 2 2 2 2 2 2 2 2 2 2 2 2 2 2 10 2 2 2 2 2 2 2 2
left_child=3 4 8 9 5 7 -6 -2 11 10 -1 12 14 -14 -3 -12 -5 -4 -7 -20 -8 -9 -10 26 -25 -26 -13 -27 -29 -11 -31
right_child=1 2 17 16 6 18 20 21 22 29 15 23 13 -15 -16 -17 -18 -19 19 -21 -22 -23 -24 24 25 27 -28 28 -30 30 -32
leaf_value=-0.010371702592833293 -0.00073243820058475743 0.015493657973427017 -0.015624147401615751 -0.018283348367424075 0.048806380400102226 -0.0011865899028780016 0.0022327850380690125 0.062100235171849483 0.041633817688675204 -0.0086037024069675269 0.022280996851956832 -0.0054466781399543553 0.059845261832218812 0.0033257464779255321 0.003316068077841303 0.0038522701695270136 -0.0081453960084472057 -0.0031452320838424985 0.030729529039505068 0.073208029554594614 0.056903398003620508 0.016371798674566711 0.0090939217016000867 -0.015928825557144335 0.004029321261599543 0.0082094520071256602 0.020642737495581199 0.013940444028144519 0.057012990268985146 -0.013066898444207492 0.018469695349934749
leaf_weight=333.61519753932953 371.92004536092281 642.34638819098473 420.52327761054039 830.97084137797356 148.00707624852657 41.036980375647545 74.648640170693398 26.453052535653114 90.175242707133293 1552.0193029642105 197.79787977039814 827.56766371428967 45.599911987781525 30.420834735035896 715.08216358721256 550.87644329667091 1127.4538578242064 1196.0435267239809 235.53662778437138 29.659993961453438 20.141688585281372 140.45577712357044 82.285352900624275 107.19622252881527 394.20731234550476 72.992938220500946 81.309120759367943 40.561630055308342 70.549184814095497 62.972037151455879 114.96206915378571
leaf_count=1679 1801 3084 2079 4227 694 198 354 127 428 7727 965 4050 215 147 3467 2718 5667 5892 1126 138 94 676 397 530 1922 356 394 196 335 313 559
internal_value=-1.99024e-05 0.00561378 0.00240217 -0.00699288 0.0198333 0.0154251 0.0351709 0.00681419 0.00684452 -0.00319412 0.00283606 0.00574653 0.0105738 0.0372436 0.00907916 0.00872237 -0.0124474 -0.00639193 0.0305729 0.035489 0.0138673 0.0236307 0.0261148 0.00140608 0.00739648 0.0117215 -0.00311161 0.0281865 0.0413006 -0.00696698 0.00730557
internal_weight=10675.4 5904.72 4816.86 4770.67 1087.86 845.062 242.797 538.829 3200.29 2812.24 1082.29 3027.83 1433.45 76.0207 1357.43 748.674 1958.42 1616.57 306.234 265.197 94.7903 166.909 172.461 1594.38 685.507 578.311 908.877 184.104 111.111 1729.95 177.934
internal_count=52555 28700 23492 23855 5208 4066 1142 2604 15521 13961 5362 14696 6913 362 6551 3683 9894 7971 1462 1264 448 803 825 7783 3339 2809 4444 887 531 8599 872
is_linear=0
shrinkage=0.0274897


Tree=12
num_leaves=32
num_cat=0
split_feature=0 11 45 19 47 18 10 10 19 14 56 18 18 10 14 19 19 56 28 28 10 82 69 76 15 15 11 45 31 52 5
split_gain=126.202 127.783 112.585 95.2926 92.8621 66.3312 63.866 63.6449 66.3573 69.1927 67.5596 61.607 91.553 59.521 58.9244 93.3762 88.4102 56.9786 60.5467 98.1667 71.9947 80.2543 66.7699 56.0968 54.3103 81.0546 62.716 56.0415 54.1547 56.8628 109.576
threshold=2.9416469335556035 35.671077728271491 0.47816628217697149 83136.285156250015 43.500000000000007 -18.673327445983883 19.54583835601807 20.771069526672367 95719.070312500015 23.371795654296879 93482.433593750015 11.50564479827881 13.710981369018556 1.4816564321517947 44.809932708740241 104025.36718750001 104789.75390625001 80036.484375000015 46.147466659545906 -32.821426391601555 0.1707413047552109 2.5000000000000004 8.5000000000000018 7.5000000000000009 109.50000000000001 44.500000000000007 47.802093505859382 1.2530488371849062 53.411397933959968 104679.41796875001 0.052167328074574477
decision_type=2 2 2 2 2 8 2 2 2 2 10 10 10 2 2 2 2 10 2 2 2 2 2 2 2 2 2 2 10 10 2
left_child=2 3 4 6 14 -6 13 8 10 -10 -3 -11 -13 -2 15 -1 -17 -5 19 -19 -21 -22 -23 -18 25 26 -14 -28 29 -7 -31
right_child=1 7 -4 17 5 28 -8 -9 9 11 -12 12 24 -15 -16 16 23 18 -20 20 21 22 -24 -25 -26 -27 27 -29 -30 30 -32
leaf_value=-0.0045602928180261083 0.030143427791261137 0.0020797037495237946 -0.012459159452582108 0.037542509411396488 0.028869084198701676 0.0053636069429393463 0.042414162849066329 -0.0098538734507996294 0.018070221463328651 -0.0064312635834842318 0.018105402957605737 0.024230335118178396 -0.016458299427678926 0.0085226770658070276 -0.0069650787971253366 0.029900333068667816 0.011557466142425258 0.0024705785903233117 -0.00053715861805298751 -0.028237154113276503 -0.0030305382686980605 0.033365944024218566 0.01394093828986637 -0.0019940113175919436 -0.018568268566714792 0.026440663820782327 0.02442638886968386 -0.018693303915078764 0.021166356061208376 0.022780894317518587 -0.0078674255304078521
leaf_weight=1936.8390952050686 114.952855437994 1978.9061715304852 759.73836979269981 37.337564289569855 74.736725926399231 1166.4922840595245 56.516120433807373 527.55449253320694 113.62237748503685 1773.1694386601448 220.9823115170002 129.80843666195869 141.46532168984413 591.05492258071899 2052.4352266788483 101.63844054937363 364.82485896348953 1710.1009560525417 1712.9793548882008 29.076033085584641 139.3756160736084 195.12369674444199 425.60773676633835 628.3133225440979 111.93446138501167 86.636496365070343 75.186224758625031 32.636306315660477 111.38193729519844 100.49846342206001 716.10234925150871
leaf_count=5604 325 5681 2199 106 215 3369 160 1522 327 5125 635 373 411 1688 5945 293 1047 4927 4941 85 403 559 1224 1823 324 250 216 94 320 287 2077
internal_value=0.000190783 0.00221838 -0.00239117 0.00534932 -0.00133649 0.00342523 0.0142976 -0.000804052 0.000219456 -0.00287825 0.00368994 -0.00389115 0.00390487 0.0120447 -0.00336828 -0.000933004 0.00548376 0.00374349 0.00344354 0.00617205 0.0141919 0.0158165 0.020049 0.00298372 -0.00198624 0.00353861 -0.00442057 0.0113686 0.00251673 0.00146874 -0.00409434
internal_weight=18217 10204 8013 5012.12 7253.26 2169.21 762.524 5191.9 4664.35 2464.46 2199.89 2350.84 577.667 706.008 5084.05 3031.62 1094.78 4249.6 4212.26 2499.28 789.183 760.107 620.731 993.138 447.859 335.924 249.288 107.823 2094.48 1983.09 816.601
internal_count=52555 29376 23179 14418 20980 6268 2173 14958 13436 7120 6316 6793 1668 2013 14712 8767 3163 12245 12139 7198 2271 2186 1783 2870 1295 971 721 310 6053 5733 2364
is_linear=0
shrinkage=0.0274897


Tree=13
num_leaves=32
num_cat=0
split_feature=2 1 40 11 10 13 42 13 34 60 1 10 10 32 46 10 34 27 39 15 14 15 67 14 22 13 42 79 14 42 114
split_gain=236.932 78.5366 76.7111 71.5074 63.5048 77.8416 57.3361 74.7095 61.3438 61.0217 58.6134 57.0872 78.1369 65.1709 62.6956 57.6143 55.5771 76.5622 69.8357 55.5513 65.9308 53.9621 53.7011 53.2861 52.6807 54.3756 53.9686 58.014 52.8367 73.1761 52.5743
threshold=0.001000570831820369 1.0000000180025095e-35 10.500000000000002 51.481655120849616 5.3724718093872079 3.7607817649841313 100039.49218750001 3.2870560884475712 20.245697021484379 5.5000000000000009 1.0000000180025095e-35 9.5143094062805194 9.6130075454711932 82969.656250000015 0.96685582399368297 25.257496833801273 -5.9310696125030509 41.500000000000007 97002.097656250015 364.50000000000006 126.66836547851564 249.50000000000003 -16.951544761657711 31.627190589904789 31.500000000000004 12.187230587005617 109268.50781250001 98.500000000000014 40.24737739562989 107569.47265625001 72.343318939208999
decision_type=2 2 2 2 2 2 8 2 10 2 2 2 2 8 8 2 10 2 10 2 2 2 10 2 2 2 10 10 2 10 2
left_child=1 2 3 11 5 -4 8 30 10 -9 16 14 -13 -14 24 21 17 19 -19 20 -2 -15 -23 -16 26 -26 27 28 29 -1 -8
right_child=6 -3 4 -5 -6 -7 7 9 -10 -11 -12 12 13 15 23 -17 -18 18 -20 -21 -22 22 -24 -25 25 -27 -28 -29 -30 -31 -32
leaf_value=0.015917519070045093 -0.010418007435508326 0.0058420971886278964 0.020207512399240783 -0.015849987931359805 -0.013712531963338236 -0.0098412246400087135 -0.010091495110988594 0.0017383651317898158 0.0033307209091544567 -0.015611477695983198 -0.0018559037291187466 -0.019084318930832244 -0.021176925350618079 0.003485708132224151 -0.015253946001207311 0.027521272491754133 -0.011202615287645086 0.015123212022936495 -0.018283260039922578 -0.024064770366559848 0.0068885561014969052 0.024999340942450012 -0.012535155205608311 0.0023966057485120145 0.0043331612646450293 -0.016968449618241632 0.019987958923734749 0.025807141813214741 -0.00097883844493988994 -0.011872909235384326 0.0067165105947147334
leaf_weight=444.56551519036293 512.15473970770836 3999.2820165455341 114.91638925671577 163.39526396989822 459.8963508605957 150.33951660990715 875.762679874897 3431.9871307313442 580.33747211098671 160.31915435194969 1597.3526995182037 165.2115623652935 97.435539662837982 1285.1738668382168 177.44083291292191 63.995757013559341 1935.6792353093624 237.10092231631279 59.033002287149429 132.90010499954224 246.29685208201408 31.824718564748764 300.63474217057228 475.62258794903755 639.37727189064026 105.46814808249474 334.85682681202888 116.87928429245949 505.71644407510757 85.304953694343567 167.47678020596504
leaf_count=1187 1372 10679 307 437 1230 402 2344 9180 1553 429 4275 442 261 3434 475 171 5187 634 158 356 659 85 804 1271 1708 282 894 312 1351 228 448
internal_value=-0.000165051 0.00288703 0.000820116 0.00203363 -0.0075344 0.00317553 -0.0031499 -0.000916739 -0.00510266 0.00096382 -0.00613958 0.00263887 -0.00100173 0.000677465 0.00509233 0.00194434 -0.00833028 -0.00364763 0.00846105 -0.00767119 -0.00479722 0.000931746 -0.00893897 -0.00239878 0.00728422 0.00131574 0.0102728 0.00744917 0.00537615 0.0114422 -0.00739263
internal_weight=19653.7 9717.34 5718.06 4992.9 725.152 265.256 9936.4 4635.55 5300.86 3592.31 4720.52 4829.51 1944.28 1779.06 2885.23 1681.63 3123.16 1187.49 296.134 891.352 758.452 1617.63 332.459 653.063 2232.17 744.845 1487.32 1152.47 1035.59 529.87 1043.24
internal_count=52555 25960 15281 13342 1939 709 26595 12401 14194 9609 12641 12905 5197 4755 7708 4494 8366 3179 792 2387 2031 4323 889 1746 5962 1990 3972 3078 2766 1415 2792
is_linear=0
shrinkage=0.0274897


Tree=14
num_leaves=32
num_cat=0
split_feature=5 5 7 19 58 63 36 16 28 5 7 2 30 46 95 13 36 18 24 14 58 13 39 39 33 33 62 64 47 28 16
split_gain=546.424 87.9338 114.748 73.7121 102.709 78.15 69.6572 63.3729 77.7868 67.1463 62.0655 88.9579 64.4743 56.9229 55.9636 50.3343 47.2662 46.9278 46.7914 47.9856 51.8109 46.8767 46.5881 104.139 47.1393 73.1418 48.4679 50.0553 44.61 65.6549 42.7975
threshold=0.14848227798938754 0.063617814332246794 4.5000000000000009 102460.64453125001 66.500000000000014 0.61844080686569225 376.50000000000006 544.70004272460949 61.532421112060554 0.38630087673664099 5.5000000000000009 0.00067656935425475251 157.31361389160159 3.1692332029342656 30.500000000000004 1.4333204627037051 351.50000000000006 -21.131402969360348 28.500000000000004 100.84370803833009 90.500000000000014 0.26983503997325903 103905.22656250001 102800.72265625001 257.50000000000006 222.50000000000003 8.5000000000000018 1.0000000180025095e-35 58.500000000000007 -172.93344116210935 1162.7604980468752
decision_type=2 2 2 2 2 2 2 2 2 2 2 2 10 10 2 2 2 10 10 2 2 2 10 10 2 2 2 2 2 2 2
left_child=1 -1 -3 4 7 22 17 -2 9 13 11 -4 15 28 -8 -13 -12 -5 21 -20 -21 -19 23 24 25 26 -6 -28 30 -30 -9
right_child=3 2 10 6 5 -7 14 8 -10 -11 16 12 -14 -15 -16 -17 -18 18 19 20 -22 -23 -24 -25 -26 -27 27 -29 29 -31 -32
leaf_value=-0.015244179006997012 -0.0011704158427649938 -0.0085106301546549086 -0.0024925099973707641 0.046779228392947805 0.0087863083167630304 0.070708190109301225 0.064407321973454362 0.008311259788274572 -0.0017635542484741066 -0.0020660538414269307 -0.006236777803918906 -0.018149532285004467 0.063948040537253975 0.045424382816249061 0.0018135643299176526 0.0150224944046478 0.043602806390690085 0.046708250123664648 0.0083009362207197551 0.025861784957187273 -0.012549323132713001 0.00033153705245681376 -0.015608665563677218 0.079711467779672932 -0.009789101334555815 0.054555461283385683 0.010777098172135293 0.051180042343800296 0.071581273976793147 0.014383771414914743 0.030698722612134237
leaf_weight=734.78676176071167 1894.7777987420559 2707.7479840219021 521.60494442284107 26.331665456295013 513.14796209335327 17.445805266499519 32.928310677409172 556.88847763836384 563.27095074951649 224.76464429497719 752.25947165489197 37.938445702195168 18.876738995313644 43.953471705317497 16.079125434160233 385.28419981896877 14.631838157773016 17.151538074016571 494.54152446985245 275.76111555099487 29.328050151467323 400.63805539906025 43.821931481361389 17.529853582382202 68.215264886617661 32.278408065438271 47.858233824372292 45.000071376562119 23.443222060799599 42.998256400227547 72.99496853351593
leaf_count=3748 9233 13571 2608 125 2481 82 149 2676 2743 1102 3770 189 93 208 76 1897 70 81 2377 1305 142 1934 214 83 334 154 232 213 110 205 350
internal_value=-2.16512e-05 -0.00643549 -0.00497698 0.00600966 0.00424577 0.0132119 0.0117512 0.00218859 0.00635331 0.0110914 0.000551637 0.00519585 0.0142676 0.0150869 0.0438927 0.0120468 -0.00528377 0.0104834 0.00969695 0.0135925 0.0221669 0.00223943 0.0119026 0.0135689 0.0119242 0.0142459 0.0120957 0.030371 0.0131695 0.034593 0.0109076
internal_weight=10674.3 5173.13 4438.34 5501.15 4208.39 785.298 1292.76 3423.09 1528.31 965.043 1730.6 963.704 442.099 740.278 49.0074 423.223 766.891 1243.75 1217.42 799.631 305.089 417.79 767.852 724.03 706.5 638.285 606.006 92.8583 696.325 66.4415 629.883
internal_count=52555 25946 22198 26609 20420 3793 6189 16627 7394 4651 8627 4787 2179 3549 225 2086 3840 5964 5839 3824 1447 2015 3711 3497 3414 3080 2926 445 3341 315 3026
is_linear=0
shrinkage=0.0274897


Tree=15
num_leaves=32
num_cat=0
split_feature=26 61 26 57 15 11 48 38 31 8 57 19 14 34 24 24 37 14 13 26 31 19 34 15 38 39 13 31 31 13 26
split_gain=103.809 115.462 130.323 98.5628 100.594 79.2861 72.7902 87.5879 72.7971 72.6524 68.8605 67.508 99.604 63.7931 62.1753 69.1421 65.1625 63.9803 81.9016 60.8988 74.0935 72.8746 77.65 67.9954 97.0077 99.657 79.6644 79.4695 64.0579 92.9434 63.8755
threshold=79831.351562500015 74841.062500000015 66633.855468750015 84433.394531250015 268.50000000000006 39.787225723266609 0.94455429911613475 275.50000000000006 57.772855758666999 0.00022786621411796662 119757.68359375001 84590.464843750015 56.818143844604499 13.448011398315431 298.50000000000006 200.50000000000003 0.43565411865711218 222.03117370605472 6.4741630554199228 113583.44921875001 70.716579437255874 117793.76171875001 -16.480523109436032 52.500000000000007 299.50000000000006 108733.91406250001 0.64166420698165905 39.475399017333991 46.121131896972663 19.939947128295902 102955.05468750001
decision_type=8 10 10 10 2 2 2 2 10 2 8 2 2 10 10 10 2 2 2 10 10 2 10 2 2 10 2 10 10 2 10
left_child=1 2 5 6 11 13 7 -3 -8 -2 14 -5 -13 -1 15 17 -17 19 -19 20 23 22 -21 -11 25 26 27 -25 29 -26 -28
right_child=9 3 -4 4 -6 -7 8 -9 -10 10 -12 12 -14 -15 -16 16 -18 18 -20 21 -22 -23 -24 24 28 -27 30 -29 -30 -31 -32
leaf_value=0.036555105929636303 0.018470736666079814 0.026757960348439875 -0.0082897035484672203 -0.012105788437976207 0.02999918627883107 -0.0053957836061863645 -0.011791255708225992 -0.0015515089184938637 0.028923849946926761 -0.0046250232859791412 -0.013224512812036824 0.036409583161070069 -0.002668996398002044 -0.00032060964665290567 -0.014410655057094468 0.026027982314458346 0.0041247516218524847 0.041865052353016199 0.0028153037942984815 -0.010689346556894071 0.016611190847978793 0.0011703673955533417 0.032737433276165268 0.026132917726909916 -0.013114187838656251 -0.0071214613127556859 0.00066472847391337855 -0.014365846327522499 0.0013863838313054391 0.016165572985428246 0.010013738359749041
leaf_weight=120.36739400029182 148.28931760787964 485.11465868353844 667.82935357093811 257.02092605829239 85.551926165819168 97.26023918390274 107.49147868156433 99.489427804946899 47.973593145608902 3908.5482444763184 333.12992477416992 67.742514848709106 180.65681797266006 50.208274871110916 242.20849019289017 126.45029604434967 545.21848165988922 59.366921663284302 128.30530345439911 40.480572730302811 171.63998851180077 376.03060713410378 134.07746145129204 182.14962512254715 945.72033962607384 1034.7903555333614 6341.446759134531 45.789820700883865 502.09003403782845 89.659677982330322 604.93870159983635
leaf_count=337 420 1370 1932 741 243 278 307 286 136 11296 980 193 520 143 704 363 1572 167 369 116 492 1084 383 523 2744 3004 18298 132 1450 258 1744
internal_value=0.000102397 0.00560734 -0.00179213 0.0108092 0.00243686 0.0144064 0.0174937 0.0219395 0.000772124 -0.000679398 -0.000859054 -0.00222888 0.00798901 0.0256995 -0.000592876 -0.000373166 0.00824992 -0.00077087 0.0151748 -0.000979076 -0.00133613 0.00798623 0.0226636 -0.00156179 -0.000333318 0.000853501 0.00200386 0.0179944 -0.00667042 -0.0105779 0.00147901
internal_weight=18227 2266.71 935.665 1331.04 590.972 267.836 740.069 584.604 155.465 15960.3 15812 505.42 248.399 170.576 15478.9 15236.7 671.669 14565 187.672 14377.4 13826.8 550.589 174.558 13655.1 9746.59 8209.12 7174.32 227.939 1537.47 1035.38 6946.39
internal_count=52585 6486 2690 3796 1697 758 2099 1656 443 46099 45679 1454 713 480 44699 43995 1935 42060 536 41524 39941 1583 499 39449 28153 23701 20697 655 4452 3002 20042
is_linear=0
shrinkage=0.0274897


Tree=16
num_leaves=32
num_cat=0
split_feature=5 19 3 3 3 83 24 44 38 66 3 46 42 38 3 34 69 16 1 114 54 16 36 57 48 36 84 24 3 82 46
split_gain=219.847 78.5399 70.3087 69.5301 54.777 66.0538 61.4436 59.0714 54.0738 62.1432 61.6988 54.2907 53.1744 103.515 49.6199 49.5487 62.2335 48.3266 49.69 49.5468 50.4307 47.6347 51.8699 47.3997 51.9391 46.326 46.0048 45.4532 61.4835 48.7699 44.3039
threshold=0.13156978040933612 118111.41796875001 125964.51953125001 135803.31250000003 120863.98828125001 19.500000000000004 129.50000000000003 1.0000000180025095e-35 461.50000000000006 30.500000000000004 85684.820312500015 4.9543430805206308 99206.656250000015 120.50000000000001 86728.511718750015 23.135198593139652 11.500000000000002 103.57764816284181 1.0000000180025095e-35 68.904010772705092 -0.07912100106477736 598.06436157226574 188.50000000000003 105056.66015625001 0.19996418058872226 430.50000000000006 1.6490785479545595 131.50000000000003 132120.81250000003 3.5000000000000004 -1.6998519897460935
decision_type=2 2 2 2 2 2 10 2 2 2 2 10 8 2 2 10 2 2 2 2 2 2 2 10 2 2 2 10 2 2 10
left_child=1 3 -3 17 5 6 8 27 9 11 -11 12 25 26 -12 16 21 -1 -19 20 -20 22 -9 -15 -25 30 -14 28 -6 -29 -2
right_child=4 2 -4 -5 7 -7 -8 15 -10 10 14 -13 13 23 -16 -17 -18 18 19 -21 -22 -23 -24 24 -26 -27 -28 29 -30 -31 -32
leaf_value=0.0084467518801002329 -0.011933406147907909 0.0039016198009484654 0.029740649127241007 -0.029372596975810732 -0.00044545730188602265 0.036860338117435013 -0.0097106705263828186 0.0039984762731845522 0.0083474841886000579 -0.020019327999117736 0.030680103479683318 0.023011238185963775 0.012313248035953227 0.013256583382710532 -0.0065131555912764788 0.017504671877210724 -0.026069622733387435 0.00014457149655165949 0.0011706615889135249 -0.0012573023949677181 0.010070526424732031 -0.010131678807085926 -0.019307446781642753 -0.026220232175930377 0.0093391235376457504 -0.024145513011854105 -0.0059129270441235825 0.01671093242857959 0.0212648535145675 -0.00038307576926325246 -0.0024194546100730374
leaf_weight=1072.1238281428814 442.01284283399582 160.22039678692818 158.20081305503845 50.35628667473793 1750.3683951795101 29.961741924285889 1207.3729088902473 571.64170336723328 304.71642366051674 276.72136384248734 27.669940292835236 65.118553817272186 117.68408209085464 559.71252897381783 1265.247659265995 73.686814516782761 103.82647466659546 3900.1510765254498 731.63820144534111 732.89417299628258 1406.0416943430901 513.11267724633217 82.561780542135239 52.669539451599121 75.486321270465851 88.825789093971252 942.59246775507927 317.74672496318817 104.42997342348099 209.03535410761833 2267.665214151144
leaf_count=2863 1185 428 422 135 4681 80 3235 1529 815 742 74 174 315 1497 3389 197 278 10422 1953 1958 3753 1374 221 141 202 238 2523 849 279 559 6074
internal_value=-7.53203e-05 0.00335713 0.0167422 0.00281704 -0.00253705 -0.00385776 -0.00401653 0.000200165 -0.00295647 -0.00351382 -0.00823839 -0.00190564 -0.00226275 0.00149843 -0.00571619 -0.00440552 -0.00567636 0.00302388 0.00216508 0.00491008 0.00702476 -0.00386152 0.0010558 0.00980347 -0.00527346 -0.00461242 -0.00388921 0.00280113 0.000776896 0.00992712 -0.00397169
internal_weight=19661.5 8211.63 318.421 7893.21 11449.9 7723.46 7693.5 3726.41 6486.12 6181.41 1569.64 4611.77 4546.65 1748.14 1292.92 1344.83 1271.14 7842.85 6770.73 2870.57 2137.68 1167.32 654.203 687.868 128.156 2798.5 1060.28 2381.58 1854.8 526.782 2709.68
internal_count=52585 21934 850 21084 30651 20684 20604 9967 17369 16554 4205 12349 12175 4678 3463 3599 3402 20949 18086 7664 5706 3124 1750 1840 343 7497 2838 6368 4960 1408 7259
is_linear=0
shrinkage=0.0274897


Tree=17
num_leaves=32
num_cat=0
split_feature=2 44 3 58 9 7 61 57 38 64 13 47 12 10 3 22 34 7 18 15 3 80 10 21 18 24 21 20 3 10 3
split_gain=509.722 142.676 92.2836 100.291 83.1758 102.202 91.8842 142.087 122.327 72.4351 61.1194 89.0468 70.5389 102.202 67.9989 64.3532 60.0864 59.5708 58.7684 80.9514 56.7456 50.1831 48.0632 55.8242 46.7653 46.5862 46.5487 50.3568 52.4908 45.6733 76.0668
threshold=0.00095060135936364542 1.0000000180025095e-35 135509.66406250003 31.500000000000004 -63.829313278198235 3.5000000000000004 80553.832031250015 87989.203125000015 69.500000000000014 1.0000000180025095e-35 6.4707806110382089 42.500000000000007 99627.917968750015 9.5855684280395526 118119.30468750001 94.500000000000014 -3.3912682533264156 5.5000000000000009 -15.677424430847166 249.50000000000003 103290.82031250001 -0.54246163368225087 11.440769195556642 17.146422386169437 29.844936370849613 289.50000000000006 18.047664642333988 1.5180823206901553 121817.26171875001 9.5855684280395526 108773.43750000001
decision_type=2 2 2 2 2 2 10 10 2 2 2 2 8 2 2 2 10 2 10 2 2 2 2 10 10 10 10 8 2 2 2
left_child=1 9 22 -4 5 6 -2 8 -8 -1 11 14 18 21 15 -7 -9 -13 19 -12 -10 -14 24 -24 -3 -6 -25 28 -28 -18 -31
right_child=4 2 3 -5 25 10 7 16 20 -11 12 17 13 -15 -16 -17 29 -19 -20 -21 -22 -23 23 26 -26 -27 27 -29 -30 30 -32
leaf_value=-0.01373261481791058 -0.00804285338993177 -0.0052835481636773936 0.090420918086702162 -0.0013537554494278171 0.00084989083955586749 0.045923183090114054 0.059243950373782862 0.0001046701309805107 0.043802403731754112 -0.0046301291709154209 0.045765259993358003 0.024856479912043868 0.0060000110093439514 0.00015413975584752115 0.013270548592029781 0.0052829175594940334 0.0056342491585262494 -0.014568523363146822 -0.0048118711939127961 -0.013230689364784149 -0.0031729965401626906 0.04637825052840705 -0.0083694317591509765 0.055407766164372159 0.036984138035212652 0.035555884851990356 -0.0023322803575399429 0.036033844421757694 0.020743339227165494 0.050077208350687304 0.012657341751194543
leaf_weight=1876.9730154126883 348.51371657848358 1266.4285307228565 17.291838124394417 18.706533223390579 2265.5590356439352 181.17652127146721 70.169708415865898 948.61441832780838 27.839296266436577 1019.8331423401833 45.371249079704285 50.834586247801781 30.302517920732498 100.28291903436184 116.71273812651634 35.199809610843658 747.38307178020477 67.232869476079941 261.52843160927296 28.646461650729179 64.149040073156357 100.59925898909569 168.13638104498386 16.679539442062378 20.066564038395882 29.584561049938202 235.20628839731216 44.53736300766468 108.97308306396008 47.16129058599472 316.78671351075172
leaf_count=9652 1720 6334 79 91 11030 842 325 4596 127 5107 216 237 143 478 556 168 3573 326 1268 140 306 468 841 81 99 142 1161 216 535 220 1508
internal_value=-3.60586e-05 -0.00669112 -0.000828239 0.0427495 0.00538509 0.00799903 0.00507937 0.00713776 0.0319119 -0.0105283 0.0153716 0.0229221 0.0093593 0.0210426 0.0301928 0.0393156 0.00518692 0.00240356 0.00130725 0.0229291 0.0110464 0.037038 -0.00167248 0.00494518 -0.00462314 0.00129787 0.0104688 0.00853562 0.00497339 0.00952449 0.0175109
internal_weight=10676.5 4792.83 1896.03 35.9984 5883.65 3588.5 2570.62 2222.1 162.158 2896.81 1017.89 451.157 566.731 231.185 333.089 216.376 2059.95 118.067 335.546 74.0177 91.9883 130.902 1860.03 573.533 1286.5 2295.14 405.396 388.717 344.179 1111.33 363.948
internal_count=52585 24196 9437 170 28389 17217 12375 10655 758 14759 4842 2129 2713 1089 1566 1010 9897 563 1624 356 433 611 9267 2834 6433 11172 1993 1912 1696 5301 1728
is_linear=0
shrinkage=0.0274897


Tree=18
num_leaves=32
num_cat=0
split_feature=56 56 3 4 57 10 32 108 88 53 7 10 27 3 4 18 3 88 82 14 46 21 9 33 9 15 18 84 28 18 18
split_gain=101.792 109.704 132.745 94.264 65.3915 70.0877 94.7279 94.3903 86.0428 62.5167 61.6722 94.2379 92.076 122.37 87.4072 91.3712 84.7631 83.2459 72.0488 63.4979 61.8181 57.7901 56.5647 55.3398 89.1194 83.3318 54.4396 65.7851 64.2043 54.4108 90.1306
threshold=81546.808593750015 75885.554687500015 4690.8940429687509 0.10389854758977891 119757.68359375001 19.949247360229496 82969.656250000015 3.5000000000000004 23.000000000000004 3.5000000000000004 4.5000000000000009 3.367205142974854 43.500000000000007 125964.51953125001 0.49348992109298712 0.5854792892932893 125242.74218750001 69.000000000000014 1.0000000180025095e-35 46.426137924194343 2.9660922288894658 46.411775588989265 -15.411790847778319 268.50000000000006 -39.50733566284179 597.50000000000011 -1.2603335976600645 1.6185789108276369 362.12142944335943 -12.746609687805174 3.5016629695892338
decision_type=8 10 2 2 8 2 8 2 2 2 2 2 2 2 2 10 2 2 2 2 10 10 2 2 2 2 10 2 2 10 10
left_child=1 2 -1 22 5 10 8 23 -7 -3 11 26 -12 17 20 18 -17 19 -16 -14 21 -13 -2 -8 25 -25 27 -5 -28 -11 -31
right_child=3 9 -4 4 -6 6 7 -9 -10 29 12 14 13 -15 15 16 -18 -19 -20 -21 -22 -23 -24 24 -26 -27 28 -29 -30 30 -32
leaf_value=0.023597996923707704 0.028323874255003257 -0.013306753832398511 -0.0050131085967456196 0.02419097747600147 -0.012933362467224332 -0.019829840208234844 -0.012834810506654111 0.037492568085774919 0.031301483434196919 0.026301390041277295 -0.0059893597064920989 0.0058422216105767878 0.0066309273879925608 -0.012942602825178642 0.01814309820750638 -0.0028657317067086728 -0.023058893647984729 -0.0047703895753760644 0.0018208578730907476 0.023632348346795659 0.029329972609403676 -0.012402793284530231 -0.00015593432633727728 -0.018090281849610423 0.022470160502731165 0.034949049170439631 -0.00092393087346250285 -0.0094722344589608341 0.037556392846339111 0.0031008813529804229 0.024353350786556777
leaf_weight=145.17594265937805 135.07456758618355 64.853313416242599 785.21879032254219 45.827109754085541 330.9934030175209 34.747847229242325 987.35084447264671 32.69560831785202 87.254954159259796 225.55764678120613 2592.8744195401669 3571.5918852686882 564.09647971391678 298.73391819000244 233.31816068291664 1494.166171848774 175.53293597698212 330.15417343378067 1646.6385792791843 235.31165805459023 81.79751655459404 136.1534304022789 86.347020834684372 153.1831533908844 96.025513499975204 26.185482084751129 1925.2476096153259 1010.7649455070496 33.307505071163177 424.43446400761604 233.93916255235672
leaf_count=405 380 186 2270 131 980 101 2864 94 246 635 7509 10294 1626 868 668 4315 514 955 4739 676 234 395 245 445 277 75 5572 2927 95 1205 659
internal_value=0.000100016 0.00615916 -0.000547642 -0.000596563 -0.000841242 -0.000587759 -0.00641971 -0.00860092 0.0167334 0.0127363 -1.2675e-05 0.00110936 -0.00290197 0.00270241 0.00279033 -0.000309243 -0.00498924 0.00684068 0.00384707 0.0116367 0.0056938 0.00517202 0.0172167 -0.00979554 0.00109926 -0.0103405 -0.00298213 -0.00801114 -0.000268782 0.014648 0.0106539
internal_weight=18224.6 1879.18 930.395 16345.4 16124 15793 1417.44 1295.44 122.003 948.785 14375.5 10354.3 4021.17 1428.3 7339.2 3549.66 1669.7 1129.56 1879.96 799.408 3789.54 3707.75 221.422 1262.74 275.394 179.369 3015.15 1056.59 1958.56 883.931 658.374
internal_count=52585 5360 2675 47225 46600 45620 4102 3755 347 2685 41518 29884 11634 4125 21159 10236 4829 3257 5407 2302 10923 10689 625 3661 797 520 8725 3058 5667 2499 1864
is_linear=0
shrinkage=0.0274897


Tree=19
num_leaves=32
num_cat=0
split_feature=8 1 28 40 51 0 15 42 14 43 21 21 0 48 0 0 56 69 28 18 27 43 18 0 18 16 42 51 27 84 76
split_gain=187.05 76.838 68.1497 64.949 62.1674 103.199 74.9034 61.7704 61.0397 66.4594 61.4603 60.7438 60.5893 64.9806 57.7668 55.7164 52.4864 52.9903 50.8332 49.5512 60.3182 60.3468 60.0711 68.9183 55.5875 54.3045 54.1163 66.575 49.0051 47.8943 47.6627
threshold=0.00095294910715892922 1.0000000180025095e-35 29.319952011108402 10.500000000000002 -6.4854702949523917 5.1345410346984872 66.500000000000014 109225.82031250001 222.03117370605472 2.6292454004287724 44.947196960449226 47.715265274047859 3.015052437782288 0.35095213353633886 4.4363276958465585 2.8451241254806523 117403.45703125001 9.5000000000000018 -3.4592428207397456 -4.0110323429107657 11.500000000000002 -1.5543372631072996 6.4125735759735116 3.4302974939346318 2.2792273759841923 762.39837646484386 100849.96875000001 22.370685577392582 30.500000000000004 2.0730469226837163 6.5000000000000009
decision_type=2 2 2 2 10 2 2 10 2 10 10 10 2 2 2 2 8 2 2 8 2 10 10 2 10 2 10 10 2 2 2
left_child=1 3 4 12 5 6 -2 -6 9 10 19 28 15 -14 -9 16 17 -1 -5 26 24 -22 23 -23 -21 -24 27 -4 -7 -25 -28
right_child=2 -3 8 18 7 11 -8 14 -10 -11 -12 -13 13 -15 -16 -17 -18 -19 -20 20 21 22 25 29 -26 -27 30 -29 -30 -31 -32
leaf_value=-0.00024477048292253535 0.011581665110629316 0.0055723877660371745 -0.01178794723364141 -0.015655658904580472 -0.0087279715090795868 0.0050447585567427091 -0.0082166413224937628 -0.0035704134906304375 -0.018150206978201099 0.022064264716803336 0.0094391359181859296 -0.011940240225288914 -3.6048561050469969e-05 -0.014437290496300258 0.017556577025535758 0.017624774970029455 0.026599638068408767 0.007042652603300394 -0.00063166259637941694 -0.014404248783077101 -0.017033471735404683 0.0015263819263015366 0.003740936171173906 0.023807170044302221 0.00023767796834049107 -0.014684322202413089 0.025566692017727644 0.01333788838532167 0.021226075351258412 0.0025570757681253413 -0.0011520032925190339
leaf_weight=2211.7558537721634 165.16616722941399 3993.7039866447449 825.61872014403343 306.48230090737343 2823.7582857012749 448.1782785654068 1146.8220459222794 417.33213412761688 139.10667276382446 103.90926331281662 449.14822372794151 109.75838327407837 1066.1679408252239 304.35956424474716 127.70235365629196 200.7634197473526 68.175554424524307 1143.9408150613308 382.80555486679077 299.3441344499588 95.24946802854538 323.8141947388649 609.67361715435982 314.34876570105553 566.93175959587097 150.74371987581253 57.662513434886932 88.164913862943649 206.72125548124313 107.6599697470665 402.06547728180885
leaf_count=5909 442 10662 2215 820 7573 1199 3072 1117 374 278 1202 294 2851 815 341 536 182 3056 1024 802 255 866 1632 840 1518 404 154 236 552 288 1076
internal_value=-7.27612e-05 0.00265013 -0.00271365 0.000596945 -0.00478645 -0.00104512 -0.00572367 -0.00709257 -0.000223727 0.00034374 -0.000182318 0.00698153 0.00168857 -0.00323478 0.00137934 0.00355031 0.00272476 0.00223936 -0.00731295 -0.00130751 0.00102161 0.00418264 0.00552488 0.011068 -0.00482158 8.73054e-05 -0.00549252 -0.00936286 0.0101539 0.0183877 0.0021994
internal_weight=19657 9678.15 9978.88 5684.45 5445.44 2076.65 1311.99 3368.79 4533.44 4394.33 4290.43 764.658 4995.16 1370.53 545.034 3624.64 3423.87 3355.7 689.288 3841.28 2467.77 1601.49 1506.24 745.823 866.276 760.417 1373.51 913.784 654.9 422.009 459.728
internal_count=52585 25855 26730 15193 14590 5559 3514 9031 12140 11766 11488 2045 13349 3666 1458 9683 9147 8965 1844 10286 6605 4285 4030 1994 2320 2036 3681 2451 1751 1128 1230
is_linear=0
shrinkage=0.0274897


Tree=20
num_leaves=32
num_cat=0
split_feature=6 0 1 0 44 1 52 45 0 6 0 6 69 0 38 80 27 40 17 6 0 28 50 28 30 27 38 49 14 82 6
split_gain=478.154 338.956 169.235 119.84 102.848 94.9885 81.9565 114.816 81.08 83.0521 84.5607 77.421 74.4403 63.6229 89.5114 59.9539 58.3329 60.6754 57.7843 53.9775 52.7108 52.2636 55.0089 52.1458 51.4903 56.399 51.2869 50.0524 49.7629 49.3105 48.4681
threshold=139.36317443847659 4.3883492946624765 1.0000000180025095e-35 2.5489027500152592 1.0000000180025095e-35 1.0000000180025095e-35 81424.734375000015 0.39830060303211218 2.4483230113983159 66.602512359619155 1.2754277586936953 192.05979919433597 10.500000000000002 4.2222113609313974 114.50000000000001 -0.23203074187040326 31.500000000000004 23.500000000000004 197.50000000000003 238.57832336425784 8.6244525909423846 -126.98006439208983 1.0000000180025095e-35 76.19653701782228 217.08349609375003 33.500000000000007 356.50000000000006 1.0000000180025095e-35 45.477746963500984 2.5000000000000004 110.98435974121095
decision_type=2 2 2 2 2 2 10 2 2 2 2 2 2 2 2 2 2 2 2 2 2 2 2 2 10 2 2 2 2 2 2
left_child=2 3 8 11 -3 12 -6 -8 9 -1 -11 27 13 21 -15 29 17 30 -4 23 -21 22 28 -9 25 -17 -18 -2 -5 -14 -12
right_child=1 4 18 5 6 -7 7 19 -10 10 16 -13 15 14 -16 24 26 -19 -20 20 -22 -23 -24 -25 -26 -27 -28 -29 -30 -31 -32
leaf_value=-0.0088371626474614239 0.0096251598836913418 -0.0066360488724335927 -0.008755398568376269 -0.01088719865968844 -0.014392358310134376 -0.00028382558293663497 0.001727989074630539 -0.0070860825183935256 -0.0075292913448110578 0.021570673794025913 0.00090129272253492039 0.032744342304886466 0.010902005635244672 0.061309995652281978 0.0020211373266294211 0.0017669851997707017 -0.0085927080695037475 0.051598703362283206 -0.018267683755720184 0.044686675734745974 0.00061885094662492851 0.0029674190437955022 -0.0048373993294640507 0.033557328039857233 0.045027834423252214 0.025716798633612321 0.019735733765850073 0.026980847924142775 0.028948395205025412 0.052655582529018065 0.017322047318530095
leaf_weight=420.08764892816544 426.12949740886688 1519.0379630178213 1346.5982665717602 27.216876089572906 141.71339316666126 706.63069747388363 578.83714589476585 59.071861088275909 1171.3950185924768 201.82669167220592 445.85961681604385 257.65553312003613 30.758319422602654 39.321161583065987 37.701112180948257 173.86796541512012 408.1536893248558 22.718584403395653 752.54688954353333 106.32875487208366 25.442413553595543 818.06796911358833 67.145371228456497 39.963784605264664 40.437714010477066 129.79836143553257 54.742607399821281 178.13630101084709 181.72312711179256 70.404625087976456 195.37109224498272
leaf_count=2151 2030 7464 6904 130 710 3470 2794 284 5870 968 2227 1176 144 173 180 820 2035 107 3941 489 121 3884 320 188 187 609 267 822 847 322 951
internal_value=-3.67202e-05 0.00544431 -0.00621245 0.0113714 -0.00219707 0.00812282 0.00489013 0.00826615 -0.00193252 0.00181621 0.00518498 0.0201258 0.0117981 0.00815962 0.0323061 0.021366 0.0022493 0.00747189 -0.012166 0.0246589 0.0361837 0.00645866 0.0168005 0.00931409 0.0158921 0.012007 -0.00524055 0.0147434 0.0237562 0.0399716 0.00590568
internal_weight=10674.7 5655.39 5019.3 3184.99 2470.4 2323.07 951.357 809.644 2920.15 1748.76 1328.67 861.921 1616.44 1171.18 77.0223 445.267 1126.85 663.949 2099.15 230.807 131.771 1094.15 276.085 99.0356 344.104 303.666 462.896 604.266 208.94 101.163 641.231
internal_count=52585 27164 25421 15114 12050 11086 4586 3876 14576 8706 6555 4028 7616 5534 353 2082 5587 3285 10845 1082 610 5181 1297 472 1616 1429 2302 2852 977 466 3178
is_linear=0
shrinkage=0.0274897


Tree=21
num_leaves=32
num_cat=0
split_feature=0 80 61 10 4 14 3 6 98 7 46 32 84 61 3 42 107 81 3 46 16 58 46 49 42 14 21 30 0 45 21
split_gain=105.696 104.285 93.7715 129.987 87.1331 85.369 75.2884 84.31 80.6084 75.0265 75.8636 78.5672 69.2223 68.0631 94.4149 67.1046 84.8759 65.8661 72.8276 67.5301 80.4216 64.8825 64.8065 59.6215 68.987 71.5954 70.4058 69.4249 66.4933 69.7272 64.013
threshold=2.9416469335556035 0.43417888879776007 82183.941406250015 19.714021682739261 0.10389854758977891 34.736511230468757 114423.20703125001 63.647487640380866 0.2820467501878739 4.5000000000000009 1.3365579247474673 96786.214843750015 1.6590315699577334 74841.062500000015 4690.8940429687509 102996.97656250001 425.02030944824224 4.5000000000000009 104491.33984375001 1.1531912088394167 375.06118774414068 123.50000000000001 3.0643745660781865 1.0000000180025095e-35 107379.94921875001 32.026195526123054 29.101848602294925 -78.827342987060533 1.9698029160499575 -0.52152320742607106 37.703290939331062
decision_type=2 2 10 2 2 2 2 2 10 2 10 10 2 10 2 10 2 2 2 10 2 2 10 2 8 2 10 10 2 2 10
left_child=1 4 5 6 -1 21 15 -8 -9 10 11 12 -10 14 -7 16 -4 18 22 20 -20 -2 -15 24 25 27 28 -6 29 -26 -28
right_child=2 -3 3 -5 23 13 7 8 9 -11 -12 -13 -14 17 -16 -17 -18 -19 19 -21 -22 -23 -24 -25 26 -27 30 -29 -30 -31 -32
leaf_value=0.016177669181425755 0.022947192720365876 -0.010336424057296682 0.0095763098026502205 -0.0097772021200604829 0.015125472495259385 0.026108493707228814 0.024972015940606444 -0.0058167149917108061 0.027473954135752213 -0.0090171129825776537 -0.0053992401176400674 0.01041872450531733 -0.0049405052951363038 0.032976861243970972 -0.008841208099648409 -0.0051647715201857099 -0.0037041255550644254 -0.015498994710665908 0.022984010723500585 -0.0080576783873059568 0.0032180214951668877 -0.020267923994806154 0.0055071001597158621 -0.0049057015188089231 0.034204572691826057 0.006881855360892284 0.011764205653287722 -0.0047721866461100746 -0.015245293169126472 -0.0041589203745509501 -0.012593420204844363
leaf_weight=215.21689981222153 325.30529549717903 1048.5165288448334 1936.1475179493427 816.64841541647911 152.64083626866341 67.727123320102692 96.653465628623962 1631.8688246905804 54.978365987539291 404.9712435901165 524.64042785763741 1225.8393861651421 524.58564135432243 165.43648025393486 423.43973478674889 393.91482147574425 447.69013479351997 83.593381464481354 237.65122520923615 201.18592736124992 450.43182989954948 28.526596426963806 106.88698774576187 2555.3384335935116 38.151460647583008 1560.4383073449135 309.46728786826134 1003.3588815927505 504.40828490257263 575.07927662134171 110.65574461221695
leaf_count=605 917 3047 5547 2371 442 188 275 4730 156 1173 1519 3533 1511 463 1220 1137 1288 240 668 576 1277 82 302 7425 111 4505 898 2911 1476 1668 324
internal_value=9.77586e-05 -0.00224956 0.0019652 0.000619284 -0.0010424 0.00715357 0.00179187 -0.000419262 -0.000981515 0.00190329 0.0038016 0.00647563 -0.00186365 0.00464515 -0.00401983 0.00534505 0.00708199 0.00806349 0.0097599 0.00594972 0.0100462 0.0194604 0.0221984 -0.00158678 0.000406668 0.00304061 -0.0042458 -0.00214414 -0.00785229 -0.00177001 0.00534709
internal_weight=18221.4 8073.27 10148.1 8057.94 7024.76 2090.18 7241.29 4463.54 4366.88 2735.02 2330.04 1805.4 579.564 1736.35 491.167 2777.75 2383.84 1245.19 1161.59 889.269 688.083 353.832 272.323 6809.54 4254.2 2716.44 1537.76 1156 1117.64 613.231 420.123
internal_count=52585 23412 29173 23240 20365 5933 20869 12897 12622 7892 6719 5200 1667 4934 1408 7972 6835 3526 3286 2521 1945 999 765 19760 12335 7858 4477 3353 3255 1779 1222
is_linear=0
shrinkage=0.0274897


Tree=22
num_leaves=32
num_cat=0
split_feature=2 1 40 30 10 13 18 13 79 29 31 98 38 22 94 30 38 27 13 10 106 14 51 29 29 56 38 13 56 113 1
split_gain=192.764 84.2843 68.0669 58.6262 50.2007 70.5254 48.7762 55.514 55.719 55.3872 65.1871 70.3453 50.0622 48.769 48.1571 95.3782 75.5207 59.9372 60.9919 56.8479 56.6876 48.016 47.3675 77.9445 74.8414 59.8255 83.8585 54.2761 62.9066 53.6147 53.3725
threshold=0.00098493852419778726 1.0000000180025095e-35 10.500000000000002 162.34226989746097 5.3724718093872079 3.9085789918899541 25.682058334350589 19.268215179443363 98.500000000000014 15.014887332916262 51.909543991088874 0.56428074836730968 335.50000000000006 35.500000000000007 3.5000000000000004 60.560214996337898 320.50000000000006 16.500000000000004 8.2733960151672381 12.910828590393068 24.500000000000004 96.858074188232436 21.116122245788578 71.375667572021499 22.400179862976078 95489.597656250015 461.50000000000006 3.2870560884475712 95521.765625000015 1.4066959619522097 1.0000000180025095e-35
decision_type=2 2 2 8 2 2 10 2 10 10 10 8 2 2 2 10 2 2 2 2 2 2 8 8 8 10 2 2 10 2 2
left_child=1 2 3 6 5 -4 7 8 9 12 21 -12 -1 -10 16 -16 17 18 19 -3 -17 -11 23 25 -24 26 30 28 -27 -30 -2
right_child=22 14 4 -5 -6 -7 -8 -9 13 10 11 -13 -14 -15 15 20 -18 -19 -20 -21 -22 -23 24 -25 -26 27 -28 -29 29 -31 -32
leaf_value=-0.00065114218797822159 -0.0076557368625101178 0.00087482229176416766 0.019011329053582767 -0.010978941648168884 -0.012897062555689603 -0.010737532223681342 -0.011464074588733875 -0.0086547204017946074 0.019940268778336961 0.01064538736447765 -0.016082981895873084 0.018150328212449888 0.016651199885858309 -0.0096911669859171875 -0.014938465207576522 0.0017003210073060857 0.018883483034506078 0.0085899835208224241 0.0096942815401774504 -0.016169153462791189 0.026759379800777479 -0.015698037920377696 -0.013412283374134125 -0.020552551713124732 0.0075877047908859364 0.026113513246713856 0.014263575691468553 0.0013664464010278825 -0.010917384369944064 0.0063674371266619987 -0.0015931731892540012
leaf_weight=2273.9742996394634 3197.2276994884014 487.08788669109344 108.99071767926216 261.33233663439751 453.19038015604019 134.50120380520821 184.17399182915688 290.36731672286987 255.50363820791245 1203.9368853271008 162.7598729133606 62.848020613193512 133.77776247262955 50.182487934827805 237.34613329172134 327.60839375853539 367.32811543345451 1892.8763315081596 354.79289025068283 212.2933743596077 86.15231129527092 54.622008860111237 158.57584902644157 193.60354033112526 669.83310675621033 43.475232511758804 166.48896390199661 3054.3360405266285 735.35650643706322 166.2156348824501 1671.1771131753922
leaf_count=6077 8584 1300 291 700 1214 360 493 777 682 3215 436 168 357 134 634 875 980 5052 947 567 230 146 425 521 1793 116 445 8173 1971 445 4477
internal_value=-6.99825e-05 0.00271715 0.00055485 0.00169079 -0.00748821 0.00257704 0.00239962 0.00296873 0.00377294 0.00288511 0.00706201 -0.00654331 0.000310156 0.0150738 0.00578701 -0.0010471 0.00712972 0.00566437 0.000410575 -0.00429847 0.00692063 0.00950137 -0.0027295 -0.00329481 0.00356694 -0.00292486 -0.0049186 -0.000414764 -0.00617194 -0.00773007 -0.00557476
internal_weight=19651.9 9595.65 5630.16 4933.48 696.682 243.492 4672.15 4487.97 4197.6 3891.92 1484.17 225.608 2407.75 305.686 3965.49 651.107 3314.38 2947.05 1054.17 699.381 413.761 1258.56 10056.3 9227.88 828.409 9034.28 5034.89 3999.38 945.047 901.572 4868.4
internal_count=52585 25635 15050 13185 1865 651 12485 11992 11215 10399 3965 604 6434 816 10585 1739 8846 7866 2814 1867 1105 3361 26950 24732 2218 24211 13506 10705 2532 2416 13061
is_linear=0
shrinkage=0.0274897


Tree=23
num_leaves=32
num_cat=0
split_feature=2 0 1 0 9 3 1 3 3 22 58 96 45 0 4 0 0 21 45 4 9 56 20 88 41 36 2 100 25 12 56
split_gain=471.554 312.25 161.982 128.722 130.188 99.0638 93.0166 91.203 75.0138 85.1667 72.1406 61.834 57.9561 54.6567 69.7633 69.3237 54.362 84.2272 69.4144 54.1982 51.3758 67.0635 60.0128 58.9317 54.2956 51.2093 58.8058 51.156 50.8112 49.9808 63.3887
threshold=0.00095060135936364542 4.3883492946624765 1.0000000180025095e-35 2.0047610998153691 -63.829313278198235 131597.00000000003 1.0000000180025095e-35 132669.53906250003 122186.38281250001 97.500000000000014 63.500000000000007 235.95851135253909 0.45470431447029119 2.4483230113983159 0.21416608244180682 1.2754277586936953 2.7103594541549687 19.938873291015629 0.28763060271739965 0.496558427810669 -122.06625747680663 83718.441406250015 -0.1296320557594299 93.000000000000014 105339.19531250001 393.50000000000006 0.0012920503504574301 13.500000000000002 267.50000000000006 93657.906250000015 94381.792968750015
decision_type=2 2 2 2 2 2 2 2 2 2 2 2 2 2 2 2 2 10 2 2 2 10 8 2 2 2 2 2 2 8 10
left_child=2 3 7 12 8 19 11 13 9 16 27 -3 -2 14 -1 -16 17 -5 -19 -6 24 22 -22 29 28 -21 -27 -9 -18 -23 -31
right_child=1 6 -4 4 5 -7 -8 10 -10 -11 -12 -13 -14 -15 15 -17 20 18 -20 25 21 23 -24 -25 -26 26 -28 -29 -30 30 -32
leaf_value=-0.008669873667878282 0.025843867806383966 -0.00065687862825210199 -0.012680046914130225 0.067354804243529076 -0.0059425097869393664 0.049704915202522675 -0.0097351144976624438 0.046086240994406183 0.0055891056623316266 -0.0016274486454080771 -0.015755608896888276 0.014577474779253852 -0.0035713354657283046 -0.0080345176561827762 0.020996400585896489 0.00098281415545491569 0.03893054396455372 0.0089535722270614165 0.06388142951552106 0.0039022636416875972 0.054281058569627672 -0.015452079448532025 0.015430306831450554 0.057450151701584129 0.073717545555514546 0.0014114938728533261 0.074387946144268538 0.0059870728867162139 0.012690011749348503 0.029533042651545358 0.00050859999091411616
leaf_weight=492.67069315910339 486.61565351486206 1418.2185225635767 1911.5616509318352 46.145837247371674 547.11858211457729 31.797310411930084 838.5000034570694 64.065273642539978 575.164042070508 142.77374890446663 32.842874333262444 234.6111581325531 56.453131020069122 1131.1218387633562 152.40365478396416 921.76306083798409 103.44802844524384 72.669918596744537 22.845613464713097 699.3053025752306 48.081723004579544 75.265995532274246 80.25494247674942 16.494438603520393 18.544569656252861 16.338225454092026 17.06184609234333 38.538093641400337 121.19680696725845 84.466611012816429 173.99938435852528
leaf_count=2520 2253 6890 10020 203 2691 153 4178 304 2701 681 169 1111 267 5704 718 4569 463 325 99 3335 220 359 371 74 82 77 80 192 560 392 824
internal_value=-3.79954e-05 0.00513196 -0.00649636 0.0105045 0.00819878 0.00179512 -0.00227761 -0.00232427 0.0135097 0.0180366 0.0196848 0.00150545 0.0227851 -0.00342957 -0.000104786 0.00382327 0.0212888 0.0368618 0.0221104 0.000603422 0.0182303 0.0129989 0.0299978 0.00676659 0.0285204 0.00549206 0.0387341 0.0310351 0.024779 0.00425582 0.00999775
internal_weight=10672.3 5927.37 4744.97 3436.04 2892.97 1311.62 2491.33 2833.41 1581.35 1006.19 135.446 1652.83 543.069 2697.96 1566.84 1074.17 863.414 141.661 95.5155 1279.82 721.753 478.563 128.337 350.226 243.189 732.705 33.4001 102.603 224.645 333.732 258.466
internal_count=52585 28389 24196 16210 13690 6336 12179 14176 7354 4653 665 8001 2520 13511 7807 5287 3972 627 424 6183 3345 2240 591 1649 1105 3492 157 496 1023 1575 1216
is_linear=0
shrinkage=0.0274897


Tree=24
num_leaves=32
num_cat=0
split_feature=52 53 4 10 57 4 55 46 31 31 55 19 46 42 38 18 22 48 7 19 10 4 28 13 35 18 11 46 5 42 71
split_gain=85.0046 89.7266 86.8704 71.5754 68.3652 65.0512 72.8324 74.123 63.4677 61.829 60.5361 58.6082 73.4595 55.6367 55.0742 71.2649 68.8135 55.0725 62.9497 76.2498 73.9088 85.4645 71.5321 71.2076 63.2957 61.8169 85.319 59.7549 59.5291 56.7706 70.4779
threshold=82874.996093750015 3.5000000000000004 0.10389854758977891 19.949247360229496 119757.68359375001 1.3378639221191408 -1.078167676925659 1.1531912088394167 57.772855758666999 -54.930368423461907 -1.9092810153961179 83384.902343750015 -2.3107817173004146 101344.91796875001 372.50000000000006 10.024729251861574 85.500000000000014 1.5484401583671572 4.5000000000000009 102763.40625000001 3.367205142974854 0.49348992109298712 362.12142944335943 18.924934387207035 275.50000000000006 0.5854792892932893 43.380756378173835 2.9660922288894658 0.31568075716495519 110722.35937500001 0.09176430851221086
decision_type=8 2 2 2 8 2 2 10 10 8 2 2 10 10 2 10 2 2 2 2 2 2 2 2 2 10 2 10 2 10 2
left_child=1 -1 -2 4 10 6 -3 9 -9 -8 13 12 -5 -4 15 16 -11 18 20 -20 22 27 23 24 -12 26 -23 29 -25 -22 -31
right_child=2 5 3 11 -6 -7 7 8 -10 14 17 -13 -14 -15 -16 -17 -18 -19 19 -21 21 25 -24 28 -26 -27 -28 -29 -30 30 -32
leaf_value=-0.0092346125624649961 0.01646719148749861 -0.016367253612584867 0.025677200659754543 -0.019062936262937057 -0.012640560966405047 0.023491606619575365 -0.023605756937903809 -0.0051123872100836956 0.01357896827017047 0.017037367485655833 -0.0047206700752757827 -0.0086313343830051979 0.027228917388416048 -0.00045646324783564236 -0.018394384600302665 0.041574583281802802 -0.0074958772406302958 -0.01388120877707816 -0.0058674501820659298 0.001986744341466591 0.0064297585539439088 0.0073655331124058317 0.027650397558019357 0.022621105535181773 0.034678526015381836 -0.0044455041770935918 -0.005965730475683044 0.028910827603191126 -0.017040392920347994 -0.0085464825992722041 0.016601410344443835
leaf_weight=273.34291499853134 223.07931742072105 103.47370249032974 132.27525949478149 38.856283068656921 328.7555984556675 177.15747344493866 33.420510619878769 452.53536084294319 197.02842319011688 571.57330501079559 2608.9208747148514 1231.0517506301403 77.553452491760254 115.06017774343491 36.51667645573616 75.035837173461914 101.73630708456039 218.83281156420708 2474.755334764719 1500.1983912289143 3137.68376070261 1144.0756902694702 58.148719668388367 133.30059191584587 31.153283447027206 1576.5493009388447 531.16390991210938 80.979257792234421 36.371507734060287 411.41031017899513 105.85539475083351
leaf_count=790 625 298 378 114 980 499 95 1297 558 1605 7564 3585 219 333 107 210 290 637 7185 4344 9021 3280 165 385 88 4568 1528 230 106 1196 305
internal_value=9.58353e-05 0.00541049 -0.000567592 -0.000805559 -0.000246967 0.00770038 0.00591932 0.00749099 0.000556689 0.0129947 3.80129e-05 -0.00686808 0.0117721 0.013519 0.0145546 0.0161636 0.0133295 -0.000199305 1.71649e-05 -0.00290306 0.001195 0.00272011 -0.00252078 -0.00314561 -0.00425523 -0.000538373 0.00313829 0.00555644 0.0141148 0.00503866 -0.00339856
internal_weight=18217.9 2021.82 16196 15973 14625.5 1748.48 1571.32 1467.85 649.564 818.283 14296.7 1347.46 116.41 247.335 784.862 748.345 673.31 14049.4 13830.6 3974.95 9855.61 6987.72 2867.89 2809.75 2640.07 3251.79 1675.24 3735.93 169.672 3654.95 517.266
internal_count=52585 5749 46836 46211 42293 4959 4460 4162 1855 2307 41313 3918 333 711 2212 2105 1895 40602 39965 11529 28436 20128 8308 8143 7652 9376 4808 10752 491 10522 1501
is_linear=0
shrinkage=0.0274897


Tree=25
num_leaves=32
num_cat=0
split_feature=5 3 32 3 9 34 13 3 49 81 38 14 34 13 30 13 13 9 14 40 79 38 36 9 67 9 32 30 3 38 36
split_gain=185.004 66.6344 58.6153 61.9326 54.5658 50.4045 57.3785 56.3442 82.6628 56.3771 53.3066 55.8482 90.1693 56.5644 53.9146 55.1671 53.046 52.8824 52.2013 59.8285 56.2257 48.7172 56.6501 48.0459 63.9004 47.9302 62.4405 47.4838 46.3968 59.9703 45.4884
threshold=0.13156978040933612 135803.31250000003 117978.50781250001 125964.51953125001 -47.478582382202141 21.37832069396973 12.187230587005617 117505.67968750001 1.0000000180025095e-35 1.5000000000000002 526.50000000000011 118.81210327148439 -6.7667148113250724 8.6165027618408221 41.864166259765632 4.2487604618072519 9.2869429588317889 -234.33133697509763 57.682298660278327 16.500000000000004 25.500000000000004 269.50000000000006 272.50000000000006 -37.57600021362304 -0.24317993968725202 -62.392370223999016 107651.60546875001 -298.24314880371088 122324.12890625001 65.500000000000014 490.50000000000006
decision_type=2 2 10 2 2 8 2 2 2 2 2 2 10 2 10 2 2 2 2 2 10 2 2 2 8 2 10 10 2 2 2
left_child=1 2 4 -4 25 7 -7 10 9 17 11 13 14 18 15 -13 -10 -9 19 20 -2 -11 -23 24 -15 26 -1 -19 -27 -30 -20
right_child=5 -3 3 -5 -6 6 -8 8 16 21 -12 12 -14 23 -16 -17 -18 27 30 -21 -22 22 -24 -25 -26 28 -28 -29 29 -31 -32
leaf_value=0.0076231021191529337 0.0028428568490730804 -0.028515840562160961 0.0038161842016670223 0.02850718349870425 0.0041007063094441595 -0.0023176942270873788 0.012008038278968274 0.02186858764140704 -0.0023979444280778296 0.0081338748664538576 0.010457301577059088 -0.024930791717918514 -0.01510458154507217 -0.0023210875647987315 0.030566005619668258 0.0026373516092398257 -0.014232571109668827 -0.020570590328776936 -0.011163030859825635 -0.022215035582397121 -0.0089288173270893976 -0.011266162973596065 0.018979373201303655 -0.009760962173465405 0.0084540074255020515 -0.0084536030543219624 -0.011390348083611706 -0.0014782532730231179 -0.016167348234121359 0.012328412865894981 0.021962090630775439
