tree
version=v4
num_class=1
num_tree_per_iteration=1
label_index=0
max_feature_idx=117
objective=binary sigmoid:1
feature_names=session_range_pct session_london ad_line realized_vol_20 atr_pct parkinson_vol kc_width macd_hist_min_50 atr_14 ema200_1d_dist_pct day_of_week weekly_pivot_times_tested_this_week squeeze_mom_peak_since_fire adx_peak_50 minutes_into_session wt_last_os_depth vwap_daily wt_last_ob_depth bars_since_ema200_touch_1h macd_hist_max_50 dist_to_nearest_weekly_pivot_pct vwap_upper_band wt1_1h vfi_1h wt_bars_since_os_exit bars_since_ema50_touch_1h ema50_1d_dist_pct squeeze_momentum_at_fire wt_bars_since_ob_exit vwap_lower_band vwap_band_position vwap_session weekly_pivot_S3 adx_1h session_sydney session_tokyo pivot_S3 overlap_sydney_tokyo pivot_times_tested_today wt2_1h ema200_1h_dist_pct atr_percentile ema20_1d_dist_pct adx_bars_since_weak rsi_bars_since_ob vfi_signal macd_hist_1h ema21_1h_dist_pct weekly_pivot_S2 rsi_bars_since_os pivot_touch_count_today vfi_1h_direction ema9_1h_dist_pct minutes_to_session_close ema50_bounce_5bar_5m squeeze_duration_last vwap_dist_pct vfi weekly_pivot_R3 active_session_count pivot_R2 pivot_R3 divergence_freshness ema100_1h_dist_pct kama_dist_pct ema_stack_1d ema50_1h_dist_pct pivot_S2 bars_since_volume_spike ema50_pivot_confluence nearest_weekly_pivot_type autocorrelation_5 adx_bars_since_trend squeeze_count_200 pivot_R1 pivot_P overlap_london_ny pivot_S1 rsi_os_count_100 autocorrelation_1 stoch_bars_since_green hurst_exponent swing_range_pct nearest_pivot_type bb_width price_entropy swing_high_dist_pct rsi_ob_count_100 session_new_york ema21_bounce_5bar_5m lower_lows_count_20 weekly_pivot_zone stoch_bars_in_ob vwap_session_dist_pct adx bars_since_squeeze_release ema21_pivot_confluence bars_since_pivot_touch macd_hist_1h_direction stoch_bars_in_os cloud_dist_pct swing_low_dist_pct macd_signal_5min pivot_zone wt_ob_count_100 dist_from_range_low_20_pct rsi_time_above_50_pct higher_highs_count_20 stoch_red_count_50 weekly_pivot_R1 weekly_pivot_P weekly_pivot_S1 mean_reversion_score macd_bars_since_zero_cross return_60bar wt_os_count_100 dist_to_nearest_pivot_pct stoch_bars_since_red
feature_infos=[0.61513602733612061:13.782705307006836] [0:1] [88760.0390625:137852.203125] [8.5863313870504498e-05:0.01085265725851059] [0.0087995817884802818:1.4340786933898926] [5.5937041906872764e-05:0.012363499961793423] [0.019226456061005592:4.4757275581359863] [-495.83294677734375:2.12270188331604] [9.445429801940918:1476.5750732421875] [5.5382261276245117:19.430305480957031] [0:6] [0:407] [0.22924642264842987:3925.673095703125] [13.451381683349609:73.06451416015625] [0:475] [0.0019368119537830353:37.068862915039062] [75668.640625:123911.9375] [0.016868563368916512:40.3931884765625] [0:253] [-14.943637847900391:632.06256103515625] [1.122901539929444e-05:15.034049987792969] [75954.28125:124025.390625] [-88.182548522949219:87.342460632324219] [-41.162704467773438:37.399154663085938] [0:959] [0:162] [-17.834375381469727:14.034335136413574] [-868.7244873046875:841.523681640625] [0:985] [75017.84375:123641.140625] [-10.869976997375488:19.797540664672852] [75668.640625:123911.9375] [69864:112604.1953125] [7.1107816696166992:70.190780639648438] [0:1] [0:1] [71306.40625:117438.3671875] [0:1] [0:245] [-87.192070007324219:85.882904052734375] [-14.619240760803223:8.1063356399536133] [1:100] [-12.606088638305664:9.0240192413330078] [0:602] [0:1084] [-46.404373168945312:50.382484436035156] [-947.87347412109375:884.88946533203125] [-5.9296054840087891:7.4919681549072266] [74292.140625:114820.9375] [0:793] [0:245] [-3.9137835502624512:4.6830606460571289] [-4.4246482849121094:5.9312829971313477] [65:540] [-7.4363870620727539:5.7884368896484375] [1:42] [-7.352180004119873:6.1316432952880859] [-48.335681915283203:52.423240661621094] [88313.8828125:127393.1640625] [1:2] [80670.265625:124898.609375] [82438.1953125:127277.03125] [0:268] [-10.649415016174316:8.4197168350219727] [-3.3939468860626221:3.0870776176452637] [1:3] [-8.2414636611938477:8.6802473068237305] [74142.3515625:119031.484375] [0:402] [5.518118996405974e-06:21.490543365478516] [0:6] [-0.58241415023803711:0.53519302606582642] [0:302] [0:13] [79578.03125:123778.3515625] [77810.1015625:121965.046875] [0:1] [75731.9453125:120151.7421875] [0:9] [-0.58439028263092041:0.72736251354217529] [0:308] [0.35013970732688904:0.68065643310546875] [-1.751104474067688:9.0835409164428711] [0:6] [0.045124556869268417:10.448933601379395] [0.69400840997695923:2.2854504585266113] [-7.2437162399291992:5.3780994415283203] [0:11] [0:1] [-6.9568295478820801:7.0712380409240723] [2:16] [0:5] [1:36] [-7.352180004119873:6.1316432952880859] [6.1424469947814941:73.06451416015625] [0:470] [3.4689539461396635e-05:23.837089538574219] [0:514] [-288.9520263671875:402.79330444335938] [1:31] [-6.2957077026367188:8.782374382019043] [-5.5719184875488281:6.6317267417907715] [-956.9478759765625:1543.36962890625] [0:5] [0:8] [0:7.1733627319335938] [0:100] [2:15] [0:9] [84821.5625:122490.9453125] [81361.2734375:119561] [77027.0390625:116631.0546875] [-3:3] [0:198] [-7.0950827598571777:10.327567100524902] [0:7] [1.1113543223473243e-06:6.9740653038024902] [0:230]
tree_sizes=3538

Tree=0
num_leaves=32
num_cat=0
split_feature=1 8 29 51 73 42 29 44 25 25 69 25 3 32 32 68 18 72 16 15 42 15 98 44 46 40 25 72 54 46 56
split_gain=265.611 207.89 169.585 129.749 127.3 149.017 138.738 137.788 172.777 151.446 132.629 131.669 131.428 154.87 167.359 127.93 127.603 123.723 122.981 119.264 116.241 194.501 155.057 133.164 119.454 115.425 165.221 124.938 121.475 118.725 129.481
threshold=1.0000000180025095e-35 217.60457611083987 118120.54296875001 1.8323484063148501 5.5000000000000009 -2.313323855400085 92345.500000000015 261.50000000000006 21.500000000000004 28.500000000000004 3.6349383592605595 21.500000000000004 0.00032176644890569156 88403.734375000015 98137.433593750015 113.50000000000001 73.500000000000014 23.500000000000004 118171.64062500001 28.372121810913089 -0.74006369709968556 10.886949062347414 -26.812608718872067 421.50000000000006 322.31826782226568 3.4729330539703374 48.500000000000007 16.500000000000004 0.10843666270375253 -154.39314270019528 0.008307987358421089
decision_type=2 2 10 2 2 2 8 2 2 2 2 2 2 2 2 2 2 2 2 2 2 2 2 2 2 2 2 2 2 2 2
left_child=1 4 3 20 7 6 10 11 -9 -10 -6 19 -13 16 -15 -16 17 -14 -3 -1 21 -2 -22 24 -23 26 27 -7 -27 -29 -31
right_child=2 18 -4 -5 5 25 -8 8 9 -11 -12 12 13 14 15 -17 -18 -19 -20 -21 22 23 -24 -25 -26 28 -28 29 -30 30 -32
leaf_value=-0.74264674592638946 -0.72500849098395159 -0.73488322371293557 -0.71620050439415128 -0.71417304616177502 -0.75583886376004239 -0.73106500298566712 -0.76880039011855772 -0.77452774394900803 -0.70525794328816338 -0.76038494672735979 -0.71399687373000753 -0.70933576008324084 -0.76925548322755077 -0.77585972429649408 -0.75616867313988767 -0.70758234818557786 -0.71965726832073418 -0.73132951755486064 -0.77340575141983325 -0.79771766574964398 -0.75439931085254419 -0.74805814967748152 -0.73815347380284924 -0.71362815972281401 -0.69350580157958097 -0.77903049647265266 -0.70623046280450241 -0.714371712155217 -0.74136082796432212 -0.75969440898705232 -0.73781690407639799
leaf_weight=2692.1707308292389 1170.5506473630667 2282.7885036468506 320.30247113108635 185.8416822552681 147.98791132867336 1012.2917407304049 252.12146039307117 305.7455612719059 61.115341678261757 98.117133945226669 93.386076718568802 47.501292824745178 150.88176186382771 388.28911855816841 335.30389727652073 46.633907973766327 129.87151929736137 114.14022681117058 64.360018581151962 30.019406855106354 525.60451170802116 764.79036229848862 2863.1448626965284 110.03597255051136 31.568977907299995 98.223526880145073 134.97339141368866 85.851633712649345 189.32683664560318 394.39256447553635 424.57395629584789
leaf_count=9225 3610 7478 933 534 545 3241 992 1237 165 370 268 132 595 1581 1237 128 387 366 259 135 1921 2701 9561 315 78 406 367 247 644 1482 1415
internal_value=-0.740212 -0.743049 -0.735662 -0.736765 -0.745356 -0.740811 -0.754541 -0.748283 -0.762436 -0.739217 -0.739645 -0.746611 -0.754146 -0.755975 -0.763152 -0.750232 -0.741978 -0.752922 -0.73594 -0.743255 -0.737534 -0.732412 -0.740673 -0.741974 -0.745893 -0.737915 -0.73563 -0.737701 -0.75423 -0.745126 -0.748351
internal_weight=15551.9 9580.07 5971.84 5651.54 7232.92 2833.13 493.495 4399.79 464.978 159.232 241.374 3934.81 1212.62 1165.12 770.227 381.938 394.894 265.022 2347.15 2722.19 5465.7 2076.95 3388.75 906.395 796.359 2339.63 2052.08 1917.11 287.55 904.818 818.967
internal_count=52555 32902 19653 18720 25165 9607 1805 15558 1772 535 813 13786 4426 4294 2946 1365 1348 961 7737 9360 18186 6704 11482 3094 2779 7802 6752 6385 1050 3144 2897
is_linear=0
shrinkage=1


end of trees

feature_importances:
bars_since_ema50_touch_1h=4
wt_last_os_depth=2
vwap_lower_band=2
weekly_pivot_S3=2
ema20_1d_dist_pct=2
rsi_bars_since_ob=2
macd_hist_1h=2
adx_bars_since_trend=2
session_london=1
realized_vol_20=1
atr_14=1
vwap_daily=1
bars_since_ema200_touch_1h=1
ema200_1h_dist_pct=1
vfi_1h_direction=1
ema50_bounce_5bar_5m=1
vwap_dist_pct=1
bars_since_volume_spike=1
ema50_pivot_confluence=1
squeeze_count_200=1
macd_hist_1h_direction=1

parameters:
[boosting: gbdt]
[objective: binary]
[metric: binary_logloss]
[tree_learner: serial]
[device_type: cpu]
[data_sample_strategy: bagging]
[data: ]
[valid: ]
[num_iterations: 1000]
[learning_rate: 0.0274897]
[num_leaves: 32]
[num_threads: -1]
[seed: 42]
[deterministic: 0]
[force_col_wise: 0]
[force_row_wise: 0]
[histogram_pool_size: -1]
[max_depth: -1]
[min_data_in_leaf: 73]
[min_sum_hessian_in_leaf: 0.001]
[bagging_fraction: 0.668424]
[pos_bagging_fraction: 1]
[neg_bagging_fraction: 1]
[bagging_freq: 5]
[bagging_seed: 400]
[bagging_by_query: 0]
[feature_fraction: 0.502556]
[feature_fraction_bynode: 1]
[feature_fraction_seed: 30056]
[extra_trees: 0]
[extra_seed: 12879]
[early_stopping_round: 0]
[early_stopping_min_delta: 0]
[first_metric_only: 0]
[max_delta_step: 0]
[lambda_l1: 0.0184309]
[lambda_l2: 0.0258861]
[linear_lambda: 0]
[min_gain_to_split: 0]
[drop_rate: 0.1]
[max_drop: 50]
[skip_drop: 0.5]
[xgboost_dart_mode: 0]
[uniform_drop: 0]
[drop_seed: 17869]
[top_rate: 0.2]
[other_rate: 0.1]
[min_data_per_group: 100]
[max_cat_threshold: 32]
[cat_l2: 10]
[cat_smooth: 10]
[max_cat_to_onehot: 4]
[top_k: 20]
[monotone_constraints: ]
[monotone_constraints_method: basic]
[monotone_penalty: 0]
[feature_contri: ]
[forcedsplits_filename: ]
[refit_decay_rate: 0.9]
[cegb_tradeoff: 1]
[cegb_penalty_split: 0]
[cegb_penalty_feature_lazy: ]
[cegb_penalty_feature_coupled: ]
[path_smooth: 0]
[interaction_constraints: ]
[verbosity: -1]
[saved_feature_importance_type: 0]
[use_quantized_grad: 0]
[num_grad_quant_bins: 4]
[quant_train_renew_leaf: 0]
[stochastic_rounding: 1]
[linear_tree: 0]
[max_bin: 255]
[max_bin_by_feature: ]
[min_data_in_bin: 3]
[bin_construct_sample_cnt: 200000]
[data_random_seed: 175]
[is_enable_sparse: 1]
[enable_bundle: 1]
[use_missing: 1]
[zero_as_missing: 0]
[feature_pre_filter: 1]
[pre_partition: 0]
[two_round: 0]
[header: 0]
[label_column: ]
[weight_column: ]
[group_column: ]
[ignore_column: ]
[categorical_feature: ]
[forcedbins_filename: ]
[precise_float_parser: 0]
[parser_config_file: ]
[objective_seed: 16083]
[num_class: 1]
[is_unbalance: 0]
[scale_pos_weight: 2.14546]
[sigmoid: 1]
[boost_from_average: 1]
[reg_sqrt: 0]
[alpha: 0.9]
[fair_c: 1]
[poisson_max_delta_step: 0.7]
[tweedie_variance_power: 1.5]
[lambdarank_truncation_level: 30]
[lambdarank_norm: 1]
[label_gain: ]
[lambdarank_position_bias_regularization: 0]
[eval_at: ]
[multi_error_top_k: 1]
[auc_mu_weights: ]
[num_machines: 1]
[local_listen_port: 12400]
[time_out: 120]
[machine_list_filename: ]
[machines: ]
[gpu_platform_id: -1]
[gpu_device_id: -1]
[gpu_use_dp: 0]
[num_gpu: 1]

end of parameters

pandas_categorical:null
