tree
version=v4
num_class=1
num_tree_per_iteration=1
label_index=0
max_feature_idx=117
objective=binary sigmoid:1
feature_names=session_range_pct session_london ad_line realized_vol_20 atr_pct parkinson_vol kc_width macd_hist_min_50 atr_14 ema200_1d_dist_pct day_of_week weekly_pivot_times_tested_this_week squeeze_mom_peak_since_fire adx_peak_50 minutes_into_session wt_last_os_depth vwap_daily wt_last_ob_depth bars_since_ema200_touch_1h macd_hist_max_50 dist_to_nearest_weekly_pivot_pct vwap_upper_band wt1_1h vfi_1h wt_bars_since_os_exit bars_since_ema50_touch_1h ema50_1d_dist_pct squeeze_momentum_at_fire wt_bars_since_ob_exit vwap_lower_band vwap_band_position vwap_session weekly_pivot_S3 adx_1h session_sydney session_tokyo pivot_S3 overlap_sydney_tokyo pivot_times_tested_today wt2_1h ema200_1h_dist_pct atr_percentile ema20_1d_dist_pct adx_bars_since_weak rsi_bars_since_ob vfi_signal macd_hist_1h ema21_1h_dist_pct weekly_pivot_S2 rsi_bars_since_os pivot_touch_count_today vfi_1h_direction ema9_1h_dist_pct minutes_to_session_close ema50_bounce_5bar_5m squeeze_duration_last vwap_dist_pct vfi weekly_pivot_R3 active_session_count pivot_R2 pivot_R3 divergence_freshness ema100_1h_dist_pct kama_dist_pct ema_stack_1d ema50_1h_dist_pct pivot_S2 bars_since_volume_spike ema50_pivot_confluence nearest_weekly_pivot_type autocorrelation_5 adx_bars_since_trend squeeze_count_200 pivot_R1 pivot_P overlap_london_ny pivot_S1 rsi_os_count_100 autocorrelation_1 stoch_bars_since_green hurst_exponent swing_range_pct nearest_pivot_type bb_width price_entropy swing_high_dist_pct rsi_ob_count_100 session_new_york ema21_bounce_5bar_5m lower_lows_count_20 weekly_pivot_zone stoch_bars_in_ob vwap_session_dist_pct adx bars_since_squeeze_release ema21_pivot_confluence bars_since_pivot_touch macd_hist_1h_direction stoch_bars_in_os cloud_dist_pct swing_low_dist_pct macd_signal_5min pivot_zone wt_ob_count_100 dist_from_range_low_20_pct rsi_time_above_50_pct higher_highs_count_20 stoch_red_count_50 weekly_pivot_R1 weekly_pivot_P weekly_pivot_S1 mean_reversion_score macd_bars_since_zero_cross return_60bar wt_os_count_100 dist_to_nearest_pivot_pct stoch_bars_since_red
feature_infos=[0.54549556970596313:16.891002655029297] [0:1] [101852.078125:141393.359375] [8.5863313870504498e-05:0.021597558632493019] [0.0087995817884802818:1.9502072334289551] [5.5937041906872764e-05:0.018528565764427185] [0.019226456061005592:6.9132614135742188] [-1020.6376953125:13.420256614685059] [9.445429801940918:2205.770263671875] [-25.681266784667969:19.430305480957031] [0:6] [0:291] [0.22822143137454987:4823.546875] [14.029764175415039:73.06451416015625] [0:475] [0.0018559229793027043:37.068862915039062] [75668.640625:124810.40625] [0.0029590311460196972:37.526187896728516] [0:298] [-9.9459466934204102:424.62173461914062] [1.122901539929444e-05:15.034049987792969] [75954.28125:125084.6953125] [-92.948501586914062:87.342460632324219] [-41.162704467773438:43.512901306152344] [0:959] [0:133] [-22.55946159362793:13.186323165893555] [-868.7244873046875:746.70233154296875] [0:970] [75017.84375:124622.703125] [-10.908810615539551:19.797540664672852] [75668.640625:124810.40625] [69864:112604.1953125] [7.1107816696166992:66.345443725585938] [0:1] [0:1] [71306.40625:121531.7578125] [0:1] [0:260] [-92.071792602539062:85.882904052734375] [-14.619240760803223:8.1063356399536133] [1:100] [-14.538352966308594:9.0240192413330078] [0:602] [0:1084] [-48.8099365234375:50.382484436035156] [-947.87347412109375:872.1826171875] [-5.9296054840087891:7.4919681549072266] [74292.140625:114820.9375] [0:790] [0:260] [-3.9137835502624512:4.6830606460571289] [-4.4246482849121094:5.9312829971313477] [65:540] [-7.4363870620727539:6.3158340454101562] [1:42] [-11.987512588500977:5.9227356910705566] [-51.724800109863281:52.423240661621094] [88313.8828125:138585.765625] [1:2] [80670.265625:126572.8515625] [82438.1953125:132991.5] [0:268] [-10.649415016174316:8.4197168350219727] [-6.828557014465332:3.0870776176452637] [-3:3] [-8.2414636611938477:8.6802473068237305] [74142.3515625:122721.9296875] [0:287] [5.518118996405974e-06:30.720584869384766] [0:6] [-0.58241415023803711:0.72541946172714233] [0:246] [0:13] [79578.03125:125837.5625] [77810.1015625:124647.390625] [0:1] [75731.9453125:123457.21875] [0:10] [-0.58439028263092041:0.73460584878921509] [0:217] [0.35013970732688904:0.68065643310546875] [-1.751104474067688:13.730503082275391] [0:6] [0.045124556869268417:12.91199779510498] [0.55421024560928345:2.2864766120910645] [-12.73320198059082:3.3678948879241943] [0:11] [0:1] [-6.9568295478820801:7.0712380409240723] [2:16] [0:5] [1:45] [-11.987512588500977:5.9227356910705566] [6.1781635284423828:73.06451416015625] [0:719] [6.7498018324840814e-05:30.369043350219727] [0:514] [-243.94027709960938:362.26950073242188] [1:34] [-13.865297317504883:8.782374382019043] [-8.7172079086303711:9.8178396224975586] [-1581.4278564453125:1543.36962890625] [0:5] [0:8] [0:8.6749734878540039] [0:100] [2:15] [0:9] [84821.5625:125654.90625] [81361.2734375:120250.4609375] [77027.0390625:116631.0546875] [-3:3] [0:180] [-12.447732925415039:10.327567100524902] [0:6] [2.878227633118513e-06:13.085362434387207] [0:231]
tree_sizes=3538

Tree=0
num_leaves=32
num_cat=0
split_feature=1 63 57 11 40 19 39 13 33 56 87 98 57 55 91 90 40 15 57 66 54 117 3 54 18 18 13 15 25 11 44
split_gain=351.938 324.849 155.921 154.005 195.697 156.214 151.109 148.477 154.269 140.88 140.824 138.754 135.13 134.244 133.661 135.418 163.697 153.733 157.915 128.685 127.245 125.362 124.7 121.641 128.821 170.964 120.602 175.63 139.748 129.048 122.266
threshold=1.0000000180025095e-35 -3.8244959115982051 20.438803672790531 167.50000000000003 -2.052295327186584 74.91040420532228 21.787139892578129 22.511866569519047 46.946825027465827 0.28100463747978216 1.5000000000000002 -31.326418876647946 1.0000000180025095e-35 1.5000000000000002 4.5000000000000009 7.5000000000000009 -0.24799418449401853 6.1524977684021005 -22.785829544067379 1.0055269002914431 2.6888766288757329 81.500000000000014 0.0006503014883492143 2.2201278209686284 125.50000000000001 200.50000000000003 37.77594184875489 14.320805072784426 30.500000000000004 44.500000000000007 113.50000000000001
decision_type=2 2 2 2 2 2 2 2 2 2 2 2 2 2 2 2 2 2 2 2 2 2 2 2 2 2 2 2 2 2 2
left_child=1 9 3 13 5 -5 7 -2 -9 21 -6 12 -8 26 15 16 22 18 -17 -4 -16 -1 -15 24 -13 -26 28 29 -3 -28 -30
right_child=6 2 19 4 10 -7 11 8 -10 -11 -12 23 -14 14 20 17 -18 -19 -20 -21 -22 -23 -24 -25 25 -27 27 -29 30 -31 -32
leaf_value=-0.72368068580979361 -0.72815823896347565 -0.75569934109733072 -0.7618229009030375 -0.77320508335837534 -0.72222765511804776 -0.72840375240313637 -0.79150946787549536 -0.74587325647636837 -0.77409495383901983 -0.7685015526818112 -0.76808082118157128 -0.75112098020475437 -0.75781938055255194 -0.72152200175525005 -0.77958110882870801 -0.72241817514095685 -0.76076962345927812 -0.76799294084053493 -0.75897222405530596 -0.73390104949117463 -0.74575754337870948 -0.76354359239780956 -0.75035027042372027 -0.76624457111720423 -0.71320607949313675 -0.77136435760690469 -0.75569940212539966 -0.73881532142627404 -0.75113786239625646 -0.78584457602234703 -0.72307909698803263
leaf_weight=378.96344912052155 344.43088164925575 966.44008183479309 194.12002801895142 229.0814323425293 261.53977359831333 79.120045870542526 135.34205071628094 3594.7115924209356 152.63238519430161 85.279876247048378 62.80837020277977 984.46176977455616 268.18030697107315 163.11006644368172 528.76892530918121 95.51140308380127 898.9849915355444 2284.1561176925898 1375.5055231601 349.48427018523216 99.905590385198593 70.814256593585014 372.7142136991024 312.18826568126678 157.56321814656258 50.450019612908363 184.5762492120266 150.32591226696968 240.3137864023447 256.26658326387405 229.71992795169353
leaf_count=1057 991 3304 687 862 722 228 558 11595 577 313 230 3277 928 448 2056 264 3163 8361 4791 1045 322 253 1235 1132 407 188 631 464 800 1028 638
internal_value=-0.753632 -0.756909 -0.758143 -0.759058 -0.746009 -0.761699 -0.748414 -0.745434 -0.747023 -0.736097 -0.731104 -0.754804 -0.769121 -0.760111 -0.762234 -0.760783 -0.753599 -0.763529 -0.756598 -0.74387 -0.774206 -0.729955 -0.741571 -0.750965 -0.746965 -0.727306 -0.754019 -0.764472 -0.749718 -0.773224 -0.737421
internal_weight=15557.5 9557.51 9022.45 8478.85 632.55 308.201 5999.96 4091.77 3747.34 535.058 324.348 1908.19 403.522 7846.3 5818.66 5189.98 1434.81 3755.17 1471.02 543.604 628.675 449.778 535.824 1504.66 1192.48 208.013 2027.64 591.169 1436.47 440.843 470.034
internal_count=52555 32902 31279 29547 2042 1090 19653 13163 12172 1623 952 6490 1486 27505 20640 18262 4846 13416 5055 1732 2378 1310 1683 5004 3872 595 6865 2123 4742 1659 1438
is_linear=0
shrinkage=1


end of trees

feature_importances:
vfi=3
weekly_pivot_times_tested_this_week=2
adx_peak_50=2
wt_last_os_depth=2
bars_since_ema200_touch_1h=2
ema200_1h_dist_pct=2
ema50_bounce_5bar_5m=2
session_london=1
realized_vol_20=1
macd_hist_max_50=1
bars_since_ema50_touch_1h=1
adx_1h=1
wt2_1h=1
rsi_bars_since_ob=1
squeeze_duration_last=1
vwap_dist_pct=1
ema100_1h_dist_pct=1
ema50_1h_dist_pct=1
rsi_ob_count_100=1
lower_lows_count_20=1
weekly_pivot_zone=1
macd_hist_1h_direction=1
stoch_bars_since_red=1

parameters:
[boosting: gbdt]
[objective: binary]
[metric: binary_logloss]
[tree_learner: serial]
[device_type: cpu]
[data_sample_strategy: bagging]
[data: ]
[valid: ]
[num_iterations: 1000]
[learning_rate: 0.0274897]
[num_leaves: 32]
[num_threads: -1]
[seed: 42]
[deterministic: 0]
[force_col_wise: 0]
[force_row_wise: 0]
[histogram_pool_size: -1]
[max_depth: -1]
[min_data_in_leaf: 73]
[min_sum_hessian_in_leaf: 0.001]
[bagging_fraction: 0.668424]
[pos_bagging_fraction: 1]
[neg_bagging_fraction: 1]
[bagging_freq: 5]
[bagging_seed: 400]
[bagging_by_query: 0]
[feature_fraction: 0.502556]
[feature_fraction_bynode: 1]
[feature_fraction_seed: 30056]
[extra_trees: 0]
[extra_seed: 12879]
[early_stopping_round: 0]
[early_stopping_min_delta: 0]
[first_metric_only: 0]
[max_delta_step: 0]
[lambda_l1: 0.0184309]
[lambda_l2: 0.0258861]
[linear_lambda: 0]
[min_gain_to_split: 0]
[drop_rate: 0.1]
[max_drop: 50]
[skip_drop: 0.5]
[xgboost_dart_mode: 0]
[uniform_drop: 0]
[drop_seed: 17869]
[top_rate: 0.2]
[other_rate: 0.1]
[min_data_per_group: 100]
[max_cat_threshold: 32]
[cat_l2: 10]
[cat_smooth: 10]
[max_cat_to_onehot: 4]
[top_k: 20]
[monotone_constraints: ]
[monotone_constraints_method: basic]
[monotone_penalty: 0]
[feature_contri: ]
[forcedsplits_filename: ]
[refit_decay_rate: 0.9]
[cegb_tradeoff: 1]
[cegb_penalty_split: 0]
[cegb_penalty_feature_lazy: ]
[cegb_penalty_feature_coupled: ]
[path_smooth: 0]
[interaction_constraints: ]
[verbosity: -1]
[saved_feature_importance_type: 0]
[use_quantized_grad: 0]
[num_grad_quant_bins: 4]
[quant_train_renew_leaf: 0]
[stochastic_rounding: 1]
[linear_tree: 0]
[max_bin: 255]
[max_bin_by_feature: ]
[min_data_in_bin: 3]
[bin_construct_sample_cnt: 200000]
[data_random_seed: 175]
[is_enable_sparse: 1]
[enable_bundle: 1]
[use_missing: 1]
[zero_as_missing: 0]
[feature_pre_filter: 1]
[pre_partition: 0]
[two_round: 0]
[header: 0]
[label_column: ]
[weight_column: ]
[group_column: ]
[ignore_column: ]
[categorical_feature: ]
[forcedbins_filename: ]
[precise_float_parser: 0]
[parser_config_file: ]
[objective_seed: 16083]
[num_class: 1]
[is_unbalance: 0]
[scale_pos_weight: 2.17596]
[sigmoid: 1]
[boost_from_average: 1]
[reg_sqrt: 0]
[alpha: 0.9]
[fair_c: 1]
[poisson_max_delta_step: 0.7]
[tweedie_variance_power: 1.5]
[lambdarank_truncation_level: 30]
[lambdarank_norm: 1]
[label_gain: ]
[lambdarank_position_bias_regularization: 0]
[eval_at: ]
[multi_error_top_k: 1]
[auc_mu_weights: ]
[num_machines: 1]
[local_listen_port: 12400]
[time_out: 120]
[machine_list_filename: ]
[machines: ]
[gpu_platform_id: -1]
[gpu_device_id: -1]
[gpu_use_dp: 0]
[num_gpu: 1]

end of parameters

pandas_categorical:null
