tree
version=v4
num_class=1
num_tree_per_iteration=1
label_index=0
max_feature_idx=117
objective=binary sigmoid:1
feature_names=session_range_pct session_london ad_line realized_vol_20 atr_pct parkinson_vol kc_width macd_hist_min_50 atr_14 ema200_1d_dist_pct day_of_week weekly_pivot_times_tested_this_week squeeze_mom_peak_since_fire adx_peak_50 minutes_into_session wt_last_os_depth vwap_daily wt_last_ob_depth bars_since_ema200_touch_1h macd_hist_max_50 dist_to_nearest_weekly_pivot_pct vwap_upper_band wt1_1h vfi_1h wt_bars_since_os_exit bars_since_ema50_touch_1h ema50_1d_dist_pct squeeze_momentum_at_fire wt_bars_since_ob_exit vwap_lower_band vwap_band_position vwap_session weekly_pivot_S3 adx_1h session_sydney session_tokyo pivot_S3 overlap_sydney_tokyo pivot_times_tested_today wt2_1h ema200_1h_dist_pct atr_percentile ema20_1d_dist_pct adx_bars_since_weak rsi_bars_since_ob vfi_signal macd_hist_1h ema21_1h_dist_pct weekly_pivot_S2 rsi_bars_since_os pivot_touch_count_today vfi_1h_direction ema9_1h_dist_pct minutes_to_session_close ema50_bounce_5bar_5m squeeze_duration_last vwap_dist_pct vfi weekly_pivot_R3 active_session_count pivot_R2 pivot_R3 divergence_freshness ema100_1h_dist_pct kama_dist_pct ema_stack_1d ema50_1h_dist_pct pivot_S2 bars_since_volume_spike ema50_pivot_confluence nearest_weekly_pivot_type autocorrelation_5 adx_bars_since_trend squeeze_count_200 pivot_R1 pivot_P overlap_london_ny pivot_S1 rsi_os_count_100 autocorrelation_1 stoch_bars_since_green hurst_exponent swing_range_pct nearest_pivot_type bb_width price_entropy swing_high_dist_pct rsi_ob_count_100 session_new_york ema21_bounce_5bar_5m lower_lows_count_20 weekly_pivot_zone stoch_bars_in_ob vwap_session_dist_pct adx bars_since_squeeze_release ema21_pivot_confluence bars_since_pivot_touch macd_hist_1h_direction stoch_bars_in_os cloud_dist_pct swing_low_dist_pct macd_signal_5min pivot_zone wt_ob_count_100 dist_from_range_low_20_pct rsi_time_above_50_pct higher_highs_count_20 stoch_red_count_50 weekly_pivot_R1 weekly_pivot_P weekly_pivot_S1 mean_reversion_score macd_bars_since_zero_cross return_60bar wt_os_count_100 dist_to_nearest_pivot_pct stoch_bars_since_red
feature_infos=[0.54549556970596313:11.750151634216309] [0:1] [101852.078125:137852.203125] [8.5863313870504498e-05:0.01085265725851059] [0.0087995817884802818:1.4340786933898926] [5.5937041906872764e-05:0.010343501344323158] [0.019226456061005592:4.4757275581359863] [-495.83294677734375:2.12270188331604] [9.445429801940918:1476.5750732421875] [2.4000968933105469:19.430305480957031] [0:6] [0:407] [0.22924642264842987:3925.673095703125] [13.451381683349609:73.06451416015625] [0:475] [0.0019368119537830353:37.068862915039062] [75668.640625:123911.9375] [0.016868563368916512:40.3931884765625] [0:253] [-14.943637847900391:632.06256103515625] [1.122901539929444e-05:15.034049987792969] [75954.28125:124025.390625] [-92.948501586914062:87.342460632324219] [-41.162704467773438:37.399154663085938] [0:959] [0:162] [-17.834375381469727:13.186323165893555] [-868.7244873046875:781.12939453125] [0:985] [75017.84375:123641.140625] [-10.908810615539551:19.797540664672852] [75668.640625:123911.9375] [69864:112604.1953125] [7.1107816696166992:70.190780639648438] [0:1] [0:1] [71306.40625:117438.3671875] [0:1] [0:260] [-92.071792602539062:85.882904052734375] [-14.619240760803223:8.1063356399536133] [1:100] [-12.606088638305664:9.0240192413330078] [0:602] [0:1084] [-46.404373168945312:50.382484436035156] [-947.87347412109375:884.88946533203125] [-5.9296054840087891:7.4919681549072266] [74292.140625:114820.9375] [0:793] [0:260] [-3.9137835502624512:4.6830606460571289] [-4.4246482849121094:5.9312829971313477] [65:540] [-7.4363870620727539:6.3158340454101562] [1:42] [-5.9447498321533203:6.1316432952880859] [-48.335681915283203:52.423240661621094] [88313.8828125:127393.1640625] [1:2] [80670.265625:124898.609375] [82438.1953125:127277.03125] [0:268] [-10.649415016174316:8.4197168350219727] [-3.3939468860626221:3.0870776176452637] [-1:3] [-8.2414636611938477:8.6802473068237305] [74142.3515625:119031.484375] [0:287] [5.518118996405974e-06:30.720584869384766] [0:6] [-0.58241415023803711:0.53519302606582642] [0:302] [0:13] [79578.03125:123778.3515625] [77810.1015625:121965.046875] [0:1] [75731.9453125:120151.7421875] [0:9] [-0.58439028263092041:0.72736251354217529] [0:308] [0.35013970732688904:0.68065643310546875] [-1.751104474067688:7.683445930480957] [0:6] [0.045124556869268417:10.448933601379395] [0.69400840997695923:2.2854504585266113] [-7.2437162399291992:5.3780994415283203] [0:11] [0:1] [-6.9568295478820801:7.0712380409240723] [2:16] [0:5] [1:45] [-5.9447498321533203:6.1316432952880859] [6.1781635284423828:73.06451416015625] [0:719] [6.7498018324840814e-05:30.369043350219727] [0:514] [-288.9520263671875:402.79330444335938] [1:31] [-6.2957077026367188:8.782374382019043] [-5.5719184875488281:6.3501935005187988] [-956.9478759765625:1543.36962890625] [0:5] [0:8] [0:7.1733627319335938] [0:100] [2:15] [0:9] [84821.5625:122490.9453125] [81361.2734375:119561] [77027.0390625:116631.0546875] [-3:3] [0:198] [-7.0950827598571777:10.327567100524902] [0:7] [2.878227633118513e-06:6.9740653038024902] [0:230]
tree_sizes=3537

Tree=0
num_leaves=32
num_cat=0
split_feature=1 63 40 44 46 98 39 18 109 55 46 51 57 25 13 8 48 60 49 16 43 13 85 100 90 25 18 51 83 97 65
split_gain=351.498 159.801 202.159 156.473 154.341 146.034 149.471 259.703 170.433 160.114 138.3 124.56 151.147 139.965 139.308 133.891 124.202 122.28 121.701 118.405 124.979 116.968 157.813 134.027 127.103 150.765 169.41 143.441 135.729 119.189 116.424
threshold=1.0000000180025095e-35 -3.749663114547729 -2.7883456945419307 435.50000000000006 319.00155639648443 -66.920272827148423 -39.734674453735344 17.500000000000004 88930.753906250015 8.5000000000000018 36.996877670288093 0.39207291603088384 18.003438949584964 59.500000000000007 49.30479812622071 386.12362670898443 100635.10546875001 107640.39843750001 109.50000000000001 118302.70703125001 249.50000000000003 32.29893875122071 1.8852926492691042 1.0178843736648562 9.5000000000000018 3.5000000000000004 93.500000000000014 1.8008690476417544 1.0000000180025095e-35 26.500000000000004 2.0000000000000004
decision_type=2 2 2 2 2 2 2 2 2 2 2 2 2 2 2 2 2 2 2 2 2 2 2 2 2 2 2 2 2 2 8
left_child=1 -1 -3 4 21 17 7 8 -7 -9 -11 14 13 30 15 19 -10 -4 -14 20 -8 22 -2 24 25 -23 27 29 -26 -27 -13
right_child=3 2 5 -5 -6 6 11 9 16 10 -12 12 18 -15 -16 -17 -18 -19 -20 -21 -22 23 -24 -25 28 26 -28 -29 -30 -31 -32
leaf_value=-0.74967897216249491 -0.76806739945687252 -0.78319314103413673 -0.74013925517229473 -0.74256373400511932 -0.72290752279419324 -0.81973562955509283 -0.76660683212905134 -0.7389167860893594 -0.75344061324333556 -0.80554085427749744 -0.74332251967145735 -0.76265214776311163 -0.79011934469790923 -0.80026696873925973 -0.78678054272385056 -0.73047103389509804 -0.7817732294232913 -0.78240053824525191 -0.75032196357155712 -0.7493081271839418 -0.79998600632007622 -0.78326626209422534 -0.75134863987089184 -0.7449576255843724 -0.78666169153677279 -0.76831738936549143 -0.7506746620228818 -0.73001970764661195 -0.75459041772661195 -0.79012057421692361 -0.77861356191606257
leaf_weight=368.49663814902306 580.69396141171455 628.42636075615883 253.38779583573341 410.71748441457748 82.867086544632912 51.871845334768295 3953.3353987336159 476.74298845231533 240.21182750165462 56.767745345830917 51.425765588879585 451.0105459690094 71.975688695907593 179.28072521090508 243.89751151204109 81.237210482358932 227.90794882178307 65.055339857935905 299.88496990501881 296.01701287925243 86.58922515809536 471.07283924520016 1611.1797063052654 258.63428781926632 111.33511869609356 786.97755461931229 422.54627691209316 60.487453252077103 958.66073602437973 249.48706927895546 1474.8080775439739
leaf_count=1143 2013 2367 738 1216 213 233 13590 1377 763 239 153 1515 281 736 936 221 852 244 934 916 355 1775 5051 778 427 2732 1319 164 3067 974 5421
internal_value=-0.764156 -0.767431 -0.768143 -0.758943 -0.760146 -0.767038 -0.767744 -0.758334 -0.772472 -0.745768 -0.775969 -0.769201 -0.774183 -0.777038 -0.766553 -0.765437 -0.767232 -0.74877 -0.758026 -0.766092 -0.767322 -0.760707 -0.755777 -0.763962 -0.765569 -0.769677 -0.765465 -0.771163 -0.757927 -0.773566 -0.774875
internal_weight=15563 9558.33 9189.83 6004.66 5593.94 8561.41 8242.96 1104.93 519.992 584.936 108.194 7138.04 2476.96 2105.1 4661.08 4417.18 468.12 318.443 371.861 4335.94 4039.92 5511.08 2191.87 3319.2 3060.57 1990.57 1519.5 1096.95 1070 1036.46 1925.82
internal_count=52743 33014 31871 19729 18513 29504 28522 3617 1848 1769 392 24905 8887 7672 16018 15082 1615 982 1215 14861 13945 18300 7064 11236 10458 6964 5189 3870 3494 3706 6936
is_linear=0
shrinkage=1


end of trees

feature_importances:
adx_peak_50=2
bars_since_ema200_touch_1h=2
bars_since_ema50_touch_1h=2
macd_hist_1h=2
vfi_1h_direction=2
session_london=1
atr_14=1
vwap_daily=1
wt2_1h=1
ema200_1h_dist_pct=1
adx_bars_since_weak=1
rsi_bars_since_ob=1
weekly_pivot_S2=1
rsi_bars_since_os=1
squeeze_duration_last=1
vfi=1
pivot_R2=1
ema100_1h_dist_pct=1
ema_stack_1d=1
nearest_pivot_type=1
price_entropy=1
lower_lows_count_20=1
bars_since_pivot_touch=1
macd_hist_1h_direction=1
cloud_dist_pct=1
weekly_pivot_R1=1

parameters:
[boosting: gbdt]
[objective: binary]
[metric: binary_logloss]
[tree_learner: serial]
[device_type: cpu]
[data_sample_strategy: bagging]
[data: ]
[valid: ]
[num_iterations: 1000]
[learning_rate: 0.0274897]
[num_leaves: 32]
[num_threads: -1]
[seed: 42]
[deterministic: 0]
[force_col_wise: 0]
[force_row_wise: 0]
[histogram_pool_size: -1]
[max_depth: -1]
[min_data_in_leaf: 73]
[min_sum_hessian_in_leaf: 0.001]
[bagging_fraction: 0.668424]
[pos_bagging_fraction: 1]
[neg_bagging_fraction: 1]
[bagging_freq: 5]
[bagging_seed: 400]
[bagging_by_query: 0]
[feature_fraction: 0.502556]
[feature_fraction_bynode: 1]
[feature_fraction_seed: 30056]
[extra_trees: 0]
[extra_seed: 12879]
[early_stopping_round: 0]
[early_stopping_min_delta: 0]
[first_metric_only: 0]
[max_delta_step: 0]
[lambda_l1: 0.0184309]
[lambda_l2: 0.0258861]
[linear_lambda: 0]
[min_gain_to_split: 0]
[drop_rate: 0.1]
[max_drop: 50]
[skip_drop: 0.5]
[xgboost_dart_mode: 0]
[uniform_drop: 0]
[drop_seed: 17869]
[top_rate: 0.2]
[other_rate: 0.1]
[min_data_per_group: 100]
[max_cat_threshold: 32]
[cat_l2: 10]
[cat_smooth: 10]
[max_cat_to_onehot: 4]
[top_k: 20]
[monotone_constraints: ]
[monotone_constraints_method: basic]
[monotone_penalty: 0]
[feature_contri: ]
[forcedsplits_filename: ]
[refit_decay_rate: 0.9]
[cegb_tradeoff: 1]
[cegb_penalty_split: 0]
[cegb_penalty_feature_lazy: ]
[cegb_penalty_feature_coupled: ]
[path_smooth: 0]
[interaction_constraints: ]
[verbosity: -1]
[saved_feature_importance_type: 0]
[use_quantized_grad: 0]
[num_grad_quant_bins: 4]
[quant_train_renew_leaf: 0]
[stochastic_rounding: 1]
[linear_tree: 0]
[max_bin: 255]
[max_bin_by_feature: ]
[min_data_in_bin: 3]
[bin_construct_sample_cnt: 200000]
[data_random_seed: 175]
[is_enable_sparse: 1]
[enable_bundle: 1]
[use_missing: 1]
[zero_as_missing: 0]
[feature_pre_filter: 1]
[pre_partition: 0]
[two_round: 0]
[header: 0]
[label_column: ]
[weight_column: ]
[group_column: ]
[ignore_column: ]
[categorical_feature: ]
[forcedbins_filename: ]
[precise_float_parser: 0]
[parser_config_file: ]
[objective_seed: 16083]
[num_class: 1]
[is_unbalance: 0]
[scale_pos_weight: 2.19883]
[sigmoid: 1]
[boost_from_average: 1]
[reg_sqrt: 0]
[alpha: 0.9]
[fair_c: 1]
[poisson_max_delta_step: 0.7]
[tweedie_variance_power: 1.5]
[lambdarank_truncation_level: 30]
[lambdarank_norm: 1]
[label_gain: ]
[lambdarank_position_bias_regularization: 0]
[eval_at: ]
[multi_error_top_k: 1]
[auc_mu_weights: ]
[num_machines: 1]
[local_listen_port: 12400]
[time_out: 120]
[machine_list_filename: ]
[machines: ]
[gpu_platform_id: -1]
[gpu_device_id: -1]
[gpu_use_dp: 0]
[num_gpu: 1]

end of parameters

pandas_categorical:null
